<?xml version="1.0"?>
<opencv_storage>
<opencv_ml_svm>
  <format>3</format>
  <svmType>C_SVC</svmType>
  <kernel>
    <type>LINEAR</type></kernel>
  <C>1.</C>
  <term_criteria><iterations>100</iterations></term_criteria>
  <var_count>64</var_count>
  <class_count>2</class_count>
  <class_labels type_id="opencv-matrix">
    <rows>2</rows>
    <cols>1</cols>
    <dt>i</dt>
    <data>
      -1 1</data></class_labels>
  <sv_total>1</sv_total>
  <support_vectors>
    <_>
      1.34119135e-03 -7.08888797e-03 -8.69757612e-04 -7.42255850e-03
      -1.23182370e-03 1.80647313e-03 -1.34882180e-03 3.39326216e-03
      9.16992780e-04 5.25225326e-03 7.72255589e-04 -9.10647679e-04
      2.63956515e-03 6.34282222e-03 3.63817019e-03 -2.43714219e-03
      3.24943755e-03 6.42955396e-03 1.94353459e-03 -3.63598694e-03
      5.02425293e-03 9.66624636e-03 -5.74920932e-03 -6.58846553e-03
      -3.66558880e-03 5.03268984e-06 -1.06695190e-03 -1.03570451e-03
      -1.54821319e-03 2.66340934e-03 7.23203921e-05 -6.19620457e-03
      -1.73713124e-04 -6.47524372e-03 -4.13438166e-03 -6.44056126e-03
      -1.02606590e-03 -1.54889899e-03 3.01680667e-03 -1.33000361e-03
      3.88195063e-03 4.78783250e-03 -4.08673473e-03 -4.27671755e-03
      -7.45080062e-04 8.49158037e-03 3.45530035e-03 4.31522448e-03
      -1.36629061e-03 4.19956958e-03 -4.13670717e-03 -1.49459939e-03
      9.12617601e-04 2.60773697e-03 -3.77362361e-04 -2.64450395e-03
      3.62963811e-03 -7.56607973e-04 -3.74947372e-03 4.70243627e-03
      -7.39465875e-04 6.53164578e-04 -3.75563139e-03 -3.36512038e-03</_></support_vectors>
  <uncompressed_sv_total>38</uncompressed_sv_total>
  <uncompressed_support_vectors>
    <_>
      39. 83. 1.09166672e+02 1.79411774e+01 60. 1.01849998e+02
      7.07000046e+01 4.99310341e+01 1.20882355e+02 3.06875000e+01
      7.57142878e+00 9.08947372e+01 1.16300003e+02 67. 2.46499996e+01
      7.68181839e+01 41. 9.58636398e+01 1.40909100e+01 4.68799973e+01
      6.31818199e+01 34. 1.04315788e+02 5.49545479e+01 4.38750000e+01
      8.73684235e+01 1.12533340e+02 9.88750000e+01 1.06545456e+02
      9.69999981e+00 7.36470566e+01 1.23583336e+02 2.11538467e+01
      7.93333359e+01 115. 23. 5.25714302e+01 5.50000000e+00
      1.14000008e+02 5.77142868e+01 2.66923084e+01 1.16666670e+01 84.
      36. 9.35882339e+01 2.85000000e+01 32. 6.55294113e+01 69. 68. 111.
      3.60000014e+00 89. 81. 16. 37. 40. 42. 72. 75. 82. 38.
      1.18125000e+02 8.53571472e+01</_>
    <_>
      2.16470585e+01 9.36666718e+01 5.35925941e+01 121. 4.65625000e+01
      3.40322571e+01 6.51500015e+01 4.81818199e+00 1.10625000e+02
      7.73846207e+01 1.00045456e+02 8.66666641e+01 41. 8.14736862e+01
      1.46999998e+01 7.12500000e+01 5.77199974e+01 1.16647057e+02
      1.11176472e+01 2.55333347e+01 1.05428574e+02 3.11153851e+01 68.
      3.86521759e+01 5.15882339e+01 4.44375000e+01 62. 9.74705887e+01
      8.89444427e+01 1.75294113e+01 50. 3.66190491e+01 1.23928574e+02
      1.08600006e+02 7.54615402e+01 1.03692314e+02 118. 9.15000000e+01
      2.36428585e+01 1.02000008e+02 13. 7.83333349e+00 5.55294113e+01
      114. 115. 5.96153870e+01 3. 40. 122. 83. 2.84666691e+01 27.
      7.33333359e+01 120. 119. 9.54444427e+01 7.96153870e+01 16. 107.
      1.12600006e+02 4.22777786e+01 4.86470604e+01 8.44666748e+01
      1.93333340e+01</_>
    <_>
      6.35263176e+01 1.74000015e+01 8.65000000e+01 1.21000008e+02
      5.09428558e+01 3.62272720e+01 6.70588255e+00 9.91111145e+01
      7.28214340e+01 2.69444447e+01 1.14272728e+02 4.40000038e+01
      7.87647095e+01 1.09354839e+01 3.35384636e+01 5.65555573e+01
      1.04500000e+02 3.94736862e+01 91. 3.45000005e+00 6.64285736e+01
      3.17000008e+01 8.23809509e+01 2.43999996e+01 4.74375000e+01
      1.33809528e+01 9.64285736e+01 1.08142860e+02 6.92222214e+01
      1.55333338e+01 5.95238113e+01 8.84615402e+01 5.35000000e+01
      7.53846207e+01 5.80000038e+01 77. 2.26000004e+01 38. 55.
      1.01692314e+02 9. 4.15000000e+01 1.18142860e+02 1.23714294e+02 5.
      61. 68. 85. 2.92500000e+01 8. 46. 1.10700005e+02 95.
      6.20000038e+01 1.06571434e+02 4.90000038e+01 1.96153851e+01 81.
      71. 84. 65. 21. 80. 9.35999985e+01</_>
    <_>
      2.51176472e+01 1.05722221e+02 6.01304359e+01 1.54166670e+01
      8.62777786e+01 1.17434784e+02 4.41333351e+01 8.69230843e+00
      3.36000023e+01 7.35000000e+01 9.49166718e+01 49. 1.21681824e+02
      5.45833359e+01 1.10700005e+02 5.15789490e+01 6.46666641e+01
      3.85714302e+01 2.00869560e+01 8.28888931e+01 5.40000010e+00
      2.94666691e+01 1.14500000e+02 9.95000000e+01 1.26470585e+01
      6.95000000e+01 1.07388893e+02 9.26666641e+01 7.94000015e+01 56.
      109. 3.68750000e+01 2.26923084e+01 1.23611115e+02 4.65555573e+01
      7.15000000e+01 7. 1.03666664e+02 2.76250000e+01 3.31250000e+00
      1.74666672e+01 8.96250000e+01 5.72777786e+01 1.01750000e+02 10.
      11. 4.15714302e+01 116. 6.72000046e+01 9.75000000e+01 14. 50.
      6.28333359e+01 32. 31. 120. 77. 119. 81. 40. 88. 53.
      4.80000038e+01 1.12368423e+02</_>
    <_>
      42. 1.07599998e+02 1.64666672e+01 7.07500000e+01 5.46428604e+01
      90. 2.94444447e+01 6.64285755e+00 5.91000023e+01 121. 50. 81. 36.
      2.60000019e+01 6.65000000e+01 1.04333336e+02 14. 2.15625000e+01
      3.23809547e+01 1.13833336e+02 96. 3.88000031e+01 48.
      7.81666718e+01 8.64000015e+01 43. 1.01142860e+02 1.10526314e+01
      6.42222214e+01 4.71428585e+00 19. 4.52999992e+01 3.00000024e+00
      8.44444427e+01 5.65714302e+01 8.33333397e+00 1.11200005e+02
      6.16250000e+01 2.80000019e+01 1.23666672e+02 18. 7.35999985e+01
      35. 9.86666718e+01 47. 2.70000019e+01 88. 5.14000015e+01
      9.32500000e+01 13. 40. 1.18333336e+02 15. 41. 4.40000038e+01
      5.30000038e+01 20. 2.35000000e+01 31. 6.83333359e+01
      2.50000019e+01 37. 34. 49.</_>
    <_>
      37. 5.45714302e+01 1.20714294e+02 8.61538506e+00 9.94000015e+01
      7.04285736e+01 2.33076935e+01 4.56153870e+01 1.09599998e+02
      6.38888893e+01 4.95000000e+01 3.02727280e+01 19. 4.71428585e+00
      42. 7.77500000e+01 1.16666670e+01 1.02833336e+02 27. 117. 35.
      1.47500000e+01 6.07999992e+01 3.97500000e+01 6.84000015e+01 124.
      74. 33. 9.25000000e+01 9.62000046e+01 6.62500000e+00
      5.64000015e+01 105. 4.40000038e+01 111. 6.65714340e+01 26.
      4.74666710e+01 34. 28. 73. 17. 101. 5.13333359e+01 1.13500000e+02
      36. 25. 2.12857151e+01 13. 3. 10. 43. 41. 18. 116. 72. 32. 53. 29.
      38. 106. 16. 108. 20.</_>
    <_>
      4.95555573e+01 1.41818190e+01 9.95294113e+01 7.93333359e+01
      1.13333336e+02 2.78695660e+01 6.45384674e+01 4.02727280e+01
      1.09000008e+02 8.47619057e+00 93. 7.29500046e+01 5.64090919e+01
      1.21333336e+02 3. 8.84615402e+01 2.15333347e+01 4.44500008e+01
      1.05566673e+02 3.29285736e+01 1.03500008e+02 1.13181820e+01 82.
      1.17615387e+02 6.84210510e+01 6.15333366e+01 111. 18.
      3.61739120e+01 9.03571472e+01 2.54666672e+01 7.53076935e+01
      5.24375000e+01 4.26250000e+01 1.23750000e+02 1.15000008e+02
      4.36842108e+00 8.45000000e+01 5.45294113e+01 7.05625000e+01
      3.05555553e+01 16. 63. 9.60000076e+01 6. 1.01578949e+02
      5.88888893e+01 1.07720001e+02 112. 116. 6.66666718e+01 48.
      1.10000008e+02 51. 3.86428604e+01 1.19555557e+02 20.
      7.70526352e+01 9.73888931e+01 2.34615402e+01 8.65999985e+01
      7.00000048e+00 4.67619057e+01 95.</_>
    <_>
      3.14117641e+01 9.80000076e+01 6.74545441e+01 1.65454559e+01 115.
      8.55625000e+01 5.05769234e+01 4.21428566e+01 2.35454559e+01
      3.40000010e+00 1.20869568e+02 7.69583359e+01 3.75384636e+01
      5.45625000e+01 1.08071434e+02 8.47368431e+00 2.76666660e+01
      1.04884621e+02 9.33888931e+01 63. 1.03888893e+01 7.16956558e+01
      4.66000023e+01 8.35882339e+01 7.43076935e+01 21. 1.02444443e+02
      1.10571434e+02 9.04375000e+01 1.46153851e+01 1.18384621e+02
      8.00869598e+01 58. 1.23647057e+02 56. 3.94782600e+01 44.
      6.06666679e+01 1.12411766e+02 3.34285736e+01 2.96666660e+01 82.
      9.55384674e+01 1.30000010e+01 6.93571472e+01 6.05263186e+00
      6.53000031e+01 2.53076935e+01 19. 1.20000010e+01 9.92631607e+01
      8.83125000e+01 3.56315804e+01 101. 5.23809547e+01 20. 22. 92.
      4.84375000e+01 18. 97. 45. 117. 87.</_>
    <_>
      18. 1.12181824e+02 60. 9.43333359e+01 3.55000000e+01 5. 123.
      7.03333359e+01 2.92500000e+01 82. 8. 1.04666672e+02 4.83333359e+01
      2.29230785e+01 1.52666674e+01 6.46666718e+01 5.33333359e+01 118.
      1.22500000e+01 7.52000046e+01 79. 9.13333359e+01 100. 56.
      1.08857147e+02 115. 33. 1.24000008e+02 3. 8.95000000e+01 97.
      8.73333359e+01 38. 121. 2.05000000e+01 9. 2.52500000e+01
      7.23333359e+01 27. 119. 50. 17. 6.73333359e+01 14. 1.06666672e+02
      31. 7.00000048e+00 4. 1.01333336e+02 6. 11. 103. 69. 110. 114.
      120. 19. 1.16000008e+02 28. 117. 122. 39. 10. 111.</_>
    <_>
      6.31428604e+01 9.61428604e+01 2.90833340e+01 107. 7.80000019e+00
      7.53809509e+01 4.14166679e+01 1.12571434e+02 85. 5.58823547e+01
      1.21555557e+02 1.47777777e+01 1.00555557e+02 22. 7.14799957e+01
      9.06153870e+01 4.95714302e+01 3.40000010e+00 3.68000031e+01
      6.77692337e+01 1.90555553e+01 8.00500031e+01 4.49166679e+01
      2.43750000e+01 74. 6.05000000e+01 1.16181824e+02 8.78928604e+01
      1.03368423e+02 3.35454559e+01 1.03000002e+01 1.23647057e+02
      6.94761887e+01 108. 4.72999992e+01 2.66666679e+01 95.
      9.85000076e+01 84. 83. 5.86000023e+01 5.50000000e+00
      1.10428574e+02 3.85000000e+01 1.63750000e+01 8.60000076e+01
      5.22857170e+01 31. 1.23333330e+01 1.19300003e+02 7.75000000e+01
      105. 35. 51. 32. 73. 9.23333359e+01 9.40000076e+01 82. 9.
      6.53333359e+01 109. 106. 1.02000008e+02</_>
    <_>
      9.58666687e+01 3.85000000e+01 6.31818199e+01 2.57142868e+01
      1.15500008e+02 1.07142859e+01 4.85000000e+01 8.01666718e+01 71.
      5.24615402e+01 1.21000008e+02 1.95384617e+01 9.00999985e+01
      1.00714287e+02 5.58333349e+00 1.07500000e+02 3.29000015e+01
      4.34210548e+01 2.15000000e+01 5.68421059e+01 7.89000015e+01
      1.74545460e+01 7.59500046e+01 1.23625000e+02 6.65333405e+01
      4.56428604e+01 1.13000008e+02 3.03333340e+01 15. 8.74545517e+01
      6.01250000e+01 1.18588234e+02 2.34117641e+01 74. 9.23750000e+01
      40. 3.20000005e+00 1.04166672e+02 70. 8.22500000e+01
      3.53636360e+01 5.06428604e+01 9.84285736e+01 7.59999990e+00 37.
      1.34615393e+01 72. 16. 117. 2.77692318e+01 8.46666718e+01
      5.46153870e+01 6.86666718e+01 73. 106. 1.11800003e+02
      1.22000008e+02 65. 120. 1.09599998e+02 94. 4.13636360e+01 114. 47.</_>
    <_>
      8.20294113e+01 32. 5.56666679e+01 1.22333336e+02 1.26666670e+01
      1.03478264e+02 4.19130440e+01 6.95294113e+01 8.85000000e+01 114.
      2.26000004e+01 6.26111107e+01 7.19047642e+00 4.67000008e+01
      9.56428604e+01 3.91111107e+01 7.23750000e+01 1.78333340e+01 109.
      7.67878799e+01 3. 2.74444447e+01 9.05625000e+01 9.86111145e+01
      5.74285736e+01 5.15238113e+01 6.50416718e+01 3.66666679e+01
      8.66470566e+01 6.01000023e+01 16. 1.19208336e+02 7.43846207e+01
      4.45238113e+01 1.16650002e+02 100. 2.57333355e+01 1.01304350e+01
      7.97000046e+01 9.34285736e+01 2.93999996e+01 67. 2.04666672e+01
      1.05625000e+02 84. 4.41176462e+00 1.11416672e+02 5.00000038e+01
      85. 1.08000008e+02 71. 48. 5.36956520e+01 124. 24. 3.45882339e+01
      1.46250000e+01 1.01388893e+02 97. 110. 68. 92. 49. 107.</_>
    <_>
      4.03125000e+01 112. 1.05263157e+01 9.05833359e+01 64. 24. 51.
      1.23529411e+02 7.64000015e+01 2.91052628e+01 1.03444443e+02
      1.58709669e+01 5.64666710e+01 4.62500000e+00 3.54736862e+01
      8.44545517e+01 9.84000015e+01 2.07037029e+01 6.87727280e+01
      4.35833359e+01 1.16533340e+02 3.34444466e+01 9.65454559e+01
      1.07666664e+02 4.64117661e+01 8.84500046e+01 120. 7.21052628e+01
      7.88947372e+01 7.31999969e+00 6.04545479e+01 8.18888931e+01
      1.36153851e+01 5.32777786e+01 1.86428585e+01 45. 2.66470585e+01
      7.44444427e+01 1.14538467e+02 12. 3.85789490e+01 6. 9.26363678e+01
      3.15000000e+01 6.63333359e+01 1.09500000e+02 42. 4.82999992e+01
      1.00909096e+02 50. 9.47500000e+01 1.05666664e+02 113.
      5.84000015e+01 1.21375000e+02 3. 9. 1.18642860e+02 5.20000038e+01
      37. 62. 8.66666718e+01 1.11000008e+02 55.</_>
    <_>
      5.51351357e+01 1.13473686e+02 1.54210529e+01 7.35599976e+01
      9.54285736e+01 6.55199966e+01 4.24444466e+01 30. 1.21473686e+02
      8.65000000e+01 1.02580643e+02 4.86071434e+01 7.11999989e+00
      2.20370369e+01 8.10303040e+01 6.29285736e+01 3.24736862e+01
      5.75625000e+01 1.08416672e+02 6.95714264e+01 2.64583340e+01 38.
      3.69230795e+00 9.85000000e+01 8.35789490e+01 5.19999962e+01
      9.04000015e+01 1.92307701e+01 1.15478264e+02 1.16363640e+01
      4.54615402e+01 7.85599976e+01 6.05454559e+01 1.23518517e+02
      1.04571434e+02 101. 7.13809509e+01 1.19416672e+02 4.40000038e+01
      97. 9.61538506e+00 2.86538467e+01 7.62000046e+01 9.30769272e+01
      31. 1.33333340e+01 6.74166718e+01 4.03333321e+01 8.85882339e+01
      5.90000038e+01 1.10588234e+02 107. 4.70000038e+01 39.
      3.66000023e+01 3.42916679e+01 1.75384617e+01 1.17428574e+02 85.
      1.00000008e+02 1.06000008e+02 50. 2.46666679e+01 112.</_>
    <_>
      5.44000015e+01 107. 1.92500000e+01 7.55333405e+01 9.32857132e+01
      2.74827576e+01 6.44736862e+01 124. 4.15454559e+01 1.00833340e+01
      9.75199966e+01 1.14800003e+02 8.34782639e+01 3.04666691e+01
      4.84642868e+01 5.47619057e+00 3.53500023e+01 6.10344810e+01 18.
      7.05185165e+01 39. 1.35217390e+01 1.10079994e+02 1.20119995e+02
      1.02400002e+02 2.33333340e+01 8.00526352e+01 8.84375000e+01
      7.57142878e+00 5.85499992e+01 5.15454559e+01 1.12550003e+02
      5.66000023e+01 6.65789490e+01 82. 9.04444427e+01 4.46000023e+01
      1.04722221e+02 2.56250000e+01 1.53750000e+01 3.40909100e+00
      3.23125000e+01 7.23846207e+01 1.00470589e+02 9.56470566e+01
      2.13888893e+01 4.66428604e+01 50. 37. 7.75333405e+01 43.
      1.22631577e+02 5.30000038e+01 6.84583359e+01 87. 1.17444443e+02
      99. 63. 17. 12. 34. 8.55294113e+01 74. 29.</_>
    <_>
      4.35294104e+00 9.03043518e+01 4.45499992e+01 1.23566673e+02
      2.48888893e+01 7.04799957e+01 1.05108109e+02 59. 1.58809528e+01
      3.77222214e+01 7.89032211e+01 1.11906250e+02 5.55625000e+01
      6.30000038e+01 1.00578949e+02 9.45000000e+01 8.33333302e+00
      2.82926826e+01 1.17142860e+02 7.59024353e+01 5.05000000e+01
      3.35000000e+01 8.39230804e+01 1.23666677e+01 6.75999985e+01
      1.89189186e+01 1.21518517e+02 4.85000000e+01 6.55000000e+01
      1.09483871e+02 4.03684196e+01 9.79714279e+01 7.35714340e+01
      8.72399979e+01 3.06000004e+01 4.66111107e+01 35. 2.13181820e+01
      6.14230804e+01 10. 1.40000010e+01 23. 1.19411766e+02
      1.07500000e+02 6.60714293e+00 9.25238113e+01 5.70000038e+01 96.
      8.14210510e+01 4.23333321e+01 5.26315804e+01 1.14500000e+02 3.
      1.10000010e+01 1.02476189e+02 69. 58. 60. 32. 54. 64. 36. 39. 72.</_>
    <_>
      2.40333347e+01 7.64838715e+01 86. 122. 4.94444466e+01
      1.21515160e+01 1.02545456e+02 3.34848480e+01 3.34482765e+00
      6.45199966e+01 4.16000023e+01 2.10540543e+01 114. 9.47083359e+01
      5.85000000e+01 1.07599998e+02 4.44736862e+01 2.86060619e+01
      5.71428585e+00 74. 8.35000000e+01 17. 9.05238113e+01
      9.70588226e+01 8.08484879e+01 7.05172424e+01 1.18500000e+02 72.
      1.09476196e+02 38. 5.46666679e+01 6.18055573e+01 1.85000000e+01
      6.65217438e+01 3.06129017e+01 9.95714340e+01 52. 2.65833340e+01
      32. 9.22941208e+01 1.11600006e+02 8.92592621e+00 40.
      6.85599976e+01 4.63888893e+01 1.47083340e+01 3.54782600e+01 7.
      7.85862045e+01 6.00000038e+01 101. 5.62307701e+01 1.05625000e+02
      73. 4.30000038e+01 124. 48. 8.86153870e+01 1.20800003e+02 75.
      1.16500008e+02 16. 123. 1.04000008e+02</_>
    <_>
      3.80588226e+01 1.01079994e+02 7.13333359e+01 1.15500000e+02
      1.25384617e+01 8.18799973e+01 5.45000000e+01 2.73750000e+01
      9.05833359e+01 4.74782600e+01 6.20689659e+01 1.08428574e+02
      5.50000000e+00 1.84761906e+01 3.34736862e+01 1.23687500e+02
      7.74375000e+01 2.25714283e+01 69. 9.49599991e+01 4.19677391e+01
      3.00000019e+01 121. 5.05000000e+01 98. 1.06538467e+02
      1.45238094e+01 8.65714340e+01 7.51724148e+00 6.45000000e+01
      5.87391319e+01 1.04142860e+02 74. 113. 8.45000000e+01
      3.15000019e+01 4.45454559e+01 3.54347839e+01 6.64090958e+01
      7.95454559e+01 3.26666689e+00 8.86923141e+01 1.10583336e+02
      2.56428585e+01 9.24615402e+01 5.63571472e+01 24. 53.
      1.18642860e+02 9.58823490e+00 2.05000000e+01 40. 49. 68. 70. 11.
      2.90000019e+01 46. 73. 1.66250000e+01 7.60000076e+01 52. 75. 117.</_>
    <_>
      4.90625000e+01 1.07473686e+02 6.50000000e+00 76. 2.25625000e+01
      98. 6.12999992e+01 1.15428574e+02 8.44444427e+01 2.65789471e+01
      3.64000015e+01 1.15599995e+01 5.25263176e+01 6.80312500e+01
      1.19647057e+02 8.84000015e+01 1.75500011e+01 1.02481483e+02
      4.08571434e+01 8.13600006e+01 3.97500014e+00 5.96111107e+01
      7.30689621e+01 5.46111107e+01 1.11409096e+02 9.55263138e+01
      9.30000076e+01 4.32727280e+01 1.56842108e+01 7.05599976e+01 31.
      4.61333351e+01 1.22944443e+02 1.09142860e+02 1.17526314e+02 83.
      1.00473686e+02 9.05500031e+01 3.35454559e+01 6.49375000e+01
      7.93636398e+01 35. 9.47368431e+00 2.45384617e+01 1.05473686e+02
      3.84285736e+01 5.73529396e+01 1.04000008e+02 63. 2.05294113e+01
      51. 2.86153851e+01 94. 1.34666672e+01 87. 7.72727280e+01 8.
      1.13529411e+02 8.60000076e+01 19. 92. 75. 5.60000038e+01 121.</_>
    <_>
      3.77272720e+01 1.16181824e+02 5.33333349e+00 1.00333336e+02
      5.55000000e+01 18. 7.85000000e+01 124. 2.76875000e+01
      8.87500000e+01 4.87000008e+01 6.86666718e+01 1.03400002e+02
      1.34666672e+01 1.08875000e+02 1.13666664e+02 4.23333321e+01
      2.33999996e+01 9. 9.42500000e+01 3.07272739e+01 3.00000024e+00
      3.55000000e+01 8.23333359e+01 1.21666664e+02 96. 4.65454559e+01
      1.19333336e+02 5.32500000e+01 16. 1.06454552e+02 39. 86.
      2.58181820e+01 20. 61. 3.36666679e+01 5.17000008e+01
      9.05000000e+01 41. 4.43750000e+01 9.82000046e+01 9.25714340e+01
      1.11833336e+02 123. 21. 75. 40. 6.65000000e+01 80. 1.14545460e+01
      7.13333359e+01 29. 97. 50. 17. 15. 7.70000029e+00 115. 10. 4. 118.
      19. 22.</_>
    <_>
      39. 108. 14. 73. 3.03999996e+01 5.65000000e+01 1.22400002e+02
      8.73333359e+01 8.57142925e+00 4.36250000e+01 95. 7.05000000e+01
      6.45999985e+01 2.06000004e+01 7.75000000e+01 1.18800003e+02
      8.48333359e+01 50. 3.47272720e+01 1.02250000e+02 2.52500000e+01
      3.40000010e+00 114. 4.65000000e+01 41. 16. 61. 10. 1.87777786e+01
      80. 32. 1.11500000e+02 7.00000048e+00 42. 2.76666679e+01
      5.25000000e+01 9.76666718e+01 5. 12. 8.27500000e+01 67. 36. 11.
      72. 117. 33. 5.87500000e+01 90. 6. 40. 7.56666718e+01 37. 29. 13.
      106. 15. 48. 92. 38. 68. 124. 45. 2.25000000e+01 89.</_>
    <_>
      9.05909119e+01 3.11153851e+01 5.13809547e+01 1.12500000e+02
      7.05882359e+00 72. 18. 3.58787880e+01 9.82000046e+01
      6.64375000e+01 1.03466675e+02 1.23727280e+02 42. 1.15722221e+02
      6.26666679e+01 7.46666718e+01 78. 8.66153870e+01 2.84444447e+01
      1.16000004e+01 56. 2.45333347e+01 1.07538467e+02 9.34000015e+01
      1.09533340e+02 81. 1.55294123e+01 4.50454559e+01 3. 3.89565239e+01
      9.50000000e+00 1.20090912e+02 6.83750000e+01 8.37500000e+01 26.
      1.01235298e+02 79. 4.77500000e+01 60. 33. 1.17500000e+02
      5.38181839e+01 8.80000076e+01 1.05500000e+02 2.07142868e+01
      2.24666672e+01 4.44444466e+00 13. 7.66666718e+01 58.
      9.56153870e+01 89. 73. 1.22000008e+02 4.98000031e+01 27. 34.
      6.43333359e+01 1.40000010e+01 7.07777786e+01 111. 100.
      1.14000008e+02 92.</_>
    <_>
      2.02857151e+01 8.84000015e+01 5.03333359e+01 1.16444443e+02 68.
      27. 3.40000010e+00 3.66000023e+01 1.00090912e+02 1.13750000e+01
      77. 6.33750000e+01 1.07571434e+02 15. 9.45000000e+01
      4.27777786e+01 124. 59. 8.21428604e+01 32. 7.40000010e+00
      7.25000000e+01 1.19857147e+02 5.66666679e+01 5.23125000e+01
      1.03333336e+02 4.01666679e+01 4.75833359e+01 1.12000008e+02 13.
      2.46000004e+01 28. 4.54444466e+01 3.43333321e+01 9.03333359e+01
      2.24545460e+01 2.93636379e+01 18. 92. 118. 7.07142868e+01
      1.14428574e+02 7.94000015e+01 1.05250000e+02 122. 5.25000000e+00
      9.18181801e+00 17. 6.12500000e+01 16. 7.45000000e+01 39.
      9.63333359e+01 1.09333336e+02 66. 85. 2.60000019e+01 49. 19.
      5.47999992e+01 38. 14. 123. 93.</_>
    <_>
      6. 9.90476227e+01 6.76363678e+01 4.60000038e+01 1.21692314e+02
      2.22142868e+01 7.69230804e+01 1.12882355e+02 5.55294113e+01
      2.75454559e+01 8.36153870e+01 1.25500002e+01 1.06307693e+02
      9.07857208e+01 3.15384636e+01 3.65000000e+01 7.43888931e+01
      1.64705887e+01 5.09166679e+01 1.17363640e+02 8. 5.97058830e+01
      7.23636398e+01 3.40909100e+00 1.03562500e+02 8.00555573e+01
      4.32142868e+01 110. 9.66666641e+01 10. 6.35714302e+01
      1.01500000e+02 5.35294113e+01 2.49523811e+01 49. 9.33750000e+01
      1.94705887e+01 6.12857170e+01 3.92857170e+01 1.19642860e+02
      8.65999985e+01 8.85714340e+01 6.93333359e+01 82. 2.95454559e+01
      3.45384636e+01 18. 15. 1.40000010e+01 5.76250000e+01
      1.15727280e+02 108. 124. 1.05000008e+02 95. 7. 48. 85. 11. 9.
      6.57500000e+01 5. 71. 123.</_>
    <_>
      8.16111145e+01 2.96250000e+01 68. 1.13888893e+02 4. 5.75000000e+01
      49. 9.33750000e+01 1.34615393e+01 4.29230766e+01 1.21375000e+02
      107. 7.86250000e+01 1.84117641e+01 7.17368393e+01 60. 9.
      2.44285717e+01 9.62500000e+01 3.50666695e+01 8.77500000e+01
      5.46250000e+01 6.57333374e+01 119. 1.11500000e+02 2.23750000e+01
      3.78750000e+01 9.91250000e+01 6.23076935e+01 64. 91.
      4.53571434e+01 6.70588255e+00 83. 7.43333359e+01 3.15000000e+01
      1.13333330e+01 51. 2.02500000e+01 2.67500000e+01 6.92777786e+01
      3.00000024e+00 1.03750000e+02 85. 1.23444443e+02 8.98181839e+01
      4.07000008e+01 16. 1.09777779e+02 50. 80. 59. 4.74666710e+01
      5.23571434e+01 84. 67. 7.64615402e+01 92. 28. 61. 5. 56.
      8.60000076e+01 1.16666672e+02</_>
    <_>
      1.34375000e+01 8.67142868e+01 4.71470604e+01 1.04031250e+02
      3.35263176e+01 6.25000000e+01 124. 7.42307739e+01 2.39189186e+01
      9.79199982e+01 3.31578946e+00 112. 5.24000015e+01 8.10555573e+01
      3.07083340e+01 3.96470604e+01 1.19882355e+02 6.85714340e+00
      9.12500000e+01 2.67083340e+01 2.04736843e+01 9.50000000e+00
      7.06111145e+01 4.42857170e+01 1.59655170e+01 4.97999992e+01 57.
      1.06950005e+02 6.79473724e+01 1.16190475e+02 96. 6.47368393e+01
      1.01111115e+02 1.22538467e+02 8.35000000e+01 7.79473724e+01 5.
      8.80000076e+01 1.86250000e+01 3.65714302e+01 32. 5.94285736e+01
      1.09615387e+02 76. 55. 4.17142868e+01 118. 8.95000000e+01 85. 38.
      54. 61. 1.13500000e+02 2.86399994e+01 111. 9.31428604e+01
      7.26153870e+01 9.50000076e+01 1.12500000e+01 22. 43. 35. 56. 58.</_>
    <_>
      2.30000019e+01 1.00652176e+02 6.52916718e+01 9.61538506e+00
      4.49333344e+01 117. 8.03529434e+01 6.04117661e+01 8.88846207e+01
      3.58823547e+01 1.54210529e+01 1.09818184e+02 5.18823547e+01
      7.15000000e+01 96. 1.19666672e+02 3.51612902e+00 30.
      1.06136368e+02 8.44444427e+01 69. 6.00000048e+00 1.13115387e+02
      7.56111145e+01 5.52222214e+01 2.05000000e+01 4.74166679e+01
      1.13000002e+01 4.18750000e+01 6.26315804e+01 1.24000008e+02
      2.74375000e+01 1.81250000e+01 9.14210510e+01 5.75000000e+01
      1.03521744e+02 1.23000008e+02 108. 3.88823547e+01 3.25000000e+01
      2.56428585e+01 1.33333340e+01 9.87777786e+01 9.34285736e+01
      1.15562500e+02 4.94545479e+01 7.35217438e+01 7.29166698e+00
      8.65555573e+01 7.86666641e+01 34. 1.18000008e+02 8.22307739e+01
      6.76190491e+01 59. 64. 1.21750000e+02 77. 70. 97. 95. 5. 22. 24.</_>
    <_>
      6.39500008e+01 1.14571434e+02 2.22272739e+01 8.99473724e+01
      4.75909119e+01 1.05789471e+01 3.94166679e+01 1.04466675e+02
      5.50000000e+00 7.81666718e+01 3.15199986e+01 5.82666702e+01
      1.23227280e+02 8.48214340e+01 9.46842117e+01 5.20000038e+01
      4.24444466e+01 7.50999985e+01 1.64117641e+01 1.07562500e+02
      1.00533340e+02 2.66666679e+01 6.63750000e+01 1.20066673e+02
      7.19444427e+01 1.10444443e+02 3.34615402e+01 6.08750000e+01
      8.31250000e+00 3.75000000e+01 2.91363640e+01 56. 45. 116.
      8.08000031e+01 8.73571472e+01 4.94500008e+01 9.25000076e+01 44.
      1.95555553e+01 3.54444466e+01 41. 5.33529396e+01 2.42941170e+01
      69. 5.50000038e+01 3. 1.47142868e+01 1.12454552e+02 1.02000008e+02
      1.23888893e+01 9.75454559e+01 46. 4. 18. 1.17200005e+02 109. 7.
      51. 5.70000038e+01 96. 9.90000076e+01 103. 106.</_>
    <_>
      51. 8.51666718e+01 7.50000000e+00 9.34545517e+01 1.15200005e+02
      2.59166679e+01 7.12500000e+01 3.55000000e+01 1.01277779e+02
      6.28095245e+01 1.22538467e+02 2.00555553e+01 8.02727280e+01
      5.65909119e+01 1.07500000e+02 9.75500031e+01 4.35263176e+01
      7.35999985e+01 1.47500000e+01 1.20062500e+02 2.88750000e+01
      6.59166718e+01 41. 7.73333359e+01 105. 1.03846159e+01
      5.44117661e+01 8.96875000e+01 8.25000000e+01 3.35454559e+01
      4.74444466e+01 1.17700005e+02 6. 6.03846169e+01 9.55294113e+01
      1.10416672e+02 2.33333340e+01 1.73846169e+01 4.55000038e+01
      3.86666679e+01 7.51428604e+01 6.85454559e+01 4.66666698e+00
      8.75454559e+01 100. 3.17142868e+01 1.12583336e+02 5.22000046e+01
      124. 9.90000076e+01 106. 49. 9. 37. 109. 50. 3. 1.23333340e+01 42.
      9.16923141e+01 58. 59. 1.03500008e+02 40.</_>
    <_>
      6.65000000e+01 123. 34. 1.03599998e+02 1.31538467e+01
      8.24583359e+01 50. 18. 9.04736862e+01 5.70384636e+01
      1.11428574e+02 7.86250000e+01 2.53076935e+01 3.45454550e+00
      4.19375000e+01 2.96428585e+01 9.70952377e+01 7.37142868e+01
      1.14461540e+02 1.07500000e+02 6.31250000e+01 2.40000019e+01
      3.77333336e+01 1.18562500e+02 1.01360001e+02 5.99259262e+01
      7.80000019e+00 8.63333359e+01 4.45000000e+01 6.85333405e+01
      7.15909119e+01 65. 2.04666672e+01 3.14666691e+01 113.
      4.65714302e+01 9.47000046e+01 9.27142868e+01 122. 3.53571434e+01
      8.83076935e+01 1.05833340e+01 9.92857208e+01 76. 81. 33.
      5.55555582e+00 1.53571434e+01 5.42999992e+01 1.16500000e+02
      2.73636379e+01 120. 1.09562500e+02 2.26111107e+01 48. 75.
      1.05687500e+02 1.24000008e+02 3.94444466e+01 121. 80. 77. 70.
      8.45625000e+01</_>
    <_>
      4.63571434e+01 9.77333374e+01 18. 1.10470589e+02 7.68799973e+01
      34. 6.64615402e+01 8.84500046e+01 5. 1.19125000e+02 5.52999992e+01
      2.63750000e+01 8.23043518e+01 104. 4.03529396e+01 6.96153870e+01
      6.00666695e+01 9.85714340e+00 2.23999996e+01 7.25882339e+01
      1.14615387e+02 13. 30. 9.26428604e+01 1.21666664e+02
      1.07526314e+02 9.54285736e+01 4.24615402e+01 1.01500008e+02
      3.65200005e+01 4.98888893e+01 7.95714340e+01 2.06153851e+01
      1.12750000e+02 8.67500000e+01 1.23818184e+02 1.56428576e+01
      5.24444466e+01 6.24545479e+01 90. 81. 4.80000038e+01 17.
      3.35714293e+00 68. 5.75714302e+01 109. 8.45000000e+01
      2.85217400e+01 7.41666698e+00 3.13888893e+01 1.16357147e+02
      7.45384674e+01 4.42500000e+01 2.44444447e+01 1.03000008e+02
      1.05538467e+02 9.94615402e+01 94. 19. 91. 3.85882339e+01 71.
      6.45000000e+01</_>
    <_>
      4.95499992e+01 1.05421051e+02 1.62727280e+01 8.06111145e+01
      3.19090919e+01 1.15200005e+02 7.33571472e+01 6.39090919e+01
      1.05555553e+01 9.64375000e+01 9.06470566e+01 40. 8.50400009e+01
      2.54799995e+01 5.74444466e+01 1.23521744e+02 4.44736862e+01
      3.42857170e+00 2.14347839e+01 1.11857147e+02 6.94285736e+01
      3.43636360e+01 93. 1.20666672e+02 1.08119995e+02 5.33684196e+01
      78. 1.30333338e+01 5.42857170e+00 101. 7.56250000e+00
      2.96666679e+01 5.50000038e+01 6.68799973e+01 39. 2.34210529e+01
      6.16250000e+01 4.23809547e+01 4.75000038e+01 1.17571434e+02
      1.94705887e+01 7.55294113e+01 8.24000015e+01 95. 8.75625000e+01
      46. 18. 3.63846169e+01 28. 110. 9.83846207e+01 56. 122.
      7.16428604e+01 5.15000000e+01 1.03333336e+02 119. 15. 9.
      2.70000019e+01 5.93750000e+01 38. 89. 41.</_>
    <_>
      4.71999979e+00 8.46666718e+01 5.60303040e+01 1.19500000e+02 46.
      1.45000000e+01 2.85263157e+01 1.12500000e+02 6.94210510e+01
      9.83846207e+01 3.83928604e+01 2.29642868e+01 7.75833359e+01
      6.28148155e+01 9.00526352e+01 1.03777779e+02 7.34000015e+01
      3.17894745e+01 1.23566673e+02 4.96666679e+01 2.05454559e+01
      1.11290321e+01 4.25217400e+01 6.03529396e+01 80. 9.27826080e+01
      1.14666672e+02 3.45769234e+01 2.59111118e+01 7.76923084e+00
      1.21500000e+02 5.36666679e+01 1.06615387e+02 6.56250000e+01
      9.56428604e+01 8.13913040e+01 5.14285736e+01 7.55909119e+01
      5.85454559e+01 1.01500000e+02 1.30000010e+01 1.63684216e+01 71.
      83. 4.03333359e+01 116. 3.00000019e+01 4.46296310e+01
      8.76250000e+01 86. 1.08533340e+02 4.74347839e+01 1.17349998e+02
      1.86818180e+01 3.63076935e+01 110. 33. 100. 79. 6.77500000e+01
      1.11000008e+02 72. 3. 97.</_>
    <_>
      2.66250000e+01 1.18523811e+02 7.54090958e+01 5.26190491e+01
      8.93750000e+01 5.52941179e+00 9.93125000e+01 6.29655151e+01
      3.70384636e+01 17. 116. 1.06523811e+02 1.25384617e+01
      3.17500000e+01 6.76428604e+01 43. 8.35789490e+01 1.23096771e+02
      21. 1.09900009e+02 9.64799957e+01 4.76428604e+01 1.01529411e+02
      1.04068962e+02 5.85294113e+01 11. 1.20476196e+02 1.12479996e+02
      7.34666672e+01 8.56190491e+01 7.42857170e+00 3.44399986e+01
      5.53333359e+01 9.25416718e+01 6.95625000e+01 7.97500000e+01
      6.54210510e+01 3.94615402e+01 28. 2.30000019e+01 1.45416670e+01
      7.16111145e+01 6.06153870e+01 9.50000000e+00 41. 57.
      3.42105269e+00 2.95000000e+01 8.74000015e+01 5.01111107e+01 54.
      4.53636360e+01 94. 7.73750000e+01 1.83846169e+01 16.
      1.17000008e+02 9.10000076e+01 1.14750000e+02 8.16428604e+01
      9.50000076e+01 2.43333340e+01 98. 108.</_>
    <_>
      4.75185204e+01 1.11162163e+02 1.64444447e+01 7.98799973e+01
      5.83928604e+01 3.64347839e+01 9.19677429e+01 9.47826099e+00
      1.23588234e+02 6.85454559e+01 98. 1.18565216e+02 2.35833340e+01
      5.50000000e+00 1.04633339e+02 4.04117661e+01 65. 2.74375000e+01
      7.24500046e+01 8.62222214e+01 5.25000000e+01 7.69189224e+01
      1.84545460e+01 6.05200005e+01 1.20370369e+02 1.00687500e+02
      1.14500008e+02 3.06499996e+01 55. 2.13157902e+01 66.
      9.52105255e+01 8.31333389e+01 1.15555553e+01 3.86315804e+01
      4.23181839e+01 1.08100006e+02 8.82500000e+01 7.40000010e+00
      4.43529396e+01 3.43999982e+00 46. 6.26842117e+01 1.35000000e+01
      117. 3.43888893e+01 4.96666679e+01 2.90000019e+01 7.43636398e+01
      116. 5.63199997e+01 9.00000076e+01 2.55714302e+01 1.50000010e+01
      20. 5.40000038e+01 71. 70. 122. 3.22222214e+01 113. 51. 64. 67.</_>
    <_>
      1.24230776e+01 8.49655151e+01 57. 1.13545456e+02 4.65555573e+01
      2.61666679e+01 6.70909119e+01 1.20277779e+02 1.00482758e+02
      3.67894745e+01 74. 9.59428558e+01 6.25000038e+01 9.05217438e+01
      1.06071434e+02 7.41176462e+00 1.67931042e+01 2.94285736e+01
      7.85199966e+01 5.20303040e+01 1.09444443e+02 5.44814835e+01 70.
      8.75294113e+01 5.50000000e+00 4.19523811e+01 1.15250000e+02
      2.35294113e+01 1.04000006e+01 1.94090919e+01 6.45217438e+01 92.
      8.26315765e+01 1.03565216e+02 1.45000000e+01 3.39090919e+01
      7.64000015e+01 4.96521759e+01 1.22529411e+02 59. 3.68750000e+00
      3.96666679e+01 1.11650002e+02 81. 9.84375000e+01 3.16153851e+01
      4.45000038e+01 89. 102. 9. 75. 1.24000008e+02 94. 6.05000000e+01
      2.13571434e+01 1.17461540e+02 2.80000019e+01 80. 1.19000008e+02
      72. 73. 93. 4.80000038e+01 1.08000008e+02</_>
    <_>
      1.09459457e+01 8.47500000e+01 5.80476189e+01 1.08727280e+02
      4.16250000e+01 2.64166679e+01 7.23529434e+01 1.20050003e+02
      9.99032211e+01 4.78181839e+01 1.79655170e+01 9.34285736e+01
      3.44090919e+01 6.60400009e+01 54. 1.13500000e+02 3.18181825e+00
      8.17142868e+01 9.00666733e+01 3.05000000e+01 1.37272730e+01 104.
      3.73636360e+01 4.52999992e+01 1.23199997e+02 7.81250000e+00 36.
      7.72857208e+01 5.05384636e+01 2.03913040e+01 68. 9.75000076e+01
      25. 6.34666710e+01 1.11555557e+02 1.07000008e+02 1.17571434e+02
      1.02599998e+02 16. 2.26428585e+01 2.82666683e+01 3.23684196e+01
      5.55454559e+01 7.45384674e+01 5.26153870e+01 6.14615402e+01
      7.02352982e+01 92. 1.15500008e+02 4.37142868e+01 8.76923141e+01
      96. 7.97500000e+01 24. 1.50000010e+01 40. 83. 105. 5.42857170e+00
      39. 9.50000076e+01 6.00000038e+01 106. 69.</_>
    <_>
      5.70769234e+01 1.18479996e+02 1.40500002e+01 8.45199966e+01
      3.42666702e+01 103. 7.15652161e+01 6. 2.25500011e+01
      4.63333359e+01 9.39062500e+01 65. 7.80322571e+01 1.09500000e+02
      2.94210529e+01 3.99333344e+01 1.23666672e+02 19. 8.84500046e+01
      5.46086960e+01 9.84583359e+01 9.53333378e+00 8.25238113e+01
      1.06879997e+02 1.15500000e+02 6.03478279e+01 3.42105269e+00
      7.33750000e+01 5.07500000e+01 3.20416679e+01 6.85238113e+01
      7.53333359e+01 81. 4.81000023e+01 4.26000023e+01 6.24761925e+01
      1.13571434e+01 1.20500000e+02 3.70909119e+01 2.47142868e+01
      1.63333340e+01 5.26250000e+01 59. 4.45263176e+01 2.71250000e+01
      1.00562500e+02 67. 64. 105. 21. 86. 113. 70. 1.14000008e+02
      1.11650002e+02 9.13571472e+01 80. 117. 87. 8. 9.63846207e+01
      1.22000008e+02 66. 90.</_></uncompressed_support_vectors>
  <decision_functions>
    <_>
      <sv_count>1</sv_count>
      <rho>-3.1617963388638541e+00</rho>
      <alpha>
        1.</alpha>
      <index>
        0</index></_></decision_functions></opencv_ml_svm>
</opencv_storage>
