<?xml version="1.0"?>
<opencv_storage>
<opencv_ml_svm>
  <format>3</format>
  <svmType>C_SVC</svmType>
  <kernel>
    <type>LINEAR</type></kernel>
  <C>1.</C>
  <term_criteria><iterations>100</iterations></term_criteria>
  <var_count>128</var_count>
  <class_count>2</class_count>
  <class_labels type_id="opencv-matrix">
    <rows>2</rows>
    <cols>1</cols>
    <dt>i</dt>
    <data>
      -1 1</data></class_labels>
  <sv_total>1</sv_total>
  <support_vectors>
    <_>
      7.03224679e-04 5.11445571e-04 -1.10649853e-03 7.41715776e-04
      -2.48565833e-04 7.94665713e-04 -1.40099626e-04 4.20810902e-05
      -4.20975062e-04 -1.44334481e-04 -4.62280732e-04 -2.05444428e-03
      -4.72782594e-05 -3.36374709e-04 4.05016704e-04 1.22063397e-03
      4.37792245e-04 5.99966326e-04 -6.24852139e-04 1.58061521e-04
      1.13157381e-03 4.64323348e-05 1.25009799e-03 2.80128646e-04
      6.52904040e-04 6.44708052e-04 -1.50257337e-03 1.14018121e-03
      -2.47184769e-04 -5.89464209e-04 5.24320873e-04 -7.63834629e-04
      2.05070784e-04 -1.70477535e-04 -1.27178428e-04 3.19585291e-04
      -1.10198511e-03 -1.06398028e-03 -2.05687800e-04 1.22939656e-03
      -2.26514370e-04 -6.85246196e-04 -1.58169388e-03 5.51523292e-04
      -1.50238571e-03 -2.02075415e-03 -2.90713178e-05 2.27554329e-03
      -3.27776885e-04 1.17755435e-05 -8.27799886e-05 6.04743196e-04
      1.92469999e-03 7.66438432e-04 4.47455648e-04 6.43615611e-04
      -5.01911622e-04 6.43352629e-04 1.48551189e-04 -9.98701900e-04
      5.29989426e-04 1.02840865e-03 1.10395253e-03 -2.69520970e-04
      -1.65820203e-03 -3.06152855e-04 -2.85520189e-04 -1.62166043e-03
      -9.43252759e-04 9.68481996e-04 -3.90462956e-04 3.26990121e-04
      4.61282063e-04 -5.82904504e-05 9.06066969e-04 -9.18202510e-04
      1.62446150e-03 1.23449916e-03 5.00380760e-04 1.47353712e-04
      -2.96562212e-03 -2.81732035e-04 -7.93157495e-04 8.28120043e-04
      1.12894317e-03 -1.92221356e-04 5.71194279e-04 -1.34514668e-03
      6.63865241e-04 2.87496019e-04 1.58847499e-04 1.24793951e-04
      -4.33384412e-04 1.24026439e-03 -4.75688983e-04 -3.09237803e-04
      9.11666953e-04 -1.04000815e-03 1.94802869e-03 -1.40694680e-03
      3.83613573e-04 -1.10236846e-03 -6.24703171e-05 1.65228790e-04
      1.10185333e-03 1.65818361e-04 1.59235031e-04 -7.59484072e-04
      -1.38076313e-03 1.97368884e-03 1.22675963e-03 2.43559974e-04
      -4.33841387e-06 -3.49881884e-05 5.65608731e-04 -4.24805417e-04
      -2.65762501e-04 5.01521805e-04 1.25719677e-03 1.21980230e-03
      -3.41902109e-04 1.10109244e-03 3.77040822e-04 8.16000509e-04
      2.31506443e-03 1.04439550e-03 -1.51760600e-04 -1.00009493e-03</_></support_vectors>
  <uncompressed_sv_total>167</uncompressed_sv_total>
  <uncompressed_support_vectors>
    <_>
      1.10500000e+02 3.05000000e+01 104. 33. 122. 44. 98. 40. 121. 48.
      77. 41. 7.87142868e+01 8.97142868e+01 95. 122. 5.07500000e+01
      5.25000000e+00 119. 15. 1.05333336e+02 6.65000000e+01 107. 43.
      9.44000015e+01 1.10400002e+02 75. 38. 28. 50. 6.86666718e+01
      9.96666718e+01 103. 42. 9.50000000e+00 93. 6.85000000e+01
      2.27500000e+01 71. 34. 78. 111. 4.76666679e+01 4.91666679e+01 98.
      42. 67. 6. 72. 107. 82. 58. 72. 8. 27. 60. 38. 8.65000000e+01 68.
      113. 83. 60. 70. 12. 46. 7.85000000e+01 9. 8.55000000e+01
      4.86000023e+01 1.06200005e+02 67. 111. 98. 50. 63. 18.
      3.75000000e+01 6.93333359e+01 31. 1.21200005e+02 7. 47. 119.
      1.13500000e+02 62. 20. 48. 71. 1.75000000e+01 50. 1.26666670e+01
      5.96666679e+01 50. 97. 123. 2.63333340e+01 3.85000000e+01
      2.22500000e+01 5.95000000e+01 124. 2.15000000e+01 7.72500000e+01
      89. 69. 36. 100. 1.04666672e+02 9.63333359e+01 101. 8.46666718e+01
      120. 8.15000000e+01 7.26666718e+01 1.76666679e+01 65. 43. 37. 60.
      5.95000000e+01 8.32500000e+01 1.06666670e+01 1.18666672e+02 12.
      7.17500000e+01 4.26666679e+01 13. 54. 118.</_>
    <_>
      112. 104. 104. 120. 103. 106. 108. 118. 94. 108. 106. 100. 109.
      116. 1.21500000e+02 8.75000000e+01 4. 118. 83. 113. 95. 94. 117.
      114. 89. 78. 81. 110. 84. 98. 117. 105. 85. 59. 22. 88. 76. 112.
      90. 92. 66. 105. 67. 84. 7.75000000e+01 78. 111. 113. 11. 68. 16.
      2.86666679e+01 64. 116. 84. 75. 17. 118. 12. 60. 71. 110.
      4.05000000e+01 64. 91. 81. 26. 71. 110. 107. 3. 70. 1.13666672e+02
      110. 3. 107. 84. 62. 1.05000000e+01 9.27500000e+01 85. 66. 23.
      9.95000000e+01 25. 112. 49. 7. 2.66666679e+01 36. 11. 42. 124. 71.
      15. 118. 5. 31. 70. 100. 81. 86. 18. 13. 28. 60. 115. 106. 3. 77.
      83. 71. 1.55000000e+01 1.04500000e+02 4.06666679e+01 18. 8. 47.
      1.46666670e+01 52. 122. 75. 5. 124. 68. 101. 76. 84.</_>
    <_>
      124. 123. 124. 118. 5.50000000e+00 96. 123. 105. 119. 121. 111.
      112. 88. 120. 90. 100. 118. 24. 107. 106. 92. 118. 93. 116. 50.
      105. 120. 8.45000000e+01 101. 114. 87. 106. 6.15000000e+01 78. 51.
      84. 95. 113. 78. 108. 103. 87. 69. 59. 79. 94. 101. 105. 68. 98.
      2.45000000e+01 64. 10. 71. 112. 89. 68. 75. 74. 92. 33. 7. 96.
      104. 12. 60. 67. 113. 69. 66. 110. 4. 9. 112. 122. 78. 68. 62. 75.
      81. 39. 28. 124. 62. 94. 107. 6.25000000e+01 85. 65. 110. 121.
      1.25000000e+01 1.75000000e+01 13. 8. 102. 115. 86. 67. 72. 73. 78.
      117. 5. 1.45000000e+01 3.45000000e+01 117. 63. 99. 106.
      1.11333336e+02 7.46666718e+01 9.76666718e+01 110. 5.75000000e+01
      111. 53. 1.00500000e+02 3. 92. 120. 28. 48. 116. 124. 87. 67. 70.</_>
    <_>
      4.26000023e+01 2.32000008e+01 107. 9.72500000e+01 1.78000011e+01
      9.14000015e+01 4. 69. 2.07500000e+01 1.12500000e+01 4.
      6.05000000e+01 18. 81. 16. 80. 20. 81. 14. 76. 9.35000000e+01 67.
      3.12500000e+01 53. 13. 74. 26. 79. 120. 77. 3.36666679e+01
      7.66666718e+01 3.03333340e+01 121. 1.21500000e+02 91. 38. 71. 65.
      19. 3. 6. 118. 97. 39. 65. 61. 20. 108. 6.66666718e+01 94. 84. 18.
      42. 35. 63. 6.33333349e+00 85. 57. 18. 93. 93. 112. 1.11500000e+02
      2.75000000e+01 7. 17. 65. 3.05000000e+01 93. 49. 11. 95. 97. 8.
      28. 12. 52. 4.55000000e+01 15. 96. 92. 6. 24. 24. 6.25000000e+01
      124. 73. 64. 1.26666670e+01 36. 29. 88. 8.65000000e+01 97. 88.
      3.95000000e+01 109. 114. 108. 7. 15. 17. 49. 9.75000000e+00
      1.18750000e+02 99. 6.25000000e+00 69. 6.66666698e+00 87. 10. 34.
      18. 105. 8.65000000e+01 9. 7. 2.26666679e+01 4.83333359e+01
      1.36666670e+01 1.04333336e+02 8.36666718e+01 4.33333349e+00
      1.12500000e+02 89. 36. 19.</_>
    <_>
      76. 6.66666718e+01 98. 9.62500000e+01 4. 30. 40. 8. 5.25000000e+01
      5.75000000e+00 37. 6. 34. 6. 34. 11. 6.32500000e+01 9.25000000e+01
      32. 12. 90. 121. 33. 19. 30. 15. 101. 19. 29. 20. 1.03333340e+01
      2.26666679e+01 103. 22. 25. 18. 102. 27. 17. 11. 82. 108. 58.
      8.56666718e+01 109. 30. 106. 102. 73. 3. 14. 13. 93. 90. 119. 26.
      104. 102. 68. 6. 76. 9.55000000e+01 16. 24. 4.75000000e+00 74. 94.
      84. 3. 49. 77. 100. 110. 48. 4. 112. 1.11500000e+02 92. 110. 32.
      84. 9.35000000e+01 96. 102. 65. 7. 71. 98. 7.50000000e+00 109. 13.
      17. 1.19333336e+02 3.96666679e+01 3. 63. 7.75000000e+01 87. 111.
      38. 1.17666672e+02 1.17333336e+02 102. 100. 1.06666672e+02 69. 62.
      9. 70. 87. 118. 110. 5. 23. 6.15000000e+01 67. 7. 65. 121. 102.
      89. 90. 1.22500000e+02 35. 80. 1.11500000e+02 88. 77.</_>
    <_>
      76. 7. 73. 9. 47. 4. 67. 16. 1.22333336e+02 27. 1.25000000e+01
      6.55000000e+01 97. 56. 68. 18. 9.66666698e+00 7.43333359e+01 85.
      8. 51. 10. 83. 11. 50. 12. 86. 16. 36. 16. 49. 86. 81.
      2.95000000e+01 1.12400002e+02 4.76000023e+01 43. 17.
      5.14000015e+01 4.22000008e+01 34. 58. 29. 59. 94. 38. 45. 20. 47.
      83. 88. 43. 26. 61. 122. 66. 36. 22. 20. 77. 6.77500000e+01
      6.72500000e+01 25. 63. 1.15250000e+02 6.92500000e+01 34.
      3.25000000e+01 22. 82. 77. 63. 5.66666698e+00 44. 12. 81. 111. 58.
      23. 30. 27. 83. 79. 64. 3. 78. 61. 79. 112. 33. 33. 39. 36. 69.
      26. 79. 80. 67. 4. 57. 107. 36. 42. 4.35000000e+01 107. 74. 43.
      81. 9.25000000e+00 2.75000000e+01 85. 77. 4. 59. 1.23500000e+02
      42. 44. 37. 4.35000000e+01 73. 102. 123. 1.95000000e+01
      1.35000000e+01 9.87500000e+01 71. 3. 61.</_>
    <_>
      9.50000000e+00 82. 74. 44. 76. 41. 74. 31. 42. 1.55000000e+01 46.
      23. 53. 30. 49. 26. 53. 4. 51. 25. 3.86666679e+01 5.46666679e+01
      1.11599998e+02 1.02200005e+02 30. 76. 29. 9.45000000e+01 3. 101.
      49. 17. 56. 112. 96. 3. 21. 68. 53. 6. 54. 109. 93. 4.50000000e+00
      6.91666718e+01 1.28333340e+01 21. 61. 53. 8. 53. 107.
      1.11500000e+02 13. 24. 59. 61. 23. 61. 55. 123. 98. 9.08333359e+01
      8.38333359e+01 108. 15. 41. 43. 63. 23. 41. 29. 1.10750000e+02
      2.97500000e+01 40. 41. 67. 59. 1.16500000e+02 55. 2.22857151e+01
      1.10142860e+02 8.95000000e+01 4.05000000e+01 29. 63.
      1.31666670e+01 1.46666670e+01 1.08500000e+02 87. 1.51999998e+01
      3.76000023e+01 7.03333359e+01 22. 83. 45. 1.21750000e+02 14.
      2.86666679e+01 3.66666679e+01 82. 5. 4.81250000e+01 8.48750000e+01
      5.45000000e+01 1.19750000e+02 38. 38. 8. 2.66666679e+01 64. 64.
      1.19666672e+02 8.96666718e+01 9.23333359e+01 1.93333340e+01
      4.85000000e+01 6.42500000e+01 1.09666672e+02 7.06666718e+01 114.
      113. 95. 3.13999996e+01 39. 1.06333336e+02 3.83333359e+01
      1.18666672e+02</_>
    <_>
      100. 3. 121. 14. 6.84285736e+01 8.71428585e+00 5. 1.15000000e+01
      113. 11. 118. 57. 121. 116. 116. 57. 102. 123. 1.17500000e+01 83.
      1.04500000e+02 40. 121. 53. 88. 25. 90. 22. 108. 54.
      9.55000000e+01 5.27500000e+01 8.83333359e+01 3.73333359e+01 105.
      51. 124. 26. 6. 24. 116. 4.22000008e+01 6. 22. 4.18750000e+01
      8.50000000e+00 111. 17. 10. 25. 1.01250000e+02 7.35000000e+01
      8.16666718e+01 4.06666679e+01 1.05000000e+01 103. 1.01500000e+02
      19. 118. 124. 10. 20. 111. 96. 6.65000000e+01 9.05000000e+01
      4.50000000e+00 9.75000000e+01 1.15857147e+02 8.61428604e+01
      1.04500000e+02 2.85000000e+01 56. 106. 3.34000015e+01
      2.76000004e+01 84. 96. 13. 9.62500000e+01 2.67500000e+01 9.
      7.75000000e+01 1.75000000e+01 17. 66. 119. 26. 7.62857208e+01
      1.16428574e+02 18. 25. 6.56666718e+01 1.11666672e+02 17. 100.
      5.57500000e+01 7.75000000e+01 4.85000000e+01 35. 36. 100. 95. 36.
      12. 123. 20. 4.26000023e+01 7.45000000e+01 50. 1.14500000e+02 74.
      17. 1.45000000e+01 2.92500000e+01 1.20500000e+02 5. 32.
      8.36666718e+01 1.10666672e+02 2.23333340e+01 1.09333336e+02
      1.00250000e+02 98. 4.85000000e+01 45. 6.67500000e+01
      3.33750000e+01</_>
    <_>
      43. 3. 6. 42. 119. 14. 94. 18. 111. 6. 105. 4. 68. 3. 24. 56. 109.
      48. 110. 16. 6. 59. 93. 26. 116. 61. 93. 12. 52. 3. 9. 60. 70. 40.
      9. 20. 108. 51. 107. 31. 95. 13. 10. 73. 83. 3. 79. 17. 31. 71.
      37. 15. 16. 64. 63. 26. 20. 39. 11. 14. 57. 41. 3. 5. 45. 62. 100.
      31. 122. 63. 121. 47. 108. 65. 15. 11. 99. 17. 94. 59. 100. 41.
      72. 3. 60. 4.85000000e+01 26. 62. 9. 75. 66. 21. 3. 15. 97. 57.
      97. 66. 55. 48. 16. 51. 109. 59. 30. 7. 96. 19. 69. 5. 25. 58. 12.
      73. 80. 19. 3. 7. 124. 43. 104. 58. 118. 66. 94. 61. 63. 58.</_>
    <_>
      39. 5. 72. 8. 81. 1.65000000e+01 37. 8. 39. 24. 21. 41. 10. 38.
      29. 7.95000000e+01 8.25000000e+01 4.75000000e+00 8. 35. 82.
      1.10333336e+02 21. 30. 1.20666672e+02 66. 122. 117. 2.03333340e+01
      81. 116. 1.33333340e+01 1.18333336e+02 97. 25. 3. 95. 99. 16. 27.
      1.17500000e+01 1.17500000e+01 100. 109. 9.85000000e+01 69.
      4.37500000e+01 7.32500000e+01 11. 25. 101. 94. 26. 74. 110. 80. 6.
      22. 57. 41. 108. 109. 1.13500000e+02 97. 65. 121. 113. 67. 89.
      4.02500000e+01 3. 4. 1.17500000e+02 104. 104. 98. 47. 45.
      9.37500000e+01 1.12500000e+01 111. 38. 32. 3.93333359e+01 29. 112.
      79. 7.45000000e+01 115. 2.66666679e+01 5.45000000e+01 75. 58. 113.
      45. 16. 9. 48. 6.33333349e+00 1.16333336e+02 8.16666718e+01 92.
      1.19500000e+02 73. 6. 77. 18. 3. 5.05000000e+01 78. 1.65000000e+01
      4.55000000e+01 110. 95. 44. 4.35000000e+01 117. 36. 6.35000000e+01
      7.65000000e+01 6.05000000e+01 16. 2.25000000e+01 1.03500000e+02
      6.25000000e+01 3.15000000e+01 103. 5.37500000e+01</_>
    <_>
      7.27500000e+01 8. 6.86666718e+01 21. 103. 60. 57. 21. 78. 50. 71.
      34. 1.10000010e+01 2.75714302e+01 67. 33. 39. 9.06666718e+01 73.
      49. 2.83333340e+01 3.63333359e+01 66. 64. 83. 22. 9.81666718e+01
      78. 68. 60. 85. 30. 69. 43. 124. 17. 1.07500000e+01 109. 67. 46.
      124. 23. 61. 64. 21. 1.05000000e+01 124. 27. 18. 9.78000031e+01
      59. 63. 112. 12. 123. 55. 20. 91. 58. 61. 9.15000000e+01 20.
      1.19333336e+02 5.66666698e+00 109. 76. 65. 80. 3.16666679e+01
      8.23333359e+01 46. 63. 89. 4. 95. 59. 91. 58. 7. 71. 40. 59. 37.
      120. 106. 15. 25. 32. 98. 54. 3.02500000e+01 9.57500000e+01
      8.25000000e+01 74. 16. 77. 5.05000000e+01 1.14250000e+02
      3.45000000e+01 51. 107. 17. 110. 5.72500000e+01 1.43333340e+01 53.
      9.86666718e+01 6.36666679e+01 16. 123. 5.85000000e+01
      8.95000000e+01 4. 7.50000000e+00 2.13999996e+01 6.22000008e+01
      3.55000000e+01 64. 41. 53. 4.67142868e+01 4.17142868e+01 112. 27.
      1.00666672e+02 3.25000000e+01 5.05000000e+01 11.</_>
    <_>
      24. 60. 23. 62. 97. 22. 3. 65. 1.10500000e+02 1.08500000e+02
      7.95000000e+01 38. 1.19250000e+02 52. 104. 29. 76. 22. 3. 71. 11.
      1.01333336e+02 92. 38. 3. 78. 93. 52. 4.55000000e+01 110. 16. 69.
      95. 40. 90. 48. 62. 1.06500000e+02 2.85000000e+01 8.35000000e+01
      94. 47. 113. 119. 87. 50. 59. 112. 19. 74. 98. 42. 77. 118. 86.
      39. 21. 124. 17. 8.51666718e+01 12. 2.95000000e+01 9.66666718e+01
      6.23333359e+01 59. 121. 120. 1.21500000e+02 33. 1.07500000e+02
      1.12750000e+02 4.97500000e+01 26. 85. 1.18250000e+02
      1.06500000e+02 4. 17. 79. 16. 119. 1.65000000e+01 110. 36. 22. 23.
      2.85000000e+01 122. 7.86666718e+01 46. 14. 123. 63. 124. 9. 82.
      20. 48. 102. 49. 1.95000000e+01 29. 72. 3.85000000e+01 21. 110.
      66. 119. 11. 81. 80. 8.85000000e+01 6.50000000e+00 4.15000000e+01
      106. 7.63333359e+01 44. 8.35000000e+01 107. 42. 64. 99. 13.
      7.25000000e+00 21. 16. 8.95000000e+01 17.</_>
    <_>
      17. 117. 75. 121. 72. 119. 70. 119. 6.76666718e+01 2.23333340e+01
      1.06250000e+02 1.14500000e+02 66. 118. 61. 119. 56. 120.
      1.04500000e+02 86. 88. 7.25000000e+01 19. 117. 95. 101. 69. 87.
      8.76666718e+01 9.96666718e+01 122. 18. 21. 112. 105. 96. 85. 75.
      117. 62. 104. 21. 23. 113. 114. 94. 71. 88. 103. 1.55000000e+01
      24. 1.06500000e+02 23. 86. 1.16500000e+02 1.01500000e+02 97. 86.
      123. 53. 74. 18. 30. 121. 120. 1.10500000e+02 86. 87. 116. 79. 84.
      70. 39. 34. 1.21333336e+02 1.22666672e+02 44. 77. 3.06666679e+01
      1.66666679e+01 48. 24. 82. 1.65000000e+01 5.83333359e+01 86. 66.
      18. 46. 102. 53. 27. 100. 107. 8.55000000e+01 92. 24.
      2.35000000e+01 44. 87. 1.42500000e+01 23. 48. 21. 8.85000000e+01
      21. 37. 1.17500000e+02 59. 26. 105. 107. 5.05000000e+01
      7.25000000e+00 82. 2.23333340e+01 91. 92. 35. 24. 55. 77. 54. 20.
      63. 10. 4.87500000e+01 1.15500000e+02</_>
    <_>
      70. 58. 75. 53. 9.75000000e+01 77. 104. 70. 1.05000000e+01
      1.19500000e+02 72. 70. 5.85000000e+01 115. 118. 9.55000000e+01 91.
      19. 108. 76. 75. 114. 68. 79. 65. 58. 71. 124. 53. 115.
      3.87500000e+01 9.82500000e+01 89. 18. 88. 47. 1.20500000e+02
      8.25000000e+01 55. 83. 56. 17. 57. 107. 88. 1.05000000e+01 26. 18.
      9. 8.24000015e+01 95. 46. 5.75000000e+01 9.25000000e+01 9.
      8.33333397e+00 56. 21. 8.13333359e+01 7. 52. 107. 112. 44. 85. 18.
      3.82500000e+01 7.25000000e+01 8. 2.65000000e+01 101. 47. 63. 113.
      54. 14. 104. 113. 49. 86. 1.19666672e+02 1.08333336e+02 3. 98.
      1.92500000e+01 2.12500000e+01 78. 19. 1.00333336e+02
      8.43333359e+01 23. 88. 1.07500000e+02 4.55000000e+01 6. 18. 117.
      4.65000000e+01 68. 111. 1.09500000e+02 5.02500000e+01
      6.88000031e+01 9.84000015e+01 3.63333359e+01 2.11666679e+01 33.
      15. 100. 1.03500000e+02 1.21500000e+02 8.50000000e+00 47. 101. 21.
      87. 85. 3. 1.17500000e+02 124. 75. 15. 40. 8.96666718e+01
      2.27500000e+01 1.19250000e+02 6. 20.</_>
    <_>
      40. 100. 50. 102. 46. 100. 43. 94. 56. 96. 7.52500000e+01
      6.82500000e+01 64. 53. 71. 46. 92. 6.75000000e+01 82. 122. 67. 58.
      72. 44. 43. 79. 68. 32. 63. 84. 68. 7. 50. 81. 65. 5. 45. 74. 68.
      14. 48. 72. 51. 2.71666679e+01 34. 2.22000008e+01 1.85000000e+01
      47. 120. 2.25000000e+01 7. 42. 67. 12. 8. 56. 4.56666679e+01
      4.03333359e+01 114. 85. 4.55000000e+01 5.75000000e+01
      3.55000000e+01 116. 46. 6. 62. 12. 1.11500000e+02 105. 31. 48. 5.
      66. 49. 70. 38. 99. 45. 10. 27. 42. 6.30000038e+01 6.72857208e+01
      98. 1.18200005e+02 53. 76. 65. 93. 3.13333340e+01 1.06666670e+01
      37. 124. 46. 12. 12. 54. 1.02333336e+02 9.96666718e+01 53. 72.
      8.04000015e+01 9.48000031e+01 15. 122. 6.96666718e+01 115. 58. 15.
      12. 1.07599998e+02 10. 36. 14. 5.05000000e+01 1.21333336e+02
      1.02666672e+02 6.15000000e+01 7.55000000e+01 55. 1.10500000e+02
      6.75000000e+00 9.32500000e+01 50. 1.66666679e+01 1.75000000e+01
      4.15000000e+01</_>
    <_>
      101. 82. 104. 84. 106. 85. 86. 103. 88. 103. 36. 9.87500000e+01
      48. 119. 91. 105. 72. 1.05000000e+01 115. 113. 5.95000000e+01 13.
      1.05250000e+02 1.11250000e+02 57. 121. 1.01333336e+02 7. 94. 110.
      75. 5. 117. 112. 67. 123. 103. 119. 85. 8. 6.45000000e+01 97.
      6.55000000e+01 6.35000000e+01 1.02250000e+02 5.65000000e+01
      1.20666672e+02 99. 39. 70. 43. 92. 100. 78. 111. 85. 76.
      6.85000000e+01 82. 102. 107. 119. 88. 5. 46. 105. 107. 76. 124.
      83. 65. 102. 9.50000000e+00 10. 38. 115. 111. 1.17500000e+02
      9.45000000e+01 6. 62. 86. 103. 74. 116. 91. 34. 122. 23.
      1.11666672e+02 75. 1.05750000e+02 65. 107. 70. 4. 2.92500000e+01
      1.02500000e+01 37. 89. 118. 70. 4.17500000e+01 7. 111. 111. 105.
      3. 120. 5. 119. 123. 53. 1.01500000e+02 71. 73. 102. 71. 86.
      7.15000000e+01 1.45000000e+01 1.92500000e+01 1.22500000e+02 91.
      2.05000000e+01 121. 67. 106.</_>
    <_>
      12. 9.05000000e+01 57. 5. 1.16750000e+02 11. 115. 3.13999996e+01
      8. 2.83999996e+01 19. 6.85000000e+01 4. 37. 56. 11. 12. 38.
      6.37999992e+01 6.74000015e+01 62. 15. 15. 40. 56. 89. 44. 100. 51.
      15. 3. 63. 52. 17. 8. 6.65000000e+01 49. 30. 32. 29.
      9.85000000e+01 26. 32. 75. 20. 48. 32. 50. 21. 26. 34. 79.
      7.84000015e+01 1.44000006e+01 29. 51. 34. 51. 5.35000000e+01
      4.17500000e+01 80. 115. 18. 4. 3.95000000e+01 92. 25.
      1.18400002e+02 32. 60. 45. 34. 23. 23. 34. 9.55000000e+01 25. 53.
      35. 47. 22. 4. 8. 100. 29. 66. 36. 43. 109. 1.05000000e+01 72.
      116. 30. 5.66666698e+00 42. 16. 18. 101. 14. 56. 74. 45. 40. 50.
      5. 112. 39. 18. 2.05000000e+01 97. 14. 58. 4.76666679e+01
      4.73333359e+01 5.45000000e+01 1.11500000e+02 78. 35. 42. 49. 113.
      1.86666679e+01 10. 109. 72. 5. 3.53333359e+01 1.23333340e+01</_>
    <_>
      7.75000000e+00 5.05000000e+01 7.08333359e+01 8.55000000e+01
      2.46666679e+01 6.83333359e+01 60. 59. 123. 82. 5.15000000e+01
      2.77500000e+01 30. 66. 65. 60. 25. 52. 58. 64. 5.86666679e+01
      4.46666679e+01 55. 68. 7.52500000e+01 5.67500000e+01 8.
      6.25000000e+01 51. 47. 55. 72. 8.45000000e+01 9.37500000e+01
      8.37500000e+01 3.05000000e+01 1.07666672e+02 4.06666679e+01 13.
      71. 7.86666718e+01 1.22666672e+02 91. 3.50000000e+00
      7.50000000e+00 82. 63. 35. 48. 49. 59. 74. 5.50000000e+00
      1.06833336e+02 41. 77. 4.16666679e+01 3.06666679e+01 9. 3. 65. 36.
      43. 51. 59. 81. 40. 75. 61. 21. 70. 47. 39. 119. 4.45000000e+01
      34. 62. 81. 110. 2.32000008e+01 37. 79. 63. 33. 89. 40.
      9.36666718e+01 5.73333359e+01 120. 5.32000008e+01 4.25000000e+01
      115. 4.95000000e+01 3.55000000e+01 2.63999996e+01 7.80000019e+00
      88. 119. 7.95000000e+01 84. 3.35000000e+01 7.45000000e+01 99. 104.
      62. 26. 120. 87. 124. 111. 8.33333359e+01 7.33333359e+01 83. 54.
      30. 104. 40. 45. 37. 39. 84. 115. 6.85999985e+01 1.06200005e+02
      77. 80. 2.45000000e+01 78.</_>
    <_>
      18. 47. 12. 115. 9. 89. 58. 13. 16. 43. 12. 84. 52. 31. 11. 90. 5.
      33. 16. 77. 46. 31. 13. 34. 27. 73. 45. 11. 24. 18. 17. 62. 19.
      124. 41. 80. 29. 63. 64. 83. 37. 12. 123. 106. 16. 28. 3. 118. 55.
      37. 36. 79. 25. 59. 33. 7. 45. 107. 19. 15. 56. 84. 26. 17. 80. 3.
      121. 97. 9. 21. 6. 120. 35. 4. 34. 15. 29. 99. 22. 61. 37. 40. 40.
      57. 112. 96. 20. 11. 50. 118. 3. 122. 29. 15. 113. 104. 13. 19.
      121. 120. 15. 117. 8. 91. 16. 18. 19. 65. 49. 38. 35. 9. 49. 111.
      32. 16. 107. 100. 64. 3. 3.50000000e+00 7.05000000e+01 18. 19. 59.
      6. 1.23500000e+02 123.</_>
    <_>
      102. 45. 8.85000000e+01 4.25000000e+01 82. 34. 78. 26. 45. 99.
      1.16200005e+02 88. 94. 40. 5.55000000e+01 8. 96. 40. 72. 108.
      8.05000000e+01 1.65000000e+01 87. 22. 104. 33. 28. 78.
      4.82500000e+01 4.35000000e+01 88. 20. 18. 1.09500000e+02 92. 15.
      80. 94. 35. 113. 89. 6.35000000e+01 101. 20. 38. 111. 90. 66. 106.
      20. 1.14666672e+02 7. 36. 106. 1.36666670e+01 5.23333359e+01 88.
      5.05000000e+01 72. 84. 96. 50. 4. 1.45000000e+01 109. 18. 36.
      9.68000031e+01 9.72500000e+01 108. 25. 86. 70. 52. 7.50000000e+00
      3.22500000e+01 75. 89. 7.50000000e+00 9.21666718e+01 53.
      1.21500000e+02 1.23500000e+02 9.75000000e+01 38. 57. 98. 50. 111.
      17. 5.58333359e+01 3.51666679e+01 6.46666718e+01 4.33333349e+00
      21. 9. 25. 88. 7.05000000e+01 41. 12. 113. 5.14000015e+01
      7.52000046e+01 119. 11. 82. 73. 51. 60. 120. 70. 90.
      8.38000031e+01 8.92500000e+01 1.20250000e+02 1.08333336e+02
      3.33333349e+00 13. 7. 5.53333359e+01 103. 33. 86. 4.15000000e+01
      33. 7.73333359e+01 6.13333359e+01</_>
    <_>
      66. 102. 62. 113. 16. 109. 28. 99. 19. 106. 24. 75. 16. 21. 31.
      101. 27. 74. 57. 64. 68. 2.15000000e+01 22. 104. 25. 73. 20. 112.
      28. 68. 34. 31. 18. 21. 24. 117. 6.50000000e+00 100. 18. 53. 8.
      52. 31. 111. 10. 20. 32. 12. 34. 108. 34. 4.75000000e+01
      1.35000000e+01 40. 32. 61. 20. 50. 124. 1.13500000e+02 32. 27. 53.
      24. 4.50000000e+00 16. 9. 111. 35. 116. 56. 41. 21. 48. 43. 57. 4.
      1.21500000e+02 29. 18. 35. 124. 62. 15. 4. 94. 63. 93. 30. 116.
      124. 79. 43. 45. 11. 47. 52. 63. 25. 4. 21. 17. 68. 15. 8. 103.
      7.50000000e+00 6.25000000e+01 31. 114. 38. 45. 10. 43. 124. 108.
      45. 83. 16. 75. 29. 3. 36. 3. 21. 23. 76. 6.75000000e+01</_>
    <_>
      75. 49. 5.42500000e+01 10. 1.09666672e+02 2.53333340e+01 46. 72.
      6.73333359e+01 14. 78. 49. 6. 78. 22. 65. 59. 86. 92.
      1.05200005e+02 10. 81. 7.27500000e+01 3.75000000e+01 22. 63.
      4.05000000e+01 46. 95. 9.13333359e+01 9.35000000e+01
      5.07500000e+01 38. 94. 9.37500000e+01 25. 30. 57. 9.83333359e+01
      8.33333359e+01 37. 97. 115. 72. 21. 48. 2.25000000e+01
      1.13500000e+02 85. 51. 7.40000010e+00 1.04000006e+01
      1.17500000e+02 9.55000000e+01 8.36666718e+01 3.33333349e+00 22.
      85. 4.36666679e+01 3.63333359e+01 124. 24. 1.22333336e+02 5. 83.
      7.27500000e+01 1.05500000e+02 5.95000000e+01 18. 34.
      5.46666679e+01 1.13333336e+02 8.75000000e+01 55. 7.75000000e+01
      2.07500000e+01 43. 124. 24. 88. 75. 7.65000000e+01 5. 67.
      8.75000000e+01 18. 1.07800003e+02 6. 6.50000000e+00 99. 98. 37.
      2.08333340e+01 101. 29. 39. 65. 4. 9.55000000e+01 64.
      2.96666679e+01 1.08666672e+02 7.66666698e+00 25. 7.26666718e+01
      119. 120. 14. 58. 17. 100. 4.35000000e+01 2.53333340e+01 21. 35.
      2.45000000e+01 5.42500000e+01 4.47500000e+01 1.20333336e+02
      1.12666672e+02 86. 58. 1.65000000e+01 95. 11. 47. 5. 124.</_>
    <_>
      64. 51. 4. 96. 16. 45. 15. 98. 47. 77. 46. 5.50000000e+00 12. 52.
      8. 101. 3. 86. 37. 8. 9. 57. 14. 100. 16. 11. 11. 58. 8. 118. 123.
      108. 18. 15. 46. 97. 8. 59. 11. 111. 121. 88. 29. 31. 123. 74. 18.
      114. 15. 85. 21. 119. 36. 47. 12. 83. 14. 117. 56. 52. 114. 90.
      25. 27. 121. 65. 19. 100. 120. 116. 3. 90. 14. 114. 23. 124. 123.
      123. 27. 41. 121. 109. 113. 101. 22. 29. 113. 72. 18. 92. 50. 86.
      119. 98. 17. 30. 6. 88. 112. 64. 15. 94. 19. 116. 29. 67.
      3.50000000e+00 3.85000000e+01 51. 124. 21. 121. 41. 48. 117. 118.
      117. 100. 19. 33. 107. 68. 40. 25. 121. 123. 15. 96.</_>
    <_>
      1.15500000e+02 8.65000000e+01 96. 75. 104. 6.35000000e+01 80.
      6.25000000e+01 113. 1.10333336e+02 1.83999996e+01 5.59999990e+00
      80. 34. 124. 21. 118. 69. 74. 2.05000000e+01 7.04000015e+01
      9.12000046e+01 120. 29. 120. 72. 105. 26. 101. 52. 106. 90.
      9.95000000e+01 6. 118. 49. 7.75000000e+01 1.05000000e+01
      7.95000000e+01 123. 1.18500000e+02 9.75000000e+01 115.
      2.05000000e+01 4.06000023e+01 4.96000023e+01 37. 73. 118. 47. 32.
      124. 124. 90. 1.21333336e+02 5.33333349e+00 117. 14.
      2.72000008e+01 6.14000015e+01 3.87500000e+01 9.35000000e+01
      2.52500000e+01 8.22500000e+01 114. 35. 31. 1.45000000e+01 27. 120.
      95. 100. 112. 78. 109. 17. 4. 42. 50. 106. 5.92500000e+01
      4.50000000e+00 109. 32. 24. 113. 88. 102. 113. 80. 53.
      2.85000000e+01 115. 122. 106. 7.50000000e+00 6. 43. 3.75000000e+01
      104. 1.05500000e+02 37. 5.25000000e+00 27. 25. 1.09500000e+02 90.
      114. 119. 80. 49. 124. 91. 7. 89. 47. 26. 48. 107. 3. 120. 84.
      1.02800003e+02 1.17599998e+02 5.50000000e+00 74. 4.36666679e+01
      1.00666672e+02</_>
    <_>
      1.73333340e+01 6.96666718e+01 92. 119. 7.50000000e+00 83. 121. 4.
      4.45000000e+01 8.55000000e+01 29. 73. 51. 6.05000000e+01
      3.13333340e+01 4.33333349e+00 3.85000000e+01 72. 119. 100.
      1.15000000e+01 3.25000000e+01 59. 55. 16. 59. 25. 63. 15.
      5.06666679e+01 37. 61. 26. 57. 97. 3.25000000e+01 88. 42.
      9.02500000e+01 62. 23. 4.83333359e+01 98. 27. 36. 31.
      1.11500000e+02 6.55000000e+01 29. 49. 94. 22. 36. 29.
      1.03500000e+02 7.65000000e+01 42. 56. 96. 21. 1.14599998e+02
      8.28000031e+01 3.55000000e+01 20. 89. 3.35000000e+01
      1.03500000e+02 1.01500000e+02 6.46666718e+01 6.63333359e+01
      1.21500000e+02 8. 64. 34. 40. 56. 116. 122. 6.96666718e+01 19.
      100. 22. 27. 34. 3.47500000e+01 4.05000000e+01 74. 4.05000000e+01
      1.12400002e+02 9. 73. 59. 9.50000000e+00 13. 118. 98. 88. 22. 46.
      52. 102. 19. 82. 4.83333359e+01 27. 32. 7.35000000e+01 6. 78. 33.
      107. 9.35000000e+01 81. 28. 4.66666679e+01 4.03333359e+01 119. 63.
      3.95000000e+01 1.15500000e+02 5.33333359e+01 1.16666670e+01
      1.17142859e+01 1.08000008e+02 28. 9.05000000e+01 105.
      9.50000000e+00</_>
    <_>
      3. 65. 41. 58. 36. 55. 37. 87. 41. 60. 32. 45. 110. 56. 8. 34. 11.
      1.08500000e+02 43. 61. 21. 57. 45. 59. 33. 56. 124. 40. 27. 75.
      29. 47. 119. 30. 35. 71. 8. 83. 4. 57. 118. 19. 5.75000000e+01
      1.21500000e+02 40. 73. 8. 62. 49. 49. 4.15000000e+01 95. 114. 26.
      2.15000000e+01 101. 38. 78. 10. 62. 53. 50. 114. 5. 110. 25. 5.
      113. 40. 79. 14. 54. 104. 1.45000000e+01 56. 60. 9. 73. 42. 45.
      99. 26. 5. 106. 38. 82. 14. 58. 51. 61. 12. 78. 32. 103. 102. 24.
      70. 121. 123. 69. 5. 103. 33. 85. 17. 56. 48. 59. 7. 89. 16.
      7.75000000e+01 54. 124. 36. 102. 27. 87. 101. 18. 1.55000000e+01
      103. 10. 87. 5. 123. 113. 61.</_>
    <_>
      11. 96. 124. 11. 6. 69. 24. 60. 121. 65. 123. 13. 7.95000000e+01
      5.85000000e+01 10. 45. 119. 66. 120. 8. 94. 9. 21. 50.
      1.14500000e+02 28. 124. 73. 100. 7. 109. 7.25000000e+01
      1.03333336e+02 6.63333359e+01 86. 19. 17. 49. 119. 81. 97. 54.
      102. 4. 105. 25. 2.43333340e+01 1.22333336e+02 6.66666698e+00
      7.96666718e+01 19. 61. 108. 34. 112. 82. 100. 76. 115. 10.
      1.07333336e+02 4.66666698e+00 9.66666718e+01 25. 82. 5. 87. 30.
      16. 59. 9.66666698e+00 5.96666679e+01 6.85000000e+01 25. 94. 51.
      109. 29. 109. 81. 94. 67. 8. 94. 113. 11. 123. 65. 92. 32. 13. 58.
      93. 3. 99. 44. 121. 35. 107. 80. 1.01666672e+02 3.43333359e+01 82.
      26. 99. 70. 38. 121. 8. 73. 112. 7. 94. 32. 13. 60. 98. 42. 71.
      1.56666670e+01 78. 25. 98. 75. 122. 33. 112. 74.</_>
    <_>
      62. 7. 49. 3. 4.50000000e+00 81. 120. 7.35000000e+01
      6.15000000e+01 1.35000000e+01 51. 5. 101. 79. 41. 31. 104. 80. 39.
      28. 5. 43. 63. 79. 104. 75. 40. 12. 3. 61. 108. 78. 37. 20. 31.
      5.66666698e+00 7. 89. 113. 80. 38. 16. 1.95000000e+01 77. 76. 81.
      116. 78. 121. 16. 8.53333359e+01 1.93333340e+01 84. 7.06666718e+01
      41. 18. 92. 3. 113. 69. 73. 9. 15. 71. 46. 8.25000000e+01 47. 47.
      40. 3. 1.19666672e+02 4.23333359e+01 96. 76. 112. 75. 117. 24.
      124. 41. 51. 16. 59. 44. 1.21333336e+02 5.56666679e+01 118.
      6.66666698e+00 76. 28. 4. 72. 71. 84. 22. 3. 53. 2.23333340e+01
      84. 5. 8.95000000e+01 76. 115. 73. 118. 34. 124. 48.
      6.35000000e+01 20. 47. 23. 62. 5. 69. 27. 3. 76. 6.13333359e+01
      56. 123. 78. 63. 84. 3. 40. 30. 8.35000000e+01</_>
    <_>
      41. 8. 41. 16. 63. 59. 8.22500000e+01 1.22500000e+02 57. 54.
      3.32000008e+01 71. 1.06333336e+02 5.33333349e+00 56. 48. 49. 67.
      56. 17. 59. 74. 49. 69. 66. 43. 64. 76. 2.03333340e+01
      7.83333359e+01 68. 20. 57. 10. 60. 80. 24. 75. 7.42500000e+01
      2.72500000e+01 66. 23. 66. 9. 6.75000000e+00 7.22500000e+01 36. 8.
      6.65000000e+01 1.12500000e+02 28. 78. 7.25000000e+01 40.
      8.77500000e+01 8.50000000e+00 103. 105. 102. 4.75000000e+01 81.
      21. 6.50000000e+00 7.25000000e+00 37. 24. 77. 111. 33. 80.
      1.00333336e+02 1.17666672e+02 37. 4. 88. 42. 70. 14. 38. 34. 62.
      86. 104. 3.55000000e+01 4.12500000e+01 41. 7.45000000e+01
      9.45000000e+01 41. 73. 65. 31. 8.28000031e+01 8.24000015e+01 71.
      3.50000000e+00 4.33333349e+00 18. 4.13333359e+01 5.56666679e+01
      70. 8.65000000e+01 121. 28. 82. 70. 36. 78. 68. 36. 7.85000000e+01
      5.50000000e+00 1.16500000e+02 5.75000000e+01 4.62500000e+01
      4.92500000e+01 83. 56. 8.58333359e+01 1.03500000e+02
      1.11800003e+02 1.51999998e+01 124. 6. 39. 74. 7.55000000e+01
      3.35000000e+01</_>
    <_>
      1.15333336e+02 5.63333359e+01 114. 5. 95. 10. 88. 23. 92. 15. 91.
      18. 8.85000000e+01 120. 116. 13. 4.97999992e+01 5.67999992e+01 66.
      97. 116. 15. 65. 99. 107. 16. 65. 103. 40. 120. 107. 18. 67.
      1.19500000e+02 9.56666718e+01 4.56666679e+01 3.88333359e+01
      2.15000000e+01 8.70000076e+01 8.72857208e+01 93. 3.45000000e+01
      61. 110. 101. 26. 95. 102. 11. 54. 6.66666698e+00 12. 58. 110.
      117. 45. 2.36666679e+01 114. 1.05500000e+02 44. 3.23333359e+01
      1.14666672e+02 1.02333336e+02 3.53333359e+01 52. 114. 109. 33. 7.
      79. 49. 104. 123. 39. 66. 80. 113. 7.36666718e+01 46. 102.
      1.19500000e+02 1.19500000e+02 23. 8. 6.06666679e+01 3.16666679e+01
      124. 32. 68. 65. 1.15666672e+02 103. 19. 3. 41. 71. 1.07500000e+01
      116. 4.87999992e+01 1.58000002e+01 44. 101. 27. 10. 1.14750000e+02
      2.45000000e+01 93. 61. 43. 48. 4.75000000e+01 32. 120. 40. 42.
      8.78000031e+01 71. 62. 1.76666679e+01 8.76666718e+01
      4.95000000e+01 7.15000000e+01 41. 111. 3.23333359e+01 42.
      2.85000000e+01 17.</_>
    <_>
      47. 121. 6. 119. 7.77500000e+01 9.25000000e+00 4. 112. 80.
      1.11714294e+02 123. 103. 3. 110. 45. 92. 104. 98. 5.97999992e+01
      3.52000008e+01 2.95000000e+01 67. 1.00500000e+02 1.19500000e+02
      7.15000000e+01 117. 10. 80. 21. 39. 21. 98. 47. 84. 1.72500000e+01
      6.15000000e+01 103. 8.85000000e+01 40. 63. 16. 80. 19. 40. 48. 67.
      6.50000000e+00 65. 97. 8.82500000e+01 4.76666679e+01 99. 37.
      4.35000000e+01 20. 82. 40. 6. 17. 4.45000000e+01 50. 65. 92.
      7.45000000e+01 1.07400002e+02 8.19999981e+00 106. 8.35000000e+01
      8.34000015e+01 2.72000008e+01 53. 103. 1.21333336e+02
      7.43333359e+01 12. 70. 42. 44. 2.85000000e+01 92. 7.08571472e+01
      6.87142868e+01 22. 45. 8.73333359e+01 55. 1.09666672e+02 45. 112.
      80. 59. 123. 42. 48. 22. 113. 16. 5.27500000e+01 77. 51. 114. 102.
      60. 111. 1.19500000e+02 16. 50. 58. 1.19375000e+02 9.06250000e+01
      3.15000000e+01 1.11500000e+02 1.48750000e+01 9.87500000e+00 23.
      5.25000000e+01 68. 5.03333359e+01 3. 85. 1.15333336e+02 29. 117.
      1.01500000e+02 63. 119. 122. 65.</_>
    <_>
      6.76666718e+01 7.03333359e+01 25. 19. 48. 6.15000000e+01 40. 18.
      77. 113. 14. 42. 8.55000000e+01 4.45000000e+01 15. 37. 7. 70. 78.
      43. 31. 24. 7.36666718e+01 4.36666679e+01 3.17500000e+01
      1.13250000e+02 5.35000000e+01 85. 3.76000023e+01 4.52000008e+01
      21. 36. 72. 78. 7. 38. 4.75000000e+01 87. 28. 33. 13. 46. 59. 71.
      50. 118. 66. 8.65000000e+01 6.65000000e+01 3.95000000e+01 30. 34.
      85. 1.14666672e+02 29. 91. 15. 9. 75. 80. 59. 59. 39. 122.
      3.96000023e+01 6.94000015e+01 41. 57. 53. 42. 27. 86. 4. 9. 83.
      3.35000000e+01 67. 55. 18. 1.12666672e+02 45. 92. 49. 40. 53. 40.
      32. 87. 10. 9. 72. 57. 41. 93. 46. 38. 74. 29. 35. 87. 19. 21.
      108. 1.09250000e+02 70. 62. 31. 94. 37. 13. 46. 42. 6.25000000e+01
      30. 44. 62. 12. 86. 10. 96. 5.25000000e+00 2.15000000e+01
      1.15000000e+01 2.35000000e+01 71. 6.45000000e+01 35. 97.</_>
    <_>
      6. 53. 10. 29. 6.85000000e+01 9. 21. 34. 4. 117. 97. 38. 17. 33.
      51. 108. 94. 51. 94. 35. 24. 44. 18. 119. 1.13500000e+02 110. 49.
      111. 97. 10. 122. 49. 98. 59. 87. 14. 19. 45. 108. 6.45000000e+01
      104. 21. 38. 105. 124. 117. 119. 65. 100. 60. 99. 28. 16. 43. 108.
      18. 1.05500000e+02 51. 38. 113. 1.00500000e+02 17. 120. 119. 110.
      57. 108. 56. 98. 26. 13. 42. 109. 13. 82. 10. 27. 106. 105. 113.
      105. 9. 124. 57. 112. 58. 9. 43. 99. 54. 1.14500000e+02 12. 92.
      16. 13. 44. 9.50000000e+00 79. 121. 19. 8. 57. 78. 9. 13. 113. 7.
      6.25000000e+01 109. 109. 96. 7. 119. 50. 112. 66. 99. 49. 94. 16.
      11. 45. 122. 17. 7.95000000e+01 4.25000000e+01 6. 66.</_>
    <_>
      5.85000000e+01 1.82500000e+01 13. 9.56666718e+01 65. 61. 61. 41.
      75. 56. 68. 38. 55. 56. 78. 51. 11. 14. 39. 50. 73. 42.
      4.52500000e+01 8.15000000e+01 19. 24. 2.03333340e+01 53.
      7.05000000e+01 2.65000000e+01 3. 83. 4.05000000e+01 104. 124. 87.
      40. 52. 76. 124. 3.95000000e+01 1.15500000e+02 53. 10.
      5.33333349e+00 4.16666679e+01 82. 27. 20. 1.09800003e+02 117. 27.
      41. 5. 1.01666672e+02 1.11666672e+02 1.05500000e+02 2.25000000e+01
      18. 81. 30. 64. 82. 124. 1.21500000e+02 35. 83. 7. 84. 30. 106.
      8.50000000e+00 40. 7. 76. 22. 6.53333359e+01 8.66666698e+00 17.
      85. 31. 75. 53. 39. 83. 122. 1.19750000e+02 1.15500000e+02
      1.01599998e+02 3.08000011e+01 78. 11. 91. 23. 115. 3.
      4.75000000e+01 37. 5.95000000e+01 1.09500000e+02 8. 9.
      6.93333359e+01 8.56666718e+01 47. 1.86666679e+01 4. 90.
      4.16666679e+01 6.86666718e+01 5.75000000e+01 28. 78.
      1.01500000e+02 1.16400002e+02 1.38000002e+01 48. 27. 94. 6. 42. 3.
      73. 7.50000000e+00 118. 94. 96. 39.</_>
    <_>
      37. 71. 18. 91. 67. 76. 34. 44. 9. 1.14333336e+02 18. 89.
      1.83333340e+01 45. 31. 46. 3. 56. 64. 4.35000000e+01 31. 48. 3.
      62. 124. 15. 2.53333340e+01 10. 19. 60. 4. 30. 15. 71. 31. 50. 40.
      9.45000000e+01 6. 35. 15. 6.55000000e+01 6. 66. 24. 53.
      3.45000000e+01 67. 124. 4.76666679e+01 59. 1.09500000e+02 41. 91.
      7. 37. 31. 37. 11. 60. 35. 52. 2.96666679e+01 110. 19. 112. 35.
      124. 41. 89. 8. 39. 28. 35. 9. 63. 30. 52. 30. 95. 35. 122. 43.
      75. 13. 104. 9. 47. 57. 2.56666679e+01 16. 11. 42. 1.00500000e+02
      12. 67. 27. 63. 28. 99. 72. 4. 43. 116. 39. 76. 6.55000000e+01
      108. 3. 120. 22. 40. 28. 4. 13. 62. 5. 124. 30. 6.75000000e+01 29.
      102. 22. 7.36666718e+01 45. 114. 37. 73.</_>
    <_>
      72. 8. 63. 10. 61. 10. 64. 14. 66. 18. 46. 1.77500000e+01
      6.02000008e+01 5.56000023e+01 4.92500000e+01 1.12500000e+02 100.
      3.95000000e+01 2.55000000e+01 1.13500000e+02 3.06666679e+01
      3.23333359e+01 44. 37. 19. 4.46666679e+01 1.26666670e+01 119. 79.
      25. 1.12500000e+01 6.52500000e+01 101. 53. 8.95999985e+01
      8.55999985e+01 123. 58. 124. 88. 61. 26. 8.60000038e+00
      1.78000011e+01 78. 30. 97. 55. 92. 7.59999990e+00 23.
      1.93333340e+01 1.12500000e+02 5.50000000e+00 117. 77. 114. 89. 48.
      38. 76. 29. 87. 55. 90. 29. 5.75000000e+01 43. 1.10333336e+02 111.
      118. 80. 1.01599998e+02 8.85999985e+01 1.07500000e+02
      1.00500000e+02 1.19500000e+02 8. 33. 17. 63. 30. 60.
      4.33333349e+00 82. 54. 1.23333340e+01 41. 88. 59. 101. 24.
      7.16666718e+01 1.10666672e+02 3.25000000e+01 4.35000000e+01
      5.36666679e+01 83. 1.01500000e+02 7.65000000e+01 1.23500000e+02
      106. 52. 35. 1.19800003e+02 9.98000031e+01 51. 7.45000000e+01 20.
      3.75000000e+01 3. 84. 25. 9.07500000e+01 8.25000000e+00
      1.01750000e+02 61. 3.67500000e+01 71. 67. 5. 1.20500000e+02 84. 9.
      114. 3.27500000e+01 84. 124.</_>
    <_>
      4.67999992e+01 8.05999985e+01 8.76666718e+01 3.06666679e+01
      9.05000000e+01 4.35000000e+01 8.36666718e+01 7.86666718e+01 79. 8.
      4.31666679e+01 1.21666672e+02 5.05000000e+01 4.91666679e+01 88.
      51. 9.74000015e+01 7.12000046e+01 5.26000023e+01 7.20000029e+00
      94. 24. 84. 26. 17. 124. 85. 53. 123. 1.35000000e+01 19. 13. 121.
      28. 124. 67. 81. 28. 3.33333359e+01 48. 22. 120. 90. 55. 25. 6.
      121. 26. 8. 1.02714287e+02 78. 9.64000015e+01 124. 92.
      5.85000000e+01 73. 73. 7. 27. 62. 26. 1.21500000e+02 80. 3. 87.
      57. 39. 8. 1.14500000e+02 2.35000000e+01 9.96666718e+01
      2.46666679e+01 1.21500000e+02 63. 9.83333359e+01 116. 119. 46.
      9.25000000e+01 104. 98. 124. 68. 120. 96. 4.55000000e+01 114.
      7.05000000e+01 77. 1.75000000e+01 6.03333359e+01 2.36666679e+01
      17. 76. 6.35000000e+01 9.85000000e+01 27. 124. 7.87500000e+01
      7.17500000e+01 64. 6. 7.66666698e+00 85. 1.10500000e+02 14.
      5.66666698e+00 35. 2.43333340e+01 2.56666679e+01 111. 41. 63. 81.
      8.35000000e+01 121. 14. 3. 2.96666679e+01 7.51666718e+01
      1.13500000e+02 5.45000000e+01 69. 20. 7.50000000e+00 8.
      2.93333340e+01 9.36666718e+01</_>
    <_>
      66. 48. 48. 9.36666718e+01 108. 19. 81. 6. 88. 6. 104. 16. 62.
      7.33333349e+00 35. 4.16666679e+01 40. 1.22500000e+02 46. 41. 74.
      13. 77. 14. 82. 13. 84. 17. 102. 37. 120. 113. 90. 23. 90. 109.
      88. 24. 92. 110. 85. 26. 107. 34. 94. 119. 97. 41. 86.
      1.23500000e+02 102. 124. 55. 49. 63. 35. 65. 1.17500000e+02 100.
      6. 72. 36. 107. 121. 60. 45. 102. 6. 74. 45. 120. 1.75000000e+01
      110. 118. 42. 5. 3.15000000e+01 2.05000000e+01 8.33333359e+01
      4.13333359e+01 3.25000000e+01 34. 55. 34. 107. 8. 77. 49. 41. 97.
      54. 122. 99. 116. 6.45000000e+01 9.55000000e+01 44. 4.
      4.52500000e+01 1.19750000e+02 4.65000000e+01 4.95000000e+01 42.
      34. 111. 11. 8.95000000e+01 49. 104. 1.08250000e+02 38. 119.
      1.55000000e+01 2.65000000e+01 98. 111. 56. 103. 71. 11. 43. 48.
      3.45000000e+01 11. 41. 36. 1.17666672e+02 26.</_>
    <_>
      103. 99. 104. 109. 97. 105. 95. 105. 44. 117. 94. 103. 84.
      3.86666679e+01 1.21333336e+02 2.36666679e+01 93. 108. 85. 124. 60.
      110. 65. 19. 75. 124. 24. 107. 88. 107. 85. 105. 1.02500000e+02
      45. 85. 109. 104. 48. 63. 4.86666679e+01 84. 114. 53.
      1.35000000e+01 123. 46. 77. 100. 108. 46. 81. 112. 46. 53. 4.
      4.55000000e+01 113. 48. 78. 114. 46. 48. 60. 104. 121. 41. 68.
      104. 32. 53. 113. 37. 116. 46. 65. 116. 124. 9. 5.95000000e+01
      2.65000000e+01 28. 50. 7.03333359e+01 107. 119. 42. 1.19333336e+02
      7.33333349e+00 67. 116. 121. 13. 9.16666718e+01 44. 15. 39. 65.
      101. 16. 116. 76. 49. 21. 44. 112. 43. 69. 116. 7. 57. 32.
      1.10500000e+02 124. 16. 16. 108. 71. 52. 18. 46. 4. 9.50000000e+00
      115. 41. 3. 29. 71. 112.</_>
    <_>
      11. 85. 19. 94. 120. 8.56666718e+01 13. 82. 18. 96. 38. 66. 78. 8.
      97. 90. 5.76666679e+01 4.56666679e+01 1.13500000e+02
      1.04500000e+02 1.16400002e+02 8.40000057e+00 2.36000004e+01
      5.14000015e+01 19. 98. 5.45000000e+01 1.21750000e+02 24. 83. 32.
      94. 59. 106. 105. 9.66666698e+00 118. 9.85000000e+01 26. 66.
      2.55000000e+01 122. 87. 107. 34. 68. 39. 122. 103. 105.
      6.25000000e+00 116. 77. 118. 29. 90. 6.53333359e+01 86. 28. 122.
      20. 15. 8.73333359e+01 8.26666718e+01 43. 72. 30. 1.16500000e+02
      9.05000000e+01 93. 9.76666718e+01 5.56666679e+01 51. 66. 49. 73.
      46. 1.07500000e+02 102. 9.66666718e+01 52. 64. 116. 50. 48. 75.
      4.15000000e+01 108. 110. 91. 8.13333359e+01 5.23333359e+01
      4.28333359e+01 9.18333359e+01 44. 57. 53. 80. 33. 99.
      1.03666672e+02 82. 4.84000015e+01 1.58000002e+01 69.
      3.56666679e+01 91. 22. 1.21500000e+02 32. 44. 79. 8.
      4.17500000e+01 5.06666679e+01 3.62222214e+01 25. 1.08666672e+02
      3.65000000e+01 103. 122. 6.53333359e+01 1.12333336e+02
      8.26666718e+01 5.50000000e+00 103. 53. 52.</_>
    <_>
      1.22500000e+01 4.52500000e+01 63. 107. 55. 105. 68. 102.
      5.66666698e+00 21. 69. 100. 6.27999992e+01 1.04000006e+01 71. 97.
      72. 81. 6.43333359e+01 8.26666718e+01 53. 100. 92. 113. 70. 90.
      94. 112. 39. 23. 54. 96. 30. 8. 103. 30. 72. 8. 121.
      2.83333340e+01 74. 86. 39. 19. 4.46666679e+01 92. 100. 33. 36.
      5.25000000e+01 19. 93. 75. 16. 84. 82. 7.81666718e+01 65. 48. 27.
      3.93333359e+01 8.26666718e+01 3.50000000e+00 65. 55. 94. 4. 3.
      1.13500000e+02 116. 85. 40. 84. 19. 105. 124. 90. 78. 46. 19.
      7.52000046e+01 34. 62. 91. 98. 48. 88. 23. 93. 78. 74. 77.
      1.01833336e+02 9.51666718e+01 99. 8. 6.02500000e+01 5.35000000e+01
      120. 8.95000000e+01 53. 4. 5.56666679e+01 82. 3. 62.
      1.65000000e+01 8.25000000e+01 2.35000000e+01 1.15500000e+02
      9.73333359e+01 6.76666718e+01 1.19000008e+02 5.52857170e+01 86.
      1.14500000e+02 6.50000000e+00 1.21750000e+02 39. 107. 7. 109. 85.
      29. 96. 83. 1.45000000e+01 3.27500000e+01</_>
    <_>
      122. 21. 119. 25. 117. 29. 117. 73. 113. 31. 13. 98. 124. 3. 36.
      110. 104. 52. 97. 37. 3. 90. 122. 121. 103. 34. 11. 59. 91. 4. 9.
      75. 3. 106. 105. 45. 30. 33. 15. 84. 124. 100. 101. 36. 98. 26.
      28. 92. 112. 52. 35. 60. 113. 109. 5. 85. 117. 97. 107. 44. 105.
      24. 26. 95. 110. 124. 102. 100. 108. 56. 9. 73. 7. 80. 110. 104.
      10. 5. 107. 98. 31. 89. 37. 108. 109. 47. 3. 52. 112. 45. 3. 35.
      5. 55. 97. 8. 106. 77. 34. 22. 110. 75. 11. 100. 101. 54. 7. 60.
      9. 77. 115. 109. 101. 102. 36. 95. 113. 47. 48. 114. 5. 57. 112.
      8. 31. 13. 50. 118.</_>
    <_>
      93. 3. 106. 18. 97. 6. 24. 12. 98. 27. 94. 19. 102. 103. 112. 106.
      119. 33. 16. 11. 108. 24. 109. 77. 111. 104. 76. 5. 120. 122. 21.
      124. 107. 124. 110. 25. 36. 123. 114. 111. 19. 13. 17. 87. 51. 76.
      13. 10. 99. 22. 105. 108. 81. 13. 118. 111. 38. 73. 112. 26. 124.
      85. 6. 21. 13. 12. 124. 25. 27. 74. 99. 17. 106. 101. 107. 32.
      105. 81. 80. 3. 7. 3.05000000e+01 113. 109. 38. 81. 9. 11. 114.
      77. 112. 34. 8. 25. 11. 13. 119. 18. 105. 20. 100. 28. 103. 105.
      9.50000000e+00 47. 113. 79. 4. 85. 78. 8. 116. 111. 19. 87. 6. 34.
      49. 79. 120. 87. 122. 17. 13. 81. 109. 33.</_>
    <_>
      1.20750000e+02 1.09750000e+02 1.83333340e+01 1.12500000e+02 52.
      103. 23. 57. 1.21666672e+02 9.53333359e+01 76. 117. 24.
      6.85000000e+01 49. 101. 7. 5.35000000e+01 6.84000015e+01
      1.19400002e+02 60. 103. 49. 106. 48. 1.56000004e+01 7. 57.
      6.77500000e+01 9.25000000e+00 96. 1.04333336e+02 42. 96. 8. 60.
      6.65999985e+01 6.55999985e+01 102. 108. 99. 95. 107. 21. 46. 105.
      5. 62. 120. 38. 52. 7.42500000e+01 63. 97. 9.25000000e+00
      1.02750000e+02 107. 23. 44. 101. 4. 72. 124. 48. 65. 99. 102. 29.
      25. 9.55000000e+01 65. 39. 13. 72. 1.14666672e+02 80. 120. 52. 86.
      100. 8.57500000e+01 7.67500000e+01 99. 31. 28. 1.02500000e+02 6.
      12. 58. 44. 7.61428604e+01 8.74285736e+01 22. 7.75000000e+01 122.
      64. 7.86666718e+01 98. 97. 32. 9. 123. 56. 48. 124. 10. 11. 83.
      108. 6.75000000e+01 86. 91. 5. 34. 82. 42. 14. 122. 59. 56. 73.
      3.36250000e+01 9.27500000e+01 1.18250000e+02 15. 86.
      9.73333359e+01 87.</_>
    <_>
      117. 57. 106. 61. 110. 59. 97. 21. 34. 118. 101. 20. 101. 38. 34.
      6. 50. 102. 107. 28. 3. 90. 113. 93. 112. 29. 102. 84. 108. 40.
      48. 98. 11. 84. 98. 10. 104. 36. 4. 3.75000000e+01 124. 84. 9. 59.
      122. 105. 36. 94. 55. 117. 13. 82. 103. 18. 45. 123. 112. 36. 117.
      81. 9. 57. 117. 113. 37. 92. 3. 74. 105. 8. 43. 122. 113. 31. 111.
      114. 27. 7.75000000e+01 110. 88. 11. 43. 101. 112. 36. 79. 15. 68.
      122. 5. 30. 119. 109. 31. 35. 44. 107. 82. 7. 44. 108. 109. 31.
      73. 8. 6.25000000e+01 5. 69. 113. 15. 36. 118. 30. 17. 105. 29.
      115. 93. 118. 11. 101. 86. 5. 41. 107. 118. 3. 19.</_>
    <_>
      1.17500000e+02 4.45000000e+01 87. 75. 86. 77. 4.85000000e+01
      1.15000000e+01 49. 3. 26. 6.76666718e+01 25. 3. 121. 71. 106.
      1.02500000e+02 38. 3. 62. 1.09666672e+02 4.43333359e+01
      1.03666672e+02 8. 11. 116. 107. 100. 57. 6. 62. 15. 124. 103. 105.
      37. 13. 124. 3. 7.57500000e+01 2.17500000e+01 101. 52. 5. 67.
      1.19333336e+02 96. 7.74000015e+01 1.02599998e+02 29. 8.
      1.01666672e+02 24. 79. 3.43333359e+01 90. 84. 6.52500000e+01
      8.05000000e+01 37. 5. 106. 55. 3.33333359e+01 7.86666718e+01 7.
      67. 1.13750000e+02 57. 38. 5.45000000e+01 76. 7. 30. 36. 94. 97.
      36. 11. 1.96000004e+01 8.24000015e+01 51. 62. 80. 49. 110. 49. 16.
      99. 4. 101. 64. 6. 72. 10. 91. 100. 32. 14. 6.36666679e+01
      5.06666679e+01 1.45000000e+01 2.85000000e+01 16. 5.83333359e+01
      47. 8.55000000e+01 122. 55. 29. 90. 114. 17. 88. 1.22200005e+02
      5.95000000e+01 4. 37. 64. 2.75000000e+01 101. 75. 12. 84. 94. 35.
      6.</_>
    <_>
      105. 9. 6.04000015e+01 1.26000004e+01 51. 66. 27. 3. 112.
      1.35000000e+01 47. 65. 4.65000000e+01 1.75000000e+01 119. 95.
      2.36000004e+01 6.95999985e+01 108. 14. 79. 49. 38. 54.
      1.09250000e+02 4.17500000e+01 105. 18. 7.45000000e+01 41.
      8.66666698e+00 56. 9.43333359e+01 8.86666718e+01 32. 49. 71.
      1.86666679e+01 103. 20. 70. 51. 38. 88. 3.85000000e+01
      3.45000000e+01 9. 71. 101. 21. 64. 49. 15. 77. 9.85000000e+01
      6.87500000e+01 6.55999985e+01 1.17800003e+02 8. 8. 118. 88.
      1.23500000e+02 10. 28. 56. 6.04000015e+01 9.02000046e+01
      2.62500000e+01 1.21750000e+02 4.56666679e+01 4.31666679e+01 106.
      23. 3. 28. 62. 48. 13. 78. 18. 57. 103. 25. 22. 48. 61. 44.
      5.50000000e+00 100. 15. 82. 14. 66. 96. 39. 8.45000000e+01
      6.35000000e+01 21. 45. 57. 51. 3. 24. 21. 93. 9.56666718e+01 46.
      42. 4.50000000e+00 1.11250000e+02 96. 31. 68. 99. 39.
      1.17500000e+02 37. 4.66666698e+00 46. 113. 78. 91. 38.
      1.05750000e+02 1.18750000e+02 8.53333359e+01 1.17666672e+02</_>
    <_>
      12. 123. 10. 122. 8. 116. 9. 114. 33. 21. 5. 90. 53. 118. 27. 23.
      39. 1.45000000e+01 15. 83. 7. 25. 5. 39. 64. 114. 49. 71. 7. 20.
      123. 5. 21. 36. 22. 88. 30. 113. 5. 49. 10. 23. 81. 110. 9. 9. 18.
      81. 79. 114. 82. 6.15000000e+01 23. 95. 34. 110. 5. 59. 13. 44.
      37. 23. 70. 57. 14. 39. 27. 11. 76. 115. 43. 32. 9. 18. 18. 70.
      13. 98. 42. 110. 16. 1.35000000e+01 6. 61. 34. 3.85000000e+01 9.
      45. 59. 58. 17. 39. 40. 9. 77. 112. 70. 65. 40. 30. 12. 14.
      1.75000000e+01 95. 45. 65. 68. 107. 35. 7. 51. 1.17500000e+02 13.
      96. 44. 116. 3. 73. 6. 74. 38. 18. 5. 42. 51. 71. 22. 38.</_>
    <_>
      5. 31. 23. 28. 6. 44. 22. 122. 12. 51. 4. 111. 19. 4.
      2.65000000e+01 123. 1.23500000e+02 1.00500000e+02 5. 3. 38. 113.
      118. 124. 28. 67. 43. 6.15000000e+01 3. 83. 3. 94. 71. 101. 122.
      1.25000000e+01 14. 47. 15. 113. 25. 43. 14. 4. 1.06666670e+01
      1.21666672e+02 45. 117. 120. 121. 1.36666670e+01 62.
      1.19333336e+02 68. 52. 78. 9. 84. 31. 52. 5. 113. 8. 5. 50. 118.
      122. 117. 53. 76. 75. 116. 3. 85. 113. 5. 21. 53. 7. 116. 51. 28.
      8. 22. 2.03333340e+01 2.26666679e+01 61. 107. 49. 123. 117. 96.
      52. 63. 9. 92. 123. 27. 1.53333340e+01 19. 23. 48. 4.93333359e+01
      1.02333336e+02 6. 123. 13. 54. 27. 27. 11. 15. 59. 106. 45. 119.
      1.18500000e+02 21. 124. 93. 65. 84. 19. 74. 47. 57. 5. 96.</_>
    <_>
      5.55000000e+01 56. 35. 79. 111. 14. 34. 81. 36. 86. 12. 62. 26.
      113. 15. 116. 8. 114. 101. 94. 45. 78. 1.07666672e+02 50.
      2.25000000e+01 6.02500000e+01 24. 108. 19. 68. 18. 110. 49. 57. 3.
      104. 94. 6. 47. 57. 5. 103. 46. 55. 1.02333336e+02 6. 12. 105.
      1.19166672e+02 7.15000000e+01 45. 60. 8. 101. 40. 59. 31. 88. 29.
      52. 26. 92. 1.08500000e+02 1.20500000e+02 37. 57. 16.
      3.33333349e+00 27. 90. 109. 31. 8.75000000e+00 8.52500000e+01 37.
      61. 122. 16. 118. 95. 4.95000000e+01 87. 22. 78. 36. 117. 115. 50.
      9.85000000e+01 3.25000000e+01 36. 66. 100. 6.95000000e+01
      1.16500000e+02 120. 117. 22. 119. 93. 106. 105. 20. 83. 36. 109.
      1.65000000e+01 5.45000000e+01 116. 40. 102. 15. 3.15000000e+01 65.
      118. 8. 122. 88. 112. 111. 121. 26. 8. 78. 49. 82. 122.
      1.04500000e+02</_>
    <_>
      74. 63. 65. 82. 7.57500000e+01 34. 65. 101. 52. 3.35000000e+01 58.
      78. 62. 35. 56. 81. 1.07250000e+02 9.50000000e+00 6. 122.
      1.47500000e+01 1.08250000e+02 65. 54. 53. 79. 57. 76. 57. 86. 60.
      68. 95. 1.10125000e+02 1.22250000e+02 1.62500000e+01
      6.33333349e+00 95. 6.26666679e+01 113. 2.58000011e+01
      4.52000008e+01 54. 103. 47. 37. 39. 8. 50. 99. 58. 57.
      9.45714340e+01 2.90000019e+01 42. 114. 1.06125000e+02
      8.81250000e+01 50. 75. 39. 80. 57. 59. 3.25000000e+01 75. 52. 70.
      24. 75. 6.27500000e+01 3.75000000e+00 8.05000000e+01
      1.52500000e+01 50. 45. 29. 76. 1.15333336e+02 117. 42. 44. 37. 88.
      21. 60. 36. 90. 7.45000000e+01 8.05000000e+01 1.05000000e+01 65.
      2.23333340e+01 6.96666718e+01 37. 92. 121. 3.85000000e+01
      8.35000000e+01 86. 25. 2.65000000e+01 35. 6.75000000e+01 31.
      9.55000000e+01 8.36666718e+01 5.43333359e+01 81. 75.
      3.65000000e+01 5.25000000e+01 5.66666698e+00 4.76666679e+01 31.
      65. 3.25000000e+01 111. 95. 53. 8.24000015e+01 9.88000031e+01
      4.57500000e+01 5.85000000e+01 45. 124. 2.23333340e+01 92.</_>
    <_>
      6.85000000e+01 8.05000000e+01 59. 101. 4.50000000e+00
      1.07250000e+02 1.92500000e+01 4.75000000e+01 75. 75. 30. 65.
      7.25000000e+01 2.15000000e+01 6. 99. 87. 124. 112. 111. 49. 107.
      11. 93. 77. 85. 60. 114. 57. 31. 3.75000000e+01 119. 59. 82.
      4.87142868e+01 7.78571472e+01 6. 90. 78. 87. 9.33333359e+01 52.
      8.83333359e+01 2.36666660e+01 25. 9.55000000e+01 8.66666698e+00
      62. 18. 92. 45. 32. 1.01500000e+02 1.05500000e+02 2.75000000e+01
      1.55000000e+01 6.56666718e+01 12. 44. 99. 116. 14. 20. 91. 47. 35.
      89. 95. 1.67500000e+01 71. 19. 33. 65. 35. 1.01714287e+02
      8.71428604e+01 1.21666672e+02 64. 1.09333336e+02 121. 50.
      5.95000000e+01 2.72500000e+01 7.65000000e+01 7.64000015e+01
      9.88000031e+01 1.22500000e+02 28. 5. 82. 55. 39. 13.
      1.09250000e+02 83. 1.12666672e+02 3.85000000e+01 39.
      7.35000000e+01 38. 31. 92. 1.15500000e+02 34. 5.46666679e+01
      3.33333349e+00 4. 80. 44. 45. 9.23333359e+01 1.04333336e+02
      2.65000000e+01 111. 7.75000000e+01 6.50000000e+00 3.37500000e+01
      5.17500000e+01 84. 4.73333359e+01 3.05000000e+01 89. 121. 44. 109.
      3. 7.36666718e+01 5.96666679e+01</_>
    <_>
      88. 15. 4.75000000e+01 3.50000000e+00 33. 51. 58. 4.
      9.66666718e+01 7.86666718e+01 38. 63. 71. 54. 5.26666679e+01 113.
      1.95000000e+01 7.52500000e+01 52. 35. 3.35000000e+01 119. 18. 23.
      6.96666718e+01 6.66666718e+01 88. 3.25000000e+01 1.09200005e+02
      9.60000038e+00 2.65000000e+01 5.25000000e+01 12. 30. 91. 17.
      6.66666718e+01 1.95000000e+01 1.02500000e+02 1.22750000e+02 68.
      38. 3. 90. 1.75000000e+01 40. 33. 60. 83. 22. 61. 35.
      2.57500000e+01 9.07500000e+01 4.43333359e+01 7.65000000e+01 29. 8.
      9. 1.07666672e+02 55. 54. 79. 1.12666672e+02 29. 80.
      3.86000023e+01 38. 88. 5.85000000e+01 80. 17. 9.88000031e+01
      9.58000031e+01 2.25000000e+01 111. 4.75000000e+01 58. 71.
      1.01333336e+02 50. 68. 7.62000046e+01 9.14000015e+01 3. 69. 25.
      6.75000000e+01 5. 117. 1.37500000e+01 5.15000000e+01
      1.15333336e+02 3.38333359e+01 6.45000000e+01 8.05000000e+01 80.
      4.73333359e+01 7.85000000e+01 2.55000000e+01 83. 124. 7. 93.
      4.63333359e+01 101. 38. 56. 90. 1.04750000e+02 1.23333340e+01
      6.96666718e+01 1.11800003e+02 1.14200005e+02 1.18500000e+02 64.
      123. 8.55000000e+01 21. 65. 71. 38. 7.35000000e+01 6.50000000e+00
      1.63333340e+01 9.36666718e+01 51. 84.</_>
    <_>
      66. 106. 58. 14. 7.41666718e+01 5.26666679e+01 52. 114. 66. 97.
      60. 17. 6.95000000e+01 86. 64. 38. 31. 124. 69. 101. 38.
      3.35000000e+01 59. 25. 1.15333336e+02 61. 2.16666679e+01 112.
      7.05000000e+01 95. 4.07142868e+01 7.78571472e+01 14. 23.
      7.75000000e+01 2.52500000e+01 25. 8. 1.05750000e+02 7.50000000e+00
      9.26666718e+01 7.86666718e+01 23. 88. 14. 7.56666718e+01 67. 38.
      22. 90. 75. 1.12666672e+02 33. 37. 2.16666679e+01 7.43333359e+01
      5. 1.09250000e+02 4.87500000e+01 3.75000000e+00 8.46666718e+01 34.
      88. 59. 121. 1.06250000e+02 23. 92. 119. 8.55000000e+01 81. 95.
      11. 33. 6.05000000e+01 8.05000000e+01 7.43333359e+01
      9.33333397e+00 6.55000000e+01 2.15000000e+01 2.92500000e+01
      5.65000000e+01 67. 75. 9.45000000e+01 9.35000000e+01
      4.22500000e+01 1.03500000e+02 1.11333336e+02 3.38333359e+01
      1.55000000e+01 92. 81. 103. 28. 41. 46. 5.66666679e+01 104. 111.
      53. 6.55000000e+01 51. 82. 72. 1.75000000e+01 1.12500000e+01
      4.75000000e+01 95. 1.75000000e+01 7. 93. 15. 98. 79. 124.
      8.97500000e+01 1.05250000e+02 28. 6.45000000e+01 1.01333336e+02
      121. 2.83333340e+01 4.73333359e+01 51. 35. 9.80000019e+00
      6.68000031e+01</_>
    <_>
      38. 4. 6.32500000e+01 1.08250000e+02 1.13599998e+02 1.88000011e+01
      55. 3. 110. 104. 1.86000004e+01 38. 42. 14. 9. 8. 103. 97. 43. 25.
      3.92500000e+01 1.08750000e+02 60. 4.73333359e+01 107. 110. 44. 17.
      2.33333340e+01 1.04333336e+02 101. 114. 5. 6.75000000e+01 80. 82.
      6.40000010e+00 8.85999985e+01 52. 10. 8.25000000e+01
      1.22750000e+02 78. 79. 48. 20. 1.20333336e+02 43. 100. 79.
      9.53333359e+01 3.38333359e+01 93. 118. 72. 75. 1.35000000e+01 119.
      51. 23. 7.53333359e+01 1.04666672e+02 1.57500000e+01
      5.85000000e+01 5.31666679e+01 9.33333359e+01 68. 5.85000000e+01
      1.15200005e+02 9.32000046e+01 94. 11. 87. 3. 89. 117. 76. 93. 52.
      18. 26. 69. 6.23333359e+01 2.43333340e+01 95. 13. 69. 37. 119.
      121. 7. 50. 1.05500000e+02 5.32500000e+01 6.05000000e+01
      1.19500000e+02 90. 109. 81. 94. 6.95000000e+01 16. 83. 3. 116.
      123. 4.07999992e+01 3.62000008e+01 2.75000000e+01 3.50000000e+00
      4.13333359e+01 81. 1.13500000e+02 7. 30. 5.66666679e+01
      5.25000000e+01 58. 87. 18. 86. 113. 4.75000000e+01 69.
      2.51666679e+01 7.91666718e+01 65. 95.</_>
    <_>
      1.14250000e+02 9.42500000e+01 76. 94. 78. 94. 8. 114. 76. 105. 82.
      113. 85. 117. 2.13750000e+01 7.66250000e+01 26. 5.66666679e+01
      2.65000000e+01 106. 111. 20. 5.37500000e+01 49. 11. 124. 89. 118.
      90. 66. 86. 109. 100. 56. 99. 8.55000000e+01 1.07666672e+02
      9.33333397e+00 32. 114. 1.05666672e+02 9.06666718e+01
      9.13333359e+01 3.38333359e+01 4.95000000e+01 86. 88. 14.
      1.15400002e+02 5.07999992e+01 121. 121. 123. 122. 75.
      8.05000000e+01 56. 2.25000000e+01 8.33333397e+00 7.06666718e+01
      59. 124. 72. 92. 4.75000000e+00 5.92500000e+01 112. 123. 68. 75.
      68. 39. 72. 94. 115. 121. 7.85000000e+01 1.22750000e+02 64.
      5.85000000e+01 62. 35. 8.83333397e+00 4.21666679e+01
      5.05000000e+01 95. 97. 114. 47. 75. 63. 28. 47. 1.01333336e+02 71.
      106. 13. 6. 1.23500000e+02 109. 4.26666679e+01 37. 6.55000000e+01
      16. 23. 3.42500000e+01 6.35000000e+01 102. 4.43750000e+01
      1.62500000e+01 16. 99. 119. 101. 3.13333340e+01 3.66666675e+00
      3.73333359e+01 81. 45. 6.25000000e+01 81. 3. 20. 103. 55.
      1.12666672e+02 104. 108.</_>
    <_>
      12. 69. 8. 101. 54. 3.25000000e+01 1.05000000e+01 80.
      1.35000000e+01 77. 4.91666679e+01 2.03333340e+01 13. 86. 21. 82.
      99. 8.75000000e+01 3.05000000e+01 8.05000000e+01 9.95999985e+01
      1.88000011e+01 45. 60. 95. 48. 7.78000031e+01 1.14200005e+02 94.
      108. 90. 87. 21. 101. 3.95000000e+01 6.50000000e+00 1.35000000e+01
      5.67500000e+01 99. 41. 9.95000000e+01 95. 88. 84. 4.05000000e+01
      9.81666718e+01 112. 31. 37. 75. 1.11666672e+02 6.03333359e+01 109.
      9.35000000e+01 15. 1.14750000e+02 116. 75. 89. 97. 7.96666718e+01
      3.43333359e+01 1.35000000e+01 3.50000000e+00 9.95000000e+01 7.
      113. 122. 1.19428574e+02 3.91428604e+01 39. 85. 1.25714293e+01
      3.62857170e+01 119. 56. 1.20500000e+02 112. 58. 59. 8.05000000e+01
      12. 111. 121. 40. 87. 119. 51. 124. 103. 6.85000000e+01
      1.22750000e+02 1.22500000e+02 9.27500000e+01 61. 77. 73. 18.
      3.26666679e+01 1.95000000e+01 105. 121. 4.83333359e+01 112. 24. 4.
      4.17999992e+01 4.36000023e+01 1.10500000e+02 44. 1.11500000e+02
      105. 80. 44. 6.31428604e+01 9.82857208e+01 66. 82. 71. 3.
      8.45000000e+01 28. 8.53333359e+01 61. 102. 123. 3.35000000e+01
      5.85000000e+01</_>
    <_>
      74. 14. 6.45000000e+01 1.22750000e+02 98. 123. 13. 39. 119.
      1.08333336e+02 15. 31. 25. 1.55000000e+01 1.11000008e+02
      3.95714302e+01 50. 5.85000000e+01 54. 39. 4. 3.35000000e+01 123.
      4.72500000e+01 44. 4.75000000e+01 101. 121. 38. 47. 109. 122. 97.
      20. 23. 35. 76. 66. 107. 121. 84. 5.85000000e+01 3.16666679e+01
      5.96666679e+01 3.36000023e+01 1.48000002e+01 3.05000000e+01 78.
      121. 71. 91. 48. 8.50000000e+00 8.35000000e+01 112. 75. 90. 108.
      30. 38. 35. 85. 5.92500000e+01 9.50000000e+00 6.07999992e+01
      9.58000031e+01 42. 2.25000000e+01 3.44000015e+01 9.88000031e+01 3.
      53. 45. 124. 1.21333336e+02 8.63333359e+01 95. 41. 85. 97.
      7.73333359e+01 3.38333359e+01 25. 25. 7. 7.62500000e+01 36. 87.
      21. 81. 1.17500000e+02 96. 1.07666672e+02 6.03333359e+01
      5.86666679e+01 7.86666718e+01 33. 38. 9.36666718e+01
      9.33333397e+00 51. 1.02800003e+02 1.35000000e+01 5.55000000e+01
      1.47500000e+01 3.75000000e+00 9.18333359e+01 8.93333359e+01 105.
      9.35000000e+01 124. 123. 1.34000006e+01 1.08599998e+02 115.
      5.35000000e+01 7.03333359e+01 113. 4.86666679e+01 3.03333340e+01
      41. 1.12666672e+02 8.66666698e+00 6.43333359e+01 105. 101. 79.
      116.</_>
    <_>
      13. 3. 1.11500000e+02 96. 6.56666718e+01 119. 6.13333359e+01 109.
      6.84000015e+01 2.07000008e+01 1.22333336e+02 88. 77. 114.
      3.95000000e+01 5.35000000e+01 92. 123. 3.45000000e+01
      4.65000000e+01 95. 121. 48. 39. 82. 110. 15. 5. 79. 97.
      1.03833336e+02 4.06666679e+01 4.05000000e+01 2.97500000e+01 121.
      2.93999996e+01 84. 110. 106. 75. 79. 8.55000000e+01 31. 3. 6. 68.
      48. 59. 86. 104. 8.95714340e+01 1.54285717e+01 4.02000008e+01
      1.88000011e+01 115. 71. 18. 14. 3. 14. 5.45000000e+01
      9.35000000e+01 2.75000000e+01 1.03500000e+02 4. 71. 89.
      8.75000000e+01 100. 63. 1.18400002e+02 1.07599998e+02 102.
      1.21500000e+02 14. 28. 74. 5.67500000e+01 3.35000000e+01
      1.13500000e+02 57. 123. 5.26666679e+01 7.86666718e+01
      1.18250000e+02 3.95000000e+01 3.50000000e+00 77. 94.
      9.85000000e+01 8.63333359e+01 4.56666679e+01 20. 17.
      5.25000000e+00 54. 39. 124. 1.87500000e+01 3.75000000e+01 7. 84.
      1.15333336e+02 8.63333359e+01 96. 9.36666718e+01 1.02500000e+02
      59. 28. 10. 45. 1.02800003e+02 2.26666679e+01 7.86666718e+01
      1.06500000e+02 110. 109. 5.35000000e+01 2.92000008e+01
      9.18000031e+01 1.16666670e+01 1.09666672e+02 2.63333340e+01
      2.03333340e+01 38. 111. 2.56666679e+01 5.96666679e+01</_>
    <_>
      1.16000004e+01 3.64000015e+01 8.35999985e+01 1.88000011e+01 73.
      62. 71. 55. 3.55000000e+01 6.35000000e+01 1.14875000e+02
      3.15000000e+01 78. 51. 55. 3. 56. 1.18500000e+02 1.19750000e+02
      8.72500000e+01 7.53333359e+01 87. 64. 44. 38. 3.25000000e+01 83.
      96. 2.35000000e+01 6.50000000e+00 8. 60. 1.12500000e+02
      1.07250000e+02 80. 45. 8.75000000e+01 122. 73. 97. 95. 121. 118.
      48. 84. 94. 3.95000000e+01 16. 83. 41. 80. 104. 18. 1.83333340e+01
      1.22400002e+02 68. 1.20800003e+02 1.02800003e+02 97. 122.
      4.50000000e+00 44. 4.86666679e+01 8.91666718e+01 8.35000000e+01 7.
      1.04500000e+02 73. 86. 85. 30. 1.15500000e+02 3.06666679e+01
      2.06666679e+01 6.15000000e+01 34. 96. 31. 9.33333397e+00
      7.33333349e+00 77. 110. 124. 8. 98. 109. 104. 4.23333359e+01
      9.56666718e+01 6.03333359e+01 3. 85. 1.07800003e+02 9.02000046e+01
      93. 101. 4. 114. 28. 28. 6.83333359e+01 3.03333340e+01 96.
      4.23333359e+01 71. 114. 1.06500000e+02 111. 4.08333359e+01
      1.03166672e+02 103. 5.35000000e+01 62. 14. 1.93999996e+01
      8.15999985e+01 93. 9.35000000e+01 2.77500000e+01 49. 7. 114.
      2.23999996e+01 9.88000031e+01 17. 24. 64. 66.</_>
    <_>
      8.12500000e+01 9.12500000e+01 94. 31. 94. 4.23333359e+01
      1.19333336e+02 107. 1.22500000e+02 1.16500000e+02 9.95000000e+01
      43. 57. 117. 98. 75. 31. 124. 113. 108. 107. 41. 71.
      8.93333359e+01 30. 111. 56. 111. 6. 39. 2.15000000e+01
      6.50000000e+00 114. 87. 40. 59. 116. 48. 1.13166672e+02
      3.05000000e+01 1.07333336e+02 8.63333359e+01 31. 81. 117. 102.
      119. 39. 2.55000000e+01 1.13500000e+02 2.03999996e+01
      9.88000031e+01 5. 3. 38. 105. 1.03250000e+02 110. 92. 63.
      5.05000000e+01 1.22750000e+02 5. 1.10500000e+02 16. 38. 56. 33.
      6.55000000e+01 3.15000000e+01 53. 3. 91. 96. 105. 9.86666718e+01
      1.46666670e+01 1.95000000e+01 1.38333340e+01 79. 4.66666679e+01
      8.91666718e+01 3.43333359e+01 1.63333340e+01 7.32000046e+01
      4.72000008e+01 121. 6.12500000e+01 104. 33. 33. 99. 7. 5.
      4.55000000e+01 1.05500000e+02 6.65000000e+01 64. 8.15999985e+01
      1.88000011e+01 61. 118. 8.15000000e+01 7. 9.45000000e+01 59. 101.
      5.35000000e+01 121. 7.66666718e+01 8.97500000e+01 1.21750000e+02
      60. 14. 107. 71. 7.42500000e+01 1.09500000e+02 19. 38. 37. 37.
      2.61666679e+01 5.26666679e+01 3.08000011e+01 2.58000011e+01
      1.22500000e+02 7.</_>
    <_>
      14. 35. 102. 25. 85. 86. 17. 34. 15. 17. 20. 56. 23. 29. 28. 28.
      46. 7. 32. 7. 100. 75. 45. 12. 8. 89. 47. 3. 50. 49. 66. 78.
      1.05000000e+01 9. 41. 13. 49. 7. 47. 51. 82. 39. 35. 34. 74. 78.
      65. 4. 35. 17. 4.95000000e+01 63. 3.55000000e+01 57. 3. 67. 50.
      38. 58. 4. 54. 56. 96. 82. 24. 87. 111. 82. 91. 26. 76. 84. 31.
      14. 16. 79. 27. 6. 39. 42. 69. 3. 77. 33. 45. 66. 108. 83. 62. 81.
      44. 91. 113. 31. 83. 83. 29. 11. 8. 83. 6. 19. 29. 37. 64. 7. 45.
      64. 109. 80. 4.05000000e+01 83. 55. 63. 115. 28. 42. 90. 102. 33.
      83. 88. 35. 7. 3. 90. 113. 78.</_>
    <_>
      1.05000000e+01 75. 15. 72. 1.08333336e+02 36. 109. 24. 6. 62.
      1.00333336e+02 57. 119. 28. 5. 52. 106. 8.85000000e+01 7. 46. 123.
      53. 13. 36. 84. 5.35000000e+01 124. 76. 1.17500000e+02
      6.50000000e+00 117. 31. 21. 41. 24. 43. 110. 75. 9.56666718e+01
      3.53333359e+01 19. 66. 122. 124. 120. 90. 10. 97. 91. 3.
      1.14500000e+02 67. 122. 49. 21. 45. 85. 78. 9.77500000e+01
      1.04500000e+02 29. 44. 110. 73. 9.25000000e+01 91. 100. 122.
      3.35000000e+01 71. 8. 92. 93. 15. 107. 5.55000000e+01 20. 50. 33.
      66. 1.10500000e+02 64. 97. 97. 20. 101. 104. 12. 3.32500000e+01
      39. 104. 51. 102. 79. 17. 48. 120. 2.05000000e+01 100. 24. 29. 62.
      118. 6.25000000e+01 8.25000000e+01 1.65000000e+01 90. 104. 20. 93.
      40. 45. 98. 8. 120. 46. 103. 77. 5.33333349e+00 4.16666679e+01
      1.02250000e+02 6.25000000e+00 14. 50. 86. 3. 87. 30.</_>
    <_>
      3. 28. 5. 31. 9. 36. 36. 74. 1.05333336e+02 8.86666718e+01 22. 32.
      37. 72. 37. 76. 2.85000000e+01 32. 6.95000000e+01 4.25000000e+01
      2.95000000e+01 5.92500000e+01 8.24000015e+01 8.28000031e+01 31.
      7.95000000e+01 1.62000008e+01 9.22000046e+01 55. 5.83333359e+01 9.
      43. 39. 64. 5.33333359e+01 8.83333359e+01 8. 53. 35.
      5.15000000e+01 31. 94. 11. 49. 65. 85. 46. 3.95000000e+01 57.
      1.82500000e+01 5.65000000e+01 6.75000000e+01 90. 1.00750000e+02
      34. 96. 7.59999990e+00 87. 1.55000000e+01 102. 4.52500000e+01
      2.65000000e+01 14. 51. 110. 66. 4.05000000e+01 4.15000000e+01 123.
      120. 65. 66. 1.14714294e+02 1.04142860e+02 93. 2.92500000e+01 42.
      98. 21. 44. 108. 63. 58. 41. 9.02500000e+01 4.22500000e+01 25.
      7.55000000e+01 7.45000000e+01 6.45000000e+01 71. 1.06666672e+02
      122. 1.73333340e+01 7.73333359e+01 6.66666698e+00 46. 110.
      2.23333340e+01 5.36666679e+01 102. 59. 94. 1.16000004e+01 57. 43.
      1.45000000e+01 7.55000000e+01 8.26666718e+01 6.63333359e+01
      2.33999996e+01 120. 7.66666718e+01 21. 45. 1.19500000e+02
      9.63333359e+01 8.56666718e+01 31. 49. 26. 1.36666670e+01
      1.08500000e+02 7.75000000e+01 48. 47. 3. 72.</_>
    <_>
      1.22750000e+02 4.05000000e+01 7.37500000e+01 18. 61. 15. 10. 74.
      49. 16. 1.25000000e+01 80. 1.04666672e+02 6.26666679e+01 59. 23.
      63. 38. 22. 76. 66. 124. 51. 19. 72. 47. 6.06666679e+01 97.
      2.13999996e+01 120. 25. 5.85000000e+01 8.47500000e+01 95. 24. 75.
      8.50000000e+00 9.12500000e+01 1.06800003e+02 7.98000031e+01
      4.65000000e+01 25. 67. 65. 97. 8.68000031e+01 95. 12. 27. 82.
      8.19999981e+00 4.64000015e+01 37. 64. 40. 28. 100. 43. 120. 123.
      52. 55. 4.37500000e+01 4.25000000e+01 3.05000000e+01 95. 81. 81.
      34. 50. 3.45000000e+01 3.65000000e+01 1.19250000e+02
      1.02500000e+02 8.05000000e+01 42. 52. 87. 17. 9.16666718e+01
      1.93333340e+01 50. 116. 17. 56. 41. 97. 21. 3.37500000e+01
      7.47500000e+01 4.15000000e+01 103. 2.38000011e+01 2.92000008e+01
      17. 98. 88. 3.13333340e+01 3. 120. 29. 49. 63. 85. 7. 106. 116.
      95. 23. 1.05000000e+01 79. 66. 55. 43. 5.42000008e+01 64. 92. 42.
      48. 83. 41. 1.16500000e+02 8.27500000e+01 6.50000000e+00 32.
      5.55000000e+01 9.83333359e+01 113.</_>
    <_>
      5. 36. 18. 32. 1.18333336e+02 2.13333340e+01 2.23333340e+01
      3.13333340e+01 5. 43. 86. 3.13333340e+01 4.42500000e+01
      2.02500000e+01 118. 1.15666672e+02 24. 5.96666679e+01
      4.56666679e+01 4.23333359e+01 7.85000000e+01 75. 8. 106. 3. 47.
      9.43333359e+01 8.83333359e+01 6.66666718e+01 9.53333359e+01
      8.95000000e+01 9.75000000e+00 42. 110. 41. 1.19500000e+02 10. 51.
      101. 90. 15. 98. 85. 9.66666718e+01 1.23200005e+02 9.68000031e+01
      17. 44. 106. 89. 7.85000000e+01 42. 38. 98. 1.83333340e+01
      5.36666679e+01 64. 12. 7.55000000e+01 5.50000000e+00 35. 64. 112.
      97. 77. 59. 14. 9.15000000e+01 1.04500000e+02 7.75000000e+01 25.
      82. 77. 124. 3.43333359e+01 3.46666679e+01 22. 1.36666670e+01 53.
      6.42500000e+01 27. 49. 4.75000000e+01 61. 117. 1.01500000e+02 70.
      47. 17. 92. 84. 81. 3.17500000e+01 7.47500000e+01 1.21666672e+02
      4.73333359e+01 1.93999996e+01 120. 21. 7.55000000e+01
      7.26666718e+01 21. 3.06666679e+01 5.36666679e+01 52. 53. 116. 93.
      5.46666679e+01 30. 1.02666672e+02 6.26666679e+01 6.73333359e+01
      65. 2.85000000e+01 95. 1.05000000e+01 7.55000000e+01
      7.25000000e+00 90. 95. 21. 5.22500000e+01 8.75000000e+01 94.
      4.25000000e+01 9.63333359e+01 113.</_>
    <_>
      1.00666672e+02 6.26666679e+01 6.50000000e+00 7.02500000e+01
      1.21666672e+02 48. 96. 114. 100. 112. 7.35000000e+01
      5.50000000e+00 7.64000015e+01 8.28000031e+01 111. 110.
      7.66666718e+01 6.63333359e+01 3.93333359e+01 1.16333336e+02 67. 9.
      8.17500000e+01 33. 117. 102. 116. 123. 65. 19. 1.44000006e+01
      5.12000008e+01 113. 101. 57. 15. 75. 124. 39. 41. 21. 28. 114. 93.
      52. 41. 6.85000000e+01 6.45000000e+01 30. 50. 59. 38. 20. 32.
      1.02500000e+02 7.75000000e+01 3.23333359e+01 3.46666679e+01 110.
      97. 55. 23. 51. 43. 2.65000000e+01 51. 92. 4.25000000e+01 16. 32.
      89. 79. 45. 16. 44. 5.05000000e+01 3.05000000e+01 61.
      2.96666679e+01 96. 87. 113. 73. 4.65000000e+01 20. 34.
      4.91666679e+01 6.31666679e+01 89. 87. 1.73999996e+01 120. 20.
      1.36666670e+01 47. 19. 54. 52. 22. 5.96666679e+01 2.03333340e+01
      7.76666718e+01 2.97500000e+01 7.47500000e+01 83. 9.66666718e+01
      5.66666679e+01 97. 7.35000000e+01 22. 3. 43. 4. 120.
      8.93333359e+01 1.35000000e+01 9.77500000e+01 8.92500000e+01
      5.03333359e+01 85. 1.19666672e+02 1.93333340e+01 4.03333359e+01
      25. 8.44444466e+00 9.12222214e+01 59. 66.</_>
    <_>
      9.03333359e+01 113. 21. 7.95000000e+01 11. 122. 8.83333359e+01
      8.83333359e+01 4. 119. 7.63333359e+01 42. 82. 3. 3. 116.
      1.15599998e+02 1.58000002e+01 1.00666672e+02 74. 86. 12. 12. 117.
      64. 47. 96. 77. 94. 55. 7.80000019e+00 9.44000015e+01
      3.75000000e+01 123. 86. 19. 3. 110. 5. 7.55000000e+01
      3.42500000e+01 113. 71. 66. 71. 124. 1.11800003e+02 9.82000046e+01
      1.72000008e+01 32. 50. 4.06666679e+01 2.25000000e+01 51.
      9.75000000e+01 8.95000000e+01 4.95000000e+01 91. 88. 12. 24. 96.
      6.73333359e+01 6.66666698e+00 32. 98. 3.45000000e+01 23.
      1.18500000e+02 48. 18. 20. 18. 7. 7.77500000e+01 29. 78. 12.
      1.14333336e+02 1.15666672e+02 26. 50. 45. 1.93333340e+01 78. 99.
      92. 23. 15. 7.55000000e+01 21. 94. 2.13333340e+01 5.93333359e+01
      13. 123. 12. 14. 85. 79. 3.33333359e+01 33. 3.57500000e+01
      4.25000000e+01 6.06666679e+01 1.86666679e+01 2.72500000e+01
      7.15000000e+01 59. 65. 44. 55. 7.95000000e+01 9.55000000e+01
      4.62000008e+01 64. 123. 6.95000000e+01 114. 28. 7.24000015e+01
      8.28000031e+01 3. 106. 1.08333340e+01 5.28333359e+01
      1.55000000e+01 119.</_>
    <_>
      112. 50. 1.14000006e+01 120. 6.74000015e+01 6.55999985e+01 119.
      39. 30. 25. 110. 123. 86. 4.25000000e+01 30. 31. 8.35000000e+01
      1.15750000e+02 7.57500000e+01 29. 116. 19. 4.04000015e+01
      2.16000004e+01 7. 98. 87. 8.68000031e+01 27. 64. 121. 46. 80. 3.
      23. 34. 86. 1.65000000e+01 112. 28. 33. 121. 1.20599998e+02
      1.38000002e+01 3.66666675e+00 8.73333359e+01 56. 98.
      5.75000000e+01 4.25000000e+01 38. 83. 46. 41. 32. 39. 113. 19. 8.
      9.25000000e+01 93. 61. 53. 85. 43. 91. 45. 43. 1.16500000e+02
      1.08750000e+02 26. 39. 2.23999996e+01 7.62000046e+01 44.
      6.25000000e+01 1.38000002e+01 2.92000008e+01 9.68000031e+01
      7.98000031e+01 7.04000015e+01 8.28000031e+01 61. 9. 7.03333359e+01
      7.66666698e+00 1.07500000e+02 9.82500000e+01 106. 17.
      3.36666679e+01 1.11666672e+02 121. 81. 3.50000000e+00
      1.14500000e+02 2.36666679e+01 96. 9.66666698e+00 7.53333359e+01
      36. 40. 13. 1.05000000e+01 98. 66. 77. 9.66666718e+01 52. 98. 36.
      47. 31. 44. 42. 55. 49. 68. 120. 68. 5.86666679e+01 1.86666679e+01
      1.04000006e+01 5.27999992e+01 2.05000000e+01 55. 7.05000000e+01
      42.</_>
    <_>
      8.63333359e+01 8.98333359e+01 4.25714302e+01 6.35714302e+01 84.
      4.25000000e+01 1.21666672e+02 9.33333359e+01 28. 98. 108. 123. 10.
      59. 5. 98. 6.26666679e+01 6.26666679e+01 103. 110. 15. 60.
      2.17500000e+01 7.47500000e+01 120. 114. 3. 90. 49. 15. 88. 114.
      17. 60. 3.46000023e+01 22. 9.75000000e+00 3.55000000e+01
      5.85000000e+01 8.75000000e+01 7.32500000e+01 108. 118. 113. 6.
      9.25000000e+01 9.26666718e+01 6.26666679e+01 104. 17. 47. 23. 42.
      53. 92. 112. 20. 58. 7.95000000e+01 9.75000000e+00 92. 77.
      1.85000000e+01 95. 8. 14. 6.95000000e+01 70. 85. 21. 26.
      1.19500000e+02 6.26666679e+01 21. 9.50000000e+00 54. 41. 124. 107.
      1.01500000e+02 25. 64. 1.11666672e+02 22. 1.15333336e+02 45. 97.
      78. 4. 78. 7.37500000e+01 33. 14. 7. 4.86666679e+01 97.
      7.14000015e+01 8.05999985e+01 1.14500000e+02 12. 3. 112.
      3.16666679e+01 1.11666672e+02 38. 85. 6.33333359e+01
      6.66666698e+00 6.03333359e+01 4.36666679e+01 1.96666679e+01
      5.06666679e+01 104. 95. 3.87500000e+01 4.27500000e+01 119.
      7.33333359e+01 1.23333340e+01 7.76666718e+01 1.35000000e+01 24.
      2.63999996e+01 3.74000015e+01 6. 53. 7.71428585e+00 1.19857147e+02</_>
    <_>
      45. 15. 4.46666679e+01 97. 81. 21. 1.17333336e+02 1.15666672e+02
      3.23333359e+01 1.86666679e+01 74. 3.15000000e+01 21. 64. 68. 31.
      7.55000000e+01 9.75000000e+00 32. 29. 53. 19. 43. 23.
      1.33333340e+01 5.93333359e+01 55. 9. 1.19500000e+02 8.25000000e+01
      1.07333336e+02 1.78333340e+01 47. 38. 6.59999990e+00
      3.18000011e+01 91. 6.45000000e+01 1.11333336e+02 45.
      2.55000000e+01 103. 7. 1.42500000e+01 16. 53. 60. 22. 71.
      9.66666718e+01 40. 41. 9.05000000e+01 7.75000000e+01 16. 96. 13.
      49. 63. 22. 123. 3. 102. 93. 39. 43. 25. 1.16500000e+02
      5.86666679e+01 6.26666679e+01 6.35000000e+01 8.75000000e+01
      8.95000000e+01 8.95000000e+01 3.85714302e+01 6.35714302e+01
      8.03333359e+01 8.83333359e+01 13. 94. 84. 59. 50. 124.
      9.03333359e+01 112. 119. 6.95000000e+01 18. 50. 104. 123. 6. 57.
      6.52000046e+01 7.58000031e+01 6.15000000e+01 5.50000000e+00
      1.77500000e+01 7.47500000e+01 1.21666672e+02 29. 6.16666679e+01
      4.36666679e+01 2.03333340e+01 3.46666679e+01 1.01333336e+02 100.
      38. 53. 80. 4.25000000e+01 117. 9.53333359e+01 6. 1.19500000e+02
      24. 25. 75. 113. 3.83333359e+01 85. 77. 79. 8.33333397e+00
      7.76666718e+01 2.77500000e+01 4.25000000e+01</_>
    <_>
      7.55000000e+01 4.75000000e+01 6.77500000e+01 33. 5. 3.43333359e+01
      40. 52. 8.86666718e+01 7.31666718e+01 5.66666679e+01 21. 45. 66.
      8. 7. 3.65000000e+01 6.75000000e+01 3. 17. 35. 124. 3.75000000e+01
      61. 67. 1.18500000e+02 43. 15. 33. 63. 7.53333359e+01
      1.35000000e+01 4.95000000e+01 4.25000000e+01 32. 54.
      8.19999981e+00 8.55999985e+01 37. 43. 30. 59. 122. 7.86666718e+01
      38. 41. 28. 47. 41. 23. 44. 98. 18. 39. 31. 16. 48. 98. 25. 41.
      99. 1.00599998e+02 33. 19. 6.67500000e+01 95. 19. 64. 113. 81.
      1.16250000e+02 9.35000000e+01 114. 114. 1.85000000e+01
      3.25000000e+01 5.73333359e+01 6.66666698e+00 7.50000000e+00 24.
      120. 120. 1.57500000e+01 7.47500000e+01 5.66666679e+01
      6.26666679e+01 1.36666670e+01 5.06666679e+01 4.66666698e+00
      1.20333336e+02 6.31666679e+01 7.73333359e+01 124. 8. 113. 46. 113.
      6.95000000e+01 75. 79. 112. 113. 2.63333340e+01 25. 3.33333359e+01
      8.83333359e+01 45. 85. 1.13333340e+01 5.93333359e+01 102. 123.
      1.14500000e+02 37. 104. 50. 1.21500000e+02 28. 2.31666679e+01 112.
      82. 8.88000031e+01 84. 113. 3.79999995e+00 5.36000023e+01
      1.05333336e+02 1.78333340e+01</_>
    <_>
      1.07333336e+02 45. 8.51428604e+01 8.22857208e+01 1.19500000e+02
      2.52500000e+01 28. 29. 95. 110. 80. 59. 2.36666679e+01
      1.11666672e+02 20. 28. 6.15000000e+01 70. 1.20333336e+02 82. 110.
      68. 33. 1.88000011e+01 6.57500000e+01 33. 76. 4.25000000e+01 9.
      7.95000000e+01 115. 7.25000000e+01 38. 52. 15. 76. 86. 63.
      1.03333336e+02 1.78333340e+01 35. 43. 6.25000000e+01
      8.21666718e+01 1.45000000e+01 73. 88. 66. 36. 41. 17. 64. 111. 81.
      59. 59. 24. 3.95000000e+01 101. 102. 6. 1.35000000e+01 112. 114.
      43. 38. 1.45000000e+01 3.65000000e+01 20. 98. 1.05000000e+01 95.
      1.05000000e+01 55. 97. 101. 100. 123. 4.36666679e+01
      9.36666718e+01 110. 113. 7.15000000e+01 9.75000000e+00 57.
      4.65000000e+01 28. 5.05000000e+01 33. 91. 3.31666679e+01
      6.31666679e+01 82. 113. 94. 97. 1.36666670e+01 1.19666672e+02 59.
      124. 43. 66. 124. 69. 49. 19. 77. 21. 21. 44. 28. 83. 71. 113. 98.
      93. 7.02000046e+01 9.35999985e+01 33. 124. 5.25000000e+01
      6.45000000e+01 113. 9.53333359e+01 5.53333359e+01 6.66666698e+00
      5.75000000e+01 22.</_>
    <_>
      98. 28. 1.97500000e+01 4.25000000e+01 92. 17. 1.86666679e+01
      2.83333340e+01 9.75000000e+00 7.47500000e+01 68. 42. 30.
      6.25000000e+01 66. 3. 13. 64. 25. 16. 45. 19. 67. 113. 24. 59. 67.
      33. 76. 114. 53. 4.65000000e+01 70. 1.56000004e+01 29. 124. 109.
      9.53333359e+01 76. 43. 108. 40. 30. 53. 96. 123. 60. 31. 94. 93.
      80. 112. 60. 93. 123. 7. 55. 38. 55. 59. 111. 7.25999985e+01
      6.50000000e+00 95. 98. 50. 8. 53. 5. 49. 8.15000000e+01
      8.95000000e+01 5.13333359e+01 6.66666698e+00 5.35000000e+01 22.
      120. 107. 1.01500000e+02 1.55000000e+01 40. 98. 91. 110. 117. 24.
      55. 124. 36. 19. 4.85000000e+01 6.45000000e+01 3.02500000e+01
      8.75000000e+01 16. 98. 8.06666718e+01 6.26666679e+01 10. 50. 6.
      59. 65. 30. 35. 68. 34. 4.06666679e+01 5.72000008e+01
      7.58000031e+01 1.73999996e+01 1.14800003e+02 8. 34. 1.16333336e+02
      82. 107. 1.13500000e+02 7.15000000e+01 86. 8.25000000e+01
      7.75000000e+01 4. 19. 9.33333359e+01 100. 24. 20.</_>
    <_>
      54. 46. 51. 59. 5.35000000e+01 70. 6.66666698e+00 3.23333359e+01
      51. 38. 1.46666670e+01 106. 35. 38. 7.03333359e+01 113. 68.
      4.25000000e+01 7.85000000e+01 7.75000000e+01 44. 47. 62.
      3.15000000e+01 69. 21. 9.53333359e+01 1.78333340e+01
      4.45000000e+01 6.45000000e+01 56. 31. 9.85000000e+01 48. 101. 98.
      7.75000000e+01 8.95000000e+01 28. 41. 5.24000015e+01
      8.28000031e+01 33. 15. 41. 19. 101. 39. 58. 99. 1.16666670e+01
      4.06666679e+01 123. 85. 1.22333336e+02 21. 106. 94. 27. 43. 43. 9.
      108. 35. 62. 95. 108. 94. 18. 4.35000000e+01 1.86000004e+01 22.
      1.19400002e+02 111. 48. 22. 36. 98. 8.96666718e+01 1.04333336e+02
      113. 25. 6.40000010e+00 7.25999985e+01 1.11200005e+02
      7.64000015e+01 57. 96. 110. 88. 31. 68. 51. 22. 26. 95. 88. 95.
      2.43333340e+01 6.05000000e+01 110. 29. 15. 1.19500000e+02
      6.75000000e+01 86. 5. 5.15000000e+01 2.63333340e+01 85.
      7.66666718e+01 6.26666679e+01 31. 23. 6.35000000e+01
      9.75000000e+00 92. 123. 103. 1.13500000e+02 51. 124. 103.
      6.95000000e+01 30. 52. 4.95000000e+01 5.50000000e+00</_>
    <_>
      7.63333359e+01 112. 20. 54. 111. 7.15000000e+01 1.95000000e+01 61.
      121. 85. 25. 60. 112. 78. 107. 4.17500000e+01 5.04000015e+01
      8.28000031e+01 58. 3.13333340e+01 24. 65. 111. 80. 66.
      4.25000000e+01 26. 62. 101. 81. 52. 46. 25. 70. 7.68000031e+01
      7.98000031e+01 1.16400002e+02 2.12000008e+01 58. 7.50000000e+00
      1.20200005e+02 115. 117. 105. 49. 38. 33. 85. 114. 107. 42. 47.
      33. 66. 9.55000000e+01 1.55000000e+01 108. 88. 1.83333340e+01
      1.86666679e+01 29. 23. 49. 59. 31. 15. 79. 5.95000000e+01
      8.75000000e+01 9.82500000e+01 102. 114. 28. 52. 41. 64.
      4.46666679e+01 21. 9.66666698e+00 4.06666679e+01 49. 124. 100.
      113. 28. 4.06666679e+01 44. 65. 70. 23. 5.25000000e+00
      7.15000000e+01 90. 123. 41. 9. 6.75000000e+00 2.82500000e+01 103.
      9.53333359e+01 2.13333340e+01 8.83333359e+01 18. 29. 120. 76.
      1.15000000e+01 103. 89. 2.25000000e+01 67. 8.68000031e+01
      5.15000000e+01 70. 6.46666718e+01 1.43333340e+01 58.
      1.00750000e+02 101. 6.95000000e+01 16. 4.35000000e+01
      4.75000000e+01 5.50000000e+00 34. 98. 1.34000006e+01 118.</_>
    <_>
      82. 97. 85. 101. 89. 102. 86. 93. 98. 68. 2.92500000e+01 94. 121.
      105. 99. 1.13500000e+02 1.13500000e+02 106. 8. 2.72000008e+01 97.
      98. 124. 94. 3. 45. 1.01333336e+02 1.03333340e+01 6.63333359e+01
      113. 31. 19. 39. 9. 123. 92. 40. 47. 1.11666672e+02 2.76666679e+01
      4. 47. 4.55000000e+01 5.50000000e+00 31. 38. 47. 124.
      1.12250000e+02 7.57500000e+01 121. 4.55000000e+01 102. 94. 5. 64.
      1.13333340e+01 1.16333336e+02 58. 3. 104. 94. 9. 44.
      7.35000000e+01 8.95000000e+01 7.45000000e+01 7.75000000e+01 54.
      12. 5.93333359e+01 4.36666679e+01 103. 7.25000000e+01
      2.25714302e+01 6.35714302e+01 6. 53. 61. 79. 4.55000000e+01 22.
      99. 81. 2.35000000e+01 42. 8.55000000e+01 1.16500000e+02
      6.43333359e+01 8.83333359e+01 58. 3.15000000e+01 3. 37.
      9.75000000e+01 4.25000000e+01 17. 16. 106. 88. 1.18599998e+02
      1.14400002e+02 16. 5.05000000e+01 58. 95. 4.95000000e+01
      3.45000000e+01 4.54000015e+01 6.55999985e+01 16. 20.
      4.84000015e+01 8.28000031e+01 1.19500000e+02 82. 26. 52. 64.
      1.65000000e+01 8.97500000e+01 2.07500000e+01 7.26666718e+01
      6.26666679e+01 1.46666670e+01 8.93333359e+01 5.35000000e+01
      9.75000000e+01</_>
    <_>
      6.75000000e+00 1.08250000e+02 5.55000000e+01 9.75000000e+00 43.
      124. 6.86666718e+01 6.26666679e+01 4.45000000e+01 42. 36. 47.
      7.05000000e+01 7.75000000e+01 6. 4.92500000e+01 1.35000000e+01 61.
      19. 60. 86. 28. 17. 124. 105. 7.15000000e+01 3. 72. 52.
      1.00750000e+02 4.97500000e+01 29. 1.21250000e+02 40. 18. 65.
      1.14599998e+02 1.14400002e+02 14. 54. 9.13333359e+01 45.
      1.05500000e+02 79. 20. 62. 22. 52. 100. 35. 84. 123.
      9.87500000e+01 8.92500000e+01 19. 70. 19. 43. 102. 29.
      4.51666679e+01 7.73333359e+01 114. 76. 1.15500000e+02 82. 27. 66.
      123. 95. 1.21333336e+02 5.23333359e+01 20. 41. 6.28333359e+01
      8.71666718e+01 35. 9. 9.43333359e+01 1.08333336e+02 105. 25.
      1.26666670e+01 2.21666679e+01 3.26666679e+01 9.53333359e+01 80.
      17. 120. 93. 43. 59. 27. 38. 61. 21. 95. 6.95000000e+01 64. 43.
      121. 23. 8.15000000e+01 9.82500000e+01 1.82500000e+01
      8.75000000e+01 117. 105. 3.65000000e+01 6.45000000e+01
      3.26666679e+01 1.86666679e+01 8.95000000e+01 1.55000000e+01
      4.15000000e+01 5.50000000e+00 7.03333359e+01 112. 1.17333336e+02
      1.16666670e+01 56. 42. 123. 121. 1.16500000e+02 28. 1.09500000e+02
      106.</_>
    <_>
      1.19333336e+02 107. 20. 52. 1.62000008e+01 64. 6.85000000e+01
      7.75000000e+01 5. 1.13750000e+02 82. 123. 1.15666672e+02
      4.43333359e+01 47. 1.18500000e+02 34. 47. 62. 114. 1.12500000e+02
      11. 4.25000000e+01 42. 48. 99. 93. 1.13500000e+02 1.63333340e+01
      85. 68. 63. 1.21666672e+02 1.19666672e+02 66. 112. 62. 59. 77.
      110. 47. 96. 3.66666679e+01 21. 91. 98. 8.33333397e+00
      5.86666679e+01 25. 66. 52. 95. 1.25000000e+01 4.15000000e+01 23.
      15. 11. 16. 15. 124. 41. 59. 81. 1.01500000e+02 13. 19. 70. 66.
      3.45000000e+01 6.45000000e+01 93. 46. 1.18333336e+02 87. 80. 93.
      7.33333349e+00 2.66666679e+01 84. 50. 4.35000000e+01 70.
      3.73333359e+01 6.66666698e+00 91. 39. 76. 97. 7.46666718e+01
      2.26666679e+01 9.88571472e+01 7.44285736e+01 2.26666679e+01 97.
      98. 92. 21. 23. 120. 59. 43. 7.96666718e+01 55. 83. 5.32000008e+01
      3.57999992e+01 1.00333336e+02 2.96666679e+01 1.12599998e+02
      1.14400002e+02 6.37500000e+01 8.92500000e+01 54. 1.16000004e+01
      1.07500000e+02 106. 8.75000000e+01 1.55000000e+01 4.66666698e+00
      4.73333359e+01 2.15000000e+01 3.95000000e+01 113. 7.75000000e+01
      1.19333336e+02 2.75000000e+01 4.15000000e+01 8.75000000e+01</_>
    <_>
      9.16666698e+00 2.16666679e+01 104. 69. 102. 78. 6.65000000e+01
      7.75000000e+01 101. 80. 64. 112. 98. 88. 2.08000011e+01
      4.42000008e+01 60. 114. 3.12000008e+01 1.08000002e+01 80. 123. 98.
      74. 45. 1.18500000e+02 75. 110. 92. 71. 5.33333359e+01
      1.35000000e+01 10. 85. 4.04000015e+01 8.28000031e+01 23. 85. 117.
      28. 77. 101. 90. 68. 6.55000000e+01 8.95000000e+01 81. 102. 111.
      80. 1.08400002e+02 1.12800003e+02 91. 81. 46. 99. 89. 98. 115.
      1.33333340e+01 116. 93. 1.19833336e+02 1.16166672e+02
      1.23500000e+02 80. 13. 124. 63. 61. 14. 95. 58. 89. 94. 94. 121.
      95. 3.74000015e+01 6.55999985e+01 3. 104. 8.73333359e+01 45. 24.
      98. 68. 66. 50. 95. 96. 94. 124. 97. 8.65000000e+01 12. 74. 97.
      45. 96. 60. 43. 4. 1.13500000e+02 91. 1.13500000e+02 14.
      6.23750000e+01 1.12666672e+02 1.05666672e+02 6. 70. 4.61666679e+01
      3.66666679e+01 1.14750000e+02 48. 8.17500000e+01 2.07500000e+01 3.
      9. 78. 93. 3.75000000e+01 22. 9.83333359e+01 2.96666679e+01 53.
      83.</_>
    <_>
      75. 101. 74. 95. 54. 1.65000000e+01 1.08500000e+02 106. 79. 102.
      36. 81. 87. 98. 40. 71. 110. 47. 1.07500000e+02 1.14250000e+02 39.
      79. 1.17666672e+02 1.16666672e+02 8.35000000e+01 1.55000000e+01
      123. 75. 39. 69. 112. 44. 6.45000000e+01 7.75000000e+01
      3.75000000e+01 8.75000000e+01 1.22500000e+02 8.45000000e+01 21.
      85. 9.92500000e+01 7.52500000e+01 113. 42. 42. 79. 92. 94.
      1.36666670e+01 6.43333359e+01 32. 65. 48. 3. 93. 3.47999992e+01
      45. 9.66666718e+01 119. 40. 11. 124. 89. 6.95000000e+01 51. 79.
      70. 5.96666679e+01 94. 94. 1.26666670e+01 9.41666718e+01 29. 64.
      17. 23. 3.58333359e+01 1.26666670e+01 120. 24. 45. 44. 58. 51. 51.
      87. 9.25000000e+01 8.45000000e+01 1.43333340e+01 4.53333359e+01
      23. 17. 119. 35. 5.63333359e+01 113. 37. 59. 4.37500000e+01 33.
      37. 124. 7.55000000e+01 1.16500000e+02 6.25000000e+00
      2.12500000e+01 89. 1.13500000e+02 1.18333336e+02 95.
      1.08500000e+02 11. 5.97500000e+01 8.92500000e+01 1.14200005e+02
      2.66000004e+01 2.55000000e+01 4.25000000e+01 123. 1.85000000e+01
      77. 2.25000000e+01 116. 59. 109. 80. 7. 4.75000000e+01</_>
    <_>
      98. 107. 8.13333359e+01 1.16666672e+02 33. 66. 1.10200005e+02
      2.66000004e+01 4.55000000e+01 9.75000000e+00 40. 99. 101. 105.
      8.87500000e+01 8.92500000e+01 39. 96. 107. 105. 19. 17. 12. 52.
      1.15400002e+02 1.14800003e+02 63. 5.95000000e+01 1.01500000e+02
      1.15500000e+02 5. 63. 39. 1.18500000e+02 104. 112. 9.50000000e+00
      61. 50. 4.25000000e+01 124. 110. 117. 122. 101. 7. 8. 65. 5.
      1.22500000e+02 3.15000000e+01 22. 1.19800003e+02 7.42000046e+01
      1.12500000e+02 94. 7.73333359e+01 1.78333340e+01 1.13500000e+02
      108. 21. 65. 36. 46. 44. 95. 105. 80. 107. 114. 8.73333359e+01 71.
      9. 70. 33. 38. 56. 113. 1.17500000e+02 1.97500000e+01 7.
      1.93333340e+01 5.03333359e+01 8.83333359e+01 113. 121.
      9.55000000e+01 79. 3.35000000e+01 8.75000000e+01 1.34000006e+01
      9.25999985e+01 9.75000000e+00 3.97500000e+01 26. 47. 73.
      1.00166672e+02 47. 79. 1.10599998e+02 4.16000023e+01
      1.16500000e+02 57. 42. 3.13333340e+01 109. 115. 6.05000000e+01
      7.75000000e+01 1.22250000e+02 9.15000000e+01 124. 39. 98. 69. 89.
      3.47999992e+01 2.93333340e+01 6.66666698e+00 51. 21. 35.
      7.96666718e+01 4.50000000e+00 53. 5.95000000e+01 8.95000000e+01</_>
    <_>
      5.83333349e+00 3.93333359e+01 97. 7. 9.03333359e+01 7.73333359e+01
      7.35999985e+01 1.58000002e+01 46. 4.25000000e+01 72. 50.
      1.13500000e+02 80. 37. 9.66666718e+01 5.67999992e+01
      7.98000031e+01 81. 6.95000000e+01 1.11400002e+02 1.14800003e+02
      118. 92. 8.15000000e+01 96. 4.33333359e+01 1.35000000e+01 106. 91.
      13. 85. 81. 81. 120. 113. 3.25000000e+01 79. 123. 9.35000000e+01
      70. 123. 81. 1.13500000e+02 29. 8.53333359e+01 16. 124.
      6.76666718e+01 1.04333336e+02 9.55000000e+01 106. 32. 71. 53. 61.
      96. 115. 31. 69. 72. 28. 111. 1.21500000e+02 58. 66.
      5.59999990e+00 5.62000008e+01 103. 105. 29. 59. 124. 39.
      4.83333359e+01 113. 80. 4.25000000e+01 68. 93. 99. 116.
      2.25000000e+01 6.45000000e+01 9.86666718e+01 7.46666718e+01 87.
      32. 119. 7.02500000e+01 1.06599998e+02 4.16000023e+01
      3.57500000e+01 29. 87. 91. 64. 97. 100. 112. 2.76666679e+01
      4.36666679e+01 120. 55. 2.53333340e+01 6.66666698e+00
      1.05833336e+02 2.46666679e+01 9. 9.52500000e+01 91. 25. 43. 79.
      1.09500000e+02 108. 9. 68. 108. 59. 1.62500000e+01 1.97500000e+01
      1.18750000e+02 1.95000000e+01 48. 8.87500000e+01 104.
      1.14500000e+02</_>
    <_>
      10. 98. 5. 5.35000000e+01 124. 88. 1.21166672e+02 1.45000000e+01
      3.50000000e+00 61. 116. 88. 2.92000008e+01 7.58000031e+01
      1.04200005e+02 2.66000004e+01 6.55000000e+01 9.82500000e+01
      5.25000000e+00 38. 3. 70. 33. 1.18500000e+02 120. 94. 34. 99. 63.
      110. 8.22500000e+01 9.35000000e+01 14. 98. 5.46666679e+01
      7.31666718e+01 116. 93. 3.45000000e+01 3.05000000e+01
      4.23333359e+01 8.56666718e+01 116. 95. 1.15750000e+02
      1.16750000e+02 3.55000000e+01 9.55000000e+01 104. 93. 11. 85. 112.
      78. 109. 95. 103. 42. 2.75000000e+01 8.75000000e+01 95. 7.
      6.33333349e+00 14. 111. 82. 92. 107. 7.53333359e+01 1.16666672e+02
      109. 3.75000000e+01 9.46666718e+01 7.78333359e+01 11. 66.
      8.63333359e+01 2.96666679e+01 1.07571434e+02 1.14857147e+02 50.
      113. 48. 51. 8.13333359e+01 71. 7.13333359e+01 1.78333340e+01 95.
      105. 101. 4.55000000e+01 27. 59. 102. 15. 2.83999996e+01 7. 25.
      4.65000000e+01 1.18833336e+02 7.11666718e+01 3.95000000e+01
      3.75000000e+01 79. 81. 44. 1.65000000e+01 1.03500000e+02 106.
      7.53333359e+01 45. 5.13333359e+01 8.86666718e+01 124. 32.
      1.10500000e+02 57. 2.05000000e+01 6.45000000e+01 1.13500000e+02
      21. 27. 38. 2.26666679e+01 21. 9.75000000e+01 1.14250000e+02</_>
    <_>
      96. 2.63333340e+01 106. 88. 1.19333336e+02 6.43333359e+01 120.
      105. 96. 59. 69. 6.95000000e+01 111. 92. 117. 4.85000000e+01
      7.22500000e+01 9.35000000e+01 106. 93. 123. 40. 99. 95. 106. 95.
      1.83999996e+01 8.28000031e+01 99. 1.21500000e+02 105. 55. 13. 43.
      1.05333336e+02 7.03333359e+01 6.16000023e+01 1.58000002e+01 76.
      74. 108. 113. 118. 2.63333340e+01 4. 74. 112. 71. 9.15000000e+01
      89. 8.63333359e+01 1.14333336e+02 35. 21. 90. 47. 1.95000000e+01
      70. 123. 75. 1.18400002e+02 8.48000031e+01 7.95000000e+01 79.
      1.01500000e+02 80. 123. 60. 5.55000000e+01 9.82500000e+01
      9.35000000e+01 106. 4.45000000e+01 7.75000000e+01 27. 34.
      9.25000000e+01 43. 4.26666679e+01 6.26666679e+01 4.77500000e+01
      1.14750000e+02 1.51428576e+01 1.02142860e+02 1.05000000e+01
      6.45000000e+01 124. 99. 89. 7.75000000e+01 8.35000000e+01 106.
      123. 7. 4.13333359e+01 8.86666718e+01 1.33333340e+01
      6.66666698e+00 69. 81. 8.85000000e+01 11. 99. 3.75000000e+01
      9.93333359e+01 1.13833336e+02 17. 59. 49. 4.65000000e+01
      1.09857147e+02 1.48571434e+01 119. 9.33333359e+01 1.02500000e+01
      2.37500000e+01 82. 69. 92. 1.14500000e+02 3.12500000e+01 88.
      2.95000000e+01 9.75000000e+00 69. 1.13500000e+02 7.08333359e+01
      3.36666679e+01</_>
    <_>
      44. 76. 44. 81. 87. 8. 43. 106. 10. 113. 13. 112. 102.
      5.24000015e+01 43. 72. 119. 75. 2.03333340e+01 20. 3. 103.
      1.04500000e+02 6.75000000e+00 63. 77. 22. 109. 4.85000000e+01 5.
      6.25000000e+01 5.31666679e+01 121. 92. 74. 36. 5.87999992e+01
      1.06400002e+02 9.78333359e+01 1.00500000e+02 3.46666679e+01
      6.66666698e+00 1.73333340e+01 8.85000000e+01 3. 59. 12. 106. 12.
      1.65000000e+01 1.20857147e+02 2.15714302e+01 72. 70. 26. 76. 26.
      58. 78. 49. 29. 89. 27. 56. 117. 45. 32. 53. 75. 52. 28. 87. 122.
      6. 1.09200005e+02 2.68000011e+01 12. 54. 62. 79. 9.50000000e+00
      3.53750000e+01 87. 57. 29. 40. 114. 9. 48. 60. 108. 108. 7. 113.
      11. 80. 7.15000000e+01 1.09250000e+02 124. 8. 20. 8.33333397e+00
      7.05000000e+01 28. 1.03500000e+02 83. 3. 4. 11. 52. 7.13333359e+01
      7.73333359e+01 97. 88. 90. 5.45000000e+01 33. 35. 1.13500000e+02
      97. 9.63333359e+01 8.66666698e+00 4.92500000e+01 3.25000000e+01
      47. 53. 8.67500000e+01 1.04750000e+02</_>
    <_>
      1.18750000e+02 50. 4.75000000e+01 1.02333336e+02 7.75999985e+01
      1.01200005e+02 1.19599998e+02 7.15999985e+01 1.05000000e+01 35.
      78. 40. 86. 118. 79. 20. 1.19500000e+02 1.12500000e+02 8. 74.
      1.21200005e+02 12. 5. 48. 86. 106. 79. 24. 9.85000000e+01 82. 79.
      31. 106. 81. 6.15000000e+01 5.81666679e+01 8.75000000e+01 41. 117.
      85. 86. 25. 115. 85. 104. 6.75000000e+01 5.24000015e+01
      5.54000015e+01 1.04500000e+02 4.62500000e+01 6.45000000e+01
      3.45000000e+01 40. 6. 87. 31. 51. 10. 3.52000008e+01
      1.22599998e+02 4.66666679e+01 3.56666679e+01 7. 9. 17. 72. 107.
      86. 31. 38. 77. 43. 99. 14. 74. 13. 13. 104. 1.14333336e+02 100.
      77. 52. 9.85000000e+01 17. 69. 11. 19. 98. 6.72500000e+01
      9.07500000e+01 1.07599998e+02 3.77999992e+01 98. 104.
      1.21500000e+02 28. 7.65000000e+01 5.65000000e+01 8. 113. 69. 68.
      35. 1.06666670e+01 1.05500000e+02 2.65000000e+01 71. 14. 91. 5.
      20. 104. 102. 1.14333336e+02 111. 1.26666670e+01 82. 44.
      5.36666679e+01 80. 6.13750000e+01 2.38750000e+01 1.15333336e+02
      2.16666679e+01 65. 13. 2.86666679e+01 99.</_>
    <_>
      5.75000000e+01 26. 60. 36. 45. 99. 5.43333359e+01 4.45000000e+01
      50. 13. 47. 96. 28. 4. 3.82500000e+01 1.21500000e+02 42. 12. 45.
      92. 30. 121. 14. 35. 6.26666679e+01 81. 1.18750000e+02
      1.15500000e+02 40. 106. 24. 39. 5.95000000e+01 70. 9.84000015e+01
      1.04800003e+02 40. 101. 2.15000000e+01 37. 3.17142868e+01
      6.00000038e+01 50. 67. 9. 7.45999985e+01 19. 113. 4.55000000e+01
      2.95000000e+01 124. 12. 8.67500000e+01 79. 42. 82. 9.33333397e+00
      3.23333359e+01 27. 104. 56. 1.23500000e+02 46. 2.35000000e+01 34.
      80. 21. 106. 3.36666679e+01 3.46666679e+01 24. 43. 8.48571472e+01
      6.15714302e+01 1.20500000e+02 9.75000000e+01 31. 78. 24. 102.
      1.04888893e+02 6.77777786e+01 21. 28. 29. 44. 19. 7.72500000e+01
      22. 101. 61. 7. 5.66666698e+00 1.56666670e+01 49. 6.
      1.17500000e+01 1.18750000e+02 8.94000015e+01 5. 61. 52.
      3.25000000e+01 43. 9.01428604e+01 2.15714302e+01 76.
      4.27500000e+01 8.50000000e+00 68. 12. 90. 1.19500000e+02
      8.22500000e+01 3.65000000e+01 2.05000000e+01 80. 1.13500000e+02
      65. 22. 2.52500000e+01 1.55000000e+01 39. 48. 1.06666672e+02
      4.66666679e+01 8.75000000e+00 5.77500000e+01</_>
    <_>
      5.53333359e+01 51. 8.14000015e+01 6.45999985e+01 7.54000015e+01
      4.96000023e+01 1.02666672e+02 4.66666679e+01 1.14750000e+02
      1.15500000e+02 1.20500000e+02 7.50000000e+00 102. 61. 61. 22.
      9.13333359e+01 75. 56. 36. 1.22500000e+02 8.16666718e+01
      3.95000000e+01 87. 97. 71. 3.92500000e+01 2.45000000e+01 35. 48.
      2.85000000e+01 43. 106. 62. 5.05000000e+01 45. 91. 119. 25. 44.
      108. 62. 13. 1.23500000e+02 8. 90. 54. 25. 92. 114. 30. 80. 101.
      74. 53. 27. 23. 12. 76. 1.13500000e+02 1.21666672e+02
      3.13333340e+01 8.75000000e+00 3.02500000e+01 15. 82. 106. 73.
      4.62000008e+01 8.19999981e+00 46. 3.45000000e+01 83.
      7.83333349e+00 39. 1.00500000e+02 81. 79. 2.06666679e+01
      1.66666679e+01 8. 1.15333336e+02 102. 96. 7. 7.63333359e+01 118.
      96. 31. 3.55000000e+01 3.45000000e+01 1.65000000e+01
      5.55000000e+01 75. 3.26000023e+01 1.21400002e+02 95. 17. 98. 98.
      15. 7.56666718e+01 70. 31. 1.14333336e+02 81. 9.66666698e+00 62.
      52. 1.23500000e+02 24. 4. 27. 33. 2.77142868e+01 6.00000038e+01 5.
      20. 8.23333359e+01 26. 1.87500000e+01 39. 1.95000000e+01
      1.03250000e+02 89. 97. 27. 78.</_>
    <_>
      1.21500000e+02 7.50000000e+00 46. 123. 50. 37. 4.55000000e+01 45.
      15. 28. 3.23333359e+01 1.86666679e+01 58. 82. 8.33333397e+00 33.
      1.21666672e+02 32. 4.50000000e+00 7.52500000e+01 62. 82. 48. 71.
      7.66666698e+00 62. 44. 67. 8.60000038e+00 1.16400002e+02 105. 62.
      31. 60. 50. 79. 27. 61. 59. 69. 23. 66. 1.00666672e+02
      4.66666679e+01 1.06800003e+02 1.00800003e+02 18. 60. 100. 60. 112.
      123. 1.75000000e+01 1.03250000e+02 7.36666718e+01 2.76666679e+01
      9.03333359e+01 2.33333340e+01 3.06000004e+01 1.21400002e+02
      3.97500000e+01 2.65000000e+01 1.13500000e+02 8.22500000e+01 11.
      74. 20. 59. 100. 62. 3.74000015e+01 9.88000031e+01 4.15000000e+01
      8.50000000e+00 54. 124. 13. 77. 30. 58. 1.01500000e+02
      7.35000000e+01 57. 1.45000000e+01 22. 4. 5.26000023e+01
      4.86000023e+01 2.35555553e+01 3.92222214e+01 118. 12. 15. 76.
      7.85000000e+01 63. 4.50000000e+00 49. 31. 56. 9.15000000e+01 70.
      1.92500000e+01 1.55000000e+01 13. 82. 7.75000000e+01 54.
      7.92000046e+01 8.80000019e+00 33. 48. 83. 8.06666718e+01 75.
      6.93333359e+01 93. 5. 5.15000000e+01 26. 2.96666679e+01 80.
      7.83333359e+01 108. 7.06666718e+01 4.66666679e+01 8.95000000e+01
      1.16500000e+02</_>
    <_>
      4. 58. 9. 61. 1.78000011e+01 1.31999998e+01 4. 51. 7. 123.
      1.20625000e+02 21. 124. 52. 38. 14. 17. 5.95000000e+01 21. 66.
      2.73333340e+01 5.96666679e+01 9.86666718e+01 4.66666679e+01 29.
      56. 3.54000015e+01 9.88000031e+01 4.73333359e+01 50.
      1.10666672e+02 1.03333336e+02 40. 24. 48. 37. 53. 7.
      2.76666679e+01 80. 36. 23. 72. 74. 42. 43. 9.23333359e+01 97. 40.
      31. 7.95000000e+01 8.15000000e+01 2.85000000e+01 2.05000000e+01
      7.35000000e+01 67. 57. 69. 5.46666679e+01 81. 35. 28. 9. 74.
      7.65000000e+01 63. 1.43333340e+01 3.76666679e+01 57. 22. 31. 48.
      90. 2.65000000e+01 3.50000000e+00 76. 3.50000000e+00
      6.95000000e+01 84. 79. 52. 4.66666679e+01 110. 123. 6. 29.
      2.15000000e+01 4.32500000e+01 48. 1.23500000e+02 4.95000000e+01
      26. 1.12857151e+01 1.04428574e+02 27. 3.55000000e+01
      1.16666670e+01 7.83333359e+01 7.97500000e+01 115. 87. 63.
      3.86666679e+01 7. 7.55000000e+01 54. 1.00800003e+02 6.37999992e+01
      44. 69. 1.13800003e+02 8.22000046e+01 2.86000004e+01
      1.21400002e+02 6.86666718e+01 4.66666679e+01 23. 33.
      3.50000000e+00 88. 8.16250000e+01 8.87500000e+00 92.
      7.27500000e+01 7.16666718e+01 2.76666679e+01 13. 28.</_>
    <_>
      80. 1.53333340e+01 79. 28. 6.95000000e+01 6. 2.08333340e+01
      6.06666679e+01 71. 22. 64. 31. 9.88000031e+01 6.37999992e+01 76.
      6.35000000e+01 4.51666679e+01 4.71666679e+01 3.50000000e+00
      1.01500000e+02 51. 7. 3. 92. 95. 45. 1.83999996e+01 4.24000015e+01
      50. 36. 46. 1.23500000e+02 124. 98. 3. 83. 100. 50. 3.32500000e+01
      2.45000000e+01 50. 2.46666679e+01 32. 82. 94. 97. 92. 27. 86.
      4.33333349e+00 40. 3.45000000e+01 9. 82. 107. 94. 71. 43.
      2.36666679e+01 3.46666679e+01 2.25000000e+01 79. 121. 82.
      1.26000004e+01 1.05200005e+02 3. 120. 1.08750000e+02
      1.15500000e+02 7. 1.23500000e+02 7.65000000e+01 119. 59. 49.
      8.03333359e+01 1.06333336e+02 5. 5.95000000e+01 37. 5.
      7.15000000e+01 7.15000000e+01 9. 77. 1.73333340e+01 14. 113. 86.
      71. 5.23333359e+01 31. 122. 28. 52. 4.05000000e+01 10.
      1.20750000e+02 4.27500000e+01 56. 82. 3.34000015e+01
      9.88000031e+01 1.14500000e+02 7.50000000e+00 2.36666679e+01 121.
      7. 74. 1.07500000e+02 83. 79. 8.06666718e+01 9.25000000e+00
      3.47500000e+01 32. 12. 5.05000000e+01 74. 11. 76. 110. 77. 42. 69.
      90. 7.27500000e+01</_>
    <_>
      9.65000000e+01 6.15000000e+01 97. 4.85000000e+01 7.45000000e+01
      1.01666670e+01 88. 7.27500000e+01 83. 63. 38. 67. 62. 31. 43. 75.
      45. 44. 41. 47. 38. 43. 1.35000000e+01 103. 1.52500000e+01 17. 44.
      49. 48. 36. 2.62500000e+01 1.21500000e+02 1.17333336e+02 29. 10.
      101. 46. 46. 38. 3.45000000e+01 24. 58. 3.50000000e+00
      9.85000000e+01 45. 54. 3. 59. 49. 7. 70. 108. 25. 56. 118.
      9.07500000e+01 25. 60. 1.12500000e+02 7.50000000e+00
      5.36666679e+01 7.76666718e+01 1.20500000e+02 5.85000000e+01 48.
      2.46666679e+01 105. 94. 27. 48. 106. 123. 19. 6.35000000e+01
      6.95000000e+01 7.15000000e+01 7.12000046e+01 5.97999992e+01
      3.25000000e+01 7. 1.04250000e+02 79. 9. 28. 1.55000000e+01 8.
      2.36666679e+01 80. 57. 49. 90. 35. 3.85000000e+01 10. 31.
      2.26000004e+01 8.83333359e+01 97. 2.17500000e+01 3.65000000e+01
      13. 5.95000000e+01 77. 8.06666718e+01 44. 1.23500000e+02 11.
      1.22500000e+02 1.31666670e+01 4.06666679e+01 66. 119.
      5.66666698e+00 7.48333359e+01 1.07500000e+02 108. 3.13999996e+01
      9.88000031e+01 7.43333359e+01 26. 6.65000000e+01 46.
      8.35000000e+01 1.16500000e+02 87. 5. 8. 1.09500000e+02</_>
    <_>
      34. 38. 32. 43. 30. 31. 124. 49. 20. 23. 25. 28. 86. 97. 21. 48.
      6.97500000e+01 115. 75. 97. 63. 22. 6.87500000e+01 79. 42. 36. 6.
      1.67500000e+01 100. 123. 24. 82. 2.53999996e+01 9.88000031e+01
      9.50000000e+00 8. 1.77500000e+01 5.87500000e+01 1.01500000e+02
      108. 6.72000046e+01 8.80000019e+00 84. 27. 8.33333397e+00
      6.16666679e+01 77. 67. 17. 18. 38. 4.65000000e+01 99. 94. 106. 34.
      18. 34. 118. 7.42000046e+01 2.83999996e+01 9.80000019e+00 47. 69.
