<?xml version="1.0"?>
<opencv_storage>
<opencv_ml_svm>
  <format>3</format>
  <svmType>C_SVC</svmType>
  <kernel>
    <type>LINEAR</type></kernel>
  <C>1.</C>
  <term_criteria><iterations>100</iterations></term_criteria>
  <var_count>64</var_count>
  <class_count>2</class_count>
  <class_labels type_id="opencv-matrix">
    <rows>2</rows>
    <cols>1</cols>
    <dt>i</dt>
    <data>
      -1 1</data></class_labels>
  <sv_total>1</sv_total>
  <support_vectors>
    <_>
      1.30552647e-03 -2.33707670e-03 -1.41618264e-04 -5.50345867e-04
      2.89474032e-03 1.22533459e-03 -2.35262007e-04 -2.77224754e-04
      -1.53904199e-03 2.00397102e-03 -3.04325513e-04 6.18113670e-04
      1.03204453e-03 -1.42945873e-03 -2.64340197e-03 -8.31509999e-04
      5.13064093e-04 1.13986328e-03 2.88600824e-03 2.08612051e-04
      3.44479107e-04 1.02130882e-03 -5.22550021e-04 -2.08815200e-05
      -3.87507724e-04 -5.32828446e-04 -8.48627766e-04 -1.37704553e-03
      -2.54312553e-03 -2.43842159e-03 -1.36120245e-03 -6.95102863e-05
      1.36369054e-04 -1.81060040e-03 2.12162780e-03 1.90644292e-04
      3.26257548e-04 1.91941927e-03 -1.92669604e-03 1.00408250e-03
      3.69693851e-04 -6.91826514e-04 -4.28939966e-04 5.99576044e-04
      9.37220815e-04 6.53394323e-04 1.81828998e-03 2.04629917e-03
      2.79593041e-05 -7.66115438e-04 2.64842832e-03 1.33777689e-03
      1.11663590e-04 1.90539192e-03 -1.20013312e-03 9.71934816e-04
      1.38226873e-03 -6.60235295e-04 -3.11761018e-04 -7.21935357e-05
      -4.08624765e-04 9.93172987e-04 1.32786308e-03 5.38338325e-04</_></support_vectors>
  <uncompressed_sv_total>145</uncompressed_sv_total>
  <uncompressed_support_vectors>
    <_>
      5.09444466e+01 1.16464294e+02 1.04285717e+01 8.14642868e+01
      3.15714302e+01 6.14137917e+01 9.70799942e+01 7.74285736e+01 40.
      2.27222233e+01 3.27777791e+00 1.23709671e+02 1.03555557e+02
      8.79333344e+01 4.44230804e+01 7.40714264e+01 5.94399986e+01
      6.74583359e+01 1.12444443e+02 4.84375000e+01 5.35909119e+01
      1.07519997e+02 1.20590912e+02 9.25294113e+01 2.83750000e+01
      3.65000000e+01 1.82500000e+01 7.15294113e+01 1.14409096e+02
      8.33809509e+01 1.45384617e+01 6.56250000e+01 5.47619057e+00
      1.01300003e+02 8.10344791e+00 2.56000023e+01 9.94761887e+01
      9.45238113e+01 86. 30. 46. 4.24347839e+01 5.50000038e+01 38.
      1.22000008e+02 6.35000000e+01 5.74285736e+01 35. 2.04166679e+01
      1.25000000e+01 56. 118. 9.05000000e+01 3.37058830e+01
      1.65000000e+01 6.94399948e+01 7.95000000e+01 1.05650002e+02
      1.10479996e+02 119. 47. 1.09000008e+02 85. 76.</_>
    <_>
      8.44166718e+01 3.94545479e+01 123. 1.65333347e+01 7.23333359e+01
      9.82000046e+01 57. 2.75454559e+01 3.33333349e+00 112.
      6.53684235e+01 49. 79. 3.65333366e+01 7.00000048e+00
      2.34285717e+01 4.35789490e+01 1.17947372e+02 7.45333405e+01
      1.24615393e+01 1.02500000e+02 20. 9.01428604e+01 5.95833359e+01
      68. 1.07090912e+02 3.16666679e+01 22. 9.34000015e+01
      7.64285736e+01 53. 1.14882355e+02 8.14666672e+01 3.42142868e+01
      6.30000038e+01 1.20500000e+02 2.95333347e+01 4.15714302e+01 61.
      5.66666698e+00 7.03571472e+01 1.45000010e+01 8.66666641e+01 47.
      51. 1.04200005e+02 1.09571434e+02 9.55555534e+00 11.
      2.54285717e+01 58. 5.57500000e+01 69. 67. 8. 38. 64.
      1.00250000e+02 4.50000038e+01 33. 9.53333359e+01 46. 18.
      6.20000038e+01</_>
    <_>
      2.45238094e+01 92. 6.06190491e+01 1.20545456e+02 4.72222214e+01
      1.08400002e+02 7.55000000e+01 3.65652199e+01 3.53846169e+00 84.
      1.51739130e+01 6.88846207e+01 2.90967731e+01 5.45263176e+01
      1.13966675e+02 95. 8.47826099e+00 4.05454559e+01 5.21944466e+01
      8.95333405e+01 1.00959999e+02 2.00769234e+01 3.36000023e+01
      7.99259262e+01 6.43571472e+01 1.16526314e+02 1.25909090e+01
      1.10888893e+02 1.03466675e+02 6.63333359e+01 7.15000000e+01
      4.95217400e+01 98. 1.18000008e+02 7.37058792e+01 1.23571434e+02
      3.14285717e+01 5.84736862e+01 2.65454559e+01 91. 4.47777786e+01
      6.53846169e+00 1.75454559e+01 1.05588234e+02 2.24117641e+01
      8.65294113e+01 6.30000038e+01 8.26956558e+01 3.84375000e+01 77.
      5.60000038e+01 1.22000008e+02 4.25263176e+01 93. 119. 107. 85.
      1.04666672e+01 35. 78. 62. 88. 5. 57.</_>
    <_>
      3. 8.44166718e+01 4.95882339e+01 1.07846161e+02 3.26500015e+01
      6.16190491e+01 4.24285736e+01 2.74210529e+01 7.56086960e+01
      1.36000004e+01 1.15545456e+02 1.22200005e+02 9.76666718e+01 69.
      15. 57. 2.26000004e+01 7.85789490e+01 9.05454559e+01
      5.25833359e+01 105. 6.45000000e+01 7.44444466e+00 8.63571472e+01
      1.02466675e+02 4.65000000e+01 3.60434799e+01 1.85384617e+01
      7.15882339e+01 82. 67. 1.04210529e+01 2.94166679e+01
      1.12571434e+02 3.83999977e+01 7.34000015e+01 5.50000038e+01 77.
      59. 4.44375000e+01 2.07142868e+01 9.47500000e+01 1.10375000e+02
      5.66666698e+00 1.19285721e+02 48. 4.04444466e+01 2.52666683e+01
      31. 5.10000038e+01 1.20000010e+01 9.93333359e+01 6.00000038e+01
      1.66250000e+01 83. 54. 4. 9. 8.82222214e+01 56. 8.07058792e+01 63.
      58. 66.</_>
    <_>
      9.57142925e+00 90. 51. 2.96923084e+01 1.12333336e+02 75.
      1.71250000e+01 6.29285736e+01 4.08636360e+01 1.21333336e+02
      3.38461542e+00 1.00099998e+02 5.65499992e+01 2.24615402e+01
      1.06090912e+02 6.95625000e+01 3.62999992e+01 4.55714302e+01 83.
      9.26250000e+01 2.00416679e+01 7.85999985e+01 2.65625000e+01 13.
      1.15923080e+02 6.54615402e+01 38. 72. 6.03846169e+01
      5.38571434e+01 3.15454559e+01 1.09500000e+02 9.53750000e+01
      1.02916672e+02 6.75714340e+01 1.16470585e+01 6. 87. 4.36000023e+01
      1.43333340e+01 1.23571434e+02 59. 85. 74. 3.34285736e+01
      4.82000008e+01 1.18857147e+02 7.62727280e+01 50. 9.75999985e+01 5.
      58. 8.03750000e+01 108. 55. 8. 47. 39. 7. 35. 2.43333340e+01 52.
      73. 71.</_>
    <_>
      8.19230804e+01 2.84500008e+01 1.18733337e+02 4.99500008e+01
      3.33333349e+00 1.03849998e+02 7.15294113e+01 4.52999992e+01
      5.79523811e+01 1.30357151e+01 4.06296310e+01 9.45500031e+01
      3.24210510e+01 1.79583340e+01 7.48387070e+01 90. 1.09642860e+02
      6.36153870e+01 2.23846169e+01 6.75000000e+01 8.49354782e+01
      9.93846207e+01 3.65999985e+01 6.78571463e+00 1.21466675e+02
      2.64705887e+01 5.23571434e+01 1.14500000e+02 7.93888931e+01 120.
      1.06588234e+02 6.05384636e+01 1.12000008e+02 6.93181839e+01
      4.25882339e+01 1.05217390e+01 4.73684196e+01 3.85000000e+01
      1.23599998e+02 24. 1.54210529e+01 8.76111145e+01 5.55555573e+01
      9.26363678e+01 9.65999985e+01 34. 5. 2.05000000e+01 1.01333336e+02
      3.06250000e+01 1.16571434e+02 8.40909100e+00 62. 7.72222214e+01
      111. 6.55999985e+01 35. 108. 98. 54. 113. 25. 73. 44.</_>
    <_>
      2.75714302e+01 98. 5.96250000e+01 1.16500008e+02 1.03500004e+01
      4.25652199e+01 8.05714340e+01 7.05263138e+01 1.69130440e+01
      3.31666679e+01 5.04090919e+01 8.92727280e+01 102. 40.
      1.20599998e+02 6.51176453e+01 1.09289474e+02 6.65000010e+00
      7.47058792e+01 1.93333340e+01 9.34736862e+01 1.31562500e+01
      5.48965530e+01 3.75000000e+01 24. 4.36842108e+00 8.50526352e+01
      1.06529411e+02 46. 1.11285721e+02 1.23700005e+02 3.00714302e+01 3.
      2.15238094e+01 6.20526314e+01 9.13125000e+01 6.76875000e+01
      1.04368423e+02 1.18500008e+02 5.76190491e+01 52. 8.75555573e+01
      8.25000000e+01 4.85333366e+01 1.50000010e+01 7.64166718e+01
      1.13400009e+02 7.25000000e+01 39. 5.30000038e+01 9.53125000e+01
      4.43888893e+01 3.55263176e+01 8. 2.54285717e+01 97. 9.95000076e+01
      23. 115. 7.84444427e+01 47. 1.22000008e+02 9. 41.</_>
    <_>
      75. 3.51176491e+01 1.07307693e+02 9.60000038e+00 4.63750000e+01
      9.25000000e+01 2.15384617e+01 1.22400002e+02 6.05833359e+01
      8.43913040e+01 2.74000015e+01 1.12315788e+02 7.14736862e+01
      1.65000000e+01 1.03279999e+02 5.63333359e+01 4.35294104e+00
      6.47692337e+01 4.27272758e+01 5.13846169e+01 3.96000023e+01 118.
      7.94285736e+01 9.74000015e+01 3.23500023e+01 1.05454552e+02
      1.24444447e+01 2.53999996e+01 89. 3.76666679e+01 6.74285736e+01
      1.10529411e+02 5.35384636e+01 1.44705887e+01 1.15266670e+02
      8.16428604e+01 8.66500015e+01 2.36153851e+01 2.96111107e+01
      1.00187500e+02 6.94761887e+01 1.24000008e+02 7.36428604e+01
      9.50526352e+01 6.26666679e+01 9.06153870e+01 1.85625000e+01
      1.20444443e+02 4.45000038e+01 6.44444466e+00 7.76428604e+01
      5.82857170e+01 11. 4.85333366e+01 41. 1.09000008e+02 83. 76. 8.
      88. 66. 114. 3. 20.</_>
    <_>
      3.07619057e+01 9.96470566e+01 6.64736862e+01 1.16400002e+02
      4.36000023e+01 1.86315784e+01 8.30434799e+01 5.78846169e+01
      4.66666698e+00 75. 5.09090919e+01 1.08708336e+02 8.82941208e+01
      3.81199989e+01 62. 1.12500008e+02 9.33684235e+01 1.22600006e+02
      1.37777777e+01 1.01555557e+02 7.24736862e+01 8.62105255e+01
      9.60689621e+01 9.62500000e+00 2.78947372e+01 7.84210510e+01
      1.06458336e+02 5.55200005e+01 2.28799992e+01 40. 6.84666672e+01
      3.32500000e+01 6.43888931e+01 4.76315804e+01 1.14590912e+02
      3.55000000e+01 124. 110. 8.04285736e+01 9.08750000e+01
      1.03450005e+02 119. 2.55454559e+01 2.02500000e+01 4.55714302e+01
      9.80000076e+01 1.56000004e+01 17. 1.16000004e+01 63.
      5.34210548e+01 74. 6.06818199e+01 1.11000008e+02 105. 3. 71.
      1.20307693e+02 4.90000038e+01 7.59999990e+00 70. 7.62500000e+01
      4.13571434e+01 118.</_>
    <_>
      5.74545479e+01 2.35294113e+01 1.12666672e+02 8.14444427e+01
      4.05000000e+01 3.50000000e+00 1.02400002e+02 5.06500015e+01
      6.46428604e+01 3.23500023e+01 9.42222214e+01 1.22111115e+02
      1.41538467e+01 43. 7.46250000e+01 1.10200005e+02 7.40000057e+00
      2.74705887e+01 3.46111107e+01 1.84545460e+01 6.15789490e+01 105.
      4.66842117e+01 1.15545456e+02 5.44166679e+01 87. 5.95454559e+01
      7.02142868e+01 38. 6.72307739e+01 83. 29. 96. 2.53125000e+01
      1.19285721e+02 9.66666698e+00 49. 9.01666718e+01 8.43750000e+01
      44. 22. 1.67272739e+01 9.88571472e+01 39. 1.07666664e+02
      7.64000015e+01 36. 63. 1.15500002e+01 52. 53. 56. 42. 30. 66.
      7.88000031e+01 4.80000038e+01 7.22857208e+01 37. 5. 6. 31.
      2.07500000e+01 4.50000038e+01</_>
    <_>
      1.04500000e+02 2.50000019e+01 7.05833359e+01 4. 4.75833359e+01
      9.04736862e+01 1.21666672e+02 6.33684196e+01 3.18571434e+01
      9.04166698e+00 1.12562500e+02 8.05000000e+01 1.75000000e+01
      3.99375000e+01 9.74666748e+01 5.84583359e+01 6.74000015e+01
      7.50714340e+01 5.32727280e+01 1.01363640e+02 2.83333340e+01
      2.15000000e+01 8.51052628e+01 1.17363640e+02 1.25333338e+01
      3.72000008e+01 87. 1.08333336e+02 9.29090958e+01 7.83636398e+01
      1.23545456e+02 3.46000023e+01 4.49333344e+01 1.15800003e+02
      1.10000010e+01 30. 6.33333349e+00 9.54545517e+01 66.
      6.07142868e+01 1.19687500e+02 9.94545517e+01 8.25000000e+01
      1.10500000e+02 1.50555553e+01 7.27000046e+01 2.40000019e+01 62.
      114. 1.06458336e+02 4.94000015e+01 27. 103. 1.94285717e+01
      4.23333359e+01 5.65000000e+01 69. 3. 5. 65. 88. 2.30000019e+01 26.
      89.</_>
    <_>
      5.11176491e+01 9.82631607e+01 1.54782610e+01 1.15450005e+02
      7.53529434e+01 3.35789490e+01 3.37500000e+00 66. 8.55000076e+01
      2.38695660e+01 124. 4.29599991e+01 1.07200005e+02 55.
      8.03888931e+01 1.19000008e+02 1.84583340e+01 7.40909100e+00
      9.17500000e+01 3.82083359e+01 1.15909090e+01 7.11250000e+01 57.
      2.82666683e+01 6.10625000e+01 1.01119995e+02 1.10545456e+02
      4.83333321e+01 8.30740738e+01 2.04444447e+01 9.55882339e+01
      3.06666660e+01 8.95000000e+01 3.52777786e+01 1.21380951e+02 10.
      64. 4.05000000e+01 1.03812500e+02 5.35714293e+00 2.65294113e+01
      53. 7.72666702e+01 1.17000008e+02 1.12375000e+02 4.54375000e+01
      6.82666702e+01 9.36363678e+01 8.75000000e+01 63. 32. 22. 79.
      5.82142868e+01 120. 7.34000015e+01 1.14000008e+02 1.09000008e+02
      17. 123. 70. 9. 118. 1.34347830e+01</_>
    <_>
      4.74285736e+01 1.07125000e+02 2.26666679e+01 6.84000015e+01 12.
      8.78666687e+01 3.14444447e+01 1.21500000e+02 5.94444466e+01 5.
      3.88857155e+01 1.01153847e+02 8.00588226e+01 19. 1.15923080e+02
      1.76774197e+01 2.75833340e+01 9.78571472e+01 4.33913040e+01
      5.54666710e+01 9.38750000e+01 52. 3.35000000e+01 111.
      7.47692337e+01 8. 6.43076935e+01 8.30500031e+01 1.54799995e+01
      9.06000061e+01 1.18777779e+02 21. 4.53636360e+01 36.
      4.96250000e+01 3. 2.50000019e+01 1.23750000e+02 5.77000008e+01
      8.55333405e+01 6.17894745e+01 70. 13. 4.15769234e+01
      7.74615402e+01 1.03736839e+02 5.32666702e+01 9.47619057e+00
      6.64000015e+01 24. 3.70000038e+01 5.10000038e+01 109.
      2.60000019e+01 1.13700005e+02 6. 7.00000048e+00 20. 2.93548374e+01
      7.17000046e+01 4. 14. 11. 35.</_>
    <_>
      1.17599998e+02 7. 7.02500000e+01 3.86666679e+01 22. 8.38000031e+01
      5.34000015e+01 1.10000010e+01 3.10909100e+01 98. 1.24000008e+02
      76. 15. 1.11666672e+02 7.91428604e+01 24. 64. 2.63684216e+01
      8.67500000e+01 20. 3. 4.96000023e+01 8.97500000e+01 3.44615402e+01
      5.84000015e+01 1.19571434e+02 9.45000000e+01 1.35384617e+01 101.
      7.28750000e+01 4.43333359e+01 9. 6.65000000e+01 107.
      6.16000023e+01 17. 12. 28. 8.12500000e+01 4.02500000e+01 5.
      1.15666672e+02 8. 25. 56. 33. 10. 18. 6. 21. 5.16666679e+01 30.
      19. 29. 2.30000019e+01 16. 88. 4. 1.13666672e+02 105. 121. 109.
      3.63333359e+01 123.</_>
    <_>
      1.20666672e+02 3.08000011e+01 8.27500000e+01 1.32500000e+01
      6.26000023e+01 9.78888931e+01 6.56250000e+00 1.13142860e+02 20.
      47. 1.06428574e+02 9.23000031e+01 3. 7.26666718e+01 8.75714340e+01
      1.15500000e+02 5.83333359e+01 41. 7.81666718e+01 1.66875000e+01
      2.56666679e+01 8.64285755e+00 6.75000000e+01 124. 117.
      6.98333359e+01 11. 1.03555557e+02 1.08625000e+02 4.45000000e+01 5.
      101. 3.47999992e+01 15. 95. 2.78000011e+01 2.31666679e+01 50.
      8.07500000e+01 22. 7.56666718e+01 40. 8.52500000e+01
      3.75000000e+01 1.10500000e+02 9.01666718e+01 54. 12.
      9.60000076e+01 122. 1.00000008e+02 4. 21. 1.18250000e+02 99. 10.
      102. 6.57500000e+01 94. 61. 123. 105. 18. 19.</_>
    <_>
      1.47058821e+01 117. 6.83750000e+01 4.34285736e+01 9.18571472e+01
      3. 25. 8.37142868e+01 5.66000023e+01 3.56000023e+01 2.02500000e+01
      9.78181839e+01 123. 7.56666718e+01 9. 1.07333336e+02
      3.13999996e+01 4.98750000e+01 1.19733337e+02 6.13333359e+01 12.
      1.10333336e+02 17. 7.53846169e+00 88. 8.17500000e+01 22. 73. 66.
      2.65000000e+01 4.67500000e+01 5.27500000e+01 5. 29. 104.
      3.35000000e+01 1.14500000e+02 3.92857170e+01 16. 90.
      9.48571472e+01 79. 7.06666718e+01 13. 18. 5.95000000e+01 64.
      1.01250000e+02 10. 124. 28. 6. 11. 118. 122. 30. 23. 19. 113.
      8.55000000e+01 4. 116. 121. 24.</_>
    <_>
      6.34000015e+01 1.07000008e+02 1.81666679e+01 3.46000023e+01
      1.21200005e+02 8.82000046e+01 7.00000048e+00 5.11428604e+01
      9.66666641e+01 72. 39. 102. 1.13900002e+02 2.85000000e+01
      7.82500000e+01 3. 2.32500000e+01 1.13636370e+01 46. 1.10333336e+02
      5.85000000e+01 1.18222221e+02 67. 9.40000076e+01 9.95000000e+01 5.
      1.23599998e+02 1.55000000e+01 104. 7.46666718e+01 108. 86.
      9.16666718e+01 8. 4.27500000e+01 1.12000008e+02 2.55000000e+01
      8.46666718e+01 3.03333340e+01 54. 1.32500000e+01 1.16571434e+02
      101. 56. 8.17500000e+01 6.57142868e+01 2.08000011e+01
      6.14000015e+01 3.25000000e+01 4.83333359e+01 6. 98. 4. 109. 115.
      6.95000000e+01 44. 1.05000008e+02 103. 3.67500000e+01 106. 9. 10.
      53.</_>
    <_>
      8.37500000e+01 2.15000000e+01 118. 4.87500000e+01 1.02000008e+02
      3. 3.73333359e+01 9.50000076e+01 6.67500000e+01 1.08583336e+02
      1.34000006e+01 55. 1.22000008e+02 1.05000000e+01 79.
      1.14454552e+02 3.02500000e+01 7.36666718e+01 9.05000000e+01
      8.85999985e+01 9.80000076e+01 1.04571434e+02 6.25000000e+00
      1.65000000e+01 2.62500000e+01 64. 4.02000008e+01 1.82857151e+01
      9.23571472e+01 60. 7.01666718e+01 1.11444443e+02 5.25000000e+01
      1.16571434e+02 120. 4.36666679e+01 124. 2.36666679e+01 106. 100.
      5. 101. 82. 7.56666718e+01 8.16666698e+00 46. 107. 3.37500000e+01
      121. 97. 123. 103. 4. 5.76666679e+01 5.02500000e+01 8.66666718e+01
      1.19000008e+02 113. 62. 9.90000076e+01 94. 9.60000076e+01
      1.10000008e+02 15.</_>
    <_>
      2.04444447e+01 1.01416672e+02 5.51785736e+01 1.23391304e+02
      7.38333359e+01 35. 1.24166670e+01 9.14000015e+01 4.42380943e+01
      1.11400002e+02 6.45263138e+01 3. 8.31153870e+01 4.95454559e+01
      2.80000019e+01 6.64545441e+01 40. 1.07545456e+02 8.74090958e+01
      6.00357170e+01 9.56363678e+01 7.97428589e+01 1.15966675e+02
      6.66666698e+00 69. 1.45555553e+01 105. 5.18333359e+01 103.
      2.43500004e+01 7.66470566e+01 71. 1.18352943e+02 3.20312500e+01
      120. 1.86111107e+01 3.75333366e+01 8.55217438e+01 4.73043480e+01
      1.65714302e+01 2.26153851e+01 99. 98. 110. 4.25294113e+01
      5.74615402e+01 2.93999996e+01 9.50000000e+00 6.23846169e+01
      8.93043518e+01 9.35714340e+01 1.13571434e+02 1.21352943e+02 109.
      5. 46. 4. 1.00000008e+02 78. 97. 8. 2.65238094e+01 72. 11.</_>
    <_>
      8.14000015e+01 3.18571434e+01 1.13857147e+02 8.83333397e+00
      5.25000000e+01 102. 1.18625000e+02 6.87500000e+01 2.46000004e+01
      8.85000000e+01 1.24000008e+02 109. 46. 3. 4.14000015e+01 66. 99.
      15. 9.25000000e+01 7.35000000e+01 3.42500000e+01 104.
      5.63333359e+01 5.75000000e+00 2.95000000e+01 121. 1.98333340e+01
      83. 3.95000000e+01 61. 7.82500000e+01 7.57500000e+01 49.
      9.53333359e+01 1.06666672e+02 2.25000000e+01 7.13333359e+01 103.
      1.10545456e+02 3.63333359e+01 112. 28. 70. 4.37500000e+01 97.
      1.75000000e+01 51. 1.16500000e+02 122. 1.25000000e+01 94. 85.
      1.08000008e+02 115. 59. 105. 1.23000008e+02 64. 2.66666679e+01
      120. 1.01000008e+02 4. 84. 10.</_>
    <_>
      40. 1.15352943e+02 71. 2.25000000e+01 9.40333405e+01
      5.59615402e+01 8.45000000e+01 3.35714293e+00 4.96875000e+01
      2.64615402e+01 6.84090958e+01 1.05550003e+02 1.81428585e+01
      4.52500000e+01 3.40400009e+01 1.23500000e+02 1.00368423e+02
      6.26250000e+01 1.34545460e+01 7.44166718e+01 8.05625000e+01
      9.12777786e+01 1.09919998e+02 9.65294113e+01 6.05789490e+01
      8.65500031e+01 2.91739140e+01 1.19571434e+02 6.55263138e+01
      2.02666683e+01 5.35000000e+01 7.63333359e+01 38. 4.25499992e+01
      7.76923084e+00 1.56153851e+01 108. 4.75454559e+01 9.85263138e+01
      3.13888893e+01 5.85000038e+01 8.24666672e+01 1.02695656e+02 70.
      5.16923103e+01 1.21400002e+02 1.12421051e+02 7.83888931e+01
      1.17285721e+02 1.10833340e+01 1.04000008e+02 114. 39.
      3.65555573e+01 41. 67. 64. 4.40000038e+01 2.44615402e+01 73. 72.
      5.50000000e+00 107. 89.</_>
    <_>
      123. 3.16000004e+01 9.43750000e+01 81. 1.08000008e+02
      5.22000008e+01 1.56666670e+01 4.34000015e+01 7.17777786e+01
      1.01230774e+02 1.10466675e+02 7.65625000e+01 2.58000011e+01
      8.65833359e+01 1.18000008e+02 6.64000015e+01 3.64444466e+01 21.
      48. 114. 9.03636398e+01 105. 84. 7.47142868e+01 5.86666679e+01
      9.66666718e+01 1.77500000e+01 6.85999985e+01 1.21250000e+01 103.
      100. 1.20363640e+02 82. 2.77500000e+01 7.85000000e+01
      5.51666679e+01 5.05000000e+01 99. 73. 80. 106. 1.15300003e+02
      4.55000000e+01 122. 2.33333340e+01 85. 104. 9.27500000e+01 109.
      30. 3.36666679e+01 124. 3.85000000e+01 4.12500000e+01 117. 70.
      119. 113. 62. 9.80000076e+01 8.84000015e+01 83. 112.
      1.07000008e+02</_>
    <_>
      4.85555573e+01 1.17333336e+02 81. 1.84583340e+01 1.01919998e+02
      7.24117661e+01 10. 3.28823547e+01 6.05217400e+01 5.47826099e+00
      9.68636398e+01 4.11666679e+01 9.06190491e+01 1.07476196e+02
      1.23769234e+02 2.81071434e+01 5.33478279e+01 8.46086960e+01
      2.24814816e+01 6.64799957e+01 1.24444447e+01 5.65862083e+01
      3.63461571e+01 4.53600006e+01 7.63666687e+01 1.11428574e+02
      1.20935478e+02 1.64285717e+01 1.13538467e+02 9.20000076e+01
      6.85714264e+01 1.04833336e+02 9.45833359e+01 55. 8.79062500e+01
      9.93888931e+01 1.46521740e+01 7.07058792e+01 3.43999982e+00 51.
      2.57692318e+01 7.52631569e+00 2.04137936e+01 6.25238113e+01 119.
      7.86111145e+01 7.44500046e+01 9. 47. 8.30000076e+01 3.85000000e+01
      5.85333366e+01 3.03125000e+01 1.09666672e+02 4.34166679e+01 50.
      93. 116. 86. 6.44166718e+01 52. 1.15000008e+02 11. 24.</_>
    <_>
      1.22611115e+02 2.04375000e+01 8.06153870e+01 4.83333359e+01 100.
      5.66666679e+01 4.38888884e+00 7.14827576e+01 6.44571457e+01
      8.92666702e+01 3.54000015e+01 1.11133339e+02 9.42857170e+00
      1.05450005e+02 2.43999996e+01 9.35833359e+01 1.16187500e+02
      3.95000000e+01 1.18461542e+01 2.85789471e+01 53. 6.05652199e+01
      1.08461540e+02 6.84074097e+01 7.64761887e+01 1.49666672e+01
      9.15333405e+01 4.16428604e+01 3.34444466e+01 8.43125000e+01
      1.81000004e+01 5.45416679e+01 96. 4.55000000e+01 6.50000000e+00
      5.05882339e+01 3.08235302e+01 1.03521744e+02 7.85000000e+01 70.
      120. 118. 6.65599976e+01 5.85499992e+01 7.40740738e+01 83. 47.
      8.67894745e+01 9.85454559e+01 95. 2.65833340e+01 3. 1.13555557e+02
      1.07000008e+02 3.75000000e+01 6.23599968e+01 97. 82. 124. 8. 101.
      2.27333336e+01 4.32777786e+01 52.</_>
    <_>
      1.26875000e+01 1.12933342e+02 5.96153870e+01 8.19259262e+01
      3.18947372e+01 9.74375000e+01 4.55000000e+01 2.53999996e+01
      7.64500046e+01 3. 1.22625000e+02 6.65000000e+01 1.76666679e+01
      8.93333359e+01 1.04099998e+02 4.96250000e+01 9.16153870e+01
      8.62500000e+00 1.19066673e+02 3.65000000e+01 5.52380943e+00
      3.86000023e+01 6.97058792e+01 85. 6.36250000e+01 1.09125000e+02
      1.00800003e+02 1.45238094e+01 54. 7.23846207e+01 4.12352943e+01
      1.16176468e+02 2.15000000e+01 7.97500000e+01 2.73750000e+01
      1.06384621e+02 24. 6.16086960e+01 9.34117661e+01 78.
      5.74545479e+01 4.30000038e+01 8.74166718e+01 7.00000048e+00 4.
      5.14000015e+01 121. 2.96250000e+01 4.74444466e+01 65. 16.
      1.24000008e+02 9.90000076e+01 7.43684235e+01 56. 3.45714302e+01
      9.54166718e+01 68. 19. 111. 23. 20. 44. 1.05384617e+01</_>
    <_>
      6.55555582e+00 1.03461540e+02 5.24761925e+01 8.35714264e+01
      2.74444447e+01 1.23869568e+02 6.99130478e+01 4.13809547e+01 22.
      1.13071434e+02 9.82500076e+01 9.35000000e+01 3.89729729e+01
      1.55238094e+01 5.92173920e+01 7.88709641e+01 3.54000015e+01
      1.08413795e+02 8.89062500e+01 1.18608696e+02 9.16071472e+01
      7.46500015e+01 1.21647057e+02 4.86153870e+01 1.05000008e+02
      1.21666670e+01 2.45806446e+01 6.24000015e+01 4.54210548e+01
      8.83333302e+00 3.14333344e+01 5.61250000e+01 1.73750000e+01
      6.67692337e+01 1.01461540e+02 1.15000008e+02 1.96666679e+01
      7.23809509e+01 7.67142868e+01 37. 4.41176462e+00 1.06375000e+02
      8.65000000e+01 8.14500046e+01 47. 1.10523811e+02 51. 26.
      3.35652199e+01 6.10000038e+01 9.53000031e+01 6.46153870e+01
      2.10000019e+01 5.00000038e+01 2.30000019e+01 4.35238113e+01 120.
      2.93333340e+01 100. 5.45333366e+01 1.16454552e+02 85. 3.
      1.40000010e+01</_>
    <_>
      9.04444427e+01 3.31621628e+01 5.45238113e+01 7.57894754e+00
      1.16444443e+02 7.22307739e+01 8.14736862e+01 1.97999992e+01
      1.01307693e+02 6.54375000e+01 43. 1.10083336e+02 2.86000004e+01
      4.85333366e+01 6.28709641e+01 1.15333338e+01 7.84782639e+01
      1.20769234e+02 6.05599976e+01 3. 75. 8.71379318e+01 3.73809547e+01
      24. 9.69655151e+01 1.23615387e+02 5.06666679e+01 1.55333338e+01
      1.05636368e+02 6.86086960e+01 9.45500031e+01 1.12466675e+02
      5.45000029e+00 80. 4.04444466e+01 8.43703690e+01 1.03230774e+02
      2.64166679e+01 5.84736862e+01 1.18533340e+02 9.64705849e+00
      1.07777779e+02 5.26666679e+01 4.67083359e+01 1.14411766e+02 74.
      39. 8.90000076e+01 3.04666691e+01 2.28235302e+01 5.62666702e+01
      35. 1.76666679e+01 45. 4. 9.23125000e+01 7.06363678e+01
      9.94615402e+01 83. 7.63703690e+01 25. 1.32941179e+01 67. 36.</_>
    <_>
      8.38000031e+01 3.46956520e+01 1.23416672e+02 7.84210539e+00
      6.11142845e+01 1.11461540e+02 5.35263176e+01 1.79444447e+01
      7.22777786e+01 9.75000000e+01 4.40645142e+01 2.65199986e+01
      6.77058792e+01 4.75789490e+01 1.19684212e+02 8.79047623e+01
      3.93846169e+01 1.15571434e+02 1.04500000e+02 3.40000010e+00
      5.54210548e+01 7.91428604e+01 1.30833340e+01 2.30357151e+01
      9.11052628e+01 121. 1.02615387e+02 31. 6.35294113e+01 33.
      5.41666698e+00 2.85000000e+01 3.73333359e+01 9.54444427e+01
      6.56000061e+01 7.58181839e+01 1.08600006e+02 5.16538467e+01 50.
      2.07142868e+01 1.54666672e+01 4.12941170e+01 46. 1.13380951e+02
      7.00833359e+01 8.16666641e+01 5.84545479e+01 1.06999998e+01
      1.22000008e+02 74. 9.96666718e+01 1.17636368e+02 32.
      1.06000008e+02 110. 3.00000019e+01 101. 36. 8.54000015e+01 49. 25.
      1.07000008e+02 57. 9.34000015e+01</_>
    <_>
      2.56315784e+01 9.70000076e+01 6.46666641e+01 1.16428574e+02
      1.18750000e+01 4.73333359e+01 9.03499985e+01 7.88571472e+01
      1.05428574e+02 3.38666687e+01 5.50000000e+00 5.42857170e+01
      1.84210529e+01 8.39411774e+01 1.21444443e+02 3.97692337e+01
      8.08235321e+01 1.10642860e+02 1.00650002e+02 2.94285717e+01 24.
      60. 7.48181839e+01 3.71250000e+01 67. 8. 32. 1.35000000e+01
      9.23333359e+01 1.18454552e+02 1.08545456e+02 17. 4.25000000e+01
      23. 1.14642860e+02 9.45833359e+01 70. 5.77500000e+01
      8.63846207e+01 1.02937500e+02 5.14444466e+01 107. 22.
      1.56000004e+01 120. 1.12625000e+02 9.83750000e+01 8.83846207e+01
      7.65714340e+01 56. 9.40000057e+00 20. 3. 4. 1.23500000e+02 7. 82.
      31. 21. 28. 9.60000076e+01 27. 72. 6.25000000e+01</_>
    <_>
      3.05000000e+01 101. 6.65500031e+01 1.22437500e+02 1.38823528e+01
      4.75333366e+01 8.77500000e+01 1.09545456e+02 7.63157883e+01
      3.25000000e+00 5.47272758e+01 2.13913040e+01 8.26111145e+01
      4.09000015e+01 9.22857208e+01 3.44761925e+01 5.87647057e+01
      1.13842110e+02 7.04545441e+01 9.65238113e+01 52. 7.86315765e+01
      2.86521740e+01 1.17318184e+02 1.05681824e+02 1.89285717e+01 9.
      4.96111107e+01 2.54117641e+01 6.39333382e+01 98. 6.14666710e+01
      4.41481476e+01 3.83636360e+01 1.03631577e+02 7.34444427e+01
      1.19571434e+02 8.05384674e+01 1.07666672e+02 1.65384617e+01
      8.51666718e+01 1.11692314e+02 9.44761887e+01 124. 2.36190472e+01
      5.64117661e+01 6.12500000e+00 75. 91. 100. 1.12727280e+01 72.
      6.87000046e+01 3.23636360e+01 1.02000008e+02 51. 53. 46. 121. 27.
      8.90000076e+01 90. 9.90000076e+01 3.65333366e+01</_>
    <_>
      3.73846169e+01 1.11555557e+02 1.07500000e+01 4.96470604e+01
      6.55000000e+01 9.43333359e+01 123. 2.75625000e+01 3.
      5.70588226e+01 8.42222214e+01 1.02428574e+02 2.34285717e+01 76.
      119. 5.52941179e+00 4.33846169e+01 1.73000011e+01 51.
      3.24285736e+01 61. 6.98000031e+01 8.81250000e+01 3.46000023e+01
      9.97000046e+01 47. 5.47692337e+01 1.07166672e+02 7.25999985e+01
      121. 1.45000000e+01 4.14444466e+01 7.95000000e+01 1.15666672e+02
      6.75384674e+01 59. 1.09666672e+02 9.11818237e+01 8.20000076e+00
      6.34545479e+01 1.93750000e+01 3.07000008e+01 29. 36. 117.
      2.16363640e+01 45. 3.92500000e+01 1.20000008e+02 122. 118. 46.
      9.73333359e+01 1.04500000e+02 2.57000008e+01 48. 124.
      8.14000015e+01 1.13571434e+02 4. 7. 96. 5.23571434e+01
      1.23750000e+01</_>
    <_>
      5.95384636e+01 1.21521744e+02 1.93846169e+01 90. 3.65263176e+01
      1.10473686e+02 75. 6.58823538e+00 4.84166679e+01 9.85555573e+01
      6.65000000e+01 1.05722221e+02 2.75789471e+01 5.53076935e+01
      7.99047623e+01 1.35238094e+01 9.66666718e+01 4.08636360e+01
      1.12526314e+02 1.16620689e+02 8.29199982e+01 63. 2.33913040e+01
      47. 7.19047623e+01 3.54545474e+00 1.04761906e+01 1.04000008e+02
      7.75000000e+01 5.23750000e+01 3.36190491e+01 9.45000000e+01 65.
      86. 17. 4.34500008e+01 5.72999992e+01 2.56000004e+01
      3.12727280e+01 1.19037041e+02 3.86111107e+01 6.15555573e+01
      6.98000031e+01 1.01500000e+02 92. 1.23531250e+02 35.
      4.55714302e+01 1.14588234e+02 2.13888893e+01 1.56666670e+01 68.
      8.46666718e+00 88. 1.08437500e+02 5.06666679e+01 103. 5. 100. 64.
      12. 18. 1.07000008e+02 2.95384636e+01</_>
    <_>
      1.01461540e+02 3.44117661e+01 6.68333359e+01 6.16666651e+00
      8.04545441e+01 1.11470589e+02 4.58823547e+01 1.63750000e+01
      8.79444427e+01 120. 63. 2.36875000e+01 76. 5.47000008e+01 36.
      1.02500000e+01 1.14959999e+02 1.23700005e+02 9.45999985e+01
      4.04375000e+01 29. 6.95999985e+01 9.23333359e+01 1.05500000e+02
      13. 4.88421059e+01 3.45454550e+00 2.06363640e+01 5.85000000e+01
      43. 9.95000000e+01 39. 8.35000000e+01 1.17538467e+02
      1.08750000e+02 8. 5.17999992e+01 1.88571434e+01 7.14285736e+01
      7.82857208e+01 3.15000000e+01 9.71111145e+01 9.05000000e+01 113.
      7.35000000e+01 42. 8.57142868e+01 1.46666670e+01 5.62857170e+01
      1.07000008e+02 3.00000019e+01 1.03444443e+02 1.21333336e+02
      2.75833340e+01 33. 6.05000000e+01 65. 37. 2.55000000e+01 12. 119.
      38. 44. 82.</_>
    <_>
      9.67999954e+01 3.14615402e+01 5.86666679e+01 1.15833340e+01 113.
      7.04375000e+01 4.28461571e+01 19. 8.36500015e+01 1.07500000e+02
      1.19388893e+02 5.05454559e+01 3.90697670e+00 3.72500000e+01
      9.01481476e+01 7.83913040e+01 6.65263138e+01 1.22421051e+02
      5.55499992e+01 2.28750000e+01 1.65714283e+01 1.00029411e+02
      6.45789490e+01 7.02941179e+00 1.03107147e+02 8.15500031e+01
      7.36363678e+01 9.23571472e+01 2.83181820e+01 8.77500000e+01
      1.15625000e+02 4.80416679e+01 1.10733337e+02 40. 3.57058830e+01
      21. 4.55384636e+01 109. 121. 1.05388893e+02 3.34375000e+01
      9.45294113e+01 6.05714302e+01 2.54545460e+01 1.35000000e+01
      8.57142868e+01 9.60000038e+00 1.17000008e+02 57. 1.24000008e+02
      7.61250000e+01 6.26666679e+01 18. 112. 72. 114. 5.35384636e+01
      5.20000038e+01 1.18000008e+02 6.84736862e+01 80. 30. 20. 15.</_>
    <_>
      60. 1.45000000e+01 119. 3.72500000e+01 98. 5. 1.95000000e+01
      7.25000000e+01 5.55555573e+01 2.85714302e+01 1.10000008e+02
      4.49000015e+01 89. 8.16666718e+01 65. 1.14400002e+02
      2.42500000e+01 3.43750000e+01 8.12500000e+00 41. 5.16666679e+01
      1.04428574e+02 1.21500000e+02 1.16500000e+02 1.25000000e+01
      1.23625000e+02 68. 9.46666718e+01 3. 8.65999985e+01 59.
      1.75555553e+01 3.17777786e+01 21. 106. 2.65714302e+01
      6.23333321e+01 11. 1.12428574e+02 4.72500000e+01 3.98571434e+01
      2.30000019e+01 4.21428604e+01 5.36666679e+01 7.05999985e+01
      4.95000000e+01 57. 1.20000008e+02 6. 10. 33. 16. 118. 22. 4. 92.
      64. 1.07500000e+02 30. 66. 36. 61. 58. 7.</_>
    <_>
      9.85500031e+01 1.15625000e+01 5.50000038e+01 7.56250000e+01
      1.17888893e+02 34. 1.04307693e+02 2.05000000e+01 8.36250000e+01 3.
      6.32999992e+01 4.54000015e+01 6.88823547e+01 1.65882359e+01 90.
      9.46153927e+00 1.07533340e+02 3.15714302e+01 3.92000008e+01
      1.23300003e+02 73. 7.96666718e+01 5.26000023e+01 71.
      1.00500008e+02 5.98888893e+01 2.55000000e+01 9.45000000e+01
      1.13500000e+02 4.79090919e+01 4. 8.76250000e+01 6.58571472e+01 15.
      14. 78. 3.62999992e+01 5.72999992e+01 6.58333349e+00
      1.09571434e+02 19. 8.18181839e+01 9.65625000e+01 2.23999996e+01
      9.25833359e+01 41. 4.31000023e+01 2.87500000e+01 8.53636398e+01
      1.20500000e+02 122. 106. 24. 1.03000008e+02 13. 74. 5.05714302e+01
      18. 102. 70. 72. 5. 8. 77.</_>
    <_>
      1.16777779e+02 4.13333359e+01 8.92941208e+01 3.22222233e+00
      6.08888893e+01 1.85714302e+01 1.05555557e+02 8.06153870e+01 100.
      2.36666660e+01 8.55555534e+00 3.44000015e+01 4.99375000e+01 69.
      1.23571434e+02 85. 1.09411766e+02 9.75625000e+01 7.63125000e+01
      1.58571434e+01 9.14285736e+01 1.13222221e+02 6.04545450e+00
      1.35833340e+01 1.02500000e+02 5.57999992e+01 1.19300003e+02
      6.64166718e+01 3.83333321e+01 46. 3.25454559e+01 2.87500000e+01
      5.30769234e+01 2.12727280e+01 9.56153870e+01 9.30769272e+01 111.
      1.21636368e+02 8.22941208e+01 1.15000000e+01 7.32857208e+01
      5.83333321e+01 99. 2.65000000e+01 6.40769272e+01 3.62500000e+01
      87. 10. 86. 78. 115. 101. 48. 1.07545456e+02 104. 3.03333340e+01
      112. 20. 40. 4.36000023e+01 84. 8.80000076e+01 79. 25.</_>
    <_>
      91. 1.88181820e+01 5.45925941e+01 7.43600006e+01 1.12875000e+02
      2.89459457e+01 4.15454559e+01 6.45714340e+01 9.34782600e+00
      1.18600006e+02 1.03578949e+02 8.24444427e+01 4.84848480e+01
      9.80555573e+01 3. 8.65185165e+01 3.35999985e+01 1.08518517e+02
      2.38888893e+01 5.85882339e+01 1.23541672e+02 6.86153870e+01
      9.50303040e+01 1.06521744e+02 4.44137917e+01 1.17000008e+02
      4.65862083e+01 6.24347839e+01 7.99199982e+01 1.45882349e+01
      7.65428543e+01 2.64545460e+01 3.76086960e+01 73. 1.00666664e+02
      39. 5.25555573e+01 8.47241364e+01 6.05200005e+01 2.15500011e+01
      1.65000000e+01 1.10454552e+02 7.11111116e+00 3.12380962e+01
      7.04444427e+01 1.21428576e+01 51. 1.20562500e+02 78.
      6.66071472e+01 8.85652161e+01 9.26875000e+01 3.55454559e+01
      1.15500000e+02 102. 4.00000038e+01 4.60000038e+00 122.
      9.00000076e+01 1.05000008e+02 43. 5.65999985e+01 5.00000038e+01
      72.</_>
    <_>
      6.75172424e+01 2.65909100e+01 1.14542854e+02 4.61162796e+01
      6.60000038e+00 9.12222214e+01 1.01228569e+02 7.38000031e+01
      5.64814835e+01 1.75909100e+01 3.63846169e+01 9.56250000e+01
      7.69705887e+01 118. 1.08888893e+02 6.34347839e+01 9.83461609e+01
      85. 1.41000004e+01 51. 1.23478264e+02 2.25454559e+01
      3.04799995e+01 4.32000008e+01 3.44516106e+01 5.95454559e+01 105.
      3.85806427e+01 8.56250000e+00 8.73571472e+01 71. 1.21500000e+02
      7.95000000e+01 3.38888884e+00 1.09285717e+01 6.54864883e+01
      4.85200005e+01 24. 1.99523811e+01 5.45714302e+01 1.13000008e+02
      1.03695656e+02 1.06521744e+02 83. 5.80000038e+01 93.
      4.04090919e+01 1.19391304e+02 89. 94. 53. 2.84761906e+01
      1.11590912e+02 9.00000076e+01 8.16666718e+01 2.50000019e+01 97.
      1.16733337e+02 16. 3.26470604e+01 5. 6.13333359e+01 72.
      6.95199966e+01</_>
    <_>
      2.32727280e+01 1.05320000e+02 6.36153870e+01 9.36000061e+01
      4.39729729e+01 1.17550003e+02 3.36363649e+00 35. 7.84090958e+01
      5.05862083e+01 1.07647057e+01 8.58918915e+01 7.03636398e+01
      1.11310341e+02 1.23620689e+02 2.85000000e+01 9.74583359e+01
      4.15238113e+01 6.64074097e+01 1.54000006e+01 1.95000000e+01
      5.73157883e+01 1.01535721e+02 8.83333359e+01 7.44399948e+01 82.
      4.66875000e+01 1.19434784e+02 5.34687500e+01 1.08666672e+02
      3.95454559e+01 3.04666691e+01 9.13333359e+01 5.94090919e+01
      1.15300003e+02 1.21423080e+02 6.85757599e+01 9.96111145e+01 107.
      55. 8.09090900e+00 26. 1.77368431e+01 7.24545441e+01 80.
      9.55882339e+01 5.20000038e+01 7.66250000e+01 3.25217400e+01
      1.13538467e+02 1.34799995e+01 56. 81. 90. 1.10000008e+02
      2.13809528e+01 8.33600006e+01 61. 1.03720001e+02 6.20000038e+01
      5.40000010e+00 65. 4.85185204e+01 3.75714302e+01</_>
    <_>
      7.45599976e+01 2.15833340e+01 1.16479996e+02 4.04761925e+01
      9.62368393e+01 8.50731659e+01 5.75000000e+00 5.34324341e+01
      6.45652161e+01 1.04538467e+02 3.24444466e+01 1.33846159e+01
      1.23550003e+02 4.65000000e+01 5.96190491e+01 1.09400009e+02 70.
      9.07647095e+01 26. 7.91599960e+01 1.02529411e+02 1.19035721e+02
      3.55599976e+01 1.76521740e+01 5.64615402e+01 7.65714264e+01
      9.10344791e+00 5.06129036e+01 1.12666672e+02 9.96111145e+01
      4.44074059e+01 2.84137936e+01 6.74000015e+01 8.23548355e+01
      4.84827576e+01 3.75000000e+01 3.28571439e+00 1.21473686e+02 58.
      9.36521759e+01 6.23500023e+01 2.35000019e+01 1.53043480e+01 61.
      89. 1.06944443e+02 98. 66. 114. 1.15833340e+01 4.26000023e+01
      1.95000000e+01 3.04399986e+01 34. 1.11000008e+02 5.50000038e+01
      8.73888931e+01 7.14761887e+01 115. 73. 101. 39. 69. 52.</_>
    <_>
      9.31999969e+00 7.71379318e+01 1.17250008e+02 4.24444466e+01
      9.30285721e+01 5.65806427e+01 2.83823528e+01 6.42121201e+01
      9.85151520e+01 3.64166679e+01 1.06906250e+02 4.70975609e+01
      2.44615402e+01 7.14166718e+01 8.82941208e+01 2.05200005e+01
      5.50000000e+00 8.33125000e+01 5.25312500e+01 1.23500000e+02
      1.14400002e+02 1.03519997e+02 3.08888893e+01 1.58275862e+01 51.
      6.11250000e+01 1.09384613e+02 68. 1.19588234e+02 7.40689621e+01
      3.86666679e+01 9.04444427e+01 8.17391357e+01 3.38461542e+00 112.
      1.13846159e+01 66. 9.61515198e+01 79. 1.11000008e+02
      2.65000000e+01 4.44444466e+01 8.60000076e+01 1.35416670e+01
      1.83461552e+01 7.50000000e+00 3.35909119e+01 49. 67.
      1.13000008e+02 87. 5.44399986e+01 4.03181839e+01 5.83500023e+01
      1.21444443e+02 1.01142860e+02 6.93461533e+01 80. 2.30000019e+01
      85. 35. 50. 105. 22.</_>
    <_>
      3.35714302e+01 1.03478264e+02 6.28333359e+01 3.30769253e+00
      1.21625000e+02 9.00277786e+01 5.15172424e+01 1.76153851e+01
      7.48888931e+01 9.45000000e+01 4.31578941e+01 2.48604641e+01 108.
      1.35357151e+01 1.17428574e+02 8.75999985e+01 8.11304398e+01 69.
      5.70967712e+01 9.50000000e+00 3.76296310e+01 47. 22.
      5.43478251e+00 3.13214302e+01 1.13481483e+02 9.75416718e+01
      2.75555553e+01 50. 7.18399963e+01 7.78571396e+01 8.35500031e+01
      9.94285736e+01 1.95500011e+01 6.53928604e+01 5.43750000e+01
      1.11500000e+02 3.55555573e+01 105. 4.50000038e+01 1.54482756e+01
      6.07391319e+01 1.01500000e+02 1.19578949e+02 8.54285736e+01
      1.15272728e+02 4.03636360e+01 7.36842108e+00 48. 1.23400002e+02
      2.95000000e+01 9.26315765e+01 59. 39. 110. 46. 53. 109.
      1.16000004e+01 1.07000008e+02 96. 106. 49. 67.</_>
    <_>
      38. 9.25714340e+01 1.22413797e+01 1.10476196e+02 6.39166679e+01
      2.22571430e+01 5.38409119e+01 7.84285736e+01 1.23000008e+02
      9.70000076e+01 4.54705887e+01 3.18181820e+01 7.14375000e+01
      7.56521749e+00 2.49090919e+01 8.96666718e+01 86. 1.05423080e+02
      1.13147057e+02 1.55517244e+01 3.39130449e+00 57. 4.74399986e+01
      1.01423080e+02 1.17450005e+02 4.95517235e+01 7.39259262e+01
      4.21428566e+01 1.03562500e+02 6.64444427e+01 35. 6.13684196e+01
      8.15294113e+01 1.21500000e+02 1.19681824e+02 1.76000004e+01
      5.56521749e+00 8.73448257e+01 1.40000010e+01 2.75714302e+01 52.
      7.64210510e+01 9.54500046e+01 6.85000000e+01 9.48148155e+00
      3.94545479e+01 5.93333321e+01 9.84399948e+01 91. 1.15250000e+02
      51. 1.07333336e+02 8.00000076e+01 70. 100. 1.95294113e+01 44.
      1.24000008e+02 94. 8.35714264e+01 109. 2.95769234e+01 85. 37.</_>
    <_>
      7.23333359e+01 27. 1.13500000e+02 9.56428604e+01 4.73703690e+01
      3.42857170e+00 1.94090919e+01 6.00434799e+01 8.32692337e+01
      3.63928604e+01 1.02368423e+02 1.17500000e+02 5.33448257e+01
      9.47999954e+00 4.04285736e+01 1.22652176e+02 6.59729767e+01
      1.05062500e+02 3.13703709e+01 8.74615402e+01 7.72631607e+01
      9.35333405e+01 2.39487190e+01 1.19891891e+02 1.76499996e+01 110.
      7.04444427e+01 1.53999996e+01 1.34814816e+01 6.48000002e+00 80.
      4.45200005e+01 5.13750000e+01 1.00680000e+02 5.54285736e+01
      8.97272720e+01 8. 3.36774178e+01 8.54166718e+01 3.80000038e+01
      1.07411766e+02 6.28750000e+01 7.44117661e+01 9.84210510e+01
      5.73684196e+01 49. 1.15500000e+02 4.60000038e+01 2.14117641e+01
      9.12000046e+01 6.87142868e+01 8.20000076e+01 97. 2.93999996e+01
      1.18125000e+01 50. 35. 39. 76. 5. 109. 124. 4.24285736e+01
      1.11470589e+02</_>
    <_>
      3.24375000e+01 9.80000076e+01 6.35263176e+01 6.96774197e+00
      5.01136360e+01 1.22031250e+02 8.35357208e+01 2.15185184e+01
      4.05454559e+01 1.10583336e+02 7.40714340e+01 5.66875000e+01
      2.64166679e+01 9.03333359e+01 1.35769234e+01 1.06592590e+02
      3.65185204e+01 4.49428558e+01 7.89599991e+01 1.03064514e+02
      6.15555573e+01 1.17500008e+02 7.09189224e+01 1.89375000e+01
      3.46153855e+00 89. 8.54000015e+01 5.25416679e+01 1.08642860e+02
      1.13545456e+02 4.26296310e+01 9.42105293e+00 9.27647095e+01
      6.75555573e+01 1.00666672e+02 2.90000019e+01 7.64705887e+01
      1.64090919e+01 2.43599987e+01 1.19550003e+02 4.73750000e+01
      5.43199997e+01 3.43571434e+01 9.56111145e+01 8.75909119e+01 105.
      2.30000019e+01 69. 3.80000038e+01 124. 5.83571472e+01
      1.50000010e+01 6.53684235e+01 5. 60. 39. 1.16428576e+01 31.
      1.12000008e+02 28. 94. 30. 8.16250000e+01 1.15375000e+02</_>
    <_>
      1.76333351e+01 8.54285736e+01 109. 50. 6.72500000e+01
      2.60000019e+01 1.19151520e+02 39. 3.32352948e+00 1.34090910e+01
      9.78799973e+01 7.54117661e+01 5.79545479e+01 3.25555573e+01
      9.13750000e+01 1.22146339e+02 1.13945946e+02 4.61749992e+01
      2.15714283e+01 1.00500000e+02 8.45454597e+00 71. 7.96399994e+01
      1.04500000e+02 6.08648682e+01 2.95909100e+01 9.55625000e+01
      5.49655151e+01 4.30857162e+01 1.06541672e+02 9.36399994e+01
      2.35714302e+01 3.55833359e+01 6.55454559e+01 124. 6.50000000e+00
      7.74166718e+01 5.12857170e+01 3.10000019e+01 8.75714264e+01
      1.11433342e+02 6.34705887e+01 8.34000015e+01 1.53448277e+01
      1.16705879e+02 4.85925941e+01 69. 8.16500015e+01 34.
      8.96521759e+01 1.02639999e+02 1.16153851e+01 38. 1.08000008e+02
      4.04117661e+01 5. 7.35714340e+01 37. 110. 10. 2.75454559e+01
      2.50000019e+01 5.30000038e+01 1.95652180e+01</_>
    <_>
      6.05384636e+01 120. 2.84782619e+01 9.13076935e+01 8.47619057e+00
      1.10444443e+02 5.05384636e+01 8.27666702e+01 4.03076935e+01
      7.09285736e+01 17. 2.55599995e+01 1.02571434e+02 9.35000000e+01
      3.44642868e+01 9.75625000e+01 7.56800003e+01 46. 1.14862068e+02
      2.05000000e+01 6.52727280e+01 3.48484850e+00 8.75999985e+01
      1.23051285e+02 2.24399986e+01 1.27272730e+01 7.34782639e+01
      5.60909119e+01 4.35357170e+01 1.08636368e+02 3.64799995e+01
      1.05521744e+02 6.26128998e+01 8.04666672e+01 5. 1.17571434e+02
      1.83199997e+01 1.54666672e+01 3.13333340e+01 1.07000008e+02
      8.53913040e+01 7.84166718e+01 4.86956520e+01 6.73000031e+01
      1.12650002e+02 1.00541672e+02 5.36111107e+01 14. 9.56842117e+01
      27. 1.05625000e+01 5.84166679e+01 6.36363649e+00 24. 33.
      4.20000038e+01 69. 52. 3.86153870e+01 1.04000008e+02
      9.90000076e+01 8.98260880e+01 3.00000019e+01 77.</_>
    <_>
      3.06538467e+01 1.10970589e+02 6.25833359e+01 8.76086960e+01
      1.64814816e+01 5.15000038e+01 9.45769272e+01 1.15939400e+02
      7.83571472e+01 3.41379309e+00 3.94285736e+01 6.94583359e+01
      9.77142906e+00 2.85599995e+01 1.23500008e+02 1.03444443e+02
      4.34500008e+01 37. 2.34166679e+01 5.99166679e+01 8.24736862e+01
      5.55000000e+01 1.95333347e+01 6.68399963e+01 1.05551727e+02
      7.38695679e+01 9.95517273e+01 8.99642868e+01 1.18523811e+02
      1.31315794e+01 1.13620689e+02 4.85000000e+01 9.25000000e+01
      3.32812500e+01 5.75454559e+01 7.45000029e+00 1.08759995e+02
      4.64090919e+01 9.74000015e+01 3.55454559e+01 2.60000019e+01 18.
      1.21423080e+02 4.16800003e+01 1.50000010e+01 72. 8.60000076e+01
      2.15454559e+01 45. 5.33809547e+01 2.70000019e+01 8.45000000e+01
      107. 5.35294104e+00 96. 38. 7.66315765e+01 6.45454559e+01
      8.05000000e+01 50. 1.01500000e+02 2.50000019e+01 71. 120.</_>
    <_>
      8.45757599e+01 2.89642868e+01 115. 6.00714302e+01 1.15555553e+01
      1.02976189e+02 6.95217438e+01 1.65416679e+01 44. 9.35000000e+01
      3.65833359e+01 123. 52. 7.64545441e+01 5.38095236e+00
      2.07812500e+01 1.07555557e+02 6.24333382e+01 8.94285736e+01
      8.15000000e+01 9.85172424e+01 6.74062500e+01 5.49555588e+01
      7.45500031e+01 1.11481483e+02 3.20333366e+01 2.38750000e+01
      1.19189194e+02 4.14761925e+01 4.75599976e+01 1.05599998e+02
      9.61538506e+00 7.38095236e+00 3.89393959e+01 83. 1.84285717e+01
      3.31818199e+00 96. 9.15599976e+01 7.85599976e+01 2.63928585e+01
      1.16457146e+02 101. 7.17777786e+01 1.36666670e+01 1.21583336e+02
      5.75000000e+01 8.70645142e+01 50. 1.13599998e+02 46.
      3.46190491e+01 64. 6.54399948e+01 4.90000038e+01 109. 73.
      9.70000076e+01 1.50000010e+01 95. 100. 80. 124. 1.10000008e+02</_>
    <_>
      9.10303040e+01 2.95416679e+01 6.64000015e+01 1.23479996e+02 16.
      1.06040001e+02 8.96153927e+00 4.45000000e+01 7.43611145e+01
      5.09750023e+01 5.96296310e+01 8.35500031e+01 37. 9.65000000e+01
      2.03157902e+01 1.15260872e+02 4.57142878e+00 5.60555573e+01
      1.19413795e+02 88. 2.45652180e+01 6.85806427e+01 78.
      9.83793106e+01 3.34838715e+01 7.05000000e+01 4.05862083e+01
      1.09919998e+02 1.03619049e+02 1.15500002e+01 86. 2.26129017e+01
      4.65000000e+01 9.30000076e+01 6.43809509e+01 1.12479996e+02 18.
      1.35789471e+01 19. 5.80000038e+01 4.86250000e+01 5.33478279e+01
      1.01166672e+02 28. 1.21476196e+02 7.66875000e+01 8.15172424e+01
      7.24799957e+01 4.24705887e+01 7.95652161e+01 6.27500000e+01
      6.55555582e+00 6.10000038e+01 9.44444427e+01 3.13928585e+01
      3.85185204e+01 85. 35. 1.08000008e+02 1.17360001e+02 3. 36. 114.
      2.66250000e+01</_>
    <_>
      1.05578949e+02 3.54062500e+01 6.94324341e+01 1.76521740e+01
      9.05357208e+01 5.05000000e+01 1.23689651e+02 3.70370364e+00
      7.44838715e+01 56. 1.09583336e+02 4.25263176e+01 1.17428574e+02
      29. 8.05000000e+01 9.70606079e+01 5.94230804e+01 9.11999989e+00
      4.74799995e+01 1.35172415e+01 8.51052628e+01 6.36399994e+01 92.
      1.01619049e+02 2.14347839e+01 122. 31. 7.67222214e+01
      9.44444427e+01 3.84500008e+01 6.75000000e+01 8.25599976e+01
      2.64782619e+01 1.12523811e+02 8.75909119e+01 1.19307693e+02
      5.29756088e+01 1.03730774e+02 1.14761906e+01 4.50000038e+01 40.
      115. 6.15000038e+01 7.18709641e+01 37. 6.58823538e+00 34.
      1.95000000e+01 9.95555573e+01 2.44444447e+01 58. 1.07500000e+02
      89. 93. 1.11000008e+02 6.57391281e+01 121. 1.53809528e+01
      4.10000038e+01 7.83043518e+01 23. 49. 32. 33.</_>
    <_>
      5.83793106e+01 1.01965515e+02 1.66956520e+01 3.73548393e+01
      7.74444427e+01 1.20809525e+02 2.70000019e+01 8.55517273e+01
      5.20250015e+01 6.40322571e+01 112. 5.68750000e+00 2.33571434e+01
      9.30526352e+01 9.76250000e+01 7.10909119e+01 3.14117641e+01
      1.15769234e+01 4.76818199e+01 9.00227280e+01 4.30333366e+01 56.
      79. 74. 1.08588234e+02 1.17366676e+02 1.94615383e+01
      9.46153927e+00 6.63870926e+01 107. 3.45000000e+01 1.13529411e+02
      8.15000000e+01 40. 6.09743614e+01 1.23599998e+02 1.35652180e+01
      4.95517235e+01 9.56086960e+01 1.10476196e+02 1.06000008e+02
      6.86800003e+01 2.55652180e+01 1.19000008e+02 1.15263161e+02
      4.52916679e+01 8.75769272e+01 15. 1.04399994e+02 9.95999985e+01
      2.94615402e+01 5.70000038e+01 3.26666689e+00 7.44444466e+00 36.
      33. 28. 80. 8.34705887e+01 7.53809509e+01 5.46818199e+01 73. 18.
      2.15909100e+01</_>
    <_>
      3.53666687e+01 1.22400009e+02 8.57096786e+01 6.38928604e+01
      1.18750000e+01 1.06833336e+02 4.86153870e+01 2.26060619e+01
      7.17428589e+01 9.75357208e+01 5.75806427e+01 5.54545450e+00
      1.14437500e+02 4.18823547e+01 7.73793106e+01 1.66000004e+01
      2.94399986e+01 9.33870926e+01 8.16206894e+01 1.12153847e+02
      1.01454552e+02 6.86562500e+01 5.35555573e+01 3.13793106e+01
      7.46153879e+00 8.83928604e+01 1.99761906e+01 4.45185204e+01
      3.73103447e+01 1.19523811e+02 9.35999966e+00 1.09500008e+02
      7.45185165e+01 5.94736862e+01 1.44814816e+01 9.05000000e+01
      3.95416679e+01 2.64761906e+01 4.66842117e+01 50. 6.64230804e+01
      2.44583340e+01 1.24000008e+02 79. 33. 5.55652199e+01
      3.37500000e+00 1.04300003e+02 9.55416718e+01 1.03000008e+02
      5.20000038e+01 1.17068962e+02 9.92173920e+01 8.34705887e+01 18.
      34. 80. 121. 70. 62. 9.20000076e+01 61. 51. 28.</_>
    <_>
      5.45238113e+01 9.33529434e+01 1.49499998e+01 3.64848480e+01 117.
      7.05416718e+01 3. 1.02478264e+02 8.54583359e+01 2.44117641e+01
      4.36000023e+01 7.77500000e+01 1.19434784e+02 6.05714302e+01
      2.70750008e+01 1.05000000e+01 1.09172417e+02 4.75789490e+01
      3.24482765e+01 8.53846169e+00 97. 1.23571434e+02 1.79729729e+01
      6.65000000e+01 1.12416672e+02 3.90303040e+01 8.94642868e+01 73.
      5.14117661e+01 1.06473686e+02 6.43333359e+01 2.04193535e+01
      8.09736862e+01 7.52222214e+01 4.57142878e+00 2.94399986e+01
      5.83636398e+01 1.21478264e+02 3.44687500e+01 9.91666641e+01 95.
      9.12857208e+01 4.55185204e+01 4.10000038e+01 2.26129017e+01
      8.37272720e+01 101. 1.04343750e+02 1.14500000e+02 53.
      6.20000038e+01 12. 4.90000038e+01 6.45454550e+00 6.30000038e+01
      8.76363678e+01 6.86666718e+01 50. 4.20000038e+01 1.30000010e+01
      31. 5.65714302e+01 74. 72.</_>
    <_>
      6.80999985e+01 2.54500008e+01 1.17029411e+02 9.66800003e+01
      3.95217400e+01 6.52173948e+00 8.15238113e+01 5.65000038e+01
      1.56071434e+01 1.12185188e+02 1.04107147e+02 5.05416679e+01
      8.73703690e+01 7.14761887e+01 2.90000019e+01 35. 92.
      1.23551727e+02 7.97826080e+01 4.46399994e+01 6.05499992e+01
      1.00888893e+02 2.04545460e+01 8.35714264e+01 6.58750000e+01 3.
      1.25172415e+01 4.18787880e+01 6.31666679e+01 1.19576927e+02
      7.54761887e+01 5.25789490e+01 8.54827576e+01 8.46666718e+00
      2.70000019e+01 3.19347839e+01 70. 1.76399994e+01 1.09476196e+02
      4.63600006e+01 1.05185184e+01 9.45714340e+01 1.14434784e+02
      2.26562500e+01 14. 8.94166718e+01 99. 3.74857140e+01 93.
      4.52941179e+00 7.35909119e+01 1.06833336e+02 5.43913040e+01 58.
      4.86111107e+01 5.90000038e+01 9.80000076e+01 91. 28. 24.
      7.76818237e+01 1.21590912e+02 19. 3.00000019e+01</_>
    <_>
      6.14285707e+00 7.05333405e+01 1.09652176e+02 4.10909119e+01
      1.04206894e+02 2.64827576e+01 8.89696960e+01 123. 5.95000000e+01
      4.69259262e+01 1.04761906e+01 9.56128998e+01 7.75909119e+01
      1.53913050e+01 54. 3.44411774e+01 8.33333359e+01 6.38888893e+01
      1.16885712e+02 8.53571510e+00 2.94090919e+01 1.94642868e+01
      9.40000076e+01 5.69259262e+01 6.63928604e+01 1.19424248e+02
      4.99444466e+01 2.26153851e+01 3.65000000e+01 7.55652161e+01
      1.13911766e+02 1.01239998e+02 3.83333359e+01 31. 3.41666675e+00
      45. 8.59512177e+01 7.96190491e+01 9.84000015e+01 1.24242430e+01
      108. 5.25652199e+01 81. 6.86818237e+01 2.43043480e+01 33.
      9.12380981e+01 21. 1.11647057e+02 1.21523811e+02 1.06529411e+02
      32. 7.37826080e+01 6.15555573e+01 28. 72. 93. 14. 4.35000038e+01
      97. 124. 1.77142868e+01 82. 5.50000038e+01</_>
    <_>
      4.81935463e+01 115. 1.83750000e+01 7.75714340e+01 9.43684235e+01
      9.43999958e+00 6.15000000e+01 2.85000019e+01 1.04942856e+02
      8.68857117e+01 3.71250000e+01 1.19515152e+02 6.95416718e+01
      3.38461542e+00 2.37250004e+01 1.34545460e+01 5.54736862e+01
      5.06153870e+01 1.09741936e+02 3.44411774e+01 8.34399948e+01
      4.54615402e+01 9.15666733e+01 4.14500008e+01 9.83333359e+01
      6.34666710e+01 1.17349998e+02 7.54500046e+01 31. 5.47619057e+00
      1.23615387e+02 6.75789490e+01 2.16000004e+01 2.66666660e+01
      5.76111107e+01 7.37391281e+01 1.12384621e+02 8.94333344e+01
      1.07333336e+02 85. 9.65500031e+01 1.00750000e+02 71.
      1.14799995e+01 1.64736843e+01 1.21590912e+02 3.94375000e+01 59.
      7.93846207e+01 8.15217438e+01 72. 1.02466675e+02 6.56250000e+01
      60. 30. 7. 32. 93. 15. 33. 20. 4.34705887e+01 5.30434799e+01 8.</_>
    <_>
      54. 1.06666672e+02 21. 7.14242477e+01 8.81785736e+01
      4.39687500e+01 7.48148155e+00 117. 3.83478279e+01 2.61666660e+01
      8.14074097e+01 9.70857162e+01 12. 6.19545479e+01 3.14166679e+01
      1.12400009e+02 4.96666679e+01 1.21545456e+02 1.85185184e+01
      9.27407379e+01 5.83636398e+01 1.01416672e+02 7.65294113e+01
      6.64782639e+01 3.53600006e+01 8.36206894e+01 3.47368431e+00
      1.23615387e+02 1.44642868e+01 4.13913040e+01 2.84838696e+01
      7.94090958e+01 4.68750000e+01 114. 75. 9.42857170e+00
      1.08521744e+02 103. 6.42105255e+01 6.85999985e+01 9.92857208e+01
      9.44736862e+01 1.19458336e+02 2.34687500e+01 5.47368431e+00 105.
      6.00000038e+01 9.03684235e+01 7.36800003e+01 1.10434784e+02 40.
      8.54444427e+01 1.63181820e+01 22. 78. 30. 115. 5.14761925e+01
      3.35357170e+01 70. 104. 2.00000019e+01 37. 5.65294113e+01</_>
    <_>
      41. 9.40000076e+01 18. 1.14810814e+02 6.72692337e+01
      1.07128204e+02 8.00243835e+01 2.95416679e+01 5.58846169e+01
      9.59090900e+00 3.30000019e+00 1.22117645e+02 4.95833359e+01
      8.75333405e+01 3.54444466e+01 7.05925903e+01 1.00066673e+02 26.
      6.43888931e+01 1.04407410e+02 2.24838696e+01 1.23333330e+01
      4.55652199e+01 1.12116280e+02 7.52000046e+01 6.03599968e+01
      5.13750000e+01 1.19444443e+02 8.50625000e+01 39. 1.46923084e+01
      3.26538467e+01 124. 31. 1.09571434e+02 38. 21. 6.07407427e+00 69.
      1.02629631e+02 9.74799957e+01 9.04210510e+01 11. 7.74687500e+01
      6.25000038e+01 1.17285713e+02 2.44583340e+01 34. 4.74000015e+01 8.
      4.35000000e+01 8.24375000e+01 7.22000046e+01 9.26551743e+01
      5.33750000e+01 5.82857170e+01 66. 89. 16. 37. 9.54000015e+01 74.
      20. 2.75000019e+01</_>
    <_>
      7.25000000e+01 22. 4.00000038e+01 1.05375000e+02 5.41666698e+00
      5.25555573e+01 8.47500000e+01 6.44000015e+01 124. 1.55500002e+01
      9.35000000e+01 6.64444427e+01 4.47619057e+01 2.89090919e+01
      3.25555573e+01 9. 6.14615402e+01 1.16599998e+02 9.99285736e+01
      7.85999985e+01 5.83750000e+01 70. 1.95000000e+01 3.45714302e+01
      1.26111116e+01 9.12857208e+01 4.97142868e+01 7.63333359e+01 111.
      8.77142868e+01 17. 9.66250000e+01 25. 7. 3.74285736e+01 68. 27.
      5.66666679e+01 3.00000024e+00 4.24000015e+01 1.21666672e+02
      4.73750000e+01 114. 1.03750000e+01 1.07800003e+02 69. 18. 8. 82.
      39. 21. 1.18400002e+02 63. 1.03666672e+02 23. 36. 7.47000046e+01
      4. 71. 5.42500000e+01 41. 6.00000038e+01 14. 51.</_>
    <_>
      4.19743614e+01 1.08909096e+02 7.24117661e+01 2.24814816e+01
      9.45294113e+01 4.52380943e+00 1.19914284e+02 5.64761925e+01
      3.13684216e+01 8.54230804e+01 1.34736843e+01 7.70943375e+01
      6.37000046e+01 1.00590912e+02 5.14500008e+01 3.90256424e+01
      8.94782639e+01 2.75263157e+01 4.64615402e+01 7.05882359e+00
      1.85757580e+01 1.16555557e+02 6.86896515e+01 3.44687500e+01
      1.23199997e+02 8.14782639e+01 9.40909100e+00 30. 1.05407410e+02
      9.85217438e+01 5.95000000e+01 1.11608696e+02 7.44827576e+01
      9.14285736e+01 3.65999985e+01 8.33888931e+01 4.82692337e+01 24.
      1.15769234e+01 1.03409096e+02 6.66086960e+01 4.45714302e+01
      1.02000008e+02 5.80000038e+01 118. 9.65238113e+01 8.76086960e+01
      65. 107. 33. 50. 2.53461552e+01 3. 6.16153870e+01 7.95500031e+01
      2.06071434e+01 1.14090912e+02 5.47391319e+01 29. 1.65833340e+01
      9.30000076e+01 53. 7.03548355e+01 15.</_>
    <_>
      1.70975609e+01 1.17150002e+02 6.55454559e+01 8.45599976e+01
      4.05200005e+01 5.55517235e+01 1.03541672e+02 6.62962961e+00
      2.91714287e+01 7.25000000e+01 9.75599976e+01 2.25000000e+01
      4.78148155e+01 6.14545479e+01 1.10631577e+02 9.31875000e+01
      1.14500008e+02 3.44666672e+01 7.73928604e+01 1.01307693e+02
      1.20450005e+02 87. 8.24000015e+01 1.06000004e+01 1.24782610e+01
      1.46129026e+01 4.23888893e+01 3.37931037e+00 6.85333405e+01
      1.22772728e+02 3.65357170e+01 9.05789490e+01 107. 51.
      2.65714283e+01 74. 1.93870964e+01 6.35555573e+01 5.70000038e+01
      8.90000076e+01 2.45714302e+01 21. 4.44687500e+01 5.32592583e+01
      1.24000008e+02 3.26428604e+01 8.38888931e+00 9.93333359e+01
      5.95000038e+01 7.95000000e+01 46. 3.85217400e+01 31.
      1.12500000e+02 1.05590912e+02 7.55000000e+01 5. 8.10000076e+01
      9.56190491e+01 1.08407410e+02 1.19000008e+02 67. 7.03461533e+01
      58.</_>
    <_>
      4.42857170e+00 6.55555573e+01 1.08948723e+02 3.84375000e+01
      8.53461533e+01 2.06060619e+01 5.85666695e+01 9.95000000e+01
      1.20608696e+02 5.45000000e+01 7.50294113e+01 2.86538467e+01
      1.54062500e+01 9.31944427e+01 8.00952377e+01 1.13555557e+02
      4.95555573e+01 6.97234039e+01 1.03615387e+02 3.34666672e+01 9.
      4.19411774e+01 8.75217438e+01 2.54615402e+01 9.00555573e+01 63.
      37. 124. 1.85333347e+01 119. 1.15000000e+01 7.25000000e+01
      4.45454559e+01 9.56000061e+01 1.05846161e+02 8.33499985e+01 67.
      5.15769234e+01 5.63214302e+01 6.15757599e+01 1.11333336e+02
      1.17666672e+02 3.54166679e+01 6.67999983e+00 7.73333359e+01
      9.73499985e+01 2.28709679e+01 4.66666679e+01 53. 48.
      3.04545460e+01 1.15294121e+02 6.00000038e+01 27. 17. 64.
      1.22619049e+02 1.01478264e+02 3. 1.35000010e+01 40. 82. 68. 32.</_>
    <_>
      121. 3.24838715e+01 80. 1.46000004e+01 5.40000038e+01
      1.02620689e+02 6.86428604e+01 1.25000010e+01 4.44230804e+01
      9.10357208e+01 2.14117641e+01 4.62500000e+00 3.69285736e+01
      6.21851845e+01 1.13888893e+02 7.33461533e+01 1.07500000e+02
      2.53999996e+01 8.59729767e+01 7.36666727e+00 9.74705887e+01
      3.94399986e+01 9.94736862e+01 5.10285721e+01 7.72777786e+01
      4.79393959e+01 1.11368423e+02 9.36842117e+01 1.93928585e+01
      5.63600006e+01 6.44799957e+01 35. 8.34000015e+01 8.85217438e+01
      5.93636398e+01 1.16333336e+02 2.74500008e+01 1.23652176e+02
      7.53461533e+01 2.34799995e+01 1.66000004e+01 104. 1.09411766e+02
      9.96969700e+00 7.16785736e+01 46. 3.04285736e+01 6. 18.
      9.58888931e+01 6.64761887e+01 4.19032249e+01 5.50000038e+01 70.
      29. 1.18500000e+02 82. 34. 58. 53. 6.10000038e+01 1.05476189e+02
      101. 3.</_>
    <_>
      5.93529396e+01 1.03413795e+02 18. 7.74166641e+01 3.46250000e+01 6.
      1.17454552e+02 9.10312500e+01 50. 6.63478241e+01 4.52777786e+01
      9.74230804e+01 2.93599987e+01 1.08583336e+02 1.45757580e+01
      8.32666702e+01 1.21333336e+02 2.46250000e+01 3.99696999e+01
      7.15599976e+01 1.05599995e+01 5.33928604e+01 1.13600006e+02
      2.06060619e+01 8.79310379e+01 8.16000061e+01 3.38709664e+00
      2.76842098e+01 6.15217400e+01 9.57058792e+01 3.69677391e+01 68.
      9.93636398e+01 70. 4.24166679e+01 5.76666679e+01 1.10421051e+02
      65. 7.53478241e+01 1.25652180e+01 5.15000038e+01 8.43478298e+00
      8.53913040e+01 1.23599998e+02 5.55200005e+01 3.21666679e+01 16.
      7.32592621e+01 26. 1.06040001e+02 1.01380951e+02 4.83809547e+01
      1.19599998e+02 112. 9.36111145e+01 47. 69. 7.95000000e+01
      1.15400002e+02 5. 7. 6.36250000e+01 44. 2.25384617e+01</_>
    <_>
      1.05500008e+02 1.15000010e+01 5.92857170e+01 7.45555573e+01
      4.75925941e+01 3.20571442e+01 1.16857147e+02 91. 6.86666718e+01
      2.24444447e+01 3.75652199e+01 7.94285736e+01 8.50000000e+00
      5.43600006e+01 9.85909119e+01 6.37199974e+01 1.09368423e+02
      4.14444466e+01 8.59230804e+01 1.35000010e+01 1.23586205e+02
      2.69166679e+01 5.54166698e+00 18. 9.39189224e+01 7.25357208e+01
      3.44736862e+01 8.14230804e+01 4.55000038e+01 1.21416672e+02
      1.13800003e+02 6.64782639e+01 6.15172424e+01 8.82799988e+01
      8.34705887e+01 1.00578949e+02 2.45000019e+01 5.15217400e+01
      1.07750000e+02 7.66451569e+01 2.93000011e+01 3.96666679e+01
      5.64210548e+01 16. 9.65000000e+01 20. 53. 17. 3.36666679e+00 15.
      1.03090912e+02 1.19562500e+02 4.97368431e+01 78. 1.11545456e+02
      19. 5.80000038e+01 36. 65. 7.05000000e+01 21. 7. 4.34583359e+01
      10.</_>
    <_>
      6.65000000e+01 1.95862064e+01 99. 4.58709679e+01 1.11055557e+02
      8.40740738e+01 6.55555582e+00 1.20952385e+02 3.43846169e+01
      7.44482727e+01 5.94583359e+01 9.05714340e+01 5.54799995e+01
      2.74210529e+01 3.91290321e+01 1.04827585e+01 1.02565216e+02
      7.95652161e+01 4.47826099e+00 5.29687500e+01 7.15833359e+01
      2.13793106e+01 1.53870964e+01 1.23620689e+02 1.16066673e+02 43.
      95. 8.71562500e+01 6.86250000e+01 6.14814835e+01 1.08333336e+02
      2.97241383e+01 4.83809547e+01 6.46000061e+01 2.34210529e+01
      5.02857170e+01 2.53333340e+01 41. 8.16086960e+01 8.47619057e+00
      1.74642868e+01 1.30000010e+01 3.64642868e+01 1.00000008e+02
      1.05500000e+02 78. 1.20000010e+01 89. 3. 63. 3.24166679e+01 101.
      1.40000010e+01 9.75294113e+01 1.13461540e+02 9.25555573e+01
      5.75925941e+01 1.18571434e+02 70. 42. 73. 104. 4.40000038e+01
      7.67741928e+01</_>
    <_>
      6.56250000e+00 8.84545517e+01 5.05454559e+01 1.23617645e+02
      2.81333351e+01 65. 1.01347832e+02 7.96666718e+01 3.95714302e+01
      5.33571434e+01 1.64687500e+01 1.11809525e+02 7.54761887e+01
      4.35454559e+01 5.93043480e+01 1.19260872e+02 2.13478260e+01
      9.70540543e+01 3.16250000e+01 3.53999977e+01 104. 6.95483856e+01
      1.25172415e+01 9.13181839e+01 1.07769234e+02 3.79545474e+00
      4.55172424e+01 2.53000011e+01 8.34117661e+01 6.35499992e+01
      1.14437500e+02 1.88974361e+01 1.21555557e+02 6.75217438e+01 52.
      57. 1.16615387e+02 9.40740738e+01 6.14074097e+01 8.70000076e+01
      8.15238113e+01 78. 7.14736862e+01 7.33600006e+01 1.45416670e+01
      77. 5.56296310e+01 1.05714293e+01 66. 3.34000015e+01 106. 99.
      8.45833397e+00 48. 4.15909119e+01 1.09312500e+02 30. 86. 100. 85.
      2.33636379e+01 90. 5.80000038e+01 3.75862083e+01</_>
    <_>
      4.48518524e+01 1.09529411e+02 6.60606098e+00 7.84545441e+01
      9.61315765e+01 2.87352943e+01 6.19729729e+01 1.23656250e+02
      1.65416679e+01 8.74799957e+01 5.75000038e+01 6.74210510e+01
      3.35666695e+01 2.36818180e+01 116. 7.35652161e+01 4.18285713e+01
      5.20000038e+01 1.04100006e+02 9.88799973e+01 9.55000019e+00
      8.25172424e+01 3.40625000e+00 3.84166679e+01 1.18590912e+02
      6.44583359e+01 2.09714279e+01 4.79642868e+01 113. 9.32727280e+01
      5.55000038e+01 1.34444447e+01 1.01349998e+02 1.21466675e+02 120.
      7.16190491e+01 3.14090919e+01 12. 5.04166679e+01 3.64090919e+01
      5.92999992e+01 7.56190491e+01 8.51599960e+01 81. 70.
      1.86428585e+01 1.06416672e+02 2.63684216e+01 77. 9.06086960e+01
      5.33461571e+01 8. 5. 40. 25. 15. 111. 1.08000008e+02 11. 89. 80.
      66. 69. 35.</_>
    <_>
      1.13034485e+02 3.40285721e+01 6.35000000e+01 8.31999969e+00
      1.08571434e+02 9.05000000e+01 7.85000000e+01 5.05200005e+01
      2.04642868e+01 1.19969704e+02 9.78461609e+01 7.23846207e+01
      4.05000000e+01 5.55384636e+01 3.37142849e+00 2.74761906e+01
      1.53448277e+01 8.27500000e+01 1.03521744e+02 8.61379318e+01
      2.36250000e+01 4.64375000e+01 1.22625000e+02 1.05199995e+01
      6.80967712e+01 75. 6.05499992e+01 1.15380951e+02 1.35217390e+01
      52. 3.82916679e+01 3.15217400e+01 1.00888893e+02 54.
      4.45599976e+01 77. 62. 9.35217438e+01 1.10529411e+02
      7.03333359e+01 5.90000038e+01 1.17428574e+02 2.20000019e+01
      8.05238113e+01 8.85416718e+01 18. 5.52380943e+00 9.57692337e+01
      53. 3.65238113e+01 5.77142868e+01 6.54583359e+01 1.06041672e+02
      2.53333340e+01 2.90000019e+01 4.25882339e+01 92. 3.00000019e+01
      19. 4.83636360e+01 124. 12. 17. 7.00000048e+00</_>
    <_>
      3.35517235e+01 9.58000031e+01 6.77142868e+01 1.11315794e+01
      1.10517242e+02 4.47777786e+01 2.26363640e+01 8.10344849e+01
      5.81190491e+01 1.19176468e+02 7.45333405e+01 1.75483856e+01
      6.60000038e+00 89. 5.13500023e+01 4.00606079e+01 1.00458336e+02
      6.23684196e+01 1.05400002e+02 1.14500000e+02 3.15000000e+01
      1.23703705e+02 7.85599976e+01 3. 2.63750000e+01 8.64285736e+01
      3.75000000e+01 8.47647095e+01 4.74736862e+01 4.23888893e+01
      5.55862083e+01 6.94782639e+01 7.15652161e+01 2.46666679e+01
      1.34583340e+01 1.08066673e+02 9.05000000e+01 9.32222214e+01
      1.55000010e+01 4.94545479e+01 1.21583336e+02 1.02935478e+02
      1.16400002e+02 2.84399986e+01 6.07500000e+01 98. 2.04333344e+01 5.
      8.38888931e+00 76. 19. 1.12368423e+02 6.43333359e+01 83.
      3.00000019e+01 73. 5.34827576e+01 88. 77. 3.54375000e+01 99. 4.
      66. 97.</_>
    <_>
      1.23633339e+02 2.91162796e+01 6.82162170e+01 1.08479996e+02
      7.36666727e+00 8.85000000e+01 3.79032249e+01 2.44166679e+01
      5.14347839e+01 7.25454559e+01 1.03187500e+02 7.74074097e+01
      1.74615383e+01 5.83846169e+01 9.63478241e+01 85. 1.15875000e+02
      9.50000000e+00 5.44285736e+01 4.35263176e+01 6.11818199e+01
      9.34347839e+01 2.15454559e+01 3.51724148e+00 3.34705887e+01
      1.06500008e+02 1.12360001e+02 2.63500004e+01 120. 4.08285713e+01
      1.00652176e+02 7.53636398e+01 13. 8.24166718e+01 6.54705887e+01
      3.54500008e+01 7.05000000e+01 4.74444466e+01 6.37727280e+01
      1.93793106e+01 1.55625000e+01 5.64347839e+01 1.18409096e+02
      9.84545517e+01 7.93636398e+01 105. 5.40000010e+00 14. 95. 12.
      4.97142868e+01 1.21411766e+02 9.09565201e+01 81. 1.10500000e+02
      3.14285736e+01 4.52380943e+01 74. 23. 1.14000008e+02 11. 84.
      8.64000015e+01 5.30000038e+01</_>
    <_>
      1.66206894e+01 9.42727280e+01 4.97599983e+01 124. 7.25000000e+01
      111. 6.15454559e+01 3.09285736e+01 6.59999990e+00 3.90645142e+01
      7.84615402e+01 1.00500000e+02 1.17090912e+02 8.88000031e+01
      5.56296310e+01 2.24615402e+01 69. 1.16363640e+01 1.04454552e+02
      4.35294113e+01 3.39473677e+00 52. 85. 4.75499992e+01
      7.67666702e+01 6.54583359e+01 3.60882339e+01 1.98666668e+01
      1.08500000e+02 2.85909100e+01 1.46428576e+01 1.21473686e+02 113.
      9.85263138e+01 2.57647057e+01 9.19000015e+01 5.96000023e+01
      8.33636398e+01 67. 9.69999981e+00 3.34782600e+01 4.12999992e+01
      1.02620689e+02 7.45199966e+01 8.03793106e+01 1.14370369e+02
      4.54761925e+01 71. 51. 1.19380951e+02 53. 24. 8. 13. 5.
      9.65599976e+01 8.63846207e+01 82. 18. 1.06521744e+02
      6.36190491e+01 1.23000008e+02 5.78181839e+01 54.</_>
    <_>
      1.15347832e+02 1.75161285e+01 6.38750000e+01 9.56818237e+01
      3.25000000e+01 7.65405426e+01 1.04428574e+02 3. 48. 5.59117661e+01
      1.14838705e+01 1.09000008e+02 3.90769234e+01 8.34545517e+01
      2.85925922e+01 7.05454559e+01 8.65384674e+01 2.40399990e+01
      7.04347849e+00 1.24000008e+02 9.85161285e+01 4.36000023e+01 51.
      9.05416718e+01 5.83999977e+01 2.15806446e+01 67. 1.19925926e+02
      3.45909119e+01 60. 1.94285717e+01 111. 5.35454559e+01
      1.02666672e+02 1.44411764e+01 3.66818199e+01 4.55652199e+01
      8.06666641e+01 3.04761906e+01 97. 1.06500008e+02 6.15000038e+01
      7.44166718e+01 9.26666641e+01 1.12470589e+02 4.33333349e+00 114.
      8.83478241e+01 69. 1.22777779e+02 4.15499992e+01 82.
      1.08000008e+02 2.65000000e+01 7.84500046e+01 85. 7.26818237e+01
      1.00555557e+02 16. 1.17500000e+02 9.50000000e+00 1.30000010e+01
      94. 110.</_>
    <_>
      7.16296310e+01 2.63529415e+01 124. 1.01370369e+02 1.00952387e+01
      5.35499992e+01 8.25555573e+01 4.23913040e+01 1.05947372e+02
      6.34347839e+01 9.55185165e+01 1.13652176e+02 1.36071434e+01
      3.54285717e+00 35. 5.80731697e+01 7.35000000e+01 9.06190491e+01
      1.83750000e+01 2.25714283e+01 3.27000008e+01 4.72000008e+01
      1.20060608e+02 7.67826080e+01 8.75000000e+01 69. 3.75238113e+01
      1.09114288e+02 7.40000057e+00 1.16958336e+02 6.11785736e+01
      9.74444427e+01 1.55217390e+01 8.50689621e+01 5.56428604e+01
      5.01739159e+01 2.93750000e+01 2.46000004e+01 1.11461540e+02
      9.25000000e+01 4.46500015e+01 3.94545479e+01 1.03451607e+02
      6.74347839e+01 8.90000076e+01 7.95000000e+01 9.90000076e+01
      2.05263157e+01 70. 12. 1.22529411e+02 6.55000000e+01
      3.10000019e+01 5.40000010e+00 41. 28. 100. 75. 17. 81. 78.
      5.20000038e+01 94. 1.15000008e+02</_>
    <_>
      1.17571434e+02 4.07142868e+01 18. 6.93333359e+01 4. 1.01500000e+02
      2.52000008e+01 5.17777786e+01 1.08750000e+02 9.33333359e+01 45.
      123. 8.50000000e+00 1.03666672e+02 3.08000011e+01 81.
      1.13500000e+02 57. 1.15750000e+02 1.13333340e+01 91.
      4.82500000e+01 37. 5.40000038e+01 7.13333359e+01 1.20000008e+02
      1.06142860e+02 20. 2.76666679e+01 111. 9.85000000e+01 5.
      2.27500000e+01 42. 3.25000000e+01 65. 110. 74. 14. 50.
      4.62500000e+01 78. 112. 1.67500000e+01 39. 124. 122. 3. 21. 121.
      119. 19. 9.65000000e+01 53. 7. 43. 3.55000000e+01 44. 24. 105. 55.
      68. 56. 6.</_>
    <_>
      4.12727280e+01 1.13461540e+02 12. 5.36153870e+01 9.15000000e+01
      2.85384617e+01 6.55000000e+01 1.01500000e+02 4.50000000e+00
      1.76923084e+01 1.21545456e+02 3.35555573e+01 78. 2.30000019e+01
      1.08578949e+02 4.61428604e+01 5.95000000e+01 7.07500000e+01 37.
      9.47142868e+01 8.43333359e+01 8.47619057e+00 2.05714302e+01
      1.17555557e+02 1.23714294e+02 9.93750000e+01 1.43333340e+01
      4.88333359e+01 10. 1.06466675e+02 2.62307701e+01 16.
      5.13333321e+01 1.04500000e+02 5.74285736e+01 6.12000008e+01
      6.85000000e+01 3.03000011e+01 35. 116. 32. 4.35454559e+01
      6.35000000e+01 9.77777786e+01 3.95555573e+01 8.07500000e+01 111.
      3. 6. 25. 8.85000000e+01 1.19333336e+02 4.50000038e+01 86. 115.
      74. 5.57777786e+01 103. 1.30000010e+01 19. 1.10000010e+01 38. 36.
      7.</_>
    <_>
      6.86250000e+01 2.76250000e+01 1.19162163e+02 9.21891937e+01
      5.55517235e+01 5.35999966e+00 1.06550003e+02 3.86086960e+01
      1.53809528e+01 6.35862083e+01 1.13458336e+02 8.03809509e+01
      4.82000008e+01 9.95294113e+01 3.44193535e+01 1.74516125e+01
      8.75769272e+01 1.21476196e+02 5.85909119e+01 4.32272758e+01
      2.13448277e+01 73. 7.64090958e+01 2.35000000e+01 9.65333405e+01
      8.54137955e+01 3.25641036e+00 1.15800003e+02 1.09518517e+02
      8.29259262e+01 1.04576927e+02 3.05882359e+01 1.33333340e+01
      1.23571434e+02 7.54545498e+00 4.54782600e+01 5.13529396e+01
      6.60277786e+01 1.15000000e+01 6.00000038e+01 3.66451607e+01
      5.34074097e+01 29. 98. 70. 8.94285736e+01 4.16521759e+01 71.
      7.43636398e+01 4.00000038e+01 1.11653847e+02 9.47142868e+01
      1.01000008e+02 9.27586174e+00 1.02434784e+02 6.14666710e+01 50.
      1.08000008e+02 72. 2.55199986e+01 1.93478260e+01 3.23157883e+01
      7.82272720e+01 57.</_>
    <_>
      1.20370369e+02 1.29714289e+01 6.13888893e+01 8.84799957e+01
      3.91379318e+01 1.03478264e+02 2.55000000e+01 7.78333359e+01
      5.25312500e+01 5.90000010e+00 1.10700005e+02 8.26315765e+01
      6.85294113e+01 4.54166679e+01 9.55416718e+01 2.06086960e+01
      3.06499996e+01 7.04761887e+01 7.35000000e+01 1.23185188e+02
      1.15583336e+02 5.65000000e+01 3.44736862e+01 3.21212125e+00
      9.16111145e+01 1.07399994e+02 9.77894745e+01 6.40789490e+01
      8.47142868e+01 1.74444447e+01 8.66666698e+00 4.32799988e+01 49.
      29. 5.85312500e+01 2.29500008e+01 8.05384674e+01 7.55714264e+01
      1.13550003e+02 9.00000076e+01 3.65588226e+01 1.56666670e+01 109.
      6.62857208e+01 5.45833359e+01 5.03750000e+01 72. 86.
      1.18034485e+02 33. 19. 6.00000038e+01 41. 9.96666718e+01
      1.05444443e+02 1.05789471e+01 1.01533340e+02 2.75599995e+01 42.
      112. 9.33461609e+01 32. 4.76956520e+01 8.70000076e+01</_>
    <_>
      1.14391304e+02 3.45652199e+01 8.01379318e+01 1.33333340e+01
      6.44347839e+01 9.38965530e+01 5.56000023e+01 5.35294104e+00
      1.04839996e+02 4.56296310e+01 74. 2.35769234e+01 1.23750000e+02
      8.85555573e+01 4.28529396e+01 3.04545460e+01 1.84333344e+01
      5.14799995e+01 6.87142868e+01 1.00461540e+02 3.92121239e+01 112.
      5.95000038e+01 9.39130497e+00 8.54814835e+01 3.22222233e+00
      1.16241379e+02 7.70000076e+01 6.23214302e+01 1.21588234e+02 66.
      9.63499985e+01 9.16818237e+01 5.74444466e+01 2.79459457e+01
      4.94090919e+01 20. 3.66956520e+01 108. 1.02636368e+02 82.
      5.35000000e+01 22. 41. 7.03809509e+01 72. 1.16000004e+01 90. 120.
      2.55238094e+01 9.84736862e+01 61. 1.55000000e+01 1.18333336e+02
      3.22799988e+01 8.34761887e+01 17. 1.10545456e+02 1.13000008e+02
      7.52173948e+00 8.70000076e+01 4.77037048e+01 21. 67.</_>
    <_>
      1.89117641e+01 1.01125000e+02 7.14782639e+01 4.63571434e+01
      1.22444443e+02 7.42857170e+00 3.95862083e+01 8.64782639e+01
      6.90344849e+01 5.89696999e+01 1.12478264e+02 7.76153870e+01
      2.85789471e+01 5.42399979e+01 94. 6.41250000e+01 1.08153847e+02
      13. 8.14000015e+01 2.41470585e+01 3.24000015e+01 3.65384636e+01
      1.19958336e+02 6.13846169e+01 5.10000038e+01 8.99354782e+01
      1.15705879e+02 4. 4.33076935e+01 1.05454552e+02 7.54545441e+01
      8.40294113e+01 9.85625000e+01 15. 2.13999996e+01 6.65000000e+01
      5.64285736e+01 9.64705887e+01 4.84137917e+01 3.06842098e+01
      1.04166670e+01 1.10466675e+02 3.45555573e+01 9.25000000e+01
      5.37500000e+00 79. 1.03333336e+02 5.00000038e+01 38.
      1.14000008e+02 80. 1.17555557e+02 2.65263157e+01 5.30000038e+01
      7.35454559e+01 95. 1.24000008e+02 1.64799995e+01 88. 3.
      5.20000038e+01 4.15714302e+01 9. 4.50000038e+01</_>
    <_>
      5.02399979e+01 9.86666718e+01 3.29999995e+00 2.88064499e+01
      7.54285736e+01 1.13400009e+02 6.67777786e+01 9.04782639e+01
      1.23608696e+02 1.78333340e+01 4.04399986e+01 43. 5.84583359e+01
      1.33809528e+01 8.23636398e+01 1.04064514e+02 8. 5.44285736e+01
      3.42333336e+01 23. 3.72173920e+01 9.27931061e+01 1.19035721e+02
      6.25200005e+01 8.00666733e+01 1.08545456e+02 6.99411774e+01 64.
      8.66666718e+01 4.45454559e+01 4.77272758e+01 1.15892860e+02
      5.25000000e+01 3.16499996e+01 8.45185165e+01 2.54705887e+01
      6.00000048e+00 7.24000015e+01 7.74615402e+01 9.56086960e+01
      2.05000000e+01 1.21529411e+02 1.04705887e+01 36. 46. 49.
      1.01529411e+02 5.66000023e+01 1.53809528e+01 5. 65. 1.10533340e+02
      39. 2.70000019e+01 61. 112. 6.00000038e+01 42. 7. 74.
      8.83913040e+01 12. 1.06400002e+02 9.</_>
    <_>
      2.80322571e+01 1.17529411e+02 8.34583359e+01 6.64399948e+01
      1.30384617e+01 6.10238113e+01 9.71923141e+01 4.56451607e+01
      3.28125000e+00 37. 1.11599998e+02 2.34615402e+01 7.55000000e+01
      5.56521759e+01 1.22454552e+02 8.47999954e+00 7.29189224e+01
      9.18928604e+01 9.99599991e+01 1.85714283e+01 5.15000000e+01
      4.20769234e+01 8.74137955e+01 1.09333336e+02 5.40000038e+01
      3.35714302e+01 1.04947372e+02 7.98095245e+01 4.77368431e+01
      7.04166718e+01 15. 2.53684216e+01 3.04444447e+01 1.02333336e+02
      8.94285736e+01 1.19636368e+02 1.15625000e+02 6.85789490e+01
      5.85833359e+01 17. 4.95714302e+01 3.95517235e+01 7.76956558e+01
      1.13500000e+02 6. 1.07636368e+02 6.33913040e+01 1.06500006e+01 53.
      9.45000000e+01 65. 35. 2.10434780e+01 44. 32. 121. 57.
      1.24000008e+02 81. 82. 7. 16. 5. 8.54166718e+01</_>
    <_>
      79. 1.85555553e+01 1.10631577e+02 4.63043480e+01 4.56521749e+00
      5.26071434e+01 6.35238113e+01 2.72580643e+01 8.65833359e+01
      1.15897438e+02 3.83076935e+01 1.21526314e+02 9.56153870e+01
      7.03333359e+01 1.03761909e+02 1.26111116e+01 7.17241383e+00
      3.43750000e+01 4.24000015e+01 9.17083359e+01 3.15652180e+01
      6.54827576e+01 5.45652199e+01 7.45999985e+01 8.25909119e+01
      5.84799995e+01 2.24545460e+01 1.18500000e+02 6.84444427e+01
      9.76153870e+01 1.06466675e+02 1.12951218e+02 7.65263138e+01
      5.04782600e+01 6.06451607e+01 4.84642868e+01 2.94615402e+01
      1.66190472e+01 9.34500046e+01 123. 4.02272720e+01 8.91562500e+01
      9.82142925e+00 62. 1.20000008e+02 2.04117641e+01 80. 85.
      2.44074078e+01 5.65909119e+01 1.46842108e+01 3. 33. 108.
      7.23928604e+01 4.46818199e+01 3.65555573e+01 1.09000008e+02
      1.00099998e+02 78. 67. 124. 81. 84.</_>
    <_>
      8.53636398e+01 2.77368431e+01 1.12046509e+02 5.65925941e+01
      3.29629636e+00 7.76250000e+01 40. 1.55217390e+01 9.84000015e+01
      7.00833359e+01 1.20931030e+02 4.80303040e+01 3.18500004e+01
      6.05517235e+01 8.94705887e+01 7.45454550e+00 2.43913040e+01
      1.21428576e+01 1.04437500e+02 5.25384636e+01 1.14521744e+02
      1.94399986e+01 1.23590912e+02 6.55000000e+01 4.54230804e+01
      1.08939400e+02 74. 1.16384621e+02 8.36153870e+01 9.35000000e+01
      4.33809547e+01 3.66923103e+01 8.15185165e+01 3.44799995e+01
      2.95599995e+01 26. 8.75294113e+01 72. 5.43846169e+01
      5.42857170e+00 1.02571434e+02 14. 9.58181839e+01 5.04761925e+01
      63. 64. 9.35000038e+00 23. 106. 7.53478241e+01 6.73499985e+01
      7.95789490e+01 1.73750000e+01 1.00615387e+02 42. 1.18416672e+02
      59. 58. 62. 38. 9.17272720e+01 2.15200005e+01 73. 107.</_>
    <_>
      7.75806427e+01 3.95517235e+01 1.12500008e+02 1.03888893e+01
      5.79705887e+01 9.05000076e+01 2.30882359e+01 6.73181839e+01
      9.95000000e+01 34. 4.55357170e+01 1.23555557e+02 3.26315784e+00
      8.42758636e+01 1.06599998e+02 1.65714283e+01 5.45238113e+01
      7.15199966e+01 1.19066673e+02 4.95652199e+01 2.81666679e+01
      7.45454550e+00 62. 9.48750000e+01 1.08555557e+02 3.73928604e+01
      4.27272758e+01 7.35789490e+01 1.14291672e+02 5.26428604e+01
      8.70476227e+01 2.56250000e+01 1.46818190e+01 1.16439995e+02
      8.14347839e+01 6.55652161e+01 6.06176491e+01 1.01000008e+02
      2.04545460e+01 6.93333359e+01 1.21439995e+02 3.10399990e+01
      9.75555573e+01 64. 1.10666672e+02 1.02590912e+02 1.20000010e+01
      7.97599945e+01 5.45000029e+00 5.60000038e+01 51. 1.30000010e+01
      9.24545517e+01 18. 9. 36. 1.04500000e+02 4.76086960e+01 76. 75.
      19. 6.30000038e+01 89. 41.</_>
    <_>
      1.23565216e+02 1.95500011e+01 7.55185165e+01 4.94347839e+01
      1.00555557e+02 6.10714302e+01 4.37037039e+00 3.95000000e+01
      8.75217438e+01 3.23636360e+01 1.12583336e+02 66. 1.25517244e+01
      7.30540543e+01 1.04923080e+02 9.77368393e+01 8.05416718e+01
      1.19481483e+02 2.35789471e+01 1.09921051e+02 5.35769234e+01
      8.23750000e+01 9.37500000e+00 3.69142876e+01 4.34500008e+01
      9.30882339e+01 2.85833340e+01 1.17521744e+02 5.85200005e+01
      1.75714283e+01 1.07416672e+02 6.33461571e+01 70. 9.00769272e+01
      51. 5.70000038e+01 4.63461571e+01 7.77142868e+01 2.16000004e+01
      1.54347830e+01 6.43478251e+00 35. 1.14500000e+02 1.02550003e+02
      9.55909119e+01 48. 11. 1.21333336e+02 8.48636398e+01
      2.60454559e+01 5.56500015e+01 1.16000008e+02 65. 68.
      3.03750000e+01 3. 9.90000076e+01 67. 8. 4.16923103e+01 34. 45.
      5.20000038e+01 1.40000010e+01</_>
    <_>
      1.16407410e+02 5.16666679e+01 1.10263157e+01 84. 32.
      1.05178574e+02 6.94814835e+01 4. 21. 4.02962952e+01 9.54615402e+01
      8.95238113e+01 6.13000031e+01 7.66315765e+01 1.23719994e+02
      2.76499996e+01 4.70810814e+01 1.12583336e+02 6.55909119e+01
      9.94090958e+01 5.65238113e+01 3.49310341e+01 1.79354839e+01
      1.34799995e+01 1.08652176e+02 8.05500031e+01 4.46818199e+01
      1.18555557e+02 6.72777786e+01 3.79729729e+01 2.93809528e+01
      1.02636368e+02 8.74285736e+01 2.34210529e+01 5.33333349e+00 120.
      101. 5.93636398e+01 7.34090958e+01 6.33750000e+01 5.45416679e+01
      8.54545498e+00 1.14439995e+02 4.96315804e+01 8.25294113e+01 75.
      2.54782619e+01 1.55263157e+01 107. 9.35999985e+01 9.16190491e+01
      5.80000038e+01 9.70000076e+01 1.10700005e+02 122. 3.
      1.21000008e+02 7.00000048e+00 8.54500046e+01 4.23571434e+01
      7.82000046e+01 7.16333389e+01 5.30000038e+01 98.</_>
    <_>
      6.10000038e+01 3.45217400e+01 121. 9.36190491e+01 7.83333349e+00
      7.64545441e+01 1.01479996e+02 1.74666672e+01 4.78888893e+01
      8.20416718e+01 2.33333340e+01 1.05349998e+02 4.16296310e+01
      5.33333359e+01 6.85500031e+01 3.14444447e+01 1.12958336e+02 5.
      9.55000000e+01 1.10218750e+02 1.23333330e+01 2.53888893e+01
      8.85000000e+01 7.26875000e+01 5.79310341e+01 3.96428604e+01
      4.34285736e+01 16. 1.15388893e+02 6.46153870e+01 5.10909119e+01
      9.76363678e+01 1.23631577e+02 2.15652180e+01 4.55000000e+01
      2.84285717e+01 6.64000015e+01 8.51500015e+01 7.97777786e+01
      1.18384621e+02 1.45454550e+01 1.07375000e+02 7.45625000e+01 33.
      3.76428604e+01 9.93809509e+01 1.95217400e+01 3.00000019e+01
      7.05555573e+01 3. 8.70000076e+01 56. 122. 78. 1.05000000e+01 55.
      9.10476227e+01 104. 117. 36. 27. 1.20000008e+02 63. 1.03000008e+02</_>
    <_>
      4. 1.14200005e+02 4.66363640e+01 24. 6.75000000e+01 3.73571434e+01
      1.65000000e+01 93. 1.24000008e+02 28. 5.53333359e+01 42.
      1.34444447e+01 1.03666672e+02 61. 77. 20. 1.19400002e+02 34. 82.
      9.33333397e+00 21. 74. 3.95000000e+01 99. 5.13636360e+01 45.
      6.45000000e+01 1.21599998e+02 88. 3.01111107e+01 5.82500000e+01
      4.94000015e+01 53. 1.16571434e+02 11. 57. 6.97500000e+01
      2.66363640e+01 1.11500000e+02 15. 19. 6.40000010e+00 12.
      4.30000038e+01 3. 2.20000019e+01 9.65000000e+01 85. 18.
      2.30000019e+01 107. 25. 5. 4.80000038e+01 41. 44. 1.23000008e+02
      54. 118. 29. 3.27142868e+01 3.52000008e+01 8.</_>
    <_>
      1.02500000e+02 1.84444447e+01 66. 3.72500000e+01 1.17444443e+02
      1.06250000e+01 86. 5.16000023e+01 2.74545460e+01 109.
      7.65999985e+01 5. 31. 9.05000000e+01 1.21285721e+02 5.95000000e+01
      2.24545460e+01 96. 4.18888893e+01 1.13444443e+02 1.06000008e+02
      46. 7.50000000e+00 3.45000000e+01 6.96666718e+01 115.
      1.41428576e+01 1.00599998e+02 8.08000031e+01 1.23625000e+02
      2.40000019e+01 3.94285736e+01 6.24000015e+01 57. 30. 119.
      1.11333336e+02 7.27500000e+01 2.08181820e+01 26. 3. 25.
      4.86666679e+01 5.38333359e+01 8.85000000e+01 1.04714287e+02 12.
      7.86666718e+01 4. 9.85000000e+01 9. 1.20000008e+02 33. 36.
      1.63999996e+01 8.35000000e+01 107. 1.16000008e+02 32. 110. 6. 13.
      108. 29.</_>
    <_>
      90. 3.15714283e+01 5.75499992e+01 1.17555557e+02 1.39375000e+01
      7.13529434e+01 1.08590912e+02 4.25263176e+01 7.57142878e+00
      9.75217438e+01 1.23181824e+02 79. 2.15200005e+01 50.
      6.45199966e+01 8.64642868e+01 2.73809528e+01 3.55909119e+01
      1.00128204e+02 1.04439995e+02 8.36071472e+01 1.13256409e+02
      4.47619057e+00 1.91499996e+01 5.33478279e+01 3.74615402e+01
      9.46428604e+01 24. 4.46842117e+01 6.25161285e+01 6.95999985e+01
      7.58965530e+01 9.54166698e+00 6.74516144e+01 41. 3.00000024e+00
      8.13809509e+01 1.19680000e+02 2.90000019e+01 1.10531250e+02
      1.14399996e+01 7.33333359e+01 9.23181839e+01 1.63928585e+01 52.
      1.15421051e+02 4.76666679e+01 46. 3.36296310e+01 30.
      5.55217400e+01 1.06559998e+02 2.60000019e+01 1.02555557e+02 66.
      85. 6. 88. 23. 9.60000076e+01 6.05000000e+01 59. 3.95714302e+01
      25.</_>
    <_>
      8.53846169e+00 7.77500000e+01 41. 1.06400002e+02 2.56666660e+01
      6.25000000e+01 8.92500000e+01 1.73529415e+01 3.46000023e+01
      1.19250000e+02 1.01166672e+02 3.35714293e+00 13. 5.13333359e+01
      2.97058830e+01 5.40000038e+01 1.15750000e+02 2.15555553e+01
      7.32222214e+01 5.61538506e+00 9.70000076e+01 4.42307701e+01 38.
      4.62857170e+01 8.03333359e+01 68. 20. 1.11400002e+02
      3.17500000e+01 1.53157892e+01 36. 8.45000000e+01 7.55000000e+01
      5.95714302e+01 2.78333340e+01 121. 1.04599998e+02 5.67500000e+01
      11. 37. 94. 66. 1.13666672e+02 8.28000031e+01 33. 12. 19. 42. 103.
      4.85000000e+01 7.03333359e+01 64. 10. 1.09250000e+02
      1.23250000e+02 40. 8.64000015e+01 39. 2.32222233e+01
      1.40000010e+01 7. 43. 9.15000000e+01 61.</_>
    <_>
      6.48000031e+01 1.45000000e+01 115. 3.82500000e+01 9.75000000e+01
      2.33750000e+01 3. 5.36666679e+01 17. 108. 79. 1.21666672e+02 10.
      30. 4.64000015e+01 1.02500000e+02 6.06000023e+01 68.
      6.33333349e+00 8.73333359e+01 1.17500000e+02 1.12444443e+02
      7.25000000e+01 9.25000000e+01 1.04666664e+02 50. 4.07500000e+01
      21. 12. 1.20000008e+02 26. 36. 9. 3.24285736e+01 1.23375000e+02
      5.67500000e+01 110. 82. 19. 7.45000000e+01 116. 1.11000008e+02 37.
      6.26666679e+01 5. 22. 4.35000000e+01 109. 106. 114. 119. 11.
      7.05000000e+01 9.95000000e+01 13. 20. 8. 18. 101. 42. 4. 28.
      1.07000008e+02 16.</_>
    <_>
      1.43125000e+01 84. 5.75000000e+01 1.10250000e+02 30.
      2.30000019e+01 3. 65. 46. 9.65000000e+01 7.28000031e+01 121.
      3.62500000e+01 1.04666672e+02 8.57142925e+00 18. 5.05000000e+01
      26. 7.95000000e+01 12. 91. 3.36000023e+01 6. 116. 21.
      5.98333359e+01 28. 4.16666679e+01 88. 16. 6.72500000e+01
      9.36666718e+01 5.43333359e+01 1.23500000e+02 17. 77. 24. 27.
      1.02500000e+02 70. 48. 1.18750000e+02 22. 8.16666718e+01 4.
      1.00666672e+02 3.95000000e+01 1.06500000e+02 44. 25.
      6.26666679e+01 7. 86. 5. 10. 20. 32. 19. 29. 38. 99.
      1.12333336e+02 31. 53.</_>
    <_>
      3.83333359e+01 105. 1.22666674e+01 54. 7.76666718e+01 26. 19.
      6.35000000e+01 4.14285755e+00 1.15500000e+02 8.35000000e+01
      9.05000000e+01 31. 4.66666679e+01 16. 7.03333359e+01
      2.20000019e+01 1.09333336e+02 8.75000000e+00 4.15000000e+01
      5.67999992e+01 6. 49. 9.65000000e+01 24. 1.02750000e+02 111.
      3.45000000e+01 29. 7.27500000e+01 14. 61. 1.00500000e+02
      8.82500000e+01 5.12500000e+01 4.42500000e+01 21. 30.
      6.56666718e+01 32. 8.05000000e+01 94. 23. 17. 119. 20. 37.
      8.53333359e+01 114. 3. 43. 68. 7.55000000e+01 2.70000019e+01
      2.80000019e+01 10. 2.50000019e+01 107. 7. 113. 11. 18. 15. 112.</_>
    <_>
      5.33333349e+00 8.36363678e+01 1.20454552e+02 3.55000000e+01
      6.53333359e+01 1.04454552e+02 2.43750000e+01 9.85000000e+01
      4.29444466e+01 1.24090910e+01 7.15000000e+01 5.67500000e+01
      1.12333336e+02 91. 8.15238113e+01 4.77894745e+01 4.08181839e+01
      1.48421049e+01 2.06428585e+01 2.75789471e+01 124. 1.00849998e+02
      1.16416672e+02 1.08434784e+02 7.73125000e+01 8.94000015e+01
      6.94090958e+01 3.25294113e+01 6.16071472e+01 9.38571472e+01
      5.09090919e+01 3.80344810e+01 31. 1.06266670e+02 79.
      1.10199997e+02 7.35714340e+00 7.56153870e+01 1.74166679e+01
      8.75999985e+01 9.65000000e+01 9.61111164e+00 8.60000076e+01
      4.52727280e+01 34. 3.00000019e+01 5.39166679e+01 22.
      1.14380951e+02 1.18562500e+02 26. 3.53333354e+00 8.50000076e+01
      7.37000046e+01 6.75333405e+01 103. 1.22588234e+02 80.
      5.83636398e+01 23. 102. 2.90000019e+01 19. 92.</_>
    <_>
      9.36086960e+01 9.68421078e+00 4.76315804e+01 1.01919998e+02
      6.72333374e+01 1.20357147e+02 3.55000000e+01 7.84545441e+01
      2.44615402e+01 5.96923103e+01 1.13500000e+02 72. 8.53499985e+01
      1.76499996e+01 4.04615402e+01 5.35263176e+01 3.29411769e+00
      1.06368423e+02 3.14210529e+01 111. 4.47586212e+01 2.70952377e+01
      6.41666718e+01 9.56956558e+01 8.25500031e+01 9.15882339e+01
      1.95294113e+01 123. 5.42857170e+00 1.17409096e+02 7.63750000e+01
      6.95714340e+01 73. 8.73181839e+01 5.75625000e+01 4.25238113e+01
      5.15000000e+01 1.34285717e+01 1.04437500e+02 22. 3.79259262e+01
      4.96470604e+01 9.82500000e+01 2.92307701e+01 100. 84.
      3.35555573e+01 8.95999985e+01 75. 7.71428585e+00 6.15882339e+01
      74. 5.56363640e+01 21. 80. 1.15444443e+02 1.19000008e+02 71.
      9.70000076e+01 81. 1.16363640e+01 1.08400009e+02 1.56000004e+01
      23.</_>
    <_>
      1.19357147e+02 5.19259262e+01 8.11724167e+01 1.45862064e+01
      1.00444443e+02 3.80526314e+01 6.67692337e+01 2.24799995e+01
      7.48000002e+00 1.09062500e+02 4.65312500e+01 5.85000000e+01
      9.17058792e+01 30. 7.61481476e+01 8.65789490e+01 4.24000015e+01
      3.33636360e+01 1.16217392e+02 3.33333325e+00 9.93548393e+00
      9.65555573e+01 1.04458336e+02 7.09545441e+01 2.66153851e+01
      1.23666664e+02 6.09655151e+01 6.41304398e+01 5.45200005e+01
      1.85555553e+01 1.13583336e+02 1.25652180e+01 8.84444427e+01
      1.06473686e+02 50. 7.85000000e+01 7.34375000e+01 1.11500000e+02
      20. 83. 2.43599987e+01 4.05454559e+01 48. 28. 94. 3.55000000e+01
      4.44545479e+01 5.34782600e+00 1.02466675e+02 8.44705887e+01 118.
      6.83846207e+01 1.64761906e+01 1.21750000e+02 93. 31.
      9.50000076e+01 5.65416679e+01 9.86315765e+01 90. 49. 21. 32.
      2.90000019e+01</_>
    <_>
      6.76470566e+01 1.46799994e+01 1.20562500e+02 9.16315765e+01 39.
      1.08684212e+02 2.90869579e+01 5.48333321e+01 7.93750000e+01
      3.46875000e+00 1.99629631e+01 8.39642868e+01 4.56250000e+01
      9.87500000e+01 3.46000023e+01 13. 6.35909119e+01 2.64583340e+01
      1.12421051e+02 25. 7.51851845e+00 4.99545479e+01 7.35384674e+01
      1.04090912e+02 8.68461609e+01 9.62380981e+01 4.36315804e+01
      5.98000031e+01 1.16625000e+02 2.23999996e+01 1.01500000e+02
      3.74285736e+01 7.56315765e+01 5.34782600e+00 1.76086960e+01
      1.22538467e+02 6.14444466e+01 8.14736862e+01 4.76666679e+01
      9.39000015e+01 5.25000000e+01 32. 42. 7.15882339e+01
      1.06833336e+02 8.93000031e+01 1.10526314e+02 1.18562500e+02 36.
      6.55000000e+01 16. 7.75000000e+01 1.16923084e+01 40. 31.
      1.00000010e+01 24. 1.14375000e+02 9. 6.93333359e+01 33. 41.
      5.76428604e+01 124.</_>
    <_>
      1.16384621e+02 3.45000000e+01 7.86666641e+01 5.65000000e+01
      1.35555553e+01 9.72857208e+01 1.02111115e+02 6.92857208e+01
      8.55555573e+01 7.00000048e+00 1.98000011e+01 1.13500000e+02
      2.25555553e+01 46. 1.21750000e+02 3. 3.07500000e+01 106.
      9.06666641e+01 2.76666660e+01 6.66666641e+01 5.03750000e+01
      7.45000000e+01 6.09000015e+01 94. 3.88333359e+01 1.08636368e+02
      7.16666718e+01 5. 5.84285736e+01 1.05000000e+01 1.52500000e+01
      4.15000000e+01 8.37777786e+01 3.28750000e+01 6.33333359e+01
      5.43333359e+01 1.19500000e+02 1.72500000e+01 4.82500000e+01
      8.15555573e+01 1.23857147e+02 104. 9.98333359e+01 5.25000000e+01
      7.65000000e+01 8.77142868e+01 4.36000023e+01 4. 37. 6.
      1.10571434e+02 2.55714302e+01 92. 65. 73. 89. 36. 24. 12. 118.
      8.36363697e+00 29. 112.</_>
    <_>
      3.99333344e+01 8.96428604e+01 1.19555557e+02 6.05217400e+01
      8.66666698e+00 2.32857151e+01 1.06079994e+02 5.13636360e+01
      6.86666641e+01 3.41111107e+01 9.65454559e+01 8.35000000e+01
      7.63529434e+01 1.26000004e+01 1.13500000e+02 2.88000011e+01
      6.44117661e+01 4.72142868e+01 1.68000011e+01 5.52857170e+01
      1.23588234e+02 1.01533340e+02 9.39354782e+01 3.16666675e+00
      8.66250000e+01 7.83157883e+01 7.06666718e+01 1.08875000e+02
      3.64000015e+01 6.65555573e+01 4.33333359e+01 1.15466675e+02
      9.15333405e+01 8.02857208e+01 2.50000019e+01 4.95625000e+01 121.
      6.11111116e+00 1.03466675e+02 5.72500000e+01 1.93999996e+01
      7.23333359e+01 6.23636398e+01 27. 2.15714302e+01 1.02500000e+01
      8.80000076e+01 30. 1.46250000e+01 4.52500000e+01 1.11466675e+02
      7.42500000e+01 9.81764679e+01 3.14545460e+01 38. 85.
      1.17200005e+02 59. 5.30000038e+01 26. 1.22000008e+02
      1.00000008e+02 82. 5.40000038e+01</_>
    <_>
      6.16363640e+01 3.59259272e+00 8.59333344e+01 1.12473686e+02
      1.65000000e+01 4.00555573e+01 2.65000019e+01 7.06111145e+01
      8.16470566e+01 1.01041672e+02 4.76923103e+01 1.21541672e+02
      5.35000038e+01 3.36666679e+01 9.15333405e+01 6.42857170e+00
      1.08333340e+01 2.30000019e+01 7.65999985e+01 1.23000008e+02
      3.15384636e+01 5.90909119e+01 117. 6.80857162e+01 1.03639999e+02
      4.28799973e+01 9.59000015e+01 1.84545460e+01 1.06411766e+02
      6.34210548e+01 5.15384636e+01 8.90333405e+01 5.65357170e+01 111.
      7.84000015e+01 2.92857151e+01 3.76111107e+01 8.36470566e+01
      2.04736843e+01 1.08500000e+02 1.32500000e+01 118. 1.14424248e+02
      6.54545441e+01 7.25789490e+01 7.44736862e+01 9.36363678e+01
      2.80000019e+01 1.19413795e+02 8.37500000e+00 55. 80.
      1.50000010e+01 4.55000000e+01 4.93888893e+01 2.50000019e+01
      9.85833359e+01 1.24000008e+02 2.40000019e+01 22. 3.54444466e+01
      116. 110. 5.</_>
    <_>
      9.11250000e+01 1.55882349e+01 6.26428604e+01 1.11588234e+02
      3.89285736e+01 7.45999985e+01 2.70416679e+01 6.43750000e+00
      1.21608696e+02 4.93500023e+01 1.02541672e+02 8.59130478e+01
      5.45625000e+01 1.95000000e+01 6.95789490e+01 3.41000023e+01 107.
      1.14444447e+01 7.89655151e+01 9.53043518e+01 1.17318184e+02 44.
      1.19590912e+02 1.23740738e+02 6.55789490e+01 5.94583359e+01
      2.93529415e+01 9.85882339e+01 9.32916718e+01 8.37333374e+01
      2.44705887e+01 8.15599976e+01 109. 9.52941227e+00 3.66315804e+01
      5.27999992e+01 3.41666675e+00 8. 1.04416672e+02 6.74666672e+01
      5.70434799e+01 1.10000008e+02 1.15125000e+02 2.24736843e+01
      4.64545479e+01 4.15000000e+01 97. 43. 51. 6.10000038e+01 73. 18.
      3.15000019e+01 21. 8.85882339e+01 1.35384617e+01 45.
      7.15882339e+01 1.00277779e+02 7.65384674e+01 64. 1.13647057e+02 5.
      17.</_>
    <_>
      3.15333347e+01 1.16428574e+02 8.12222214e+01 9.53333378e+00
      5.55384636e+01 9.84375000e+01 6.73750000e+01 2.31071434e+01
      4.68636360e+01 8.95999985e+01 1.06437500e+02 6.16666679e+01
      4.05333366e+01 7.20344849e+01 8.35555573e+01 1.56666670e+01
      7.44210510e+01 1.13000008e+02 28. 3.20000005e+00 2.05238094e+01
      3.63571434e+01 1.22222221e+02 9.37142868e+01 1.01000008e+02
      4.95000000e+01 7.75555573e+01 4.42999992e+01 8.74347839e+01
      5.95000038e+01 9.53333359e+01 1.04500000e+02 1.15625000e+01
      7.94117661e+01 6.46315765e+01 5.42857170e+00 1.77058830e+01
      8.55263138e+01 63. 1.10583336e+02 7.53846169e+00 9.70000076e+01
      3.00000019e+01 35. 9.16428604e+01 119. 6.93888931e+01
      1.02466675e+02 5.35714302e+01 1.37500000e+01 2.53333340e+01 115.
      19. 3.86000023e+01 42. 5.15000038e+01 100. 5.75000000e+01 76. 124.
      3.36923103e+01 66. 1.08285721e+02 43.</_>
    <_>
      124. 39. 9.25000000e+01 8.50000000e+00 70. 111. 24. 115. 52.
      1.02500000e+02 6.13333359e+01 119. 106. 85. 78. 2.96666679e+01
      4.75000000e+01 20. 1.21000008e+02 8.13333359e+01 98.
      6.55000000e+01 3.43333359e+01 100. 113. 1.16666670e+01 104. 89.
      123. 118. 72. 87. 112. 26. 4.95000000e+01 122. 1.16000008e+02 96.
      1.20000008e+02 110. 5. 6.35000000e+01 107. 114. 117. 83. 36. 40.
      45. 101. 7. 25. 18. 21. 71. 73. 76. 105. 95. 108. 109. 67. 99. 88.</_>
    <_>
      8.73333359e+01 39. 1.21000008e+02 1.04000008e+02 1.56666670e+01
      6.75000000e+01 1.13846161e+02 5.23333359e+01 80. 2.43999996e+01 5.
      96. 110. 45. 2.66666679e+01 1.19000008e+02 6.35000000e+01
      7.43333359e+01 59. 9.96250000e+01 123. 32. 1.82000008e+01 107. 92.
      1.25000000e+01 8.25999985e+01 1.02000008e+02 8.66666698e+00 112.
      116. 7.75000000e+01 4.15000000e+01 103. 21. 50. 101. 117. 55. 72.
      98. 3.65000000e+01 122. 118. 9.43333359e+01 6.95000000e+01 90.
      124. 3. 5.75000000e+01 106. 61. 85. 3.06666679e+01 34. 48. 108.
      115. 7. 105. 109. 111. 120. 20.</_>
    <_>
      1.08964287e+02 2.02631588e+01 6.35499992e+01 8.74000015e+01
      9.50000000e+00 4.95200005e+01 3.35000000e+01 40. 7.21666718e+01
      120. 1.03416672e+02 9.41250000e+01 3.39285731e+00 5.75000000e+01
      2.55454559e+01 1.16571434e+02 4.39687500e+01 1.25000000e+01
      7.82727280e+01 8.22666702e+01 5.55000000e+01 9.16428604e+01
      9.90303040e+01 6.79599991e+01 4.64615402e+01 1.11272728e+02
      7.57142878e+00 30. 1.23523811e+02 1.83333340e+01 5.15925941e+01
      7.45789490e+01 2.23999996e+01 1.05913048e+02 1.65384617e+01 113.
      42. 3.65882339e+01 5. 5.95000000e+01 24. 7.04782639e+01
      6.55625000e+01 32. 1.01466675e+02 1.21529411e+02 5.34736862e+01
      2.75000000e+01 3.85789490e+01 8.04166718e+01 1.14571434e+02
      9.64545517e+01 1.18619049e+02 8.48000031e+01 1.44117651e+01 89.
      41. 62. 6.00000048e+00 11. 48. 61. 35. 9.00000076e+01</_>
    <_>
      34. 1.17000008e+02 8. 6.76666718e+01 47. 2.06666679e+01 106.
      8.17500000e+01 5.93333359e+01 12. 1.22666672e+02 29.
      3.28571439e+00 18. 39. 5.13333359e+01 93. 6.15000000e+01 55. 24.
      1.55000000e+01 36. 4.22857170e+01 7.25000000e+01 1.20625000e+02
      1.12500000e+02 4.46666679e+01 101. 3.26666679e+01 30.
      2.64285717e+01 6. 1.14333336e+02 119. 96. 10. 5. 109.
      1.40000010e+01 76. 5.62500000e+01 35. 9. 65. 38. 13. 80. 23. 19.
      11. 25. 37. 17. 7. 124. 53. 4.85000000e+01 41. 28. 22. 31. 40. 63.
      104.</_>
    <_>
      112. 8. 60. 33. 1.21000008e+02 104. 73. 17. 1.16000008e+02 45. 25.
      96. 124. 4. 85. 15. 56. 100. 66. 37. 1.19000008e+02 109. 13. 53.
      21. 48. 11. 69. 35. 28. 6. 114. 120. 19. 115. 31. 34. 3. 111.
      1.23000008e+02 118. 58. 5. 117. 7. 113. 74. 110. 71. 61. 9. 75.
      14. 32. 105. 24. 101. 108. 62. 38. 36. 99. 12. 124.</_>
    <_>
      9.13636398e+01 4.78333359e+01 1.13277779e+02 1.65000000e+01
      6.72000046e+01 103. 1.17500008e+02 3.67142868e+01 3.
      5.78333359e+01 8.35555573e+01 109. 2.27500000e+01 1.23727280e+02
      9.78571472e+01 2.83999996e+01 7.85000000e+01 8.40000057e+00
      5.15714302e+01 1.19750000e+02 4.26666679e+01 63. 8.84166718e+01
      96. 9.35000000e+01 1.15312500e+02 7.15000000e+01 106.
      1.00750000e+02 18. 32. 4.02000008e+01 8.60000076e+01 110.
      6.57500000e+01 5.55000000e+01 8.11666718e+01 1.46666670e+01 122.
      6.98000031e+01 2.02500000e+01 45. 2.55000000e+01 102. 107. 95.
      1.06666670e+01 6.06000023e+01 30. 90. 108. 121. 4. 105.
      7.35000000e+01 7.62500000e+01 87. 99. 104. 112. 111. 85. 54. 34.</_>
    <_>
      7.33333349e+00 1.08666672e+02 4.94000015e+01 6.45000000e+01
      1.66363640e+01 84. 1.16125000e+02 33. 9.51818237e+01
      1.23600006e+02 98. 7.53333359e+01 12. 2.56363640e+01
      4.47999992e+01 1.02666672e+02 6.05000000e+01 8.98888931e+01
      1.12333336e+02 3. 1.20615387e+02 2.03500004e+01 6.85000000e+01
      3.97500000e+01 9.50000000e+00 14. 8.15714340e+01 5.55000000e+01
      24. 1.18714294e+02 4.23333359e+01 9.23333359e+01 1.05785721e+02
      2.83636379e+01 5. 7.25000000e+01 3.55000000e+01 8.71111145e+01
      1.00285721e+02 7.76666718e+01 22. 1.14599998e+02 19.
      5.25714302e+01 7.92000046e+01 110. 4.76000023e+01 27.
      7.07500000e+01 63. 1.22000008e+02 111. 6. 15. 18. 3.07500000e+01
      5.77999992e+01 23. 41. 6.65999985e+01 3.74000015e+01 104.
      1.07000008e+02 4.</_>
    <_>
      10. 1.04666672e+02 65. 1.19571434e+02 84. 4.45000000e+01
      2.48000011e+01 1.69166679e+01 9.60000076e+01 1.11250000e+02 3.
      5.45000000e+01 9.02857208e+01 116. 7.35000000e+01 8. 122. 79.
      3.25000000e+01 1.96363640e+01 1.00333336e+02 60. 6.00000048e+00
      7.08333359e+01 1.08375000e+02 1.15000000e+01 124. 14.
      6.27500000e+01 2.86666679e+01 1.02700005e+02 5.66000023e+01
      1.13000008e+02 9.33333359e+01 8.16666718e+01 4.86666679e+01
      8.63333359e+01 8.83333359e+01 51. 68. 2.24285717e+01 5. 115.
      1.23000008e+02 36. 7. 9.86666718e+01 110. 2.64285717e+01 15. 106.
      1.17428574e+02 13. 121. 7.63333359e+01 9. 4. 42. 53. 47. 114. 21.
      107. 66.</_>
    <_>
      3.07575760e+01 9.53437500e+01 6.84761887e+01 1.63703709e+01
      1.13111115e+02 3.85200005e+01 8.35833359e+01 5.03888893e+01
      1.03519997e+02 7.46666718e+00 1.18914284e+02 5.93333359e+01
      2.44090919e+01 7.25652161e+01 1.06571434e+02 8.13333359e+01
      3.45833349e+00 20. 9.30000076e+01 6.34444466e+01 1.15263157e+01
      1.21529411e+02 4.58333359e+01 9.82173920e+01 9.04838715e+01
      1.10450005e+02 35. 4.02380943e+01 6. 1.16038467e+02 5.50499992e+01
      8.62500000e+01 7.82777786e+01 4.28571434e+01 5.25625000e+01 97.
      3.64399986e+01 2.85333347e+01 1.00393944e+02 1.42692308e+01
      6.12666702e+01 3.37391319e+01 4.84285736e+01 1.23727280e+02
      2.25555553e+01 7.55999985e+01 105. 1.08652176e+02 6.61428604e+01
      7.06842117e+01 2.62500000e+01 74. 5. 5.75294113e+01 8.84736862e+01
      9.72222233e+00 92. 1.85652180e+01 21. 1.30000010e+01 94. 85. 80.
      102.</_>
    <_>
      8.10714340e+00 9.30400009e+01 3.93750000e+01 1.13111115e+02 75.
      6.03157883e+01 1.84347820e+01 1.21076927e+02 3.25263176e+01 50.
      1.03222221e+02 8.15500031e+01 2.55454559e+01 8.65000000e+01
      6.64705887e+01 5.45882339e+01 1.08470589e+02 1.54499998e+01 43.
      9.74000015e+01 4.75999985e+01 5.31818199e+00 1.16068962e+02
      1.14736843e+01 2.10344830e+01 3.45833359e+01 1.23636368e+02
      7.05714340e+01 2.75000000e+01 9.06000061e+01 5.84705887e+01
      9.99599991e+01 7.87500000e+01 1.30000010e+01 8.46363678e+01 51.
