<?xml version="1.0"?>
<opencv_storage>
<opencv_ml_svm>
  <format>3</format>
  <svmType>C_SVC</svmType>
  <kernel>
    <type>LINEAR</type></kernel>
  <C>1.</C>
  <term_criteria><iterations>100</iterations></term_criteria>
  <var_count>64</var_count>
  <class_count>2</class_count>
  <class_labels type_id="opencv-matrix">
    <rows>2</rows>
    <cols>1</cols>
    <dt>i</dt>
    <data>
      -1 1</data></class_labels>
  <sv_total>1</sv_total>
  <support_vectors>
    <_>
      -2.30251870e-04 4.60867421e-04 1.13279489e-03 1.55198434e-03
      -2.07076990e-03 3.90419809e-05 -8.69358191e-04 1.70622848e-03
      1.48082757e-03 -6.40388345e-04 -1.21314323e-03 -2.51348338e-05
      -3.21419589e-04 1.87999103e-03 -1.48195992e-04 9.56890173e-04
      -9.54993418e-04 2.05364591e-03 -1.71438023e-03 -1.56736630e-03
      1.35981850e-03 -1.23620860e-03 -1.15108141e-03 2.39329436e-03
      9.72711307e-04 1.83047145e-03 -1.85283541e-04 -1.02687650e-03
      9.81935067e-04 -3.38661688e-04 1.09430123e-03 2.73831934e-03
      -9.29493181e-05 -2.79239487e-07 1.74524332e-03 -3.69033602e-04
      -4.33243025e-04 -6.90120854e-04 -1.83225481e-03 -1.59938505e-03
      -4.61891905e-04 6.55092124e-04 8.53663310e-04 5.76394203e-04
      -2.74923164e-04 -1.76294867e-04 5.11091785e-04 -6.11846990e-05
      -1.41525257e-03 -1.76856574e-03 5.48991200e-04 5.70684322e-04
      -4.36415517e-04 6.72949885e-04 -1.77367128e-05 8.44354101e-04
      -8.31144978e-04 3.16739344e-04 -5.49674267e-04 6.99052325e-05
      -1.18756690e-03 4.08859269e-05 -1.57192699e-03 9.43721563e-04</_></support_vectors>
  <uncompressed_sv_total>148</uncompressed_sv_total>
  <uncompressed_support_vectors>
    <_>
      48. 9.35384674e+01 6.37999992e+01 1.18363640e+02 25.
      7.94285736e+01 105. 86. 18. 3.67500000e+01 99. 8.75000000e+00
      3.16666679e+01 1.13625000e+02 5.41000023e+01 7.52500000e+01 121.
      6.84285736e+01 1.08444443e+02 7.04285736e+01 9.05555573e+01 123.
      95. 5.91666679e+01 8.15000000e+01 4.15000000e+01 72. 102. 84.
      1.35000000e+01 1.11333336e+02 7.72500000e+01 4.50000000e+00 89.
      1.15285721e+02 3.35000000e+01 5.08333359e+01 28. 21.
      5.65000000e+01 85. 45. 3.93333359e+01 97. 6.18333359e+01
      1.10000008e+02 1.55000000e+01 9.20000076e+01 67. 98.
      8.70000076e+01 83. 103. 74. 73. 65. 124. 100. 96. 1.06375000e+02
      117. 88. 1.01000008e+02 104.</_>
    <_>
      7.02000046e+01 1.15625000e+02 9.50000000e+00 36. 94.
      1.09666664e+02 6.03333359e+01 2.52500000e+01 8.06666718e+01 122.
      47. 6. 3.13333340e+01 1.87500000e+01 7.45000000e+01 4.25000000e+01
      22. 53. 3.42857170e+00 6.67777786e+01 103. 8.67500000e+01 84.
      1.13333336e+02 119. 124. 5.53333359e+01 58. 1.07444443e+02
      1.45000000e+01 50. 3.86666679e+01 78. 2.72000008e+01
      8.95000000e+01 72. 1.16000004e+01 7. 106. 121. 6.25000000e+01 29.
      123. 1.65000000e+01 100. 65. 76. 92. 8.27500000e+01 96. 95. 8.
      117. 4.45000000e+01 105. 120. 118. 34. 73. 6.86666718e+01 41. 13.
      1.11666672e+02 30.</_>
    <_>
      7.35000000e+01 1.19599998e+02 20. 1.01200005e+02 4.85000000e+01
      8.64285736e+01 111. 4.75000000e+00 5.74285736e+01 3.95000000e+01
      1.23333340e+01 2.47142868e+01 6.35000000e+01 94. 1.24000008e+02
      113. 118. 8.03333359e+01 3.42500000e+01 6.93333359e+01 115.
      1.07375000e+02 91. 96. 5.37500000e+01 7.52500000e+01 122. 28.
      2.27142868e+01 110. 4.63333359e+01 1.77500000e+01 1.03555557e+02
      6.17500000e+01 8.84000015e+01 1.06666670e+01 7.16250000e+01
      1.42500000e+01 7.73333359e+01 85. 1.21000008e+02 16. 109.
      3.16666679e+01 3.65000000e+01 9.71428604e+01 9.94000015e+01
      6.76666718e+01 90. 5.94000015e+01 117. 112. 116. 1.23000008e+02
      1.05599998e+02 6. 83. 3. 8. 56. 92. 55. 51. 114.</_>
    <_>
      1.01428576e+01 7.54615402e+01 1.04416672e+02 4.70833359e+01 91.
      62. 3.17142868e+01 119. 1.87500000e+01 6.66363678e+01
      8.05714340e+01 39. 8.45454559e+01 9.77142868e+01 114.
      2.46250000e+01 5.36000023e+01 7.13636398e+01 5. 8.76666718e+01
      5.85454559e+01 1.50833340e+01 1.09444443e+02 1.00400002e+02
      1.23714294e+02 6.44444427e+01 4.96363640e+01 9.49230804e+01
      3.47500000e+01 4.18888893e+01 83. 1.02500000e+02 6.92000046e+01
      79. 5.58750000e+01 7.36666641e+01 1.07428574e+02 5.15000000e+01
      2.18000011e+01 1.11285721e+02 1.27142859e+01 7.25000000e+00
      9.24444427e+01 1.16666672e+02 4.46666679e+01 89. 2.68000011e+01
      3.62000008e+01 2.96250000e+01 3. 82. 57. 60. 121. 115. 86. 68. 17.
      90. 113. 78. 9. 1.06000008e+02 77.</_>
    <_>
      1.21666672e+02 4.87500000e+01 1.82000008e+01 8.06666718e+01
      6.26000023e+01 3.86000023e+01 5.60000038e+01 90. 1.11428574e+02 9.
      3.36666679e+01 9.96666718e+01 6.77142868e+01 7.40999985e+01
      2.75384617e+01 4.56000023e+01 2.58000011e+01 1.15599998e+02
      4.07142868e+01 1.54000006e+01 8.56666718e+01 9.32000046e+01 96.
      22. 7.66666718e+01 59. 3.11428585e+01 105. 6.45000000e+01
      6.91428604e+01 5.47500000e+01 1.17500000e+02 53. 3.50000000e+00
      1.23428574e+02 44. 66. 8.23333359e+01 1.19750000e+02
      6.33333349e+00 57. 1.35000000e+01 47. 7.13333359e+01 58. 88. 17.
      1.13714294e+02 1.02500000e+02 3.52500000e+01 1.09599998e+02
      6.02857170e+01 52. 42. 5.07500000e+01 79. 2.06666679e+01 43. 37.
      29. 23. 30. 11. 84.</_>
    <_>
      1.24000008e+02 3.53333359e+01 7.28000031e+01 4.66666651e+00
      9.74444427e+01 16. 4.38571434e+01 5.74285736e+01 87.
      2.47142868e+01 112. 104. 1.19571434e+02 8.06250000e+01
      5.12500000e+01 1.08571434e+02 9.71428585e+00 65. 9.12857208e+01
      3.00000024e+00 1.15222221e+02 2.82500000e+01 1.26000004e+01
      1.84285717e+01 56. 9.92500000e+01 4.66666679e+01 8.44285736e+01
      9.48750000e+01 117. 6.65000000e+01 5.96666679e+01 78. 90.
      6.27500000e+01 1.21538467e+02 3.76666679e+01 1.06750000e+02
      2.03333340e+01 93. 70. 5.34000015e+01 2.23999996e+01
      3.02500000e+01 1.01500000e+02 6.75000000e+00 14. 113.
      4.82500000e+01 110. 114. 8.23333359e+01 11. 55. 123. 105. 33. 111.
      15. 8. 89. 118. 17. 2.65000000e+01</_>
    <_>
      8.45000000e+01 8. 1.13666672e+02 29. 6.36666679e+01 17. 51. 38.
      24. 9.63333359e+01 1.20800003e+02 1.05333336e+02 75. 12. 5. 111.
      21. 3. 1.02250000e+02 57. 32. 8.65000000e+01 27. 4.25000000e+01
      124. 81. 14. 13. 3.53333359e+01 18. 10. 71. 23. 117. 93. 20. 55.
      7.73333359e+01 90. 41. 1.08500000e+02 7. 4. 59. 25. 53. 112.
      2.80000019e+01 22. 16. 9. 6. 30. 11. 31. 65. 110. 37. 123. 19. 15.
      26. 39. 101.</_>
    <_>
      3.11428585e+01 1.02470589e+02 8.14166718e+01 6.04000015e+01
      1.14588234e+02 4.81666679e+01 1.37500000e+01 1.23400009e+02
      9.54666748e+01 71. 18. 4.12999992e+01 8.85384674e+01
      7.90909100e+00 108. 120. 2.10769234e+01 84. 3.42000008e+01
      5.66666698e+00 25. 6.65000000e+01 5.34000015e+01 9.85625000e+01
      91. 1.11599998e+02 7.72500000e+01 8.62500000e+01 37.
      2.81666679e+01 5.55714302e+01 1.16666664e+02 6.88571472e+01
      3.33333349e+00 6.38888893e+01 1.06666670e+01 1.05533340e+02
      4.57999992e+01 1.00750000e+02 7.35714340e+01 1.54444447e+01
      9.21538467e+01 44. 5.85714302e+01 3.92500000e+01 7.94000015e+01
      5.14000015e+01 90. 110. 94. 83. 1.18916672e+02 62. 121. 43. 23.
      113. 33. 97. 1.09000008e+02 104. 85. 107. 122.</_>
    <_>
      5.95000000e+01 1.72941170e+01 96. 3.15000019e+01 1.19363640e+02
      73. 46. 7.92500000e+01 4. 35. 2.43846169e+01 87. 1.10555557e+02
      1.03400002e+02 9. 4.17272758e+01 2.74666672e+01 5.18571434e+01
      6.47142868e+01 8.26666718e+01 1.53636370e+01 12. 114. 36.
      1.22285721e+02 1.07428574e+02 9.96250000e+01 20. 38.
      5.48750000e+01 6.41666698e+00 69. 29. 8.86666718e+01 81.
      4.36666679e+01 7.54285736e+01 9.05000000e+01 1.16500000e+02
      6.65000000e+01 5.76666679e+01 121. 5. 6.25555573e+01
      4.96666679e+01 3.94285736e+01 30. 109. 22. 1.32727280e+01 11. 93.
      37. 48. 34. 7.71428604e+01 98. 71. 3. 33. 26. 23. 124.
      8.55999985e+01</_>
    <_>
      97. 2.96250000e+01 6.57500000e+01 1.54000006e+01 1.11166672e+02
      85. 4.57500000e+01 7.59999990e+00 5.84000015e+01 1.20250000e+02
      78. 3.58333359e+01 1.05333336e+02 2.18571434e+01 5.05000000e+01
      7.44000015e+01 8.95714340e+01 1.02666672e+02 1.23666672e+02 11.
      2.43333340e+01 1.76666660e+01 6.96666718e+01 4. 1.13599998e+02
      4.03333359e+01 6.04000015e+01 33. 5.54000015e+01 2.73999996e+01
      62. 1.07200005e+02 83. 9.26666718e+01 9.95999985e+01 67.
      3.82000008e+01 5.28750000e+01 49. 116. 1.38333340e+01
      9.66666698e+00 3.00000024e+00 4.37500000e+01 87. 5.14285755e+00
      7.16666718e+01 101. 88. 57. 98. 118. 6.31666679e+01 104. 26. 12.
      91. 47. 1.95000000e+01 48. 8.16666718e+01 96. 80. 31.</_>
    <_>
      6.26666679e+01 4.42857170e+00 1.06500000e+02 8.75000000e+01
      2.53999996e+01 124. 12. 9.45555573e+01 4.13333359e+01 77.
      2.31666679e+01 1.18250000e+02 1.66666660e+01 1.01750000e+02
      1.11875000e+02 5.63333359e+01 9.16666698e+00 6.95000000e+01 34.
      84. 43. 98. 104. 7.45000000e+01 8.16666718e+01 1.16666672e+02
      9.24000015e+01 1.48750000e+01 2.73333340e+01 6. 50. 2.16666679e+01
      58. 4.65000000e+01 121. 39. 90. 7.25000000e+01 1.09333336e+02
      1.93333340e+01 11. 1.14666672e+02 8.55000000e+01 91. 32.
      6.46666718e+01 3. 83. 7.93333359e+01 97. 18. 13. 120. 8. 7. 54.
      123. 89. 100. 103. 108. 99. 96. 105.</_>
    <_>
      1.16461540e+02 35. 9. 7.55000000e+01 100. 56. 2.06000004e+01
      1.11333336e+02 124. 6.56666718e+01 4.95000000e+01 9.25000000e+01
      1.23636370e+01 8.45000000e+01 2.96666679e+01 1.18333336e+02
      3.22222233e+00 1.48571434e+01 43. 1.05833336e+02 24.
      3.82000008e+01 6.75000000e+00 60. 6.95999985e+01 1.87142868e+01
      2.53999996e+01 9.77500000e+01 4.05000000e+01 9.55999985e+01
      1.13000008e+02 53. 108. 1.21500000e+02 1.02333336e+02
      7.96666718e+01 104. 1.07000008e+02 5.73333359e+01 2.75000000e+01
      87. 6.24000015e+01 5. 54. 51. 91. 45. 32. 72. 17. 68. 123. 120.
      22. 1.14000008e+02 1.09285721e+02 115. 74. 16. 11. 10. 8. 23. 64.</_>
    <_>
      5.26666679e+01 1.07363640e+02 1.73999996e+01 87. 1.20153854e+02
      73. 3.92000008e+01 7. 6.33750000e+01 9.92666702e+01 115.
      2.58333340e+01 9.25714340e+01 6.56250000e+01 8.25000000e+01 31.
      1.32500000e+01 1.03000008e+02 112. 8.97142868e+01 56. 46.
      7.55000000e+01 7.98181839e+01 1.23777779e+02 6.10000038e+01
      1.55555553e+01 2.24285717e+01 8.56923141e+01 6.92500000e+01
      3.66666675e+00 1.17636368e+02 1.17500000e+01 9.54444427e+01
      1.05400002e+02 3.43333359e+01 101. 9.40000057e+00 4.25000000e+01
      71. 4.83333359e+01 7.77500000e+01 113. 1.09375000e+02
      6.71428604e+01 51. 81. 122. 94. 2.05000000e+01 9.77000046e+01
      8.80000076e+01 111. 116. 2.83333340e+01 24. 36. 84. 104.
      9.10000076e+01 114. 72. 5.82500000e+01 102.</_>
    <_>
      1.07142859e+01 7.27777786e+01 1.21333336e+02 3.93333359e+01
      1.01800003e+02 5.73333321e+01 2.58571434e+01 1.11625000e+02
      1.86666679e+01 8.73333359e+01 6.63750000e+01 5.36250000e+01
      4.46250000e+01 3.34000015e+01 7.71428585e+00 8.15999985e+01
      9.51666718e+01 1.16444443e+02 1.06285721e+02 4.25000000e+01
      7.65000000e+01 3.18000011e+01 4.67142868e+01 70. 1.46000004e+01
      27. 5.94285736e+01 7.93333359e+01 1.08333336e+02 3. 4.95714302e+01
      114. 68. 9.94000015e+01 5.16666698e+00 1.23500000e+02 92.
      6.25000000e+01 2.36666660e+01 1.04583336e+02 8.33333359e+01
      1.19500000e+02 28. 115. 8.56666718e+01 8.96666718e+01
      1.63999996e+01 30. 1.18000008e+02 2.07500000e+01 3.57500000e+01
      1.24000006e+01 48. 103. 5.17142868e+01 110. 1.13000008e+02 61.
      5.55000000e+01 6.47500000e+01 78. 41. 9.76666718e+01 29.</_>
    <_>
      8. 8.65000000e+01 39. 22. 116. 63. 28. 51. 4. 15. 34.
      4.63333359e+01 104. 69. 8.13333359e+01 94. 18. 123. 5.65000000e+01
      109. 11. 24. 59. 5. 30. 14. 26. 40. 73. 3. 21. 32. 78.
      3.66666679e+01 6. 10. 119. 101. 71. 41. 92. 89. 13. 66. 9. 19.
      111. 49. 61. 31. 17. 29. 7. 16. 12. 27. 20. 23. 25. 38. 45. 35.
      33. 42.</_>
    <_>
      5.42500000e+01 1.11500000e+02 1.54000006e+01 7.65000000e+01
      3.53333359e+01 9.84000015e+01 124. 8.76666718e+01 5.25000000e+00
      117. 6.75000000e+01 4.83333359e+01 2.16666679e+01 9.66666698e+00
      1.05875000e+02 6.25000000e+01 103. 92. 8.14000015e+01 38. 26. 120.
      1.82000008e+01 61. 3.17500000e+01 43. 7.25000000e+01 123.
      1.08500000e+02 1.00200005e+02 115. 9.56666718e+01 8. 113.
      8.35000000e+01 39. 3. 121. 118. 119. 110. 37. 90. 50. 70. 104. 41.
      14. 116. 59. 1.25000000e+01 75. 33. 97. 114. 6.55000000e+01 78.
      86. 102. 46. 28. 34. 40. 122.</_>
    <_>
      1.13416672e+02 31. 9.66666698e+00 6.66666718e+01 9.33750000e+01
      4.45000000e+01 1.56999998e+01 123. 103. 80. 5.38333359e+01
      2.19166679e+01 99. 1.17470589e+02 8.65000000e+01 6.01666679e+01
      2.64545460e+01 3.57777786e+01 6.62500000e+00 1.09230774e+02
      7.68333359e+01 1.16000008e+02 7.28000031e+01 3.91428604e+01
      9.66923141e+01 5.15000000e+01 42. 111. 1.33636370e+01
      1.83333340e+01 4.87142868e+01 119. 1.05357147e+02 8.95999985e+01
      3.25000000e+00 1.11999998e+01 20. 4.67999992e+01 5.67999992e+01
      3.35000000e+01 8.48571472e+01 1.20384621e+02 1.00454552e+02 64.
      8.27500000e+01 70. 28. 115. 95. 98. 29. 8. 2.48000011e+01 124. 88.
      122. 5. 91. 62. 112. 1.07300003e+02 104. 17. 102.</_>
    <_>
      7.65833359e+01 2.25833340e+01 1.08333336e+02 5.17777786e+01 8.
      8.80555573e+01 1.21500000e+02 6.50666733e+01 4.15714302e+01
      1.36666670e+01 3.47142868e+01 9.35555573e+01 5.62666702e+01 80.
      1.12375000e+02 7.19375000e+01 4.95384636e+01 1.17428574e+02
      1.01099998e+02 19. 8.56111145e+01 6.71250000e+01 83. 62.
      3.01666679e+01 1.14555557e+02 4.75000000e+01 5.88333321e+01 110.
      1.13000002e+01 3.40000010e+00 1.04428574e+02 1.23666664e+02
      9.77500000e+01 7.44444427e+01 1.75833340e+01 6.95000000e+01
      2.73999996e+01 9.08888931e+01 2.03333340e+01 54. 1.19642860e+02
      4.31666679e+01 16. 3.26000023e+01 3.73333359e+01 7.87500000e+01
      9.58750000e+01 81. 111. 55. 4.57999992e+01 10. 1.06555557e+02
      1.50000010e+01 3.92000008e+01 7.00000048e+00 116. 2.42857151e+01
      84. 53. 5. 82. 9.</_>
    <_>
      7.75625000e+01 1.14000006e+01 5.01333351e+01 1.12823532e+02
      3.07000008e+01 9.78181839e+01 4.04375000e+01 1.21611115e+02
      6.25714302e+01 2.06538467e+01 8.74285736e+01 1.07187500e+02
      7.42105246e+00 16. 1.15705879e+02 67. 5.49285736e+01
      3.54500008e+01 2.43181820e+01 7.07857208e+01 5.74375000e+01
      1.02571434e+02 9.45000000e+01 3.34782624e+00 3.34000015e+01
      4.29411774e+01 1.19500000e+02 4.71538467e+01 8.24000015e+01 37.
      1.09250000e+02 86. 7.56153870e+01 9.00000076e+01 2.83999996e+01
      6.01304359e+01 111. 2.24666672e+01 4.55000000e+01 1.84285717e+01
      5.23529434e+00 1.35789471e+01 69. 5.24000015e+01 104.
      1.23307693e+02 9.60000076e+01 74. 9.25000000e+01 1.00636368e+02 9.
      3.83333321e+01 1.17250000e+02 7.92727280e+01 15. 6.42222214e+01
      17. 2.64500008e+01 8.47333374e+01 7.27142868e+01 10. 81. 32.
      1.05250000e+02</_>
    <_>
      3. 9.83000031e+01 5.16666679e+01 2.57500000e+01 8.66666718e+01
      1.14454552e+02 7.16666718e+01 15. 104. 3.72500000e+01 120.
      5.53333359e+01 9.33333359e+01 6.66666718e+01 3.16000004e+01
      4.55000000e+01 6.07500000e+01 7. 21. 1.06625000e+02 76.
      8.91666718e+01 9.60000038e+00 124. 1.09833336e+02 8.23333359e+01
      2.88333340e+01 102. 117. 1.88333340e+01 5. 100. 3.98571434e+01
      2.35000000e+01 53. 11. 64. 17. 9.56250000e+01 4.27500000e+01
      9.16250000e+01 3.55000000e+01 9.70000076e+01 1.12200005e+02
      1.22500000e+01 8. 1.22666672e+02 4. 7.33333359e+01 8.43333359e+01
      103. 69. 30. 4.85000000e+01 116. 80. 1.05000008e+02 59. 108. 101.
      88. 6. 78. 121.</_>
    <_>
      2.02352943e+01 8.43750000e+01 1.09857147e+02 3.75000000e+01
      5.97999992e+01 3.83333325e+00 7.54000015e+01 1.20625000e+02
      9.64444427e+01 4.73333359e+01 9.50000000e+00 3.35294113e+01 68.
      28. 9.25000000e+01 7.98235321e+01 7.34166718e+01 1.15428574e+02
      1.04666672e+02 1.00666672e+02 52. 8.60000076e+01 1.53333340e+01
      1.24000008e+02 24. 4.14285736e+01 1.13333336e+02 9.44000015e+01
      3.00000019e+01 4.36666679e+01 8.23076935e+01 6.25000000e+01
      8.85000000e+01 7.10666733e+01 50. 11. 1.07000008e+02
      5.72000008e+01 1.18666664e+02 3.53636360e+01 1.11545456e+02 122.
      7.72500000e+01 6.25000000e+00 1.74166679e+01 5.45000000e+01 8.
      1.02272728e+02 22. 12. 2.90000019e+01 3.96666679e+01
      2.66666660e+01 117. 49. 3.14000015e+01 9.86250000e+01 14. 87. 123.
      9.06666641e+01 6.48000031e+01 4.52500000e+01 13.</_>
    <_>
      99. 29. 6.83333359e+01 1.15000000e+01 8.03333359e+01 115.
      4.25000000e+01 5.95000000e+01 3. 8.92000046e+01 2.38888893e+01
      7.44285736e+01 1.01500000e+02 124. 54. 8. 9.42500000e+01 18. 111.
      6.36666679e+01 107. 1.47500000e+01 1.17333336e+02 83.
      5.42857170e+00 32. 21. 34. 7.64000015e+01 70. 7.82500000e+01 48.
      10. 8.73333359e+01 71. 5.66666679e+01 41. 1.04333336e+02 66. 4.
      73. 37. 98. 91. 120. 72. 6.13750000e+01 82. 46. 100.
      2.63333340e+01 13. 51. 109. 16. 113. 92. 3.96666679e+01 67. 65.
      97. 103. 84. 7.</_>
    <_>
      1.11000008e+02 4.13636360e+01 7.13333359e+01 16. 5.23750000e+01
      92. 2.86000004e+01 5.55454559e+01 1.22599998e+02 6.27000008e+01
      1.02571434e+02 7.72500000e+01 4.72500000e+01 3.55000000e+01
      8.53750000e+01 2.13333340e+01 4.33333349e+00 1.16888893e+02 67.
      38. 4.96153870e+01 44. 5.87777786e+01 2.45555553e+01
      3.03333340e+01 8.25999985e+01 7.36666718e+01 9.75000000e+00 65.
      113. 4.30000038e+01 9.65000000e+01 9.83333359e+01 1.08599998e+02
      7.95999985e+01 8.95000000e+01 1.32500000e+01 1.19200005e+02
      3.35000000e+01 5.40000038e+01 6.84000015e+01 66. 94. 51.
      6.10000038e+01 1.77142868e+01 39. 23. 121. 1.00666672e+02 70.
      5.70000038e+01 40. 1.14333336e+02 60. 45. 105. 46. 64. 37. 75.
      124. 2.62500000e+01 32.</_>
    <_>
      3.98571434e+01 1.08666672e+02 2.64444447e+01 7.45999985e+01
      9.73333359e+00 1.20555557e+02 9.15000000e+01 5.28333359e+01
      1.71111107e+01 1.00444443e+02 6.17142868e+01 8.42500000e+01
      1.15444443e+02 30. 4.20000029e+00 1.23900002e+02 2.15714302e+01
      46. 6.95714340e+01 9.67500000e+01 3.47500000e+01 1.06428574e+02
      1.43000002e+01 67. 8.15999985e+01 4.26250000e+01 8.65000000e+01
      94. 1.11636368e+02 56. 6.61538506e+00 11. 8.82000046e+01 20. 122.
      118. 2.40909100e+01 3.22000008e+01 5.88333359e+01 79.
      3.77500000e+01 1.02375000e+02 76. 36. 50. 90. 2.86000004e+01 119.
      6.45000000e+01 3.00000024e+00 99. 12. 63. 72. 110. 31. 98. 8.
      1.13777779e+02 1.17000008e+02 19. 16. 105. 48.</_>
    <_>
      1.61250000e+01 1.01555557e+02 4.65714302e+01 3.10000019e+01
      8.15000000e+01 1.21400002e+02 5.50000000e+00 1.14375000e+02
      8.74285736e+01 6.27999992e+01 3.53636360e+01 5.13333321e+01
      2.36000004e+01 9.56666641e+01 4.05000000e+01 1.07400002e+02
      1.02727280e+01 2.64166679e+01 43. 7.38000031e+01 9.75000000e+01
      5.66666679e+01 3.18181825e+00 1.16500000e+02 9.14444427e+01
      1.23875000e+02 32. 3.76153870e+01 2.08000011e+01 9. 29.
      9.95555573e+01 1.31818190e+01 6.07500000e+01 106. 5.38571434e+01
      48. 110. 39. 1.19500000e+02 59. 28. 33. 1.85000000e+01
      8.45000000e+01 78. 42. 80. 2.50000019e+01 6.56666718e+01
      7.75000000e+00 45. 30. 9.36666718e+01 12. 1.03111115e+02
      8.92500000e+01 112. 34. 4.91666679e+01 22. 1.18000008e+02 44. 113.</_>
    <_>
      9.92500000e+01 4.36250000e+01 6.24000015e+01 1.18500000e+02
      1.05000000e+01 79. 2.66666679e+01 5.35454559e+01 108.
      6.67500000e+01 8.73333359e+01 3.57777786e+01 70. 1.85000000e+01
      112. 61. 7.53333359e+01 1.03400002e+02 3.25000000e+00
      5.87500000e+01 5.01333351e+01 9.22857208e+01 3.26000023e+01
      8.54545517e+01 83. 4.69090919e+01 124. 1.14636368e+02
      4.05000000e+01 9.04000015e+01 2.96666679e+01 2.26000004e+01
      1.55000000e+01 9.63750000e+01 1.10636368e+02 5.56250000e+01
      7.25454559e+01 52. 1.05800003e+02 1.21375000e+02 42. 74.
      6.45000000e+01 8.02307739e+01 2.05000000e+01 1.16500000e+02
      7.33333349e+00 7.78571472e+01 1.35000000e+01 1.01285721e+02
      3.86250000e+01 5. 82. 123. 5.70000038e+01 84. 9.45999985e+01 68.
      89. 109. 6.00000038e+01 1.20000008e+02 113. 45.</_>
    <_>
      7.78333359e+01 23. 1.07285721e+02 4.85000000e+01 1.18500000e+02
      9.42500000e+01 6.58571472e+01 1.01999998e+01 4.27500000e+01
      8.35555573e+01 6.32857170e+01 71. 1.13500000e+02 9.05000000e+01
      32. 57. 9.67777786e+01 1.36666670e+01 3.33333349e+00 36.
      1.02400002e+02 121. 110. 7.36666718e+01 5.22000008e+01
      1.00333336e+02 1.23666672e+02 19. 46. 8.04000015e+01
      6.89000015e+01 5.96666679e+01 7. 38. 76. 112. 9.28333359e+01 109.
      116. 4.05000000e+01 55. 8.63333359e+01 27. 1.04599998e+02 30. 79.
      99. 82. 6.12500000e+01 25. 122. 120. 75. 111. 50. 98. 106. 85.
      8.87500000e+01 31. 115. 117. 17. 67.</_>
    <_>
      113. 9.28571510e+00 4.38571434e+01 9.04545517e+01 2.92500000e+01
      6.97500000e+01 9.82222214e+01 79. 37. 1.21250000e+02
      5.62857170e+01 1.04750000e+02 3. 1.74285717e+01 2.54444447e+01
      3.33636360e+01 4.05000000e+01 5.14000015e+01 6.45000000e+01
      1.02545456e+02 2.15000000e+01 8.52500000e+01 1.08333336e+02
      1.15857147e+02 1.52222223e+01 9.32500000e+01 4.65000000e+01
      7.32000046e+01 8.84000015e+01 5.83333359e+01 1.01000008e+02
      6.50000000e+00 111. 32. 35. 1.23833336e+02 9.60000076e+01
      1.38571434e+01 6.02500000e+01 19. 1.16000004e+01 92.
      2.33750000e+01 1.18500000e+02 87. 4.87999992e+01 2.75000000e+01
      3.81666679e+01 7.61666718e+01 31. 8. 95. 97. 4.12500000e+00 42.
      5.45714302e+01 1.06142860e+02 20. 81. 36. 114. 112. 100. 110.</_>
    <_>
      3.58571434e+01 9.05000000e+01 1.16400002e+02 2.14444447e+01 59.
      97. 7.24285736e+01 3.50000000e+00 107. 2.57777786e+01 119.
      4.95000000e+01 8.07000046e+01 1.24285717e+01 1.02562500e+02
      4.13333359e+01 67. 1.21214294e+02 8.57272720e+01 1.62857151e+01
      111. 6.57142878e+00 5.55000000e+01 3.05714302e+01 7.67500000e+01
      64. 1.24000008e+02 10. 39. 9.46153870e+01 2.33333340e+01 109.
      1.13526314e+02 2.84444447e+01 71. 7.47142868e+01 1.04312500e+02
      34. 5.21666679e+01 1.00500000e+02 4.75000000e+01 1.92500000e+01
      6.11666679e+01 57. 8.74615402e+01 44. 9.26666718e+01
      8.26666718e+01 110. 112. 5. 79. 8. 118. 1.23000008e+02 89.
      6.94000015e+01 120. 3.27142868e+01 99. 1.15000008e+02
      1.47500000e+01 78. 18.</_>
    <_>
      6.25000000e+00 1.06181824e+02 5.24000015e+01 2.75000000e+01
      1.22363640e+02 76. 17. 8.88333359e+01 6.51250000e+01
      4.05714302e+01 1.15615387e+02 2.24444447e+01 102. 9.36666718e+01
      5.74000015e+01 3.44285736e+01 4.65000000e+01 1.10900002e+02
      1.27500000e+01 6.92000046e+01 8.42857170e+00 119. 3.00000024e+00
      8.53333359e+01 6.06000023e+01 80. 7.15999985e+01 9.59000015e+01
      1.13500000e+02 4.22500000e+01 1.86250000e+01 2.46000004e+01
      4.44000015e+01 124. 1.08142860e+02 1.06666670e+01 1.55384617e+01
      5.45000000e+01 59. 2.91666679e+01 21. 4.94285736e+01
      3.82857170e+01 3.12000008e+01 9.96666718e+01 1.03666672e+02
      6.25000000e+01 87. 7.33333359e+01 48. 82. 117. 121. 120. 26. 20.
      1.40000010e+01 56. 67. 118. 4. 9.18000031e+01 33. 5.</_>
    <_>
      114. 32. 69. 6. 84. 4.66666679e+01 20. 121. 101. 57. 40.
      1.25000000e+01 9.56666718e+01 26. 107. 124. 90. 7.93333359e+01
      119. 52. 6.06666679e+01 35. 2.26666679e+01 8.17500000e+01
      1.16875000e+02 70. 1.02500000e+01 3. 1.10333336e+02 4.46666679e+01
      75. 65. 105. 17. 3.76666679e+01 103. 98. 73. 1.20000008e+02
      9.13333359e+01 15. 118. 8.65000000e+01 28. 113. 4.25000000e+01 8.
      54. 56. 122. 24. 109. 108. 39. 36. 5. 6.75000000e+01 115. 106.
      123. 48. 14. 63. 83.</_>
    <_>
      53. 101. 1.43333340e+01 1.12666672e+02 6.52000046e+01 86. 28. 4.
      7.17500000e+01 4.15000000e+01 1.18500000e+02 9.32500000e+01
      6.17999992e+01 1.86666679e+01 4.96666679e+01 56. 1.23666672e+02
      96. 8.03333359e+01 3.65000000e+01 107. 115. 76. 2.36666679e+01
      9.90000076e+01 59. 8.96666718e+01 121. 32. 10. 6.20000029e+00 46.
      67. 4.35000000e+01 3. 83. 48. 2.67500000e+01 20. 102.
      1.10250000e+02 114. 40. 54. 68. 103. 13. 117. 116. 55. 16. 122.
      98. 52. 25. 11. 63. 29. 100. 97. 120. 5. 51. 95.</_>
    <_>
      1.09500000e+02 5.06000023e+01 1.83333340e+01 3.25000000e+01 73.
      84. 119. 93. 4.55000000e+01 3.22222233e+00 59. 67. 122.
      1.00250000e+02 1.13333340e+01 3.65000000e+01 2.53333340e+01
      1.15666672e+02 5.54000015e+01 1.03714287e+02 6.13333359e+01 6. 89.
      42. 2.23333340e+01 9.63333359e+01 29. 48. 14. 7.65000000e+01 8.
      69. 3.46666679e+01 113. 98. 124. 49. 6.35000000e+01 117. 107. 30.
      2.05000000e+01 123. 102. 2.75000000e+01 47. 53. 1.65000000e+01 65.
      82. 111. 4.07500000e+01 10. 91. 43. 121. 70. 95. 8.55000000e+01
      120. 44. 5. 114. 31.</_>
    <_>
      9. 1.15200005e+02 6.42857208e+01 7.55000000e+01 37. 93. 50. 23.
      17. 1.23833336e+02 54. 107. 8.46666718e+01 4.25000000e+00
      9.74000015e+01 3.15000000e+01 47. 7.02500000e+01 111.
      1.17333336e+02 5.75000000e+01 80. 21. 7.76666718e+01
      1.35000000e+01 28. 88. 8.23333359e+01 67. 91. 101. 11.
      6.66666698e+00 119. 51. 105. 7.25000000e+01 95. 8. 61. 112.
      8.66666718e+01 3.85000000e+01 1.58000002e+01 1.96666679e+01 92.
      96. 53. 45. 26. 90. 74. 68. 22. 36. 94. 52. 109. 56. 48. 49. 55.
      3. 113.</_>
    <_>
      3.58888893e+01 1.07200005e+02 7.55999985e+01 1.36153851e+01 123.
      5.15333366e+01 9.34285736e+01 3.27272749e+00 2.23333340e+01
      5.96923103e+01 115. 8.45999985e+01 4.15000000e+01 6.60625000e+01
      3.34166679e+01 87. 2.96875000e+01 1.83846169e+01 7.24285736e+01
      7.86666727e+00 9.92500000e+01 4.68235283e+01 5.53571472e+01 104.
      8.24285736e+01 4.45714302e+01 1.09714294e+02 1.19142860e+02
      2.63636379e+01 1.03846159e+01 68. 9.15999985e+01 80.
      1.13599998e+02 3.84615402e+01 4.95454559e+01 121. 88.
      3.15000000e+01 6.14000015e+01 17. 21. 5.35555573e+01 74. 40.
      7.78571472e+01 1.11750000e+02 1.01571434e+02 5.77857170e+01 124.
      5.28571463e+00 20. 1.56999998e+01 2.42727280e+01 9.55000000e+01
      12. 6.32500000e+01 1.16250000e+02 6.91250000e+01 28. 43. 106. 122.
      8.93000031e+01</_>
    <_>
      8.55000000e+01 3.24285736e+01 1.04444443e+02 7.79090958e+01
      5.86666679e+01 1.78333340e+01 112. 4.96666679e+01 5.50000000e+00
      9.46250000e+01 7.14444427e+01 120. 2.46666679e+01 4.15000000e+01
      6.43750000e+01 100. 1.09000008e+02 116. 8.80769272e+01 37. 74.
      8.66666698e+00 8.08461533e+01 30. 53. 1.38000002e+01 91.
      4.38333359e+01 1.22666672e+02 93. 107. 1.06666670e+01
      2.03999996e+01 1.02230774e+02 6.68333359e+01 9.77000046e+01 62.
      4.75000000e+01 76. 2.26000004e+01 3.33333349e+00 124. 110.
      1.14727280e+02 108. 8.37000046e+01 2.75000000e+01 3.92000008e+01
      55. 75. 1.17166672e+02 73. 6.93333359e+01 3.47500000e+01 113. 99.
      1.06000008e+02 12. 111. 9.60000076e+01 7. 51. 57. 101.</_>
    <_>
      1.22565216e+02 4.15000000e+01 87. 7.71428585e+00 6.40526352e+01
      1.11434784e+02 2.75833340e+01 9.25500031e+01 1.00368423e+02
      7.79411774e+01 5.39411774e+01 1.56428576e+01 3.46666679e+01
      4.93571434e+01 9.74285736e+01 1.19966675e+02 7.09523849e+01
      4.62000008e+01 1.07592590e+02 2.17500000e+01 5.88125000e+01
      8.55555573e+01 1.05500000e+02 1.16500000e+02 3.37500000e+00
      3.90499992e+01 1.14545460e+01 9.04500046e+01 8.28750000e+01
      3.65000000e+01 3.12666683e+01 113. 6.79230804e+01 1.36666670e+01
      7.38333359e+01 5.54545450e+00 9.54736862e+01 2.56363640e+01
      8.03750000e+01 1.18000008e+02 6.11875000e+01 115. 103.
      5.65000000e+01 1.75833340e+01 9.90000076e+01 4.80000038e+01
      1.96666679e+01 2.92857151e+01 7.56250000e+01 9.50000000e+00 124.
      66. 4.33846169e+01 2.35833340e+01 1.04000008e+02 94.
      8.82500000e+01 5.11250000e+01 114. 1.09363640e+02 102. 45. 33.</_>
    <_>
      8.64000015e+01 2.49354839e+01 1.16599998e+02 5.75384636e+01
      9.56250000e+00 7.01428604e+01 1.06625000e+02 3.53333359e+01 95.
      1.23615387e+02 4.30769234e+01 2.03000011e+01 7.82142868e+01
      1.00086960e+02 4.97500000e+01 17. 1.12000008e+02 3.57894731e+00
      63. 2.72500000e+01 1.19500000e+02 5.98666687e+01 6.43750000e+00
      3.15454559e+01 1.23846159e+01 9.06250000e+01 1.03764709e+02
      6.74375000e+01 8.17000046e+01 4.67692337e+01 7.55454559e+01
      1.45882349e+01 1.09000008e+02 23. 3.75555573e+01 4.03076935e+01
      5.33333359e+01 1.14000008e+02 1.21526314e+02 9.24444427e+01
      9.75833359e+01 118. 102. 5.56250000e+01 7.31111145e+01 80. 45.
      6.53000031e+01 3.32999992e+01 8.38333359e+01 2.94615402e+01
      8.85000000e+01 110. 111. 22. 5.11111107e+01 115. 108.
      1.10000010e+01 8. 1.05000008e+02 19. 113. 5.</_>
    <_>
      9.93333359e+01 28. 6.31428604e+01 1.14000008e+02 1.10000010e+01
      4.58750000e+01 8.25999985e+01 124. 9.30833359e+01 5.27692337e+01
      1.09529411e+02 7.25714340e+01 3.84000015e+01 6. 1.98750000e+01
      3.25000000e+01 120. 7.84166718e+01 5.82999992e+01 8.73750000e+01
      4.12727280e+01 4.96250000e+01 1.61111107e+01 1.05583336e+02
      9.72500000e+01 6.53333359e+01 1.17333336e+02 6.84285736e+01
      2.26000004e+01 112. 1.07714287e+02 1.03384621e+02 6.05000000e+01
      5.55454559e+01 9.04166718e+01 8.02857208e+01 7.49000015e+01
      9.53000031e+01 3.61538482e+00 122. 2.43999996e+01 47.
      8.63636398e+00 1.35555553e+01 3.03333340e+01 116. 1.13000008e+02
      18. 26. 4.35000000e+01 48. 111. 3.46666679e+01 8.52727280e+01 123.
      119. 101. 40. 102. 121. 1.15000008e+02 67. 7.02857208e+01 57.</_>
    <_>
      1.00526314e+02 32. 7.42000046e+01 5.37500000e+00 1.19357147e+02
      5.26153870e+01 1.56153851e+01 1.10222221e+02 8.65999985e+01 64.
      2.15000000e+01 4.36250000e+01 9.43684235e+01 1.04555557e+02
      3.75000000e+01 1.00769234e+01 7.71666718e+01 1.22500000e+02
      9.13809509e+01 116. 8.14444427e+01 5.55000000e+01 67.
      1.75555553e+01 2.74285736e+01 107. 9.65714340e+01 6.08888893e+01
      5.01666679e+01 3.47272720e+01 108. 1.13615387e+02 88.
      1.25454550e+01 1.02523811e+02 3.25000000e+00 1.18000008e+02 47.
      6.93750000e+01 7.58823538e+00 5.87500000e+01 2.53333340e+01
      7.16666718e+01 93. 8.47727280e+01 2.92857151e+01 4.15000000e+01
      9.84666748e+01 7.96666718e+01 124. 3.95555573e+01 2.31666679e+01
      1.21000008e+02 109. 112. 57. 117. 115. 1.94545460e+01 14. 76.
      8.92727280e+01 106. 83.</_>
    <_>
      54. 98. 1.77272739e+01 1.19360001e+02 76. 8.94516068e+01
      6.36875000e+01 1.08391304e+02 3.48571434e+01 3.50000000e+00
      4.27272758e+01 8.63636398e+01 1.04457146e+02 7.25161285e+01
      1.23545456e+02 2.61250000e+01 8.04000015e+01 9.40476227e+01
      1.11000008e+02 7.92307711e+00 6.10000038e+01 6.75652161e+01
      1.15631577e+02 3.03750000e+01 2.24444447e+01 5.84666710e+01
      4.91363640e+01 70. 9.95185165e+01 83. 4.67058830e+01 20.
      9.13913040e+01 1.32857151e+01 4.08888893e+01 1.06479996e+02 79.
      1.13000008e+02 8.45999985e+01 5.66666679e+01 3.75454559e+01
      4.47999992e+01 1.21586205e+02 5.16428604e+01 117. 1.01619049e+02
      1.10000008e+02 82. 9.65833359e+01 1.03000008e+02 5.45454550e+00
      114. 112. 3.23571434e+01 1.55714293e+01 77. 7.46315765e+01
      8.80000076e+01 6.54000015e+01 2.85555553e+01 78. 39.
      1.03750000e+01 118.</_>
    <_>
      1.06705879e+02 3.64074059e+01 6.35652199e+01 8.43478298e+00
      8.27500000e+01 3.25000000e+01 2.24444447e+01 7.48918915e+01
      1.16818184e+02 4.43333321e+01 9.65000000e+01 5.55555573e+01
      1.46538467e+01 7.05217438e+01 8.82142868e+01 2.90285721e+01
      1.10565216e+02 1.86333351e+01 6.16666679e+01 3.34782624e+00
      7.75625000e+01 46. 6.75714340e+01 40. 1.22842110e+02
      1.23809528e+01 9.85238113e+01 1.02409096e+02 4.89259262e+01
      5.37000046e+01 5.74761925e+01 8.59761887e+01 41. 1.20052635e+02
      9.25000000e+01 2.66399994e+01 1.14714294e+02 5.94545479e+01
      6.55000000e+01 8.06500015e+01 1.08588234e+02 6.52941179e+00
      5.14210548e+01 2.04074078e+01 1.00600006e+02 69. 1.05862064e+01
      9.45833359e+01 2.44193535e+01 73. 1.12708336e+02 31. 104. 47. 79.
      3.46071434e+01 9.02142868e+01 4.23750000e+01 105. 38. 72. 39.
      1.63999996e+01 5.</_>
    <_>
      4.20344810e+01 1.05482758e+02 7.70238113e+01 1.14117651e+01
      5.74705887e+01 3.11627903e+01 1.19500008e+02 8.86944427e+01
      2.08461533e+01 6.79772720e+01 1.01541672e+02 1.14857147e+02
      5.30000038e+01 7.55999994e+00 8.14761887e+01 4.94242439e+01
      6.34146309e+01 9.18918915e+01 3.55263176e+01 2.55000000e+01
      1.10521744e+02 7.43636398e+01 9.65757599e+01 72. 1.59714289e+01
      3.40909100e+00 1.23655174e+02 8.55454559e+01 6.15599976e+01
      7.94838715e+01 2.83928585e+01 1.03500008e+02 4.55000000e+01
      9.90238113e+01 5.16086960e+01 59. 9.44090958e+01 7.02903214e+01
      112. 6.55714340e+01 1.35500002e+01 55. 1.17363640e+02
      1.07583336e+02 3.73913040e+01 3.35555573e+01 1.21666672e+02
      2.35517235e+01 3.95263176e+01 84. 9.61904812e+00 1.83809528e+01
      87. 73. 4.74444466e+01 83. 2.70000019e+01 113. 5.46428585e+00 54.
      4.40000038e+01 109. 6.00000038e+01 56.</_>
    <_>
      4.31052628e+01 1.14159996e+02 76. 2.27727280e+01 6.14583359e+01
      9.42333374e+01 1.11428576e+01 3.25000000e+01 1.23593750e+02
      5.65000000e+01 1.00206894e+02 5.54166698e+00 6.92051315e+01
      8.90740738e+01 8.39523849e+01 1.07523811e+02 1.16636368e+02
      1.65500011e+01 3.63888893e+01 1.04923080e+02 2.85517235e+01
      7.24285736e+01 4.95000000e+01 1.10870964e+02 6.67037048e+01
      7.95555573e+01 2.04285717e+01 8.64500046e+01 5.14761925e+01
      9.74736862e+01 1.20416672e+02 1.41875000e+01 2.65000000e+01
      5.89428558e+01 8.44444466e+00 1.18636368e+02 9.15999985e+01
      4.04545479e+01 5.35499992e+01 8.15652161e+01 4.76190491e+01 7.
      3.06551723e+01 64. 34. 25. 4.56923103e+01 35. 65. 2.40000019e+01
      7.45454559e+01 3.48000002e+00 1.83529415e+01 1.02642860e+02 39.
      38. 78. 96. 63. 71. 1.22000008e+02 77. 109. 55.</_>
    <_>
      5.86363640e+01 1.17559998e+02 10. 8.26111145e+01 2.85833340e+01
      4.64666710e+01 101. 7.06250000e+01 9.36923141e+01 1.83478260e+01
      3.65172424e+01 6.24583359e+01 5.65000010e+00 1.07100006e+02
      5.06046524e+01 7.50344849e+01 8.76250000e+01 2.40526314e+01 67.
      4.16666679e+01 5.24399986e+01 1.21500008e+02 1.15125000e+02
      5.65200005e+01 3.34399986e+01 14. 5.45641022e+01 1.03550003e+02
      8.03499985e+01 1.12578949e+02 49. 2.15925922e+01 3. 6.45714340e+01
      9.79199982e+01 9.08750000e+01 69. 1.23722221e+02 8.55714340e+01
      8.48148155e+00 1.10217392e+02 3.95652199e+01 1.55599995e+01
      7.24482727e+01 2.65599995e+01 1.13599997e+01 3.15714283e+01
      4.35416679e+01 84. 9.55000000e+01 38. 7.85882339e+01 45. 20. 35.
      48. 6.07619057e+01 77. 1.19533340e+02 4. 3.00000019e+01 13.
      7.00000048e+00 17.</_>
    <_>
      96. 3.34000015e+01 6.54137955e+01 1.25555553e+01 1.16538467e+02
      7.65599976e+01 4.15000000e+01 1.01533340e+02 8.50740738e+01
      2.23214302e+01 5.54000015e+01 3.32258058e+00 1.22529411e+02
      1.09843750e+02 4.70750008e+01 30. 1.54857140e+01 6.01914864e+01
      6.73571472e+01 7.37931013e+00 9.24761887e+01 5.14444466e+01
      1.03559998e+02 6.94166718e+01 2.43666687e+01 1.06162163e+02
      8.21153870e+01 8.74285736e+01 1.18529411e+02 7.24857178e+01
      3.94375000e+01 3.54285736e+01 27. 9.75416718e+01 1.96153851e+01
      1.12450005e+02 7.96842117e+01 5.42307711e+00 4.43999977e+01 9.
      5.74814835e+01 8.90000076e+01 78. 5.33461571e+01 1.40000010e+01
      9.95217438e+01 108. 3.74285736e+01 1.76896553e+01 1.20555557e+02
      6.36071472e+01 32. 11. 7.47096786e+01 6.20000038e+01
      9.02857132e+01 9.45652161e+01 4.30000038e+01 4.95384636e+01 71.
      1.14375000e+02 10. 21. 1.24000008e+02</_>
    <_>
      3.41379318e+01 1.02533340e+02 8.15789490e+01 7. 6.74000015e+01
      1.21357147e+02 4.16666679e+01 2.35789471e+01 1.35000010e+01
      5.35294113e+01 1.12347832e+02 9.30833359e+01 6.35238113e+01
      1.18161285e+02 7.37777786e+01 1.09368423e+02 4.73333321e+01
      1.79062500e+01 8.59500046e+01 3.34375000e+00 9.75500031e+01
      5.85294113e+01 2.09000015e+01 3.91379318e+01 1.06555557e+02
      7.75714340e+01 28. 1.15481483e+02 3.16499996e+01 12.
      4.31666679e+01 9.51999950e+00 7.17777786e+01 8.82500000e+01
      9.54705887e+01 4.95555573e+01 6.54444427e+01 3.65000000e+01
      1.56250000e+01 100. 30. 5.64166679e+01 5.15333366e+01
      1.23519997e+02 1.14000008e+02 120. 9.05000076e+01 8.33684235e+01
      5.59259272e+00 6.96250000e+01 104. 1.05000008e+02 108.
      2.56250000e+01 11. 7.55384674e+01 4.57500000e+01 6.14117661e+01
      7.95999985e+01 8. 99. 1.11000008e+02 55. 101.</_>
    <_>
      8. 8.13333359e+01 1.10631577e+02 3.75000000e+01 5.98275871e+01
      2.22916679e+01 1.20538467e+02 4.72916679e+01 3.13999996e+01
      9.50476227e+01 7.40909119e+01 1.05473686e+02 1.55312500e+01
      6.77142868e+01 25. 5.55909119e+01 1.00119995e+02 3.45714283e+00
      1.15000000e+01 8.60000076e+01 1.14291672e+02 4.23043480e+01
      5.12142868e+01 1.76190472e+01 8.88947372e+01 6.30000038e+01
      1.19000008e+02 2.85185184e+01 1.23514290e+02 3.55925941e+01 49.
      7.95555573e+01 4.56666679e+01 3.00000019e+01 7.14000015e+01
      7.68125000e+01 118. 9.74736862e+01 1.12476196e+02 5.70000038e+01
      5.33500023e+01 4.40000038e+01 9.21428604e+01 2.05454559e+01
      6.95000000e+01 103. 2.63461552e+01 6.54000015e+01 5.69230795e+00
      3.33823547e+01 1.36315794e+01 40. 39. 41. 1.16479996e+02
      1.08190475e+02 24. 7. 58. 122. 19. 9.35999966e+00 8.35000000e+01
      50.</_>
    <_>
      115. 2.37857151e+01 7.49473724e+01 4.85555573e+01 9.98666687e+01
      8.70500031e+01 4.34999990e+00 3.41818199e+01 6.73684235e+01
      1.46666670e+01 1.06500000e+02 1.21519997e+02 4.18333359e+01 80.
      5.67777786e+01 6.50000000e+00 2.87941170e+01 6.14210548e+01
      9.36428604e+01 3.76521759e+01 1.04500000e+02 7.15000000e+01
      1.05000000e+01 2.06818180e+01 1.11434784e+02 9.02916718e+01
      6.35833359e+01 7.77222214e+01 4.45789490e+01 109. 1.18380951e+02
      5.37058830e+01 1.25263157e+01 8.90000076e+01 8.23846207e+01
      1.02478264e+02 9.55625000e+01 3.96428604e+01 1.20000008e+02
      1.63888893e+01 2.66250000e+01 124. 36. 8.44999981e+00
      1.14000008e+02 73. 3.15555553e+01 1.82000008e+01 2.50000019e+01
      9.77500000e+01 5.91538467e+01 6.94285736e+01 8.46666641e+01 113.
      110. 92. 6.55263138e+01 5.08571434e+01 4.64615402e+01 22.
      1.16347832e+02 123. 3. 108.</_>
    <_>
      2.85789471e+01 103. 3.96111107e+01 6.00000038e+01 8.54375000e+01
      1.14639999e+02 6.63636398e+00 7.48750000e+01 1.40416670e+01
      1.21466675e+02 9.36956558e+01 4.91250000e+01 9.85483856e+01
      1.96666679e+01 8.00454559e+01 5.38095245e+01 1.23516129e+02
      1.09888893e+02 35. 2.35357151e+01 44. 3.40909100e+00
      3.00000019e+01 67. 1.15833340e+01 105. 9.03199997e+01
      1.12631577e+02 6.98181839e+01 5.68750000e+01 1.76875000e+01
      8.32105255e+01 7.76923141e+01 1.18714287e+02 9.56399994e+01
      6.46363678e+01 3.27058830e+01 3.75714302e+01 1.07599998e+02
      2.55416679e+01 1.00578949e+02 6.23333359e+01 5.14615402e+01
      4.14000015e+01 8.55555534e+00 2.13846169e+01 31. 4.64000015e+01
      2.70000019e+01 7.21176453e+01 5. 92. 16. 10. 97. 1.06000008e+02
      8.79565201e+01 1.17000008e+02 116. 120. 104. 4.30000038e+01
      1.02000008e+02 45.</_>
    <_>
      26. 8.72380981e+01 5.72500000e+01 1.19523811e+02 1.15384617e+01
      1.09400002e+02 4.43076935e+01 7.31111145e+01 3.66315804e+01
      9.65833359e+01 20. 3. 3.18571434e+01 6.65882339e+01 1.03857147e+02
      6.24761925e+01 7.00000048e+00 7.54090958e+01 5.01666679e+01
      1.23620689e+02 9.14705887e+01 1.55882349e+01 1.15083336e+02 29.
      8.40909119e+01 2.35199986e+01 1.07058823e+02 7.73750000e+01 41.
      1.12200005e+02 1.01428574e+02 18. 1.21588234e+02 68.
      1.17250000e+02 8.95000000e+01 111. 9.45000076e+01 2.12903214e+01
      13. 8.09000015e+01 5.26363640e+01 5.97000008e+01 3.82500000e+01 5.
      79. 3.42777786e+01 61. 4.87142868e+01 7.03333359e+01
      1.90000019e+01 17. 2.80000019e+01 4. 6.43333359e+01 9.90769272e+01
      69. 14. 3.00000019e+01 9.52380943e+00 4.65555573e+01
      9.30000076e+01 6.00000048e+00 8.</_>
    <_>
      6.36818199e+01 9. 1.14958336e+02 3.15199986e+01 9.24285736e+01
      8.40999985e+01 1.05846161e+02 50. 2.45000000e+01 7.20555573e+01
      121. 2.06666679e+01 3. 3.61304359e+01 1.01444443e+02
      1.34285717e+01 9.55714340e+01 76. 5.48888893e+01 8.83684235e+01
      6.16363640e+01 6.68799973e+01 43. 6.27999973e+00 5.73333321e+01
      2.77500000e+01 1.09545456e+02 4.76000023e+01 1.24000008e+02
      1.74285717e+01 2.60000019e+01 7.95714340e+01 6.94736862e+01
      1.03500000e+02 9.87000046e+01 7.45714340e+01 4.03333321e+01
      1.18037041e+02 9.05000000e+01 1.07368423e+02 7.72105255e+01
      1.12666672e+02 1.53333330e+01 8.69090958e+01 5.93846169e+01
      1.03571434e+01 1.23000008e+02 2.25000019e+01 3.35294113e+01
      4.55000000e+01 5.25555573e+01 97. 1.20000008e+02 100. 12.
      3.82857170e+01 5. 122. 8. 94. 2.94117641e+01 111. 19. 4.</_>
    <_>
      3. 8.29375000e+01 44. 1.20800003e+02 2.55000000e+01 1.65625000e+01
      1.00357147e+02 6.23478279e+01 3.41081085e+01 5.23157883e+01
      7.15789490e+01 1.09099998e+02 1.03437500e+01 8.98928604e+01
      5.84500008e+01 36. 3.16666679e+01 1.17062500e+02 4.04090919e+01
      7.69696960e+01 2.14545460e+01 4.84545479e+01 9.49666748e+01
      6.76250000e+01 20. 106. 8.55789490e+01 6.30303049e+00
      1.44848490e+01 1.14500008e+02 5.04285736e+01 8.35999966e+00
      7.96923141e+01 9.74090958e+01 2.75714283e+01 1.86774197e+01
      1.24399996e+01 1.23500000e+02 46. 6.05454559e+01 7.35333405e+01
      3.74166679e+01 1.11823532e+02 56. 8.73750000e+01 75.
      9.22727280e+01 6.55500031e+01 1.02615387e+02 6.94090958e+01
      4.25416679e+01 39. 64. 30. 57. 5.46399994e+01 47. 5.
      2.35000000e+01 4. 81. 99. 4.50000038e+01 2.90000019e+01</_>
    <_>
      8.55294113e+01 3.95151520e+01 9. 1.15024384e+02 6.44615402e+01
      9.56578979e+01 2.85652180e+01 1.05607147e+02 4.89687500e+01
      8.36666641e+01 7.35161285e+01 1.79250011e+01 119. 5.64761925e+01
      3.51351357e+00 7.96060638e+01 2.31612892e+01 1.02181824e+02
      1.09428574e+02 3.65000000e+01 91. 6.65185165e+01 1.22590912e+02
      6.05333366e+01 12. 5.14782600e+01 3.43823547e+01 93.
      7.76571426e+01 4.45000000e+01 9.94838715e+01 1.49487181e+01
      5.42777786e+01 121. 2.59696980e+01 8.74516068e+01 4.64375000e+01
      7.55416718e+01 5.45000029e+00 8.15185165e+01 7.05217438e+01
      1.07515152e+02 2.06111107e+01 1.12608696e+02 3.15599995e+01 89.
      5.85909119e+01 9.74799957e+01 1.04000008e+02 8. 7. 6.84399948e+01
      1.17500000e+02 72. 10. 4.19268265e+01 124. 38. 3.00000019e+01
      6.26785736e+01 111. 33. 94. 120.</_>
    <_>
      2.84137936e+01 1.11439995e+02 6.61153870e+01 7.55999994e+00
      9.18285751e+01 1.20571434e+02 5.03823547e+01 3.95000000e+01
      1.85862064e+01 7.45000000e+01 8.59473724e+01 1.06000008e+02
      5.86666679e+01 1.36399994e+01 9.90666733e+01 8.21999969e+01
      4.44642868e+01 2.34814816e+01 3.56500015e+01 6.04117661e+01
      1.15941177e+02 7.25000000e+01 1.04000008e+02 5.54782600e+01
      8.89333344e+01 10. 47. 1.23782608e+02 4.18611107e+01
      3.48387098e+00 3.05000000e+01 9.46363678e+01 6.27199974e+01 114.
      3.24166679e+01 1.01565216e+02 1.18559998e+02 7.95500031e+01
      2.04827595e+01 26. 34. 69. 1.08481483e+02 9.66428604e+01
      1.65238094e+01 5.26399994e+01 4.83000031e+01 1.05000008e+02 84.
      12. 5.40000038e+01 110. 46. 22. 113. 5.61111116e+00 122.
      1.03000008e+02 3.74500008e+01 57. 15. 71. 7.68666687e+01 107.</_>
    <_>
      2.85384617e+01 1.02529411e+02 61. 1.36086960e+01 119. 42.
      8.69285736e+01 3.33333325e+00 1.73333340e+01 7.01944427e+01
      5.40714302e+01 1.11636368e+02 7.75555573e+01 9.80384674e+01
      3.25000000e+01 2.14799995e+01 7.45000029e+00 3.75357170e+01
      4.64166679e+01 1.23600006e+02 9.30555573e+01 2.54444447e+01
      6.71999969e+01 5.80000038e+01 1.09157898e+02 5.10909119e+01
      4.35454559e+01 8.26923141e+01 6.38787880e+01 1.15571434e+02
      9.59090900e+00 6. 1.04588234e+02 7.26250000e+01 1.14583340e+01 90.
      1.00600006e+02 9.56000061e+01 1.21500008e+02 7.98333359e+01
      2.70000019e+01 3.45000000e+01 1.06478264e+02 56. 4.84500008e+01
      45. 1.17727280e+02 23. 3.05333347e+01 6.00000038e+01
      7.49230804e+01 3.97199974e+01 15. 24. 1.95000000e+01
      5.00000048e+00 41. 1.13318184e+02 59. 36. 5.70000038e+01 62.
      1.20000008e+02 16.</_>
    <_>
      9.74642868e+01 1.64722233e+01 6.41750031e+01 1.12468750e+02
      3.32692337e+01 8.96071472e+01 4.03461571e+01 7.79705887e+01
      5.07916679e+01 1.20969704e+02 2.46000004e+01 6.70833349e+00
      5.67619057e+01 1.03375000e+02 4.39444466e+01 7.10263138e+01
      8.54333344e+01 1.09519997e+02 2.25357151e+01 1.45238094e+01
      1.15161285e+01 3.27272749e+00 5.93000031e+01 2.85217400e+01
      1.16349998e+02 6.85185165e+01 8.34545517e+01 9.15999985e+01
      4.84500008e+01 7.57083359e+01 19. 6.16000023e+01 9.55000076e+01
      3.77142868e+01 9.51851845e+00 8.77419357e+01 1.23523811e+02
      1.05625000e+02 3.10000019e+01 5.44117661e+01 7.34583359e+01 8.
      8.04166718e+01 2.63571434e+01 32. 1.01483871e+02 9.95384674e+01
      1.18478264e+02 1.14521744e+02 13. 3.54814835e+01 111.
      1.07461540e+02 39. 5.00000048e+00 6.66190491e+01 4.64761925e+01
      42. 2.04193535e+01 30. 9.34000015e+01 82. 5.23333359e+01 18.</_>
    <_>
      5.04137917e+01 8.16764679e+01 1.07021744e+02 1.06896553e+01
      2.44516125e+01 6.55172424e+01 1.19458336e+02 4.15714302e+01
      9.76500015e+01 5.65454559e+01 1.54736843e+01 3.44615402e+01
      7.68421021e+01 1.12051285e+02 9.18717957e+01 7.06128998e+01
      3.50000024e+00 1.01642860e+02 2.00882359e+01 8.65999985e+01
      3.05000000e+01 4.63611107e+01 3.94827576e+01 6.14615402e+01
      5.45142860e+01 1.23733337e+02 7.95454550e+00 1.04400009e+02
      1.09514290e+02 1.15400009e+02 7.45333405e+01 9.45217438e+01
      6.85199966e+01 33. 6.35238113e+01 1.17759995e+02 5.90000038e+01
      2.65217400e+01 3.74642868e+01 2.26153851e+01 8.35294113e+01
      7.95862045e+01 96. 85. 1.36842108e+01 5.53333378e+00
      5.25517235e+01 1.14000008e+02 2.82222233e+01 8.96250000e+01
      4.36071434e+01 7.26153870e+01 9.94000015e+01 103. 1.21375000e+02
      6.00000038e+01 4.86363640e+01 36. 58. 1.74799995e+01 45. 67. 32.
      88.</_>
    <_>
      6.33684196e+01 2.65357151e+01 104. 8.54000015e+01 9.48837185e+00
      4.64482765e+01 112. 7.44193497e+01 3.65757599e+01 5.33666687e+01
      1.83928585e+01 1.54473686e+01 9.35000000e+01 1.23733337e+02
      3.32258058e+00 79. 4.44000015e+01 5.75833359e+01 3.03999996e+01
      2.16578941e+01 6.94761887e+01 9.79333420e+01 1.16666670e+01
      4.23666687e+01 8.84583359e+01 8.26666718e+01 1.14125000e+02
      3.24399986e+01 1.09099998e+02 3.46296310e+01 1.01083336e+02
      6.15238113e+01 5.15625000e+01 3.96785736e+01 121. 5.52173901e+00
      5.95714302e+01 7.65384674e+01 6.55555573e+01 9.55789490e+01 17.
      81. 1.06333336e+02 23. 7. 7.15714340e+01 9.04166718e+01 92.
      8.70000076e+01 4.88500023e+01 84. 8. 5.53333359e+01 1.18636368e+02
      41. 2.84545460e+01 6.74000015e+01 2.43181820e+01 73. 14. 20. 13.
      3.80000038e+01 1.16857147e+02</_>
    <_>
      4.64782600e+01 1.06423080e+02 5.50000000e+00 6.36470604e+01
      8.74166718e+01 2.70416679e+01 117. 1.45789471e+01 5.54761925e+01
      7.16250000e+01 3.69655190e+01 9.86666718e+01 1.95000000e+01
      3.44642868e+01 1.23608696e+02 8.29047623e+01 113. 4.15714302e+01
      10. 9.46315765e+01 5.15000000e+01 7.51666641e+01 1.02592590e+02
      3.42857170e+00 9.14000015e+01 5.95454559e+01 1.20972221e+02
      1.10421051e+02 2.45294113e+01 3.16399994e+01 1.23684216e+01
      6.13684196e+01 70. 48. 68. 5.73684196e+01 1.68333340e+01
      2.15000000e+01 7.95454559e+01 7.66666698e+00 8.54444427e+01
      1.08565216e+02 93. 1.19000008e+02 3.94444466e+01 43.
      2.93500004e+01 5.35294113e+01 9.63846207e+01 7.73000031e+01
      1.14421051e+02 1.04466675e+02 8.93333359e+01 81. 33.
      6.54285736e+01 69. 1.00473686e+02 67. 1.12000008e+02
      4.43125000e+01 18. 23. 4.94375000e+01</_>
    <_>
      9.49375000e+01 2.50243893e+01 4.91521759e+01 1.16468750e+02
      6.73666687e+01 8.15714340e+01 1.34137926e+01 3.57037048e+01
      1.07559998e+02 5.55185204e+01 4.47826099e+00 9.99574432e+01
      7.49302292e+01 1.21416672e+02 8.55483856e+01 4.21142845e+01
      2.21538467e+01 6.34642868e+01 3.06250000e+01 112. 1.04911110e+02
      8.95999985e+01 1.75454559e+01 5.94848518e+01 6.95454559e+01
      4.45000000e+01 3.74838715e+01 7.75833359e+01 8.50000000e+00
      3.95357170e+01 2.70000019e+01 118. 3. 72. 8.75666733e+01
      1.02500008e+02 33. 5.37199974e+01 80. 6.15769272e+01
      1.94137936e+01 1.23719994e+02 6.55483856e+01 9.25526352e+01
      9.74615402e+01 1.03181820e+01 5.14210548e+01 1.14481483e+02
      1.20000010e+01 1.56500006e+01 1.09484848e+02 29. 1.19400002e+02
      32. 8.36800003e+01 113. 1.11000008e+02 4.64799995e+01
      5.73636398e+01 34. 28. 6.62962961e+00 79. 91.</_>
    <_>
      9.13846207e+01 3.94444466e+01 1.14833336e+02 1.24444447e+01
      5.68275871e+01 7.84545441e+01 2.68571434e+01 1.02857147e+02
      7.34444427e+01 5. 6.53571472e+01 4.68571434e+01 9.45599976e+01
      1.23586205e+02 1.84500008e+01 1.10230774e+02 3.16875000e+01
      4.99333344e+01 85. 1.19500000e+02 2.46000004e+01 1.03636370e+01
      9.85833359e+01 62. 6.94799957e+01 8.73793106e+01 1.07482758e+02
      1.17714287e+02 44. 8.16666718e+01 2.04210529e+01 4.14642868e+01
      5.25000000e+01 1.21500000e+02 3.51000023e+01 77. 1.05500000e+02
      1.53461542e+01 97. 4. 96. 7.56521749e+00 2.96250000e+01
      1.12600006e+02 5.45000038e+01 9. 6.73809509e+01 8.97333374e+01
      3.75000000e+01 7.15000000e+01 1.00428574e+02 5.95000000e+01 45.
      93. 6.33157883e+01 6.10000038e+01 14. 43. 6. 3. 2.25454559e+01 80.
      7.55000000e+01 17.</_>
    <_>
      1.08513519e+02 1.09655170e+01 6.14193535e+01 3.64761925e+01
      9.10833359e+01 77. 1.21551727e+02 4.96904755e+01 2.42250004e+01
      6.84500046e+01 1.16433342e+02 3. 9.69787216e+01 4.14054070e+01
      1.04571434e+02 5.85000000e+01 82. 1.84782619e+01 71.
      3.06315784e+01 8.59795914e+01 9.94848480e+01 1.10500000e+02
      1.23545456e+02 7.57692337e+00 5.30000038e+01 2.70303040e+01
      1.34583340e+01 6.55517273e+01 4.55625000e+01 9.45416718e+01
      5.53846169e+00 1.12500008e+02 7.44090958e+01 2.09166660e+01
      4.34137917e+01 3.37000008e+01 5.60499992e+01 1.19677414e+02 76.
      3.86250000e+01 1.06625000e+02 2.90000019e+01 17. 8.84411774e+01
      4.72999992e+01 7.94583359e+01 8.34642868e+01 6.35416679e+01
      1.02088234e+02 78. 81. 35. 40. 67. 60. 1.14428574e+02 4. 9. 32.
      93. 118. 73. 1.55416670e+01</_>
    <_>
      8.61315765e+01 4.15000000e+01 1.16454552e+02 1.26470585e+01
      6.51081085e+01 5.25454559e+01 1.08678574e+02 3.19687500e+01
      9.75384674e+01 7.25999985e+01 2.26250000e+01 3.40909100e+00
      1.22454552e+02 7.74166718e+01 1.03531250e+02 9.03913040e+01
      5.94666710e+01 2.66111107e+01 4.65000000e+01 37. 6.95000000e+01
      1.06666670e+01 1.82142868e+01 8.16190491e+01 113. 9.55555573e+01
      5.53750000e+01 9.96538467e+01 68. 1.06533340e+02 5.06315804e+01
      3.43529396e+01 8.35333405e+01 6.25000000e+01 8.54545498e+00
      1.24000008e+02 3.93750000e+01 1.19000008e+02 111. 2.42727280e+01
      6.06666708e+00 7.50476227e+01 9.35000000e+01 67. 5.75714302e+01
      8.86315765e+01 1.55384617e+01 2.06000004e+01 92. 4.84705887e+01
      115. 54. 110. 105. 1.01361115e+02 2.86250000e+01 30.
      4.42105255e+01 71. 114. 112. 7.94642868e+01 1.21000008e+02
      6.10000038e+01</_>
    <_>
      8.03888931e+01 2.41142864e+01 1.02559998e+02 1.12617645e+02
      6.34545479e+01 5.22000008e+01 9.47058868e+00 3.81190491e+01 124.
      9.08750000e+01 7.02692337e+01 5.55384636e+01 4.36129036e+01
      3.29756088e+01 5.64705896e+00 1.73500004e+01 6.55000000e+01
      1.08500000e+02 7.66363678e+01 4.76875000e+01 2.16538467e+01
      2.85185184e+01 9.55588226e+01 1.15500000e+02 1.00370369e+02
      1.19962967e+02 8.44545517e+01 1.35263157e+01 69. 2.66969700e+01
      110. 5.84333382e+01 8.71111145e+01 1.04399994e+02 6.09555588e+01
      9.76250000e+01 9.90000076e+01 7.34347839e+01 4.04399986e+01
      3.27999997e+00 7.60869598e+00 9.35000076e+01 5.40000038e+01
      3.53809547e+01 89. 42. 75. 118. 8.25806427e+01 15. 1.96000004e+01
      7.87857208e+01 4.53750000e+01 1.22653854e+02 6.76666718e+01
      1.06590912e+02 117. 1.15806446e+01 57. 16. 111. 4.95833359e+01
      3.05000000e+01 72.</_>
    <_>
      5.70666695e+01 1.12500000e+02 9.58823490e+00 8.30599976e+01
      2.14482765e+01 9.34230804e+01 4.04166679e+01 7.25185165e+01
      1.21349998e+02 3.11333332e+01 98. 6.55000000e+01 4.25000000e+01
      108. 7.79399948e+01 4.78888893e+01 3.29629636e+00 3.59687500e+01
      1.81276588e+01 8.75588226e+01 5.25757599e+01 1.00344826e+02
      7.42857170e+00 1.03519997e+02 2.58709679e+01 1.17500008e+02
      6.14062500e+01 9.13181839e+01 8.54642868e+01 6.83333359e+01
      1.13999996e+01 4.53999977e+01 64. 5.46086960e+01 3.85161285e+01
      7.56363678e+01 71. 1.35714293e+01 9.55333405e+01 2.85555553e+01
      1.23451607e+02 1.55416670e+01 1.10541672e+02 115. 5.04705887e+01
      20. 1.14000008e+02 8.06666718e+01 63. 5.39285755e+00
      2.33999996e+01 1.05521744e+02 89. 120. 70. 1.19000008e+02
      1.16000008e+02 3.35789490e+01 9.00000076e+01 7.40000076e+01 102.
      5.94761925e+01 44. 67.</_>
    <_>
      4.84500008e+01 109. 6.04166698e+00 8.05769272e+01 28.
      8.95909119e+01 6.62692337e+01 1.21600006e+02 1.20588236e+01
      9.65454559e+01 2.06521740e+01 7.30625000e+01 4.21666679e+01
      5.65555573e+01 1.04000008e+02 8.44687500e+01 1.17586205e+02
      3.35882339e+01 1.11666672e+02 6.34761925e+01 9.15483856e+01
      2.29130440e+01 1.45454550e+01 79. 5.42777786e+01 1.15516129e+02
      3.37500000e+00 9.95517273e+01 3.05000000e+01 7.55000000e+01
      3.71875000e+01 7.06363678e+01 1.01400002e+02 8.64230804e+01
      4.43636360e+01 9.37727280e+01 6.83636398e+01 3.95000000e+01
      1.64000015e+01 5.93076935e+01 1.23500008e+02 9.80000019e+00 8.
      1.06363640e+02 5.02000008e+01 6.15000000e+01 2.53125000e+01
      1.10000008e+02 88. 32. 1.19000008e+02 8.26399994e+01 108. 95.
      5.80000038e+01 5.22999992e+01 4.66363640e+01 1.87692318e+01
      1.13407410e+02 98. 1.20000008e+02 7.75769272e+01 1.05000008e+02
      1.03000008e+02</_>
    <_>
      1.19444443e+02 4.80200005e+01 8.78529434e+01 1.66470585e+01
      6.13478279e+01 1.03590912e+02 3.01000023e+01 7.55357208e+01
      3.37037039e+00 9.26071472e+01 3.96086960e+01 70. 8.13461533e+01
      108. 5.46399994e+01 113. 1.23780479e+02 9.84705887e+01
      2.35714283e+01 1.25384617e+01 68. 3.50270271e+01 4.35384636e+01
      8.34583359e+01 5.71333351e+01 9.64193497e+01 1.10000008e+02
      2.54117641e+01 1.97083340e+01 6.34761925e+01 8.23809528e+00
      5.05416679e+01 1.21482758e+02 1.15407410e+02 7.22812500e+01
      7.75238113e+01 1.05479996e+02 5.22962952e+01 5.95172424e+01
      9.05357208e+01 3.25000000e+01 7.93181839e+01 4.16363640e+01 86.
      1.01720001e+02 1.46923084e+01 3.76250000e+01 6.54000015e+01
      1.05000000e+01 71. 5.35999966e+00 67. 118. 4.55555573e+01 18. 85.
      69. 9.47391357e+01 2.73000011e+01 2.14761906e+01 74. 111.
      1.00000008e+02 1.17000008e+02</_>
    <_>
      3.35000014e+00 7.85333405e+01 1.12478264e+02 4.37857132e+01
      2.38000011e+01 6.14193535e+01 99. 1.23756760e+02 8.74666748e+01
      3.24583359e+01 1.85000000e+01 6.96875000e+01 9.24399948e+01
      5.46190491e+01 6.35757599e+01 1.33913050e+01 74. 1.16468750e+02
      1.06444443e+02 2.62307701e+01 3.65416679e+01 1.21027031e+02 83. 8.
      4.84090919e+01 1.02423080e+02 1.14599998e+02 2.95625000e+01
      4.05294113e+01 9.01162796e+01 5.84090919e+01 2.04347839e+01
      9.64347839e+01 6.55666733e+01 8.52307739e+01 5.32142878e+00
      1.10000008e+02 6.75185165e+01 1.16956520e+01 4.65909119e+01
      1.04551727e+02 72. 31. 7.65769272e+01 5.66818199e+01 10.
      8.05666733e+01 1.62000008e+01 22. 9.44615402e+01 5.24500008e+01
      5.05454559e+01 42. 111. 1.08450005e+02 75. 3.85000000e+01 101. 71.
      60. 1.18479996e+02 73. 3.43999977e+01 2.80000019e+01</_>
    <_>
      4.94705887e+01 9.84482727e+01 3.31818199e+00 6.96206894e+01
      1.11500000e+02 2.40333347e+01 3.45357170e+01 8.74666748e+01
      1.20999992e+02 1.04761906e+01 5.84799995e+01 1.02448273e+02
      4.34166679e+01 7.81162796e+01 1.27837839e+01 3.25714302e+01
      1.05468750e+02 8.45428543e+01 54. 7.55666733e+01 1.53181820e+01
      6.40999985e+01 9.39428558e+01 1.23717949e+02 7.25483856e+01
      6.15357170e+01 4.14375000e+01 1.16500000e+02 2.84705887e+01
      4.74399986e+01 1.83750000e+01 8.07000046e+01 1.07479996e+02 71.
      9.14782639e+01 9.64333420e+01 8.57894707e+00 1.13333336e+02
      5.61290312e+00 3.85882339e+01 1.09666672e+02 68. 17.
      2.15555553e+01 5.66086960e+01 6.65185165e+01 86. 4.55714302e+01
      37. 8.97083359e+01 1.18481483e+02 3.03999996e+01 60.
      8.26363678e+01 5.16315804e+01 101. 104. 2.64666672e+01
      2.00000019e+01 100. 40. 36. 1.15000008e+02 74.</_>
    <_>
      8.06470566e+01 3.65862083e+01 1.10533340e+02 6.50571442e+01
      1.28285713e+01 9.84687500e+01 1.23676468e+02 5.24615402e+01
      2.83076935e+01 3.52173924e+00 7.35333405e+01 2.02758617e+01 91.
      59. 4.60666695e+01 1.04535721e+02 6.95833359e+01 1.19740738e+02
      84. 8.19999981e+00 5.03684196e+01 3.15714302e+01 7.14864883e+01
      1.16458336e+02 4.14761925e+01 7.65806427e+01 16. 8.64399948e+01
      1.08366669e+02 2.49062500e+01 6.73928604e+01 1.01586205e+02
      8.84500046e+01 9.64615402e+01 9.34230804e+01 9.50000076e+01 34.
      5.76956520e+01 10. 1.82068958e+01 5.45161295e+00 3.94500008e+01
      2.25000000e+01 30. 118. 6.19487190e+01 4.33999977e+01
      5.45517235e+01 100. 1.21384621e+02 107. 1.14720001e+02
      7.87307739e+01 75. 4.85555573e+01 5.60000038e+01 35. 33.
      1.03000008e+02 1.06000008e+02 1.12478264e+02 82. 11. 60.</_>
    <_>
      1.15555553e+01 8.23750000e+01 1.01592590e+02 5.16666679e+01
      1.22399994e+02 32. 6.75625000e+01 1.12942856e+02 2.54285717e+01
      9.45714340e+01 4.25555573e+01 7.86333389e+01 7.26315784e+00
      1.08333336e+02 6.05333366e+01 1.96153851e+01 8.84399948e+01
      1.17864868e+02 6.50975571e+01 1.04159996e+02 74. 3.94736862e+01
      4.95000000e+01 9.64782639e+01 3.30434799e+00 5.85416679e+01
      5.57999992e+01 9.25769272e+01 1.10575760e+02 1.64400005e+01
      8.45357208e+01 1.37692308e+01 7.14117661e+01 2.75714283e+01
      4.70263176e+01 3.50357170e+01 91. 6.26250000e+01 1.20500008e+02
      2.15500011e+01 2.92727280e+01 7.60000076e+01 4.45416679e+01
      5.37500000e+01 9.94399948e+01 1.15606064e+02 9.50000000e+00 80.
      6.96562500e+01 5. 6. 1.06434784e+02 75. 9.00000076e+01
      8.64761887e+01 2.36666660e+01 73. 41. 81. 124. 98. 18.
      3.74444466e+01 77.</_>
    <_>
      4.24545479e+01 1.11000008e+02 74. 5.77500010e+00 9.54666748e+01
      2.52000008e+01 1.23666672e+02 8.24000015e+01 5.95000038e+01
      1.50400000e+01 6.55357208e+01 3.49687500e+01 5.16399994e+01
      1.06559998e+02 8.84782639e+01 1.79047623e+01 1.20387093e+02
      1.21052637e+01 1.15482758e+02 9.23076916e+00 9.95806427e+01
      6.85517273e+01 6.14062500e+01 8.06923141e+01 4.44799995e+01
      3.96250000e+01 9.13600006e+01 3.03000011e+01 5.52500000e+01
      1.04516129e+02 2.08421059e+01 8.58780441e+01 78. 4.97000008e+01
      6.35862083e+01 76. 9.34642868e+01 3.26363640e+01 70.
      1.17875000e+02 3.25806451e+00 1.02416672e+02 90. 72.
      2.76818199e+01 1.13391304e+02 1.08285713e+02 5.35789490e+01
      9.76399994e+01 4.64642868e+01 3.73529396e+01 2.36000004e+01 84.
      112. 48. 4.10000038e+01 5.74500008e+01 71. 110. 73. 122.
      1.01000008e+02 75. 67.</_>
    <_>
      4.21212120e+01 1.10162163e+02 6.97333374e+01 1.04285717e+01
      9.00789490e+01 6.45454559e+01 8.13714294e+01 123. 26.
      5.45666695e+01 1.00363640e+02 7.44230804e+01 3.16000023e+01 4.
      2.12000008e+01 1.14441177e+02 4.79354820e+01 1.66571426e+01 35.
      6.05128212e+01 1.04769234e+02 1.19631577e+02 9.55357208e+01
      3.74782600e+01 8.54193497e+01 4.43684196e+01 9.28222275e+01
      5.06363640e+01 1.45263157e+01 8.47058868e+00 7.74230804e+01
      1.17055557e+02 6.65333405e+01 1.07559998e+02 7.25185165e+01
      5.63750000e+01 8.34782639e+01 2.35333347e+01 1.02346161e+02
      8.74230804e+01 76. 1.25000000e+01 2.90000019e+01 3.96538467e+01
      1.12392860e+02 1.21000008e+02 9.75454559e+01 5.24642868e+01
      1.84444447e+01 5.85172424e+01 6.38888884e+00 33. 124. 62.
      3.00000024e+00 68. 99. 71. 7.93199997e+01 5. 20. 46. 63. 122.</_>
    <_>
      16. 8.54482727e+01 5.74166679e+01 4.00344810e+01 1.14519997e+02
      1.04466675e+02 6.75925903e+01 4.65517235e+00 3.23235283e+01
      4.94799995e+01 9.24799957e+01 1.21611115e+02 7.74444427e+01
      2.51111107e+01 1.05454550e+01 1.00153847e+02 7.25000000e+01
      6.35151520e+01 3.45599976e+01 109. 88. 1.85000000e+01
      4.50769234e+01 5.35909119e+01 5.53666687e+01 4.25454559e+01
      4.74615402e+01 8.13823547e+01 1.18333336e+02 1.23758621e+02 61.
      2.91250000e+01 9.77391357e+01 6.28571463e+00 7.40000076e+01
      1.16458336e+02 2.04545460e+01 96. 91. 1.12428574e+02
      8.55000019e+00 1.11000008e+02 7.92592621e+01 1.06428574e+02
      1.31999998e+01 59. 8.35000000e+01 108. 7.00952377e+01 120. 12.
      6.55555573e+01 60. 7.54399948e+01 9.46250000e+01 3.77222214e+01
      1.02434784e+02 3.00000024e+00 2.26363640e+01 90. 5.16562500e+01
      6.20000038e+01 110. 36.</_>
    <_>
      70. 1.32500000e+01 1.16344826e+02 4.33600006e+01 9.15172424e+01
      3.35652199e+01 1.03703705e+02 5.47333374e+01 8.13870926e+01
      4.66666698e+00 6.45172424e+01 1.12428574e+02 1.22399994e+02
      2.43999996e+01 1.08368423e+02 96. 1.88717957e+01 7.25161285e+01
      3.89615402e+01 4.79189186e+01 60. 87. 2.94736843e+01
      1.18333336e+02 99. 8.51724148e+00 7.74814835e+01 8.45000000e+01
      5.65000038e+01 1.61481476e+01 5.05416679e+01 6.84193497e+01
      6.23846169e+01 1.20483864e+02 9.35652161e+01 1.01652176e+02 115.
      5.24242439e+01 6.64583359e+01 3.58064499e+01 6.42857170e+00
      1.06379311e+02 89. 7.92758636e+01 2.70625000e+01 9.00000076e+01
      1.06666670e+01 4.55769234e+01 71. 1.10466675e+02 6.10000038e+01
      2.11666679e+01 7.53461533e+01 4.14117661e+01 124. 12.
      1.14000008e+02 74. 3. 83. 3.16538467e+01 105. 59. 5.80000038e+01</_>
    <_>
      6.96060638e+01 1.78857136e+01 1.09703705e+02 47. 9.16333389e+01
      3.25384636e+01 1.23729736e+02 7.92857170e+00 8.13125000e+01
      6.05000000e+01 1.01647057e+02 1.14545456e+02 5.07391319e+01
      2.71923084e+01 8.74482727e+01 9.63181839e+01 4.10606079e+01
      1.24399996e+01 3.40740752e+00 116. 5.63500023e+01 7.39791718e+01
      7.13548355e+01 2.43000011e+01 1.19620689e+02 6.36538467e+01
      7.86551743e+01 1.05439995e+02 3.65333366e+01 9.96086960e+01
      3.86315804e+01 5.34827576e+01 45. 83. 66. 2.08064518e+01
      5.25000000e+00 84. 1.07550003e+02 3.46086960e+01 1.21540543e+02
      86. 9.80000076e+01 6.20000038e+01 1.49444447e+01 3.02272739e+01
      1.12320000e+02 8.96538467e+01 7.65416718e+01 5.84333382e+01 80.
      6.75517273e+01 1.03559998e+02 52. 49. 55. 9.45714340e+01 111.
      4.35555573e+01 1.07333336e+01 85. 1.17562500e+02 65. 93.</_>
    <_>
      3.33043480e+01 9.04799957e+01 1.20379311e+02 57. 1.26153851e+01
      1.05466675e+02 7.39767456e+01 4.45416679e+01 2.38181820e+01
      8.26086960e+01 6.84814835e+01 3.38461542e+00 1.13500008e+02
      9.94500046e+01 5.00731697e+01 40. 8.76206894e+01 1.83461552e+01
      6.35599976e+01 96. 79. 117. 1.07571434e+02 7.46666718e+00 29.
      1.02500000e+01 6.04736862e+01 7.13939438e+01 1.23666672e+02
      2.08000011e+01 66. 56. 1.01576927e+02 9.35238113e+01
      7.64705887e+01 5.22758636e+01 4.71500015e+01 3.74761925e+01
      1.15515152e+02 1.11464294e+02 6.20000038e+01 81. 4.25000000e+01
      5.45588226e+01 5.84583359e+01 1.55555553e+01 1.09700005e+02
      8.55517273e+01 3.14375000e+01 89. 5.17391300e+00 2.63571434e+01
      17. 92. 84. 65. 119. 1.22000008e+02 67. 70. 118. 1.03619049e+02
      98. 3.53199997e+01</_>
    <_>
      5.23636398e+01 1.15428574e+02 1.33500004e+01 82. 3.25666695e+01
      1.00407410e+02 6.76285706e+01 8.84230804e+01 5.94827576e+01
      1.21518517e+02 2.02105255e+01 4.43157883e+01 5.21739149e+00
      1.09571426e+02 7.50697708e+01 48. 1.05000000e+01 2.77391300e+01
      4.05599976e+01 9.45000000e+01 7.75652161e+01 1.11437500e+02
      6.95312500e+01 1.04558823e+02 5.49302330e+01 8.44482727e+01
      7.24827576e+01 90. 6.34814835e+01 1.19666672e+02 2.33333340e+01
      3.65454559e+01 80. 9.64347839e+01 1.23656250e+02 1.60399990e+01
      5.75185204e+01 1.02333336e+02 18. 6.54827576e+01 3.10526323e+00
      99. 3.05000000e+01 9.15000000e+01 1.17481483e+02 4.25217400e+01
      46. 3.87222214e+01 61. 8.21739101e+00 93. 83. 12. 8.64230804e+01
      1.06974358e+02 5.04761925e+01 6.20000038e+01 98. 1.13500000e+02
      81. 71. 3.45555573e+01 19. 79.</_>
    <_>
      7.01555557e+01 2.03333340e+01 1.14576927e+02 4.80833321e+01
      9.45000000e+01 3.54137917e+01 5.21875000e+00 5.95000038e+01
      8.36551743e+01 1.05411766e+02 1.23666672e+02 76. 4.10625000e+01
      1.11279999e+02 8.84736862e+01 5.45945969e+01 1.44375000e+01
      2.76000023e+01 6.75172424e+01 1.00216217e+02 1.18421049e+01
      7.94000015e+01 6.14666710e+01 1.19639999e+02 3.80285721e+01 52.
      4.56190491e+01 9.04347839e+01 64. 3.14347839e+01 8.20833397e+00
      8.55833359e+01 3.32142868e+01 7.36333389e+01 1.65294113e+01
      1.02354836e+02 9.75789490e+01 82. 122. 2.55000000e+01
      1.13000008e+02 50. 1.17478264e+02 96. 3.10526323e+00
      1.07538467e+02 4.35882339e+01 81. 1.04000008e+02 1.84516125e+01
      7.73913040e+01 75. 1.09727280e+02 5.71428566e+01 9.24814835e+01
      116. 10. 2.30666676e+01 2.97142868e+01 87. 63. 72. 6.53666687e+01
      1.21000008e+02</_>
    <_>
      1.04448273e+02 3.95000038e+01 5.69761925e+01 1.21739130e+01
      8.24838715e+01 1.16666664e+02 2.55714283e+01 6.76363678e+01
      9.51333389e+01 4.65161285e+01 3.52777791e+00 1.51724138e+01
      7.48974380e+01 3.05517235e+01 9.19729767e+01 48. 1.23611115e+02
      1.11902435e+02 1.01666672e+02 1.84545460e+01 5.35517235e+01
      8.64137955e+01 7.05833359e+01 5.94799995e+01 3.43999977e+01
      7.98333359e+01 7.55000019e+00 1.21513519e+02 6.34545479e+01
      5.05862083e+01 4.16666679e+01 8.95555573e+01 2.35000000e+01
      1.08428574e+02 9.80731659e+01 1.14484856e+02 7.74500046e+01
      1.19407410e+02 3.76000023e+01 2.83809528e+01 1.10000008e+02 52.
      73. 9.37500000e+00 88. 103. 45. 69. 8.45217438e+01 72. 118.
      6.14090919e+01 3.22631569e+01 2.09666672e+01 5.33333349e+00 49.
      1.06444443e+02 36. 100. 4.37037048e+01 17. 6.53125000e+01 27. 55.</_>
    <_>
      95. 3.19210529e+01 5.95200005e+01 1.61428566e+01 1.05518517e+02
      48. 1.18527779e+02 7.49411774e+01 8.64137955e+01 5.76923084e+00
      6.80238113e+01 4.11250000e+01 7.99000015e+01 2.04375000e+01
      1.12454552e+02 5.36176491e+01 2.74137936e+01 9.95199966e+01 23.
      1.24000008e+02 9.15000076e+01 6.34399986e+01 1.10952387e+01
      3.44761925e+01 5.10277786e+01 90. 46. 3.62307701e+01
      1.03600006e+02 1.14437500e+02 7.17931061e+01 6.54062500e+01
      8.24411774e+01 1.09516129e+02 4.35625000e+01 8.43600006e+01
      8.34782600e+00 1.16551727e+02 1.35294123e+01 5.74230804e+01 89.
      122. 1.01538467e+02 6.13571472e+01 2.97142868e+01 3. 70.
      3.83666687e+01 7.74545441e+01 120. 45. 9.63214340e+01 55.
      5.60000038e+01 1.07461540e+02 1.85599995e+01 123. 9.35833359e+01
      8.80000076e+01 4. 2.55000000e+01 98. 111. 121.</_>
    <_>
      7.36315765e+01 9.90000057e+00 1.13599998e+02 3.05000000e+01
      5.14583359e+01 8.21219482e+01 9.95172424e+01 3.64230766e+01
      5.55000038e+01 2.25714283e+01 1.23535721e+02 6.64000015e+01
      8.70952377e+01 3.95121932e+00 1.06468750e+02 49. 4.25599976e+01
      9.04615402e+01 1.75200005e+01 1.18484856e+02 9.54827576e+01
      3.85454559e+01 6.25625000e+01 2.65199986e+01 7.90888901e+01
      1.02517242e+02 1.08615387e+02 6.85185165e+01 5.95384636e+01
      4.74399986e+01 1.21142860e+02 7.24137926e+00 1.29655170e+01 116.
      8.45000000e+01 33. 7.66153870e+01 4.53636360e+01 4.06666679e+01
      1.10000008e+02 3.42608719e+01 7.10312500e+01 89. 2.43888893e+01
      5.36060638e+01 9.74000015e+01 6.45172424e+01 2.82692318e+01
      2.04736843e+01 44. 115. 5.74193535e+01 1.54545460e+01
      1.04551727e+02 19. 101. 75. 9.37826080e+01 1.11482758e+02 92. 50.
      32. 6.10000038e+01 117.</_>
    <_>
      5.31250000e+01 1.19375000e+02 1.50256414e+01 8.26000061e+01
      1.00559998e+02 3.40263176e+01 7.05999985e+01 8.99024353e+01
      4.35384636e+01 5.98837204e+01 5.85714293e+00 2.40588245e+01
      1.23517242e+02 6.46250000e+01 1.08999992e+02 7.44838715e+01
      9.74285736e+01 1.15423080e+02 8.64642868e+01 47. 1.89729729e+01
      3.94545479e+01 107. 3.16521740e+01 1.03461540e+02 5.05000000e+01
      8.37500000e+00 5.55151520e+01 9.23636398e+01 2.75806446e+01
      7.75384674e+01 9.50888901e+01 1.11500000e+02 1.05294123e+01
      6.24838676e+01 88. 6.85384674e+01 84. 79. 1.21656250e+02
      3.50000024e+00 1.26000004e+01 1.17518517e+02 58. 85.
      4.14444466e+01 45. 3.73571434e+01 49. 7.25454559e+01
      2.97600002e+01 6.65000000e+01 2.16470585e+01 26. 102. 106. 57.
      8.04838715e+01 1.13518517e+02 17. 99. 7.60000076e+01 36. 105.</_>
    <_>
      6.10250015e+01 1.22333336e+02 1.64074078e+01 1.05500000e+02
      8.44074097e+01 39. 4.77142859e+00 2.75588245e+01 9.25000000e+01
      7.06800003e+01 4.45000000e+01 5.09090919e+01 1.13439995e+02
      7.55151520e+01 3.14799995e+01 9.86333389e+01 5.65000038e+01
      2.10540543e+01 6.54687500e+01 1.09615387e+02 3.60606079e+01
      8.85588226e+01 7.47619057e+00 7.99473724e+01 4.83793106e+01
      1.22500000e+01 7.24615402e+01 1.18424248e+02 3.35000000e+01
      1.02375000e+02 6.34137917e+01 9.65000000e+01 4.25000000e+01
      4.65185204e+01 2.35416679e+01 3. 7.76071472e+01 101.
      5.85483856e+01 69. 5.36551704e+01 1.20451607e+02 100.
      1.84230785e+01 9.44722214e+01 8.64642868e+01 90. 1.08000008e+02
      2.95555553e+01 7.40000076e+01 1.11586205e+02 8.24615402e+01 104.
      1.15000008e+02 41. 9.94117641e+00 6.75925903e+01 9.10000076e+01
      1.07000008e+02 2.53333340e+01 124. 1.45882349e+01 1.16409096e+02
      55.</_>
    <_>
      91. 2.60666676e+01 6.04642868e+01 1.21645157e+02 3.94230766e+01
      5.83333349e+00 1.02538467e+02 6.66250000e+01 8.16250000e+01
      5.05384636e+01 1.11481483e+02 1.65384617e+01 7.55416718e+01
      9.74230804e+01 3.28750000e+01 4.36216240e+01 1.06360001e+02
      5.85000000e+01 1.16482758e+02 1.22777777e+01 5.31707306e+01
      2.09210529e+01 86. 3.04782619e+01 9.55000000e+01 7.95937500e+01
      1.09413795e+02 7.11363678e+01 1.85333347e+01 93. 64.
      3.48148155e+00 88. 78. 3.56666679e+01 4.64285736e+01
      1.19500008e+02 1.04399994e+02 5.53750000e+01 108. 8.34615402e+01
      8.26086998e+00 1.23545456e+02 1.42777777e+01 4.15384636e+01
      6.85454559e+01 2.36071434e+01 2.84736843e+01 115. 94.
      1.05000000e+01 1.00423080e+02 99. 77. 45. 1.13681824e+02 118.
      3.74166679e+01 7.37500000e+01 57. 4.85200005e+01 65.
      6.25862083e+01 89.</_>
    <_>
      5.37000046e+01 1.02409096e+02 8.47368431e+00 3.16250000e+01
      7.94482727e+01 8.64827576e+01 1.20307693e+02 6.14074097e+01
      4.16190491e+01 1.93636360e+01 9.54117661e+01 7.23750000e+01
      1.11903221e+02 4.44838715e+01 5.94062500e+01 2.45714283e+01
      6.76363678e+01 1.32727280e+01 3.56285706e+01 3.61764717e+00
      9.95882339e+01 9.15384674e+01 1.23500008e+02 106. 3.76818199e+01
      64. 8.88113251e+01 4.94516106e+01 8.16071472e+01 1.17580643e+02
      2.19615402e+01 7.65357208e+01 1.73157902e+01 1.08437500e+02
      5.54687500e+01 1.14454552e+02 122. 1.09600000e+01 6.93928604e+01
      5.65000010e+00 29. 6.55000000e+01 5.73793106e+01 9.76363678e+01
      1.56071434e+01 47. 4.30000038e+01 110. 119. 104. 52.
      8.35652161e+01 2.65294113e+01 71. 7.44333344e+01 101. 85.
      1.16000008e+02 3.93928604e+01 3.35000000e+01 63. 5.10000038e+01
      78. 9.36363678e+01</_>
    <_>
      1.11545456e+02 5.24687500e+01 2.71290321e+01 7.65769272e+01
      3.95000005e+00 9.42307739e+01 64. 1.52272730e+01 44.
      1.18535721e+02 101. 8.44545517e+01 3.41666679e+01 5.65000000e+01
      122. 3.89487190e+01 2.42812500e+01 70. 1.08444443e+02
      8.88000031e+01 4.90000038e+01 1.89666672e+01 1.19259262e+01
      7.90476227e+01 9.64242477e+01 1.04483871e+02 3.15937500e+01
      8.82758617e+00 6.03703690e+01 6.65238113e+01 7.35937500e+01
      4.64642868e+01 1.15930229e+02 2.95999985e+01 8.64399948e+01 55.
      7.13846207e+01 9.14666748e+01 1.13629631e+02 17. 4.22000008e+01
      65. 1.02320000e+02 8.15999985e+01 98. 83. 3.62962952e+01
      6.84687500e+01 6.47058821e+00 1.23444443e+02 110. 99.
      7.50000076e+01 48. 120. 6.25000000e+01 5.04666710e+01
      5.40000038e+01 5.85312500e+01 2.14117641e+01 1.06312500e+02 121.
      45. 100.</_>
    <_>
      1.10500000e+02 5.75937500e+01 2.49714279e+01 8.75000000e+01
      8.03448296e+00 44. 7.60238113e+01 1.20605263e+02 101.
      7.08536530e+01 3.55483856e+01 1.66538467e+01 3.15599995e+01
      6.34375000e+01 51. 1.15571434e+02 1.06391304e+02 4.71794891e+00
      9.35185165e+01 1.91071434e+01 4.05714302e+01 9.16428604e+01
      6.81086960e+01 7.85925903e+01 8.24799957e+01 9.85000076e+01
      2.75333347e+01 5.45128212e+01 4.64137917e+01 1.04461540e+02
      1.18485718e+02 1.24000008e+02 6.08571434e+01 12. 2.24666672e+01
      8.95000000e+01 7.35483856e+01 3. 1.12260872e+02 59. 8.04117661e+01
      1.45333338e+01 100. 95. 5.24375000e+01 4.25000000e+01
      3.75454559e+01 1.02281250e+02 4.93333359e+01 8.50294113e+01
      3.35625000e+01 39. 21. 6.53793106e+01 123. 2.97272739e+01 45.
      1.08466675e+02 122. 114. 56. 48. 9.63636398e+01 117.</_>
    <_>
      7.45161285e+01 37. 1.14483864e+02 1.72758617e+01 5.41428566e+01
      9.37500000e+01 8.56296310e+01 3.48484850e+00 66. 4.48400002e+01
      2.64090919e+01 1.05088890e+02 1.19500000e+02 6.14545479e+01
      9.84242477e+01 8. 7.95517273e+01 4.94062500e+01 1.07955559e+02 87.
      2.96499996e+01 7.04666672e+01 5.90476189e+01 2.20322571e+01
      1.17394737e+02 4.16666679e+01 1.00400002e+02 1.22804871e+02
      7.64857178e+01 8.93000031e+01 1.26363640e+01 3.55312500e+01
      7.25000000e+01 1.12464294e+02 5.15945969e+01 3.35555573e+01
      5.65000038e+01 1.10519997e+02 38. 4.30000038e+01 8.15500031e+01
      4.75000000e+01 9.15199966e+01 6.74444427e+01 2.43181820e+01 16.
      9.64444427e+01 1.94782619e+01 1.05000000e+01 3.15217400e+01 78.
      3.93888893e+01 95. 28. 69. 5.12500000e+00 6.47096786e+01 88. 63.
      121. 1.16000008e+02 1.02368423e+02 8.34074097e+01 1.45454550e+01</_>
    <_>
      1.05473686e+02 30. 6.75555573e+01 1.75555553e+01 8.88620682e+01
      1.19515152e+02 4.26000023e+01 6.57142878e+00 5.05384636e+01
      7.91904755e+01 60. 37. 9.89032211e+01 1.11150002e+02
      1.33437500e+01 2.43714294e+01 122. 7.40303040e+01 8.26190491e+01
      1.15703705e+02 2.01702118e+01 9.60303040e+01 4.75555573e+01 55. 9.
      3. 6.51481476e+01 4.04285736e+01 2.75384617e+01 3.54375000e+01
      1.01500000e+02 3.36129036e+01 9.34583359e+01 8.63750000e+01 124.
      6.94666672e+01 1.08529411e+02 7.65555573e+01 1.15000000e+01 81.
      8.46666641e+01 49. 4. 5.75882339e+01 1.13586205e+02 3.85000000e+01
      9.15000000e+01 44. 5.26666679e+01 1.03562500e+02 4.50000038e+01
      6.24500008e+01 2.25238094e+01 16. 107. 10. 1.17739136e+02 32. 26.
      8. 7.14705887e+01 5. 15. 4.60000038e+01</_>
    <_>
      7.43846207e+01 3.24666672e+01 1.16454552e+02 1.74444447e+01
      5.43478279e+01 9.20833359e+01 4.47058821e+00 99. 4.09729729e+01
      6.65714340e+01 8.35454559e+01 1.11411766e+02 2.54444447e+01
      1.04812500e+02 1.23578949e+02 4.54642868e+01 1.06086960e+01
      6.39375000e+01 8.03750000e+01 2.95000019e+01 37. 5.63333359e+01
      1.94230785e+01 89. 5.06818199e+01 5.87037048e+01 1.19380951e+02
      6.95238113e+01 9.49090958e+01 1.27368422e+01 1.13966675e+02
      4.35000000e+01 1.55000010e+01 7.68750000e+00 8.63888931e+01
      7.66470566e+01 3.90000038e+01 2.20416679e+01 103. 3.10000019e+01
      1.07933342e+02 48. 1.21625000e+02 2.73999996e+01 82.
      3.43999977e+01 6. 3. 7.83750000e+01 7.26428604e+01 24.
      1.01473686e+02 9. 4.70000038e+01 14. 6.13636398e+01 1.18000008e+02
      38. 9.75999985e+01 36. 5.26315804e+01 49. 100. 85.</_>
    <_>
      7.15937500e+01 1.99677410e+01 8.74848480e+01 1.17500008e+02
      5.05909119e+01 9.75555573e+01 3.39285731e+00 3.44482765e+01
      1.03444443e+02 6.75652161e+01 2.75277786e+01 5.76315804e+01
      1.15384617e+01 3.84705887e+01 1.11170731e+02 7.90270309e+01
      4.16206894e+01 1.22333336e+02 9.14827576e+01 7.57142878e+00 65.
      1.07750000e+02 1.54827585e+01 4.65000000e+01 9.33846207e+01
      8.34482727e+01 1.14111115e+02 5.26486511e+01 5.94545479e+01
      2.25882359e+01 2.94285736e+01 3.14230785e+01 33. 2.51621628e+01
      6.13333359e+01 9.90000076e+01 8.55172424e+01 1.76363640e+01 101.
      7.57857208e+01 7.35769272e+01 8.15263138e+01 1.20647057e+02
      4.36086960e+01 9.54516068e+01 6.95769272e+01 1.05612900e+02
      9.50000000e+00 102. 40. 124. 37. 5.53809547e+01 100.
      4.87500000e+01 13. 66. 45. 5.41666698e+00 14. 6.36153870e+01 89.
      36. 90.</_>
    <_>
      4.24705887e+01 9.83870926e+01 8.34333344e+01 7.68421078e+00 64.
      1.21037041e+02 2.45833340e+01 7.29444427e+01 1.10607147e+02
      3.16250000e+01 5.21142845e+01 1.30571432e+01 94. 1.05656250e+02
      5.80357170e+01 8.88863678e+01 3.80408173e+01 1.14545456e+02
      4.74411774e+01 2.90000019e+01 2.04166679e+01 6.83076935e+01
      3.43478274e+00 7.90232544e+01 3.55625000e+01 1.02548386e+02
      2.65199986e+01 1.01470585e+01 8.56153870e+01 66. 23.
      1.23647057e+02 1.16500008e+02 4.93478279e+01 7.03928604e+01 44.
      5.54761925e+01 9.61999969e+01 7.58518524e+01 1.55833340e+01 62.
      8.14583359e+01 1.12439995e+02 1.04000008e+02 34. 1.90000019e+01
      1.08470589e+02 4.04687500e+01 1.18466675e+02 9.14642868e+01 60.
      54. 3.00000019e+01 4.52812500e+01 1.00517242e+02 8.70000076e+01
      67. 33. 22. 28. 61. 1.76190472e+01 5.60000038e+00 107.</_>
    <_>
      1.10615387e+02 2.25000019e+01 6.95652161e+01 8.99268265e+01
      4.73636360e+01 6. 60. 3.66363640e+01 7.45000000e+01 76.
      1.02487183e+02 1.41627903e+01 1.21105263e+02 3.22894745e+01
      8.31621628e+01 9.63478241e+01 1.15782608e+02 5.44761925e+01
      2.65238094e+01 1.84782619e+01 4.34166679e+01 1.06361115e+02
      6.55909119e+01 39. 11. 9.85312500e+01 4.55200005e+01
      8.05333405e+01 2.95000019e+01 4.14782600e+01 3.44545479e+01 87.
      9.45999985e+01 3.35999990e+00 7.15000000e+01 1.23647057e+02
      5.70540543e+01 1.18714294e+02 1.12794876e+02 5.16666679e+01 64.
      9.25000076e+01 40. 8.55483856e+01 2.43599987e+01 7.77000046e+01
      1.63999996e+01 6.74347839e+01 8.47619057e+00 2.03500004e+01 88.
      1.08444443e+02 59. 104. 1.00599998e+02 1.05000008e+02 79. 28.
      6.15599976e+01 73. 38. 6.30000038e+01 53. 4.93333321e+01</_>
    <_>
      1.35833340e+01 8.59487228e+01 4.90454559e+01 1.12777779e+02
      3.08780479e+01 6.34615402e+01 9.85151520e+01 7.39756088e+01
      4.92307711e+00 1.07444443e+02 4.45555573e+01 1.20666672e+02
      3.55142860e+01 9.24827576e+01 6.95714340e+01 5.62916679e+01
      2.43913040e+01 7.90222244e+01 10. 1.05000008e+02 6.09000015e+01
      4.05599976e+01 8.14166718e+01 1.97241383e+01 2.63043480e+01
      5.25666695e+01 8.84666748e+01 1.17941177e+02 9.45806427e+01
      1.09476196e+02 3.33055573e+01 72. 7.64230804e+01 1.02472221e+02
      1.54642868e+01 3.76153870e+01 1.23450005e+02 7.42307711e+00
      9.05000000e+01 5.90000038e+01 6.56086960e+01 58. 1.04000008e+02
      1.15291672e+02 1.14375000e+01 4.66000023e+01 106. 83.
      4.24642868e+01 2.85294113e+01 3.00000024e+00 2.15882359e+01
      9.65238113e+01 71. 39. 1.76086960e+01 84. 1.00583336e+02
      5.45769234e+01 2.30000019e+01 6.74444427e+01 1.11000008e+02
      5.10000038e+01 9.</_>
    <_>
      8.95483856e+01 1.76363640e+01 4.14545479e+01 1.11576927e+02
      5.82162170e+01 4.47368431e+00 7.55757599e+01 2.66250000e+01
      1.01083336e+02 1.23461540e+02 5.24814835e+01 1.04399996e+01
      7.15333405e+01 34. 85. 4.74375000e+01 6.25862083e+01
      9.54615402e+01 1.07307693e+02 8.21111145e+01 7.77692337e+01
      6.74827576e+01 4.49230766e+01 2.25428581e+01 3.71190491e+01
      1.15400002e+02 9.25357208e+01 5.50322571e+01 1.20352943e+02
      1.56129026e+01 9.80999985e+01 2.93636379e+01 6.50000000e+00
      1.09823532e+02 2.01935482e+01 1.03464287e+02 8.44999981e+00
      2.47241383e+01 1.36315794e+01 6.94444427e+01 3. 1.22000008e+02
      3.95000038e+01 8.64074097e+01 1.05000008e+02 65. 49.
      6.05769272e+01 7.94827576e+01 106. 7.34242477e+01 5.03999977e+01
      43. 66. 1.18125000e+02 28. 9.10000076e+01 1.13368423e+02 64.
      3.14347839e+01 9.40000076e+01 12. 8.80000076e+01 84.</_>
    <_>
      1.43043480e+01 8.90465088e+01 6.04799995e+01 1.07521744e+02
      4.05333366e+01 1.17919998e+02 7.28799973e+01 2.55294113e+01
      6.31578970e+00 9.65000076e+01 6.85185165e+01 1.03424248e+02
      8.03846207e+01 3.25925941e+01 3.65172424e+01 5.15238113e+01
      4.65714302e+01 1.13647057e+02 1.00541672e+02 18. 8.44814835e+01
      1.23846161e+02 2.80465107e+01 54. 2.05588245e+01 9.20750046e+01
      6.54799957e+01 7.55999985e+01 4.25483856e+01 7.04642868e+01
      2.26896553e+01 6.25714302e+01 3.00000024e+00 1.20882355e+02
      1.05238094e+01 5.75925941e+01 31. 1.11464294e+02 9.84799957e+01
      8.64333344e+01 1.09500000e+02 1.22916670e+01 9.40000076e+01
      1.05705879e+02 16. 1.15550003e+02 3.45000000e+01 4.46666670e+00
      7.76086960e+01 8.33333302e+00 95. 4.90285721e+01 82.
      4.44137917e+01 2.40000019e+01 3.00000019e+01 59. 3.84285698e+01
      64. 56. 1.02000008e+02 83. 67. 79.</_>
    <_>
      1.23625000e+02 7.03571472e+01 4.24193535e+01 4.31818199e+00
      9.94333420e+01 2.22941170e+01 5.29767456e+01 8.55172424e+01
      6.08461533e+01 1.11535721e+02 3.25806427e+01 7.76538467e+01
      1.24761906e+01 1.44137926e+01 2.76000023e+01 9.49487228e+01
      3.64444466e+01 1.05542854e+02 8.75833359e+01 66. 1.13971428e+02
      4.72608719e+01 1.68750000e+01 9.04482727e+01 104. 1.19083336e+02
      5.81538467e+01 7.55714340e+01 8.35999966e+00 39. 8.15384674e+01
      7.33333359e+01 92. 1.96111107e+01 6.34848518e+01 8.33870926e+01
      5.54482765e+01 6.83076935e+01 4.49000015e+01 35. 5.05454559e+01
      2.55909100e+01 1.21625000e+02 1.03000008e+02 3. 72. 1.16500000e+02
      4.03870964e+01 3.05000000e+01 24. 6.53333378e+00 1.09812500e+02
      9.75000000e+01 38. 49. 1.01677414e+02 8.90000076e+01 29.
      1.03181820e+01 93. 79. 1.07375000e+02 80. 34.</_>
    <_>
      5.85000038e+01 1.10375000e+02 3.25161285e+01 78. 1.04642859e+01
      9.15599976e+01 47. 2.33846169e+01 6.60625000e+01 9.96428604e+01
      1.06065216e+02 1.14823532e+02 3.62666702e+01 8.34838715e+01
      4.30000019e+00 1.52093019e+01 2.76206894e+01 7.24705887e+01
      4.20526314e+01 1.23315788e+02 31. 5.15185204e+01 1.19588234e+02
      1.95384617e+01 1.01483871e+02 9.63499985e+01 6.84399948e+01
      8.15000000e+01 6.35833321e+01 2.55000000e+01 4.93636360e+01
      8.76071472e+01 3.94482765e+01 7.64347839e+01 9.34799957e+01
      1.03468750e+02 6.25000000e+00 8.52173901e+00 5.45357170e+01 62.
      75. 4.45714302e+01 1.74666672e+01 38. 5.30000038e+01
      6.05172424e+01 2.15714283e+01 7.93870926e+01 1.12421051e+02
      5.65000038e+01 1.26428576e+01 85. 8.94516068e+01 1.08333336e+02
      7.04782639e+01 1.17600006e+02 74. 3.00000019e+01 29. 95. 3. 98.
      86. 3.45555573e+01</_>
    <_>
      5.14827576e+01 9.84642868e+01 1.13809528e+01 2.75750008e+01
      7.29545441e+01 1.21000008e+02 8.61052628e+01 1.09307693e+02
      3.85405426e+01 6.05000038e+01 1.96551723e+01 3.31034470e+00
      3.39736862e+01 1.05930229e+02 9.17000046e+01 6.65000000e+01
      8.00000076e+01 4.25483856e+01 7.57142878e+00 5.63461571e+01
      2.45000000e+01 4.70465126e+01 7.55199966e+01 1.11482758e+02
      1.01615387e+02 6.26190491e+01 7.04687500e+01 8.35000076e+01
      1.16533340e+02 9.45714340e+01 5.40000038e+01 1.55652180e+01
      3.15599995e+01 1.74117641e+01 7.85277786e+01 1.23631577e+02
      8.96333389e+01 6.85652161e+01 4.44799995e+01 22. 5.84000015e+01
      2.95312500e+01 4.92666702e+01 3.64166679e+01 2.60000019e+01 114.
      5.27999973e+00 1.18411766e+02 9.42857170e+00 8.80000076e+01 53.
      1.36190481e+01 23. 77. 65. 64. 55. 1.03500008e+02 9.63333359e+01
      93. 8.14444427e+01 100. 2.10000019e+01 4.05666695e+01</_>
    <_>
      9.95000000e+01 2.15555553e+01 60. 3.64545479e+01 7.03846207e+01
      1.13962967e+02 1.21481485e+01 8.35000000e+01 4.65625000e+01
      1.04545456e+02 1.23285713e+02 3.15000019e+01 9.15925903e+01
      1.58461542e+01 7.51111145e+01 5.24545479e+01 3.25000000e+00
      4.25161285e+01 6.49756088e+01 2.65769234e+01 4.05151520e+01 77.
      1.10050003e+02 1.19761909e+02 8.13600006e+01 3.40232544e+01
      9.45652161e+01 8.90000076e+01 1.84615383e+01 9.03030300e+00
      5.65217400e+01 6.75185165e+01 1.01615387e+02 7.84285736e+01
      6.25416679e+01 8.76428604e+01 29. 50. 1.17250000e+02
      1.07357147e+02 93. 5.89473677e+00 69. 20. 58. 4.86451607e+01
      7.25517273e+01 1.40000010e+01 2.45555553e+01 8.55999985e+01
      3.85588226e+01 112. 4.43448257e+01 80. 5.45161285e+01
      9.65217438e+01 1.03000008e+02 5.10000038e+01 28. 23. 90.
      3.00000019e+01 9.80000076e+01 106.</_>
    <_>
      84. 2.55199986e+01 5.71081085e+01 1.13550003e+02 5.33333349e+00
      4.03437500e+01 1.49499998e+01 1.00500008e+02 5.05357170e+01
      6.54642868e+01 9.10857162e+01 7.43913040e+01 1.23250000e+02
      3.28409119e+01 1.99189186e+01 7.89347839e+01 4.44285736e+01
      6.04838676e+01 106. 9.57560959e+01 8.84827576e+01 2.90000019e+01
      7.00476227e+01 1.19900002e+02 5.45151520e+01 9.96969700e+00
      4.67037048e+01 1.15411766e+02 9.85416718e+01 7.24615402e+01
      8.62903214e+01 3.54705887e+01 2.29777775e+01 64. 1.04000008e+02
      1.22727280e+01 1.08470589e+02 4.23548393e+01 8.15909119e+01 49.
      3.75312500e+01 9.34687500e+01 3.05000019e+01 110. 1.17428574e+02
      3.23809528e+00 1.75625000e+01 7.64285736e+01 105. 7.60000038e+00
      5.90000038e+01 103. 27. 6.75000000e+01 8.30000076e+01 102. 107.
      6.25769272e+01 39. 4.80000038e+01 1.11346161e+02 85. 28.
      5.25161285e+01</_>
    <_>
      6.57142868e+01 2.24848499e+01 1.08083336e+02 7.95599976e+01
      5.25599976e+01 9.51851845e+00 9.44000015e+01 3.79375000e+01
      1.21588234e+02 3.23846169e+01 8.70666733e+01 3.40000010e+00
      6.14117661e+01 7.35500031e+01 4.42399979e+01 9.91562500e+01
      7.56296310e+01 1.15157898e+02 5.74000015e+01 2.54583340e+01
      1.53636370e+01 4.85217400e+01 9.12608719e+01 8.40294113e+01
      6.83809509e+01 1.05099998e+02 1.30000010e+01 5.53199997e+01
      1.83599987e+01 3.06000004e+01 7.36842108e+00 6.33928604e+01
      1.23807693e+02 4.09375000e+01 1.10500000e+02 8.14166718e+01
      7.05384674e+01 1.19833336e+02 7.74090958e+01 24. 9.66666718e+01
      36. 8.93888931e+01 2.86190491e+01 1.01700005e+02 5. 1.17500000e+02
      4.64444466e+01 1.15714293e+01 6. 51. 3.46521759e+01 21. 14.
      2.70000019e+01 20. 72. 5.00000038e+01 59. 1.12444443e+02 54. 60.
      93. 17.</_>
    <_>
      7.35999966e+00 9.04285736e+01 6.08965530e+01 3.13478260e+01
      1.08904762e+02 3.85882339e+01 6.95000000e+01 4.65200005e+01
      2.16250000e+01 1.23759995e+02 7.90555573e+01 1.04428574e+02
      5.29166679e+01 1.54285717e+01 9.25000000e+01 9.52702713e+01
      1.14799995e+02 2.44642868e+01 73. 8.33636398e+01 4.45833349e+00
      1.16206894e+01 1.20952385e+02 64. 71. 4.23478279e+01
      9.80312500e+01 5.55000000e+01 8.55151520e+01 2.74666672e+01
      5.79411774e+01 1.94799995e+01 51. 3.57142868e+01 1.33599997e+01
      7.43666687e+01 18. 4.45517235e+01 1.17869568e+02 2.94090919e+01
      34. 1.11863640e+02 9.51851845e+00 4.85625000e+01 72.
      7.64545441e+01 68. 8.16500015e+01 1.00166672e+02 8.85000000e+01
      33. 3. 50. 6. 66. 23. 4.02105255e+01 17. 1.06545456e+02 67. 87.
      37. 1.02307693e+02 26.</_>
    <_>
      3.89411774e+01 9.14642868e+01 1.49756088e+01 6.35135155e+01
      1.14562500e+02 79. 2.76250000e+01 4.42307711e+00 1.06791672e+02
      5.04444466e+01 1.23375000e+02 9.43461609e+01 2.34193535e+01
      7.30277786e+01 4.53181839e+01 8.50952377e+01 9.91111145e+01
      3.25185204e+01 6.55454559e+01 9.14705849e+00 5.24782600e+01
      1.16959999e+02 2.16060619e+01 8.25517273e+01 5.74193535e+01
      7.05416718e+01 11. 1.02533340e+02 3.57500000e+01 8.85833359e+01
      4.13461571e+01 5.96363640e+01 1.74687500e+01 4.84500008e+01
      7.54090958e+01 6.84500046e+01 87. 6.66666651e+00 110. 90.
      1.20187500e+02 25. 77. 1.04538467e+02 67. 78. 1.94482765e+01
      9.63461609e+01 5.44500008e+01 2.95238094e+01 4.34814835e+01
      1.30000010e+01 12. 34. 6.15714302e+01 4.70000038e+01
      3.10000019e+01 37. 101. 8.03499985e+01 2.60000019e+01
      3.00000024e+00 1.12500000e+02 5.60000038e+01</_>
    <_>
      3.68837204e+01 9.18620682e+01 6.53571463e+00 6.47857208e+01
      1.14333336e+02 4.84615402e+01 2.04761906e+01 79. 2.79459457e+01
      1.02826088e+02 5.65483856e+01 1.45185184e+01 7.25925903e+01
      1.24000008e+02 8.46399994e+01 3.95000000e+01 5.98378410e+01
      4.39428558e+01 1.65806446e+01 9.47000046e+01 3.03846169e+01
      1.08947372e+02 5.25357170e+01 7.04444427e+01 1.00538467e+02
      8.97500000e+01 4.40000010e+00 1.18692314e+02 25. 3.44166679e+01
      7.54799957e+01 1.11961540e+02 8.26206894e+01 88. 13.
      6.78000031e+01 1.05714293e+01 9.75294113e+01 6.25000000e+01
      1.22588234e+02 4.65217400e+01 5.80000038e+01 1.05913048e+02 86.
      22. 3. 4.14761925e+01 5.04782600e+01 24. 8.52941227e+00
      1.20000010e+01 9.90000076e+01 23. 8.04782639e+01 3.26451607e+01
      5.43913040e+01 87. 7.74782639e+01 96. 7.40000076e+01
      1.16538467e+02 2.60000019e+01 1.20333336e+02 1.85599995e+01</_>
    <_>
      8.60000076e+01 3.74399986e+01 4.38888884e+00 1.23172417e+02
      5.90571442e+01 3.11250000e+01 9.49512177e+01 1.85217400e+01
      4.45862083e+01 7.25333405e+01 1.05470589e+02 1.34444447e+01
      6.54545441e+01 7.97297287e+01 1.10714294e+02 5.23571434e+01
      2.41063824e+01 1.02571434e+02 1.05909090e+01 1.16470589e+02
      9.04324341e+01 26. 4.25000000e+01 6.95833359e+01 1.00461540e+02
      76. 4.84230804e+01 1.14266670e+02 3.32857170e+01 6.17500000e+01
      6.57575798e+00 85. 5.43333321e+01 1.63870964e+01 1.19500000e+02
      9.74761887e+01 2.17419357e+01 5.64814835e+01 2.86857147e+01
      8.57142830e+00 7.74285736e+01 1.08200005e+02 6.74333344e+01 71.
      104. 9.24705887e+01 6.33333321e+01 8.24285736e+01 87.
      5.00000038e+01 7.45599976e+01 20. 1.20000010e+01 3.55000000e+01
      84. 3. 3.99687500e+01 51. 8.84399948e+01 1.12142860e+02 99.
      2.70000019e+01 4.65454559e+01 15.</_>
    <_>
      7.15384674e+01 30. 1.04941177e+02 1.17058821e+01 4.45555573e+01
      8.65000000e+01 1.23421051e+02 5.44782600e+01 3. 9.41764679e+01 64.
      7.76399994e+01 4.24615402e+01 2.40925922e+01 1.76296291e+01
      3.56086960e+01 1.12722221e+02 5.85200005e+01 9.98666687e+01
      6.91428566e+00 5.03793106e+01 7.44615402e+01 1.18133339e+02
      3.34137917e+01 8.96315765e+01 26. 8.39473724e+01 6.74333344e+01
      1.07466675e+02 2.15945950e+01 3.95652199e+01 6.04736862e+01
      4.65769234e+01 1.21000008e+02 8.04347839e+01 1.56296301e+01
      9.74705887e+01 9.54545498e+00 1.10250000e+02 76. 1.02300003e+02
      4.38461542e+00 41. 6.94444427e+01 1.15384621e+02 2.74642868e+01
      96. 1.34166670e+01 73. 3.73333359e+01 4.82758636e+01 63. 82. 88.
      5.60000038e+01 3.12727280e+01 5.24285736e+01 62. 9.12608719e+01
      6.54736862e+01 29. 5.70000038e+01 79. 1.96250000e+01</_>
    <_>
      1.11133339e+02 2.06250000e+01 7.74583359e+01 4.55384636e+01
      6.22564125e+01 1.20454550e+01 3.56363640e+01 8.74000015e+01
      1.21000008e+02 9.50769272e+01 2.85909100e+01 6.16666651e+00
      6.90243912e+01 5.44799995e+01 8.25357208e+01 1.00500000e+02 18.
      1.16086960e+02 5.05000000e+01 3.33214302e+01 4.04583359e+01 74.
      1.06133339e+02 6.67037048e+01 26. 8.95945969e+01 5.95000038e+01
      1.43043480e+01 8.45599976e+01 7.16206894e+01 9.57894707e+00
      3.50000024e+00 64. 5.69999962e+01 1.03157898e+02 1.23650002e+02
      8.03913040e+01 4.75555573e+01 8. 4.35625000e+01 76. 2.34545460e+01
      9.74545517e+01 3.13750000e+01 3.84761925e+01 86. 4.90000038e+01
      1.08437500e+02 25. 22. 1.18294121e+02 1.65625000e+01
      1.13800003e+02 9.24285736e+01 37. 4.20000038e+01 30.
      2.70000019e+01 65. 5.24500008e+01 9.90000076e+01 79. 19.
      9.10000076e+01</_>
    <_>
      8.64571457e+01 1.95517235e+01 4.35454559e+01 1.19500000e+02
      7.85333405e+01 6.29772758e+01 9.89599991e+01 5.52631569e+00
      3.30454559e+01 1.17241383e+01 1.12375000e+02 7.34615402e+01
      5.44642868e+01 9.13600006e+01 1.05300003e+02 3.73793106e+01
      2.55357151e+01 6.77857132e+01 5.01212120e+01 3.06818199e+01
      1.23555557e+02 1.72812500e+01 5.68780479e+01 1.14652176e+02
      8.34074097e+01 7.50000048e+00 5.99736862e+01 9.35714340e+01
      4.17037048e+01 4.75000038e+01 2.33928585e+01 7.03333359e+01
      3.56097555e+00 7.56206894e+01 103. 8.84814835e+01 13.
      1.07416672e+02 9.64736862e+01 6.54583359e+01 3.56363640e+01 82.
      1.50000010e+01 1.21562500e+02 9.72727299e+00 3.95625000e+01
      8.50000076e+01 77. 81. 2.74782619e+01 90. 104. 95. 1.01833336e+02
      1.40000010e+01 1.10266670e+02 2.15555553e+01 4.54210548e+01 72.
      1.17454552e+02 5.25499992e+01 80. 16. 2.90000019e+01</_>
    <_>
      63. 2.24545460e+01 1.03214287e+02 4.61176491e+01 8.55517273e+01
      3.00000024e+00 1.23379311e+02 7.45000000e+01 3.37674408e+01
      1.15333338e+01 1.17562500e+02 9.54074097e+01 4.35217400e+01
      7.94074097e+01 4.84285736e+01 5.55555573e+01 1.65000000e+01
      1.10636368e+02 8.85312500e+01 3.88918915e+01 6.95000000e+01
      2.89487190e+01 8.02631569e+00 8.35185165e+01 6.65000000e+01
      9.13684235e+01 5.00000038e+01 9.83157883e+01 7.65000000e+01
      1.08095238e+02 5.71428585e+00 2.45357151e+01 5.35909119e+01
      5.94444466e+01 1.45652180e+01 1.19631577e+02 1.13500000e+02 20.
      3.64411774e+01 68. 7.20789490e+01 3.13846169e+01 13. 87. 81.
      6.42916718e+01 6.15925941e+01 9.36000061e+01 52. 4. 2.65217400e+01
      1.05777779e+02 1.15500000e+02 5.72962952e+01 1.00466675e+02
      4.16666679e+01 78. 90. 10. 97. 8.20000076e+01 1.86190472e+01 51.
      21.</_>
    <_>
      5.97714272e+01 7.33333349e+00 9.59714279e+01 3.14285717e+01
      1.20958336e+02 7.65333405e+01 2.54375000e+01 8.64666748e+01
      4.65769234e+01 1.45714293e+01 1.08500000e+02 5.25200005e+01
      4.16521759e+01 6.66399994e+01 1.02153847e+02 1.84799995e+01
      1.15727280e+02 9.05151520e+01 7.04444427e+01 3.68529396e+01
      8.15833359e+01 3.62162161e+00 2.25000019e+01 2.74799995e+01
      3.38095245e+01 8.40000076e+01 5.69069748e+01 6.24545479e+01
      1.15937500e+01 74. 4.45652199e+01 1.23615387e+02 1.05909096e+02
      9.89473724e+01 1.13263161e+02 3.93913040e+01 4.96500015e+01 16.
      79. 24. 9.39333420e+01 51. 65. 1.18444443e+02 2.04444447e+01
      6.84137955e+01 8.85357208e+01 9.33333302e+00 80. 5.53846169e+00
      8.30000076e+01 104. 5.45599976e+01 72. 17. 1.10545456e+02
      4.80000038e+01 13. 85. 2.94399986e+01 92. 43. 7.80000076e+01 64.</_>
    <_>
      78. 1.25161285e+01 1.11137932e+02 4.25000038e+01 5.99696999e+01
      2.95000000e+01 8.24399948e+01 9.14545517e+01 9.96250000e+01
      1.23277779e+02 8.47826099e+00 2.15454559e+01 6.95862045e+01
      5.13750000e+01 118. 6.66000061e+01 3.60526314e+01 9.53750000e+01
      7.35151520e+01 1.73703709e+01 4.52631569e+00 5.44814835e+01
      2.45483856e+01 8.74375000e+01 1.08545456e+02 4.75000038e+01
      6.25666695e+01 3.93478279e+01 28. 3.29411774e+01 1.96071434e+01
      1.04071434e+02 6.66666698e+00 84. 4.49090919e+01 1.05999994e+01
      7.55862045e+01 1.15166664e+02 4.94545479e+01 7.14814835e+01
      8.54642868e+01 38. 68. 1.44166670e+01 77. 5.75200005e+01
      1.20666664e+02 8.04814835e+01 79. 1.06444443e+02 8.96666718e+01
      9.35000076e+01 6.44000015e+01 9.76250000e+01 2.70000019e+01 16.
      1.01666664e+02 31. 41. 5.30000038e+01 3. 56. 23. 2.60000019e+01</_>
    <_>
      4.71891899e+01 9.08235321e+01 1.96071434e+01 1.17799995e+02
      6.65937500e+01 7.84615402e+01 7.27586222e+00 3.70731697e+01
      1.01866669e+02 23. 5.95384636e+01 1.56250000e+01 8.56551743e+01
      3.10294113e+01 7.15833359e+01 1.07529411e+02 5.40000010e+00
      5.15185204e+01 1.23257141e+02 2.63793106e+01 9.64230804e+01
      1.14040001e+02 8.14761887e+01 63. 5.56399994e+01 1.15862064e+01
      4.21388893e+01 3.55263162e+00 3.94230766e+01 8.75714340e+01
      5.36538467e+01 7.55625000e+01 3.45652199e+01 4.45555573e+01
      1.05200005e+02 2.84545460e+01 9.94000015e+01 6.95172424e+01
      4.95200005e+01 21. 1.73750000e+01 95. 1.33928576e+01 84.
      6.16666679e+01 22. 89. 7.34827576e+01 116. 6.45217438e+01 25.
      1.11615387e+02 9.61904812e+00 9.80000076e+01 33. 77. 83.
      9.37692337e+01 1.20416672e+02 5.73199997e+01 80. 1.09714294e+02
      24. 68.</_>
    <_>
      1.13333336e+02 5.39487190e+01 1.74137936e+01 8.49130478e+01
      4.34285736e+01 7.04799957e+01 6.95121908e+00 9.44444427e+01
      6.32903214e+01 3.64827576e+01 2.70277786e+01 1.24000008e+02
      1.00066673e+02 7.73846207e+01 9.00232544e+01 4.90000038e+01
      1.33939400e+01 5.94399986e+01 2.16666679e+01 1.04181824e+02
      3.33636360e+01 3.93999977e+01 1.09125000e+02 7.34545441e+01
      9.69259262e+01 7.94000015e+01 118. 3.78378391e+00 5.65161285e+01
      6.54615402e+01 2.94736843e+01 1.96111107e+01 1.16206894e+01
      6.16428604e+01 8.21470566e+01 2.44615402e+01 1.22428574e+02 46.
      15. 5.00000038e+01 6.74838715e+01 8.74137955e+01 9.50000000e+00
      5.20000038e+01 38. 4.70000038e+01 1.11461540e+02 1.06500000e+02
      9.23000031e+01 16. 72. 2.30000019e+01 1.15533340e+02
      7.55769272e+01 4.14090919e+01 1.02444443e+02 58. 35. 69. 48.
      1.20615387e+02 3.12222233e+01 45. 51.</_>
    <_>
      6.05454559e+01 10. 9.95000000e+01 34. 8.08055573e+01
      1.11500008e+02 2.34666672e+01 48. 1.23290321e+02 7.25357208e+01
      8.95789490e+01 4.05652199e+01 1.75333347e+01 1.17588234e+02
      3.48387098e+00 5.74333382e+01 2.65357151e+01 5.05238113e+01
      4.30909119e+01 8.56428604e+01 6.74857178e+01 1.34000006e+01
      1.05125000e+02 3.06562500e+01 7.80243835e+01 9.42592621e+01
      5.44482765e+01 6.34000015e+01 1.19952385e+02 5.47368431e+00
      5.90000038e+01 3.65454559e+01 1.09333336e+02 3.26666679e+01 21.
      7.50930252e+01 8.34137955e+01 1.02166672e+02 8.75454559e+01 12.
      2.85652180e+01 4.55454559e+01 6.54347839e+01 7.37931013e+00 16.
      6.97894745e+01 1.13571434e+02 25. 62. 1.15416672e+02
      9.65000000e+01 35. 1.95925922e+01 11. 9. 5.60000038e+01
