<?xml version="1.0"?>
<opencv_storage>
<opencv_ml_svm>
  <format>3</format>
  <svmType>C_SVC</svmType>
  <kernel>
    <type>LINEAR</type></kernel>
  <C>1.</C>
  <term_criteria><iterations>100</iterations></term_criteria>
  <var_count>64</var_count>
  <class_count>2</class_count>
  <class_labels type_id="opencv-matrix">
    <rows>2</rows>
    <cols>1</cols>
    <dt>i</dt>
    <data>
      -1 1</data></class_labels>
  <sv_total>1</sv_total>
  <support_vectors>
    <_>
      -3.38252680e-03 2.59264198e-04 1.65175923e-04 2.20622169e-04
      -4.12843283e-03 -6.20587904e-04 -3.26981506e-04 7.43867364e-04
      -1.83481700e-03 -1.27832370e-03 1.40191836e-03 2.57788645e-03
      -1.94030534e-03 1.31820363e-03 -1.57198100e-03 1.59743894e-03
      5.76484436e-03 5.67972194e-03 1.59629702e-03 -2.68913194e-04
      6.15891477e-04 7.18142430e-04 -3.49978625e-04 1.41259993e-03
      -1.07791997e-03 -8.76160804e-04 -7.57401343e-04 4.76964546e-04
      1.83274713e-03 -1.81995484e-03 -1.57911112e-04 -2.48505594e-03
      3.48091288e-03 -5.24376461e-04 -6.06901105e-03 -1.19069657e-04
      -6.12629054e-04 -3.80317448e-03 4.15173918e-03 -9.81481979e-04
      1.52748718e-03 -1.15008338e-03 5.46484720e-04 5.63441310e-04
      -2.88527412e-03 -6.87779335e-04 3.19214887e-04 -1.23282464e-03
      8.38856504e-04 -6.93141832e-04 5.37169049e-04 1.01405533e-03
      -9.29844042e-04 2.92078522e-03 -6.26891712e-03 3.05088796e-03
      -7.29975640e-04 -2.86866794e-03 -5.62591420e-04 4.92449733e-04
      1.01502566e-03 8.41172412e-04 2.47116946e-03 -7.73541047e-04</_></support_vectors>
  <uncompressed_sv_total>170</uncompressed_sv_total>
  <uncompressed_support_vectors>
    <_>
      21. 12. 40. 48. 20. 15. 6. 3. 26. 28. 45. 46. 28. 37. 34. 53. 18.
      20. 58. 11. 48. 19. 27. 13. 56. 37. 37. 33. 17. 31. 60. 47. 44.
      22. 21. 35. 42. 17. 50. 44. 14. 25. 28. 18. 31. 15. 10. 7. 29. 44.
      57. 13. 48. 21. 59. 42. 19. 32. 60. 52. 21. 37. 28. 20.</_>
    <_>
      50. 25. 37. 54. 14. 34. 9. 21. 40. 59. 25. 17. 49. 18. 16. 43. 34.
      59. 57. 60. 56. 38. 3. 8. 44. 47. 26. 33. 3. 43. 26. 8. 17. 49.
      34. 37. 17. 25. 28. 60. 53. 30. 5. 55. 13. 36. 2.75000000e+01 12.
      42. 60. 58. 41. 25. 6. 15. 3. 2.65000000e+01 44. 31. 42. 18. 32.
      6. 57.</_>
    <_>
      12. 19. 3.25000000e+01 4.15000000e+01 1.45000000e+01 35. 57. 18.
      5.55000000e+01 4.95000000e+01 23. 1.65000000e+01 50. 13. 24. 55.
      3. 28. 58. 35. 18. 11. 53. 15. 9. 60. 4. 5. 14. 25. 3. 60.
      4.65000000e+01 3.85000000e+01 55. 38. 54. 29. 20. 14. 49. 54. 59.
      9. 4. 4.25000000e+01 37. 51. 51. 56. 58. 6. 4. 5.55000000e+01 7.
      59. 59. 4. 9.50000000e+00 15. 6. 9. 12. 22.</_>
    <_>
      6. 46. 24. 12. 21. 43. 31. 36. 45. 35. 9. 25. 4. 2.05000000e+01
      57. 34. 33. 4. 33. 39. 1.75000000e+01 3.45000000e+01 50. 53. 10.
      27. 9. 7. 55. 14. 50. 27. 58. 24. 9. 38. 9. 15. 53. 36. 11. 3. 59.
      52. 31. 3. 11. 37. 53. 10. 3. 52. 3. 13. 3.50000000e+00 56. 22.
      13. 49. 35. 57. 37. 35. 4.</_>
    <_>
      5. 3. 60. 59. 37. 43. 8. 50. 25. 60. 45. 48. 43. 41.
      4.15000000e+01 1.85000000e+01 38. 8. 10. 27. 45. 44. 55. 42. 34.
      4. 17. 37. 15. 13. 20. 60. 13. 10. 51. 44. 31. 11. 5. 48. 13. 36.
      50. 38. 12. 56. 18. 24. 27. 60. 49. 29. 25. 7.50000000e+00 47. 7.
      15. 15. 52. 39. 52. 5.55000000e+01 7. 35.</_>
    <_>
      36. 43. 28. 48. 3. 58. 42. 11. 25. 29. 3. 53. 46. 60. 30. 41. 15.
      46. 55. 24. 39. 4. 53. 60. 9. 42. 60. 10. 22. 44. 60. 36. 28. 17.
      4. 38. 8. 14. 13. 50. 35. 20. 48. 60. 47. 8. 59. 53. 58. 13. 4.
      41. 23. 38. 58. 15. 21. 39. 35. 8. 26. 7. 21. 5.55000000e+01</_>
    <_>
      29. 29. 50. 58. 17. 43. 11. 11. 6. 8. 25. 48. 23. 41. 40. 50. 14.
      4. 60. 58. 51. 44. 46. 12. 55. 37. 25. 44. 33. 57. 18. 20. 56. 8.
      44. 42. 31. 44. 31. 54. 25. 17. 55. 3. 49. 38. 31. 3.85000000e+01
      3.45000000e+01 52. 3. 29. 52. 48. 45. 14. 2.25000000e+01
      7.50000000e+00 49. 41. 6. 60. 52. 4.50000000e+00</_>
    <_>
      38. 48. 32. 54. 36. 7. 35. 29. 14. 54. 18. 14. 3. 58. 40. 41. 23.
      50. 8. 37. 56. 60. 33. 38. 38. 17. 7. 8. 14. 38. 60. 29. 45. 8.
      12. 48. 32. 44. 12. 44. 45. 20. 9. 4.50000000e+00 12. 3. 53. 6.
      30. 57. 46. 43. 13. 58. 58. 60. 31. 39. 22. 44. 14. 41. 52. 11.</_>
    <_>
      10. 32. 42. 44. 23. 58. 18. 37. 4. 29. 24. 54. 48. 17. 28. 14. 33.
      50. 55. 20. 42. 54. 22. 3. 9.50000000e+00 51. 35. 46. 56. 43. 12.
      7. 22. 48. 45. 29. 42. 3.85000000e+01 14. 8. 29. 42. 57. 6. 48.
      48. 1.85000000e+01 7. 7. 60. 50. 41. 46. 7. 24. 3.95000000e+01 5.
      11. 18. 3. 22. 44. 40. 57.</_>
    <_>
      5. 25. 53. 47. 51. 44. 29. 60. 37. 59. 48. 5. 53. 49. 38. 10. 45.
      7. 17. 27. 45. 34. 10. 17. 34. 41. 14. 49. 13. 26. 12. 46. 51. 34.
      5. 38. 5. 46. 45. 38. 14. 58. 51. 2.85000000e+01 9. 25. 53. 51.
      18. 14. 22. 51. 8. 40. 40. 32. 6. 48. 6. 5.85000000e+01 55. 32.
      49. 19.</_>
    <_>
      56. 50. 48. 51. 33. 51. 60. 48. 17. 59. 49. 28. 31. 34. 28. 5. 55.
      27. 43. 53. 40. 40. 52. 38. 33. 49. 44. 32. 23. 31. 29. 19. 32.
      29. 33. 47. 35. 41. 50. 60. 3. 19. 51. 34. 18. 10. 30. 28. 31. 44.
      25. 38. 9. 60. 1.55000000e+01 37. 49. 31. 25. 7. 25. 34. 34. 43.</_>
    <_>
      24. 31. 27. 23. 45. 31. 33. 21. 35. 24. 10. 53. 4. 33. 35. 28. 41.
      24. 40. 18. 60. 50. 60. 33. 43. 37. 49. 55. 50. 30. 41. 34. 14.
      58. 3. 4. 53. 43. 59. 41. 3. 16. 1.93333340e+01 5.33333359e+01 54.
      22. 44. 33. 43. 40. 12. 41. 7. 55. 42. 19. 36. 56. 59.
      1.95000000e+01 7. 17. 39. 9.</_>
    <_>
      4. 18. 23. 18. 4. 21. 9. 22. 44. 50. 60. 16. 3. 33. 59. 33. 4. 41.
      33. 57. 10. 43. 56. 55. 25. 9. 15. 26. 3. 50. 28. 28. 53. 53. 13.
      30. 30. 21. 49. 58. 36. 23. 60. 4. 22. 34. 22. 24. 43. 57. 39. 31.
      20. 41. 1.75000000e+01 55. 21. 19. 20. 38. 42. 51. 51. 41.</_>
    <_>
      43. 18. 48. 28. 35. 26. 24. 18. 45. 9. 40. 41. 50. 21. 15. 60. 33.
      30. 18. 17. 42. 24. 22. 28. 25. 41. 30. 43. 15. 56. 42. 34. 22.
      24. 34. 55. 41. 19. 53. 57. 24. 21. 56. 23. 29. 22. 23. 50. 4. 9.
      13. 51. 24. 34. 40. 38. 41. 55. 59. 31. 10. 12. 9.50000000e+00 31.</_>
    <_>
      51. 8.50000000e+00 1.85000000e+01 44. 7.50000000e+00 5. 29.
      4.15000000e+01 45. 18. 33. 59. 43. 11. 28. 57. 26. 3.
      6.50000000e+00 40. 45. 14. 39. 50. 24. 6. 53. 29. 24. 60. 6. 37.
      14. 4.50000000e+00 51. 14. 8. 20. 12. 53. 40. 47. 51. 24.
      3.55000000e+01 17. 18. 6.50000000e+00 54. 5.36666679e+01 22. 31.
      52. 45. 13. 2.75000000e+01 55. 12. 5.50000000e+00 27. 5. 18. 30.
      47.</_>
    <_>
      32. 41. 33. 47. 34. 40. 30. 59. 46. 45. 6. 53. 43. 43. 9. 55. 12.
      24. 41. 31. 11. 45. 57. 38. 10. 28. 12. 8.50000000e+00 12. 14. 37.
      3. 49. 29. 5.65000000e+01 19. 12. 53. 29. 21. 49. 4.50000000e+00
      56. 41. 10. 31. 37. 5.85000000e+01 8. 12. 5.75000000e+01 27.
      5.55000000e+01 5. 43. 4. 51. 53. 2.23333340e+01 51. 2.13333340e+01
      14. 51. 26.</_>
    <_>
      3. 6. 24. 21. 15. 4.50000000e+00 53. 33. 54. 12. 43. 30. 43. 27.
      50. 20. 60. 23. 4.55000000e+01 54. 44. 23. 41. 24. 59.
      9.50000000e+00 23. 59. 8. 6.50000000e+00 1.93333340e+01
      4.33333359e+01 45. 21. 60. 40. 41. 1.03333340e+01 14. 60.
      2.95000000e+01 4.85000000e+01 8. 27. 35. 18. 49. 45. 18. 57. 30.
      12. 59. 31. 58. 5.95000000e+01 8.50000000e+00 44. 5. 3. 35. 14.
      4.15000000e+01 49.</_>
    <_>
      3. 40. 49. 60. 30. 56. 33. 12. 3. 23. 40. 59. 4. 31. 22. 24. 34.
      50. 13. 20. 59. 23. 39. 21. 1.75000000e+01 54. 22. 8.50000000e+00
      21. 45. 15. 16. 33. 47. 10. 33. 47. 3. 5.45000000e+01 44. 28. 18.
      43. 4.05000000e+01 22. 53. 45. 57. 14. 45. 20. 29. 57.
      4.33333349e+00 22. 14. 51. 31. 5. 5.95000000e+01 5.66666698e+00
      1.03333340e+01 43. 47.</_>
    <_>
      34. 40. 20. 18. 41. 49. 30. 60. 30. 46. 22. 4.55000000e+01 37. 60.
      11. 6.50000000e+00 5.45000000e+01 34. 43. 37. 33. 56. 33. 37.
      1.75000000e+01 44. 35. 51. 22. 14. 43. 54. 3. 13. 59. 13. 7. 49.
      20. 21. 20. 57. 7. 22. 45. 47. 21. 35. 28. 8. 51. 21. 14. 35. 15.
      60. 3. 57. 3. 30. 39. 11. 43. 3.05000000e+01</_>
    <_>
      5.75000000e+01 2.35000000e+01 52. 52. 60. 18. 38. 60. 9. 30. 32.
      57. 20. 37. 46. 49. 9. 33. 48. 5.50000000e+00 39. 35. 19. 40.
      4.55000000e+01 22. 60. 60. 25. 8. 10. 54. 32. 35. 4. 38. 59.
      5.55000000e+01 40. 10. 1.96666679e+01 5.86666679e+01 18. 51. 37.
      43. 10. 37. 32. 4.53333359e+01 52. 57. 1.06666670e+01
      4.83333359e+01 55. 53. 33. 19. 31. 14. 50. 30. 14. 11.</_>
    <_>
      53. 6. 50. 60. 32. 32. 46. 5. 4. 49. 34. 11. 53. 37. 5. 47. 44.
      21. 9. 54. 8. 42. 46. 58. 26. 23. 5. 31. 26. 54. 3.45000000e+01
      20. 3.50000000e+00 12. 53. 44. 40. 27. 8. 40. 20. 35. 18. 18. 54.
      55. 30. 20. 3. 20. 4. 38. 55. 60. 7. 36. 30. 35. 50. 58. 7. 34.
      31. 56.</_>
    <_>
      30. 3. 20. 3. 26. 27. 7. 9. 28. 39. 23. 14. 4. 30. 52. 38. 10. 55.
      29. 37. 26. 58. 14. 13. 23. 55. 50. 29. 4. 46. 4. 14. 45. 10. 35.
      28. 24. 5. 9. 24. 9. 53. 6. 42. 49. 10. 60. 22. 14. 17. 40. 38.
      16. 5. 12. 56. 4. 48. 47. 10. 38. 35. 7. 25.</_>
    <_>
      5. 31. 2.15000000e+01 4.05000000e+01 4.25000000e+01 60. 18. 41. 8.
      53. 55. 9.33333397e+00 8. 51. 7. 60. 2.75000000e+01 3.25000000e+01
      10. 50. 37. 5.55000000e+01 14. 42. 33. 50. 26. 13. 12. 46. 19. 59.
      1.26666670e+01 1.06666670e+01 14. 19. 25. 8. 11. 40. 36.
      3.25000000e+01 27. 49. 46. 55. 7. 4.46666679e+01 3. 12. 9. 18.
      5.35000000e+01 35. 9. 39. 5.53333359e+01 4.36666679e+01 55. 58.
      21. 5.45000000e+01 25. 5.15000000e+01</_>
    <_>
      25. 54. 18. 18. 39. 14. 56. 60. 20. 24. 47. 33. 28. 26. 60. 48.
      42. 36. 56. 46. 37. 37. 46. 59. 31. 9. 3. 52. 27. 42. 12. 52. 20.
      3. 54. 25. 30. 40. 52. 51. 60. 3. 19. 13. 17. 49. 4.45000000e+01
      49. 9. 16. 25. 1.15000000e+01 25. 56. 45. 34. 1.15000000e+01 37.
      47. 40. 26. 30. 5.50000000e+00 8.50000000e+00</_>
    <_>
      57. 43. 60. 13. 2.65000000e+01 44. 40. 40. 59. 11. 35. 46. 36. 17.
      29. 56. 54. 38. 52. 3. 55. 4. 10. 11. 37. 43. 52. 58. 21. 30. 47.
      29. 57. 8. 46. 52. 9. 52. 10. 44. 3. 28. 33. 1.85000000e+01 7. 21.
      9. 29. 54. 55. 38. 41. 1.65000000e+01 2.15000000e+01 21. 23. 38.
      26. 32. 60. 56. 6. 51. 60.</_>
    <_>
      59. 39. 32. 28. 57. 51. 55. 51. 57. 42. 45. 53. 9.33333397e+00 43.
      18. 56. 45. 57. 40. 49. 35. 42. 3. 35. 53. 4. 56. 10. 41. 47. 19.
      1.53333340e+01 47. 13. 27. 35. 14. 50. 52. 19. 8. 11. 53. 46.
      3.85000000e+01 8.50000000e+00 37. 2.52500000e+01 59.
      1.76666679e+01 5. 48. 48. 3.66666679e+01 3. 44. 14. 3. 30. 17. 57.
      23. 45. 46.</_>
    <_>
      29. 41. 49. 60. 39. 45. 25. 50. 26. 11. 3. 3. 48. 53. 57. 3. 30.
      39. 14. 38. 58. 52. 40. 48. 31. 60. 56. 51. 56. 6. 46. 18. 33. 39.
      42. 41. 13. 30. 41. 55. 52. 10. 24. 57. 16. 13. 50. 20.
      3.95000000e+01 3.85000000e+01 1.35000000e+01 23. 36.
      5.95000000e+01 11. 50. 49. 24. 59. 54. 51. 12. 52. 20.</_>
    <_>
      46. 59. 48. 35. 25. 29. 56. 6. 36. 5. 49. 25. 51. 37. 45. 29. 54.
      9. 59. 52. 55. 41. 45. 17. 60. 50. 11. 3. 56. 28. 40. 12. 54. 46.
      9. 13. 12. 40. 4. 10. 10. 44. 37. 7. 47. 26. 13. 3. 8. 51. 31. 34.
      56. 43. 14. 41. 6. 11. 1.15000000e+01 5.75000000e+01 18. 9. 10.
      54.</_>
    <_>
      38. 60. 34. 59. 47. 6. 11. 52. 34. 52. 23. 18. 7. 6. 31. 60. 49.
      9. 41. 57. 20. 40. 49. 11. 60. 7. 37. 42. 8. 57. 58. 17. 54. 25.
      52. 37. 56. 26. 10. 56. 3.55000000e+01 2.85000000e+01 60. 11.
      4.75000000e+01 42. 47. 28. 49. 46. 3. 59. 57. 59. 58. 29. 11. 54.
      57. 3.45000000e+01 18. 31. 60. 9.</_>
    <_>
      3.85000000e+01 2.05000000e+01 53. 47. 57. 43. 58. 3. 60. 41. 4.
      45. 5.85000000e+01 21. 27. 19. 22. 60. 48. 30. 10. 14. 16. 23. 54.
      56. 48. 10. 29. 7.50000000e+00 14. 54. 60. 31. 32. 13. 10. 40. 14.
      24. 50. 52. 1.65000000e+01 58. 30. 19. 7. 54. 39. 5.85000000e+01
      59. 26. 40. 3. 22. 3. 20. 41. 1.13333340e+01 58. 43. 60. 24. 50.</_>
    <_>
      3.45000000e+01 4.65000000e+01 50. 53. 57. 48. 54. 32. 59. 47. 22.
      32. 55. 43. 55. 15. 4. 42. 7. 40. 1.95000000e+01 1.95000000e+01
      3.25000000e+01 5.95000000e+01 56. 51. 49. 44. 56. 32. 10. 33. 60.
      56. 17. 4. 16. 56. 47. 44. 27. 3. 59. 28. 47. 3.35000000e+01
      5.15000000e+01 1.45000000e+01 12. 36. 59. 54. 45. 36. 35. 4. 58.
      25. 24. 42. 56. 23. 9. 40.</_>
    <_>
      60. 13. 3. 22. 4.55000000e+01 32. 60. 32. 25. 24. 60. 15. 18. 32.
      55. 41. 29. 39. 31. 7. 5. 33. 48. 25. 33. 9. 8.50000000e+00 36.
      33. 55. 10. 30. 5. 9. 50. 36. 38. 14. 14. 34. 35. 60.
      1.15000000e+01 1.35000000e+01 46. 5.65000000e+01 41. 32. 28. 3.
      29. 22. 31. 49. 12. 33. 31. 59. 1.46666670e+01 5.83333359e+01 7.
      19. 52. 56.</_>
    <_>
      33. 17. 3. 52. 17. 9. 27. 52. 51. 7. 60. 58. 5. 54. 60. 14. 27.
      57. 5. 13. 45. 2.55000000e+01 53. 44. 11. 49. 42. 3.35000000e+01
      59. 23. 42. 42. 2.15000000e+01 4.50000000e+00 54. 51. 6. 22. 49.
      5.75000000e+01 7. 32. 21. 55. 12. 28. 52. 18. 54. 60. 46. 29. 49.
      4. 42. 4. 51. 54. 3. 57. 16. 30. 26. 54.</_>
    <_>
      46. 3. 56. 11. 3.50000000e+00 57. 43. 35. 28. 12. 36. 20. 51. 44.
      7.50000000e+00 8. 13. 12. 42. 18. 58. 3. 31. 37. 15. 13. 58. 5.
      36. 41. 20. 10. 60. 16. 41. 29. 10. 29. 24. 14. 55. 34. 51. 12.
      41. 39. 40. 54. 8. 18. 5.15000000e+01 5.65000000e+01 59. 49. 22.
      13. 48. 5. 1.85000000e+01 16. 30. 43. 55. 13.</_>
    <_>
      58. 3. 6. 14. 31. 7. 18. 10. 10. 8. 27. 20. 11. 10. 13. 13. 27.
      10. 25. 17. 19. 18. 53. 49. 24. 13. 47. 5.95000000e+01 18. 16. 10.
      5.85000000e+01 51. 25. 45. 37. 36. 20. 22. 13. 24. 52. 3. 6. 35.
      59. 7. 35. 42. 53. 55. 58. 14. 56. 54. 8. 39. 11. 1.35000000e+01
      42. 18. 12. 40. 36.</_>
    <_>
      21. 44. 3. 45. 7. 52. 49. 11. 6. 43. 37. 3. 4. 39. 24. 46. 3. 7.
      3. 35. 59. 26. 13. 53. 30. 3. 38. 11. 21. 51. 21. 28. 3. 60. 54.
      14. 16. 9. 24. 56. 28. 40. 23. 60. 17. 23. 4. 55. 48. 14. 52. 6.
      35. 4. 7. 19. 26. 56. 15. 54. 5.50000000e+00 23. 56. 6.</_>
    <_>
      17. 60. 8. 59. 25. 45. 18. 40. 18. 10. 41. 42. 56. 50. 49. 8. 14.
      39. 17. 36. 3. 33. 34. 48. 19. 47. 17. 33. 40. 60. 4. 9. 37. 3. 7.
      48. 58. 13. 34. 58. 19. 30. 4. 3. 27. 27. 60. 57. 44. 22. 60. 14.
      36. 60. 11. 49. 4. 5. 21. 37. 2.05000000e+01 27. 11. 53.</_>
    <_>
      28. 57. 11. 41. 56. 33. 6. 58. 30. 53. 5. 35. 28. 3. 5. 52. 45. 7.
      13. 29. 33. 36. 51. 48. 10. 52. 43. 46. 60. 24. 13. 36. 38. 48.
      59. 51. 30. 51. 48. 20. 24. 4.75000000e+01 7. 31. 45. 49. 27. 50.
      54. 17. 3. 20. 4. 59. 3. 36. 57. 10. 34. 40. 43. 48. 55. 56.</_>
    <_>
      5. 49. 41. 39. 9. 51. 10. 5. 7. 43. 3. 50. 46. 3. 53. 37. 10. 49.
      24. 39. 48. 10. 17. 41. 57. 21. 12. 11. 23. 49. 25. 41. 42. 3. 60.
      32. 3.50000000e+00 22. 22. 4.45000000e+01 50. 32. 27. 59. 20. 42.
      4.85000000e+01 59. 16. 1.35000000e+01 17. 18. 44. 50. 49. 5. 49.
      42. 55. 24. 34. 11. 29. 52.</_>
    <_>
      6. 45. 28. 48. 60. 28. 51. 46. 25. 46. 27. 25. 34. 32. 32. 55. 23.
      45. 60. 6. 21. 20. 34. 55. 8. 40. 10. 3. 50. 48. 53. 24. 56. 12.
      5. 56. 37. 41. 38. 58. 14. 35. 60. 20. 5. 11. 12. 42. 10. 9. 45.
      31. 4. 48. 36. 35. 49. 50. 52. 19. 22. 9.50000000e+00 37.
      2.95000000e+01</_>
    <_>
      51. 22. 16. 24. 27. 19. 2.05000000e+01 5.55000000e+01 49. 17. 27.
      13. 48. 11. 31. 4.45000000e+01 58. 43. 38. 36. 26. 50.
      1.85000000e+01 4.50000000e+00 1.55000000e+01 17. 55.
      4.85000000e+01 47. 16. 3.85000000e+01 12. 53. 11. 60. 32. 60. 7.
      7.50000000e+00 42. 5.33333349e+00 4.96666679e+01 4.05000000e+01
      2.05000000e+01 54. 3. 47. 29. 10. 23. 21. 9.66666698e+00 31. 36.
      12. 5. 40. 15. 56. 4. 11. 32. 44. 55.</_>
    <_>
      49. 3. 44. 10. 50. 14. 9. 10. 35. 8. 40. 20. 48. 57. 32. 14. 58.
      38. 60. 43. 11. 50. 31. 4. 34. 14. 40. 59. 37. 25. 16. 26. 17. 45.
      29. 12. 51. 16. 18. 18. 29. 54. 57. 60. 39. 22. 45. 59. 18. 40.
      59. 40. 20. 41. 42. 45. 33. 47. 25. 5. 22. 8. 60. 11.</_>
    <_>
      44. 11. 58. 32. 33. 3. 6. 6. 45. 13. 60. 3. 47. 14. 43. 40. 47.
      19. 20. 3. 20. 21. 23. 16. 50. 16. 48. 44. 11. 26. 25. 13. 45. 18.
      4.45000000e+01 50. 48. 46. 4.50000000e+00 35. 1.65000000e+01
      4.15000000e+01 5. 46. 40. 9. 3.55000000e+01 13. 6. 18. 60. 17. 53.
      41. 4. 22. 58. 9. 22. 49. 48. 21. 27. 4.</_>
    <_>
      28. 27. 59. 4. 38. 5. 27. 43. 51. 60. 26. 15. 3. 32. 21. 17. 16.
      59. 7. 33. 60. 20. 50. 57. 12. 37. 7. 11. 26. 9. 57. 32. 7. 42.
      57. 48. 42. 60. 59. 40. 52. 51. 39. 5.35000000e+01 14. 20. 49. 47.
      24. 9. 29. 43. 31. 15. 4. 6. 59. 26. 12. 39. 58. 44. 17. 16.</_>
    <_>
      31. 4.55000000e+01 26. 47. 5.50000000e+00 46. 60. 56. 21. 37.
      1.55000000e+01 15. 3. 50. 19. 50. 20. 46. 18. 44. 12. 52. 7. 14.
      43. 48. 13. 3. 4.95000000e+01 44. 26. 56. 35. 37. 12. 39. 8. 16.
      3.05000000e+01 13. 43. 60. 8. 38. 1.85000000e+01 20. 23. 30. 46.
      2.76666679e+01 43. 5. 51. 54. 4. 60. 54. 5. 46. 60. 8. 44. 18. 11.</_>
    <_>
      44. 21. 13. 5.15000000e+01 50. 3. 28. 37. 60. 51. 20. 60. 40. 30.
      56. 14. 51. 52. 13. 40. 3.25000000e+01 13. 4.35000000e+01 48. 17.
      60. 4.75000000e+01 15. 42. 37. 1.45000000e+01 5. 55. 16. 45. 44.
      38. 60. 57. 57. 53. 3.85000000e+01 11. 5.65000000e+01 20. 48.
      3.45000000e+01 5.05000000e+01 45. 19. 58. 47. 14. 48. 17. 33. 37.
      47. 45. 11. 55. 44. 3. 56.</_>
    <_>
      39. 52. 36. 60. 33. 60. 33. 48. 56. 1.35000000e+01 36. 25. 42.
      5.65000000e+01 15. 60. 33. 5. 12. 3.35000000e+01 52. 3.
      4.65000000e+01 6.50000000e+00 4. 59. 20. 49. 17. 52.
      5.50000000e+00 15. 23. 11. 16. 47. 18. 15. 39. 48. 3. 51. 8. 11.
      49. 21. 5. 49. 54. 46. 8.50000000e+00 20. 53. 30. 9. 45.
      2.35000000e+01 3.95000000e+01 41. 51. 38. 3.65000000e+01 9. 50.</_>
    <_>
      4. 13. 27. 33. 22. 51. 30. 5. 10. 30. 23. 40. 50. 30. 14. 21. 43.
      49. 5.86666679e+01 4.96666679e+01 1.65000000e+01 6.50000000e+00
      21. 5.65000000e+01 30. 48. 10. 14. 5.65000000e+01 1.25000000e+01
      30. 60. 40. 11. 24. 48. 11. 3. 27. 60. 45. 15. 57. 16.
      5.45000000e+01 20. 48. 60. 54. 45. 38. 37. 24. 52. 59. 59. 9. 46.
      52. 37. 54. 50. 4.65000000e+01 4.95000000e+01</_>
    <_>
      42. 27. 50. 49. 4.65000000e+01 51. 43. 49. 28. 48. 44.
      3.66666679e+01 9.66666698e+00 4.73333359e+01 1.33333340e+01
      4.03333359e+01 57. 47. 5.36666679e+01 3.03333340e+01
      4.86666679e+01 5.66666698e+00 40. 20. 33. 39. 40. 5.55000000e+01
      15. 57. 51. 42. 36. 42. 15. 2.65000000e+01 13. 57. 3. 46. 60. 41.
      44. 11. 37. 37. 55. 6. 5.66666679e+01 58. 28. 27. 17. 50. 20. 38.
      58. 37. 45. 9. 45. 60. 3. 56.</_>
    <_>
      36. 15. 9. 5.05000000e+01 11. 27. 3. 41. 49. 11. 8. 60. 4. 39. 25.
      27. 39. 57. 14. 58. 42. 4.65000000e+01 56. 3.50000000e+00 50. 50.
      22. 32. 8. 34. 13. 20. 60. 58. 5. 4. 7.50000000e+00 3.95000000e+01
      53. 20. 54. 36. 38. 2.65000000e+01 1.76666679e+01 3.93333359e+01
      12. 53. 8.50000000e+00 10. 46. 49. 33. 38. 10. 36. 25. 48. 40.
      4.15000000e+01 6. 6. 39. 38.</_>
    <_>
      38. 27. 54. 11. 52. 27. 47. 37. 43. 39. 30. 38. 2.33333340e+01
      4.03333359e+01 60. 41. 23. 30. 10. 20. 38. 48. 27. 50. 59. 39. 46.
      42. 24. 57. 15. 4.95000000e+01 5.75000000e+01 5. 50. 20. 7.
      3.50000000e+00 22. 47. 5.55000000e+01 3.95000000e+01 9. 36. 55.
      34. 49. 58. 20. 46. 27. 23. 3. 58. 55. 60. 55. 9. 14. 11. 53. 36.
      53. 5.13333359e+01</_>
    <_>
      32. 41. 11. 47. 14. 53. 23. 50. 37. 50. 27. 49. 34. 38. 20. 4. 32.
      47. 48. 27. 30. 46. 5.45000000e+01 4.05000000e+01 60. 46. 57. 37.
      20. 20. 24. 11. 14. 3. 59. 58. 40. 38. 33. 57. 19. 36. 35.
      2.65000000e+01 11. 34. 34. 42. 60. 40. 56. 60. 35. 57. 12. 5. 48.
      48. 8. 56. 16. 37. 3.50000000e+00 2.45000000e+01</_>
    <_>
      33. 4. 57. 13. 39. 3. 18. 57. 16. 15. 41. 4. 20. 30.
      5.95000000e+01 4.45000000e+01 21. 47. 49. 27. 3.55000000e+01
      3.65000000e+01 29. 11. 28. 4.95000000e+01 60. 1.55000000e+01 20.
      57. 41. 6. 13. 38. 50. 1.35000000e+01 42. 34. 20. 4.15000000e+01
      58. 58. 16. 23. 33. 20. 23. 46. 39. 53. 54. 17. 53. 10. 19. 38.
      45. 56. 3. 42. 46. 4.55000000e+01 46. 42.</_>
    <_>
      60. 42. 50. 38. 45. 57. 29. 36. 43. 57. 5. 58. 26. 37. 47. 50. 3.
      28. 3. 41. 32. 7.50000000e+00 21. 34. 35. 4.95000000e+01 43. 30.
      4. 48. 24. 53. 30. 20. 42. 47. 21. 47. 23. 3.50000000e+00 14. 27.
      4.33333359e+01 4.03333359e+01 47. 23. 40. 46. 8. 1.15000000e+01
      17. 4.55000000e+01 13. 1.35000000e+01 22. 6. 17. 42. 3.
      1.55000000e+01 9. 17. 18. 56.</_>
    <_>
      35. 17. 32. 22. 46. 13. 50. 3.15000000e+01 35. 38. 50. 20. 30. 29.
      43. 28. 26. 27. 60. 36. 19. 25. 7. 2.45000000e+01 49. 47. 20.
      4.13333359e+01 46. 5. 56. 39. 27. 32. 49. 28. 19. 30.
      5.33333349e+00 51. 6.66666698e+00 2.96666679e+01 59.
      4.55000000e+01 1.36666670e+01 5.83333359e+01 8. 3. 13. 39. 10.
      1.85000000e+01 2.15000000e+01 48. 22. 1.35000000e+01 52.
      3.65000000e+01 5.25000000e+01 5.55000000e+01 15. 40. 6. 37.</_>
    <_>
      15. 17. 32. 57. 15. 38. 4. 48. 33. 54. 44. 26. 12. 22. 26. 5. 56.
      56. 58. 53. 28. 47. 30. 20. 3. 36. 30. 47. 23. 28. 3. 30. 40. 40.
      29. 28. 43. 10. 59. 17. 30. 3.15000000e+01 4.95000000e+01
      2.55000000e+01 52. 4.45000000e+01 56. 54. 6. 27. 8.50000000e+00
      3.05000000e+01 36. 39. 26. 13. 7. 50. 32. 3.65000000e+01 60. 59.
      60. 12.</_>
    <_>
      4. 38. 29. 60. 29. 26. 40. 54. 47. 13. 16. 35. 33. 40. 5. 48. 17.
      32. 3. 18. 30. 10. 26. 27. 3. 31. 1.75000000e+01 2.05000000e+01
      55. 30. 13. 60. 44. 28. 24. 43. 37. 39. 1.63333340e+01
      5.43333359e+01 43. 3.15000000e+01 47. 4. 5. 51. 41. 3.65000000e+01
      6. 7. 47. 40. 41. 57. 3. 51. 44. 47. 1.95000000e+01 3.65000000e+01
      43. 20. 18. 46.</_>
    <_>
      8. 31. 2.85000000e+01 21. 36. 57. 14. 24. 60. 15. 1.95000000e+01
      14. 56. 57. 42. 9. 10. 39. 60. 55. 3. 35. 12. 5. 2.35000000e+01
      3.50000000e+00 25. 15. 3.35000000e+01 37. 32. 15. 3.75000000e+01
      3.05000000e+01 5.66666698e+00 2.23333340e+01 42. 36. 38. 20. 34.
      30. 42. 58. 3. 51. 17. 48. 3. 56. 5.95000000e+01 46.
      4.15000000e+01 22. 32. 22. 54. 31. 8. 16. 5. 48. 4.45000000e+01
      2.65000000e+01</_>
    <_>
      35. 7. 19. 5. 50. 2.15000000e+01 21. 7. 6. 3.75000000e+01 4.
      4.95000000e+01 32. 12. 35. 28. 18. 32. 5.33333359e+01
      2.73333340e+01 15. 30. 2.16666679e+01 3.63333359e+01
      4.66666698e+00 1.73333340e+01 60. 36. 13. 29. 20. 29. 58. 35. 6.
      27. 9.33333397e+00 1.03333340e+01 4.73333359e+01 1.53333340e+01
      1.45000000e+01 5.65000000e+01 30. 19. 3.95000000e+01 56. 60. 26.
      12. 22. 36. 3. 18. 14. 49. 37. 5.25000000e+01 4.55000000e+01 46.
      3. 27. 22. 2.16666679e+01 1.76666679e+01</_>
    <_>
      37. 57. 3.75000000e+01 5. 47. 17. 46. 22. 43. 19. 58. 19. 3. 38.
      38. 28. 53. 29. 23. 10. 8. 55. 14. 49. 9. 16. 24. 37. 27. 30. 53.
      16. 20. 44. 21. 47. 53. 6. 55. 32. 30. 18. 5.16666679e+01
      3.76666679e+01 54. 20. 53. 58. 13. 30. 51. 33. 21. 2.65000000e+01
      27. 3. 60. 21. 2.33333340e+01 2.03333340e+01 17. 29. 55. 14.</_>
    <_>
      55. 36. 42. 52. 30. 10. 8. 18. 5. 21. 49. 33. 26. 3.
      4.55000000e+01 1.65000000e+01 40. 30. 26. 18. 56. 45. 16. 3. 58.
      5. 23. 55. 36. 29. 15. 7. 59. 7. 16. 57. 55. 60. 29. 37. 60. 49.
      32. 47. 4. 38. 32. 2.65000000e+01 12. 12. 3. 26. 52. 14. 30.
      2.15000000e+01 15. 28. 58. 43. 33. 44. 7. 40.</_>
    <_>
      6. 3. 22. 47. 23. 44. 18. 37. 20. 37. 21. 27. 23. 26. 26. 29. 34.
      16. 30. 30. 58. 58. 3.95000000e+01 1.55000000e+01 60. 55. 16. 3.
      29. 49. 45. 36. 46. 60. 20. 10. 60. 41. 35. 55. 3. 22. 39. 33.
      5.95000000e+01 2.45000000e+01 13. 18. 46. 2.43333340e+01
      4.85000000e+01 6. 58. 38. 58. 41. 9.50000000e+00 56. 53. 58.
      1.96666679e+01 2.03333340e+01 4.66666679e+01 4.43333359e+01</_>
    <_>
      48. 3. 41. 41. 22. 27. 31. 10. 4.35000000e+01 30. 28. 3. 19. 24.
      23. 7. 9. 19. 11. 16. 1.25000000e+01 7. 6. 7. 6.50000000e+00 22.
      3.25000000e+01 44. 3. 11. 12. 60. 39. 6. 24. 30. 49. 42. 10. 12.
      4. 20. 24. 54. 48. 52. 43. 51. 5.85000000e+01 4.15000000e+01 4.
      39. 51. 52. 10. 60. 10. 47. 49. 6. 4. 5.16666679e+01 19. 42.</_>
    <_>
      5.45000000e+01 14. 30. 39. 26. 59. 2.23333340e+01 45. 3. 52. 25.
      54. 3. 40. 25. 27. 3. 44. 34. 6. 29. 48. 60. 40. 5. 43. 60. 52.
      38. 9. 5. 10. 5.55000000e+01 6.50000000e+00 31. 57. 9.50000000e+00
      2.62500000e+01 54. 30. 4.67500000e+01 1.12500000e+01 49. 53. 11.
      41. 4.35000000e+01 25. 15. 33. 51. 3. 39. 60. 44. 3.95000000e+01
      60. 5. 4.22500000e+01 53. 21. 55. 4.63333359e+01 3.23333359e+01</_>
    <_>
      56. 20. 30. 8. 43. 13. 36. 25. 13. 26. 31. 5.75000000e+01 53. 18.
      3. 4.85000000e+01 45. 56. 3. 57. 26. 4.95000000e+01 17.
      4.50000000e+00 58. 8. 57. 14. 9.33333397e+00 1.53333340e+01 54.
      23. 36. 39. 3. 39. 49. 9. 46. 4.50000000e+00 27. 55. 55.
      4.95000000e+01 26. 3. 21. 57. 60. 4. 9. 3. 17. 15. 4.86666679e+01
      28. 1.85000000e+01 39. 9.66666698e+00 3.76666679e+01 53. 6. 50.
      50.</_>
    <_>
      56. 42. 5.33333359e+01 2.43333340e+01 3. 55. 26. 58. 47. 15.
      3.56666679e+01 4.96666679e+01 60. 18. 34. 60. 40. 20. 25. 22. 58.
      19. 5.03333359e+01 1.13333340e+01 5. 55. 24. 4.75000000e+01
      2.75000000e+01 43. 31. 29. 55. 5. 4. 4.75000000e+01 18. 6. 4. 41.
      10. 21. 8. 3.26666679e+01 57. 28. 38. 5. 5.45000000e+01 35. 32.
      44. 5.76666679e+01 5.43333359e+01 34. 31. 47. 9. 14. 58. 14. 29.
      39. 60.</_>
    <_>
      7. 60. 1.73333340e+01 58. 18. 45. 35. 30. 22. 41. 38. 32. 21. 38.
      56. 4.17500000e+01 3.26666679e+01 50. 17. 15. 5.43333359e+01 31.
      26. 29. 17. 52. 60. 2.85000000e+01 30. 5. 58. 56. 15. 16. 20. 50.
      22. 10. 56. 55. 10. 49. 17. 2.05000000e+01 8.25000000e+00
      2.35000000e+01 26. 5.85000000e+01 25. 54. 42. 23. 5.32000008e+01
      1.34000006e+01 3.27999992e+01 1.86000004e+01 24. 9. 60. 3. 7.
      1.45000000e+01 58. 50.</_>
    <_>
      11. 30. 57. 5. 28. 21. 11. 10. 52. 13. 8. 3. 5. 25. 50. 22. 4. 19.
      47. 3. 41. 2.55000000e+01 6. 6. 6. 13. 16. 38. 29. 27. 60. 53.
      2.35000000e+01 59. 11. 59. 35. 3. 54. 24. 10. 8. 8. 16. 36. 24.
      60. 36. 17. 29. 28. 57. 58. 7. 28. 23. 8. 57. 48. 29. 13. 11. 8.
      21.</_>
    <_>
      15. 20. 10. 3. 3. 59. 7. 31. 30. 60. 20. 28. 8. 15. 23. 47. 15.
      40. 19. 47. 28. 9. 23. 41. 17. 60. 43. 6. 3. 4. 15. 57. 29. 20.
      40. 3. 26. 37. 35. 39. 56. 36. 60. 27. 27. 39. 51. 54. 60. 42. 9.
      7. 19. 60. 12. 42. 45. 6. 5.75000000e+01 7. 39. 46. 27. 41.</_>
    <_>
      27. 44. 22. 48. 57. 5. 9. 37. 18. 19. 50. 56. 3. 33. 12. 27. 14.
      3. 60. 36. 7. 34. 46. 27. 12. 16. 45. 3. 5. 52. 5. 22. 20. 28. 7.
      30. 60. 3. 1.25000000e+01 47. 27. 48. 42. 5. 11. 8. 3. 28. 7. 32.
      16. 40. 23. 33. 2.05000000e+01 35. 16. 53. 56. 7. 54. 56. 48. 27.</_>
    <_>
      44. 44. 56. 44. 58. 56. 35. 21. 48. 11. 3. 12. 55. 29. 56. 23. 5.
      4.85000000e+01 60. 43. 57. 40. 8. 29. 23. 5. 55. 52. 10. 7.
      3.05000000e+01 36. 3.75000000e+01 5.15000000e+01 3. 10.
      3.75000000e+01 7.50000000e+00 60. 3. 51. 25. 7. 35. 40. 11. 42. 4.
      49. 54. 51. 51. 3. 3. 5. 1.45000000e+01 5. 5. 37. 23. 56. 11. 58.
      33.</_>
    <_>
      41. 8. 25. 4. 60. 5. 28. 10. 11. 12. 38. 11. 48. 52. 41. 3. 32.
      57. 3. 22. 57. 25. 43. 54. 44. 4. 58. 19. 45. 1.65000000e+01 41.
      21. 7. 36. 55. 25. 45. 54. 45. 10. 54. 4. 41. 17. 1.25000000e+01
      29. 6. 29. 56. 38. 46. 59. 40. 10. 53. 39. 58. 6. 48. 57. 18. 35.
      52. 58.</_>
    <_>
      2.75000000e+01 59. 4.95000000e+01 23. 8. 3. 13. 17. 35. 3. 33. 36.
      9. 10. 46. 46. 58. 1.25000000e+01 20. 14. 35. 51. 41. 43. 22. 11.
      51. 5.85000000e+01 9. 23. 39. 38. 17. 3.50000000e+00 15. 26. 50.
      29. 36. 45. 45. 55. 9. 60. 21. 9. 53. 41. 9. 27. 40. 26.
      1.06666670e+01 3.66666679e+01 39. 49. 53. 53. 18. 8.
      5.85000000e+01 31. 53. 29.</_>
    <_>
      52. 24. 14. 52. 50. 28. 57. 29. 59. 32. 3.15000000e+01 5. 47. 32.
      47. 34. 58. 39. 13. 1.55000000e+01 4.83333359e+01 47. 16. 38. 59.
      42. 49. 5.95000000e+01 23. 31. 9. 52. 41. 4.50000000e+00 45. 12.
      8.50000000e+00 19. 56. 47. 7. 26. 33. 12. 2.75000000e+01
      3.55000000e+01 11. 2.35000000e+01 17. 13. 59. 4. 3.95000000e+01
      50. 47. 42. 56. 52. 51. 11. 18. 48. 2.05000000e+01 4.</_>
    <_>
      29. 60. 24. 60. 22. 60. 51. 14. 20. 59. 7.50000000e+00
      5.15000000e+01 58. 7. 3.66666679e+01 53. 18. 50. 28.
      1.65000000e+01 35. 60. 13. 5.50000000e+00 37. 11. 45. 19.
      4.55000000e+01 23. 1.55000000e+01 44. 5.26666679e+01
      3.23333359e+01 15. 22. 44. 60. 36. 15. 34. 9. 31. 30. 60. 27. 55.
      60. 47. 16. 44. 3. 3.15000000e+01 39. 9. 45. 44. 53. 26. 15. 21.
      6. 41. 15.</_>
    <_>
      50. 21. 29. 23. 46. 28. 17. 28. 44. 36. 56. 18. 3. 27. 34. 21. 52.
      41. 49. 3. 29. 29. 58. 55. 18. 4. 29. 59. 60. 41. 32. 27. 16. 60.
      42. 55. 36. 31. 47. 48. 8. 56. 60. 54. 59. 37. 36. 37. 6. 49. 55.
      3.55000000e+01 27. 24. 40. 8. 31. 60. 51. 54. 38. 37. 10. 49.</_>
    <_>
      21. 15. 6. 14. 43. 18. 7. 29. 3. 27. 9. 16. 9. 26. 12. 12.
      5.35000000e+01 4.55000000e+01 54. 59. 11. 33. 10. 24. 46. 16. 31.
      45. 18. 20. 35. 34. 25. 17. 13. 22. 59. 6. 7. 58. 23. 18.
      5.05000000e+01 12. 38. 23. 19. 24. 25. 23. 59. 45. 4. 7. 26. 53.
      52. 3. 19. 16. 4.95000000e+01 24. 3. 32.</_>
    <_>
      45. 25. 9. 16. 39. 35. 27. 44. 18. 21. 35. 31. 44. 49. 43. 56. 58.
      19. 19. 10. 4. 29. 31. 29. 54. 12. 40. 50. 60. 55. 25. 10. 7. 27.
      46. 49. 30. 18. 38. 54. 28. 21. 31. 56. 51. 51. 5.25000000e+01
      5.85000000e+01 35. 7. 3.15000000e+01 1.35000000e+01 31. 59. 11.
      17. 60. 25. 1.05000000e+01 4.75000000e+01 20. 30. 48. 15.</_>
    <_>
      18. 49. 22. 34. 58. 42. 23. 50. 28. 7. 44. 10. 29. 25. 18. 25. 12.
      1.35000000e+01 13. 57. 31. 15. 3.85000000e+01 28. 52. 17.
      5.75000000e+01 28. 28. 31. 3. 26. 32. 12. 45. 21. 3.35000000e+01
      5. 2.25000000e+01 55. 32. 56. 5.50000000e+00 5.75000000e+01 36.
      44. 20. 31. 35. 21. 5. 19. 38. 10. 32. 59. 12. 51. 33. 18. 24. 35.
      47. 53.</_>
    <_>
      3. 26. 38. 15. 8. 21. 17. 44. 9. 10. 25. 7. 15. 10. 21. 59. 44.
      12. 34. 49. 21. 12. 18. 20. 41. 51. 22. 15. 33. 56. 48. 19. 30.
      50. 20. 18. 52. 58. 28. 54. 52. 35. 40. 57. 10. 30. 21. 56. 29.
      35. 35. 25. 49. 17. 5.85000000e+01 2.85000000e+01 36. 49. 23. 30.
      18. 22. 45. 60.</_>
    <_>
      4.35000000e+01 5. 46. 44. 53. 30. 55. 21. 45. 22. 45. 20. 43. 18.
      60. 26. 33. 3.45000000e+01 11. 35. 41. 15. 18. 60. 3. 31. 19. 12.
      48. 10. 23. 57. 4.15000000e+01 2.55000000e+01 28. 49.
      1.45000000e+01 18. 6. 26. 34. 31. 25. 15. 42. 57. 42. 12. 11. 58.
      30. 56. 54. 10. 1.25000000e+01 25. 28. 25. 34. 52. 38. 7. 22. 51.</_>
    <_>
      11. 12. 12. 15. 24. 49. 47. 26. 30. 57. 15. 7. 20. 50. 26. 49. 15.
      31. 42. 58. 42. 35. 28. 15. 18. 54. 50. 54. 5. 10. 31. 51. 25. 25.
      34. 12. 11. 59. 11. 29. 59. 55. 39. 17. 11. 55. 8. 21. 10. 18. 35.
      60. 57. 5.95000000e+01 23. 56. 19. 35. 38. 19. 11. 57.
      5.95000000e+01 4.15000000e+01</_>
    <_>
      32. 45. 27. 49. 13. 47. 12. 41. 15. 58. 25. 44. 7. 57. 30. 52. 32.
      47. 52. 7. 3.15000000e+01 1.55000000e+01 20. 46. 36. 34. 9. 54.
      25. 55. 5.75000000e+01 18. 35. 11. 28. 21. 33. 8. 18. 39. 23. 40.
      3. 16. 5. 9. 1.65000000e+01 10. 20. 21. 23. 2.45000000e+01 44.
      1.55000000e+01 58. 32. 3. 45. 47. 43. 12. 60. 32. 49.</_>
    <_>
      29. 57. 31. 55. 31. 48. 37. 57. 45. 58. 45. 5. 39. 54. 52. 24. 43.
      47. 26. 16. 53. 40. 47. 39. 48. 15. 50. 46. 33. 16. 34. 7. 60. 52.
      50. 21. 42. 41. 57. 47. 32. 14. 55. 44. 58. 21. 32. 60. 31. 25.
      54. 25. 49. 39. 35. 9. 57. 49. 42. 60. 14. 32. 17. 60.</_>
    <_>
      5. 57. 22. 38. 4.50000000e+00 49. 12. 50. 7. 29. 4.75000000e+01 8.
      13. 1.45000000e+01 9. 29. 5.25000000e+01 4.45000000e+01 13. 30. 5.
      3. 39. 57. 10. 36. 8. 5. 15. 45. 21. 5. 15. 34. 51. 48. 18. 3. 37.
      33. 22. 35. 33. 10. 20. 60. 19. 5. 17. 39. 28. 55. 18. 11. 26. 24.
      20. 42. 10. 11. 29. 7. 25. 4.50000000e+00</_>
    <_>
      16. 33. 38. 34. 27. 24. 51. 31. 31. 38. 51. 5.65000000e+01 39. 15.
      56. 47. 25. 55. 20. 10. 5. 22. 33. 60. 60. 35. 54. 44. 33. 10. 31.
      35. 24. 7. 5.50000000e+00 8. 9.50000000e+00 5.75000000e+01 38. 45.
      36. 39. 27. 3. 50. 37. 33. 42. 42. 52. 35. 3. 4.65000000e+01 4.
      57. 54. 60. 5. 40. 30. 43. 36. 45. 29.</_>
    <_>
      4. 60. 49. 7. 46. 3. 28. 5. 28. 29. 18. 4.55000000e+01 44. 6. 46.
      24. 41. 5. 5.65000000e+01 8. 3.35000000e+01 4.75000000e+01 41.
      4.05000000e+01 25. 57. 23. 37. 35. 34. 38. 3. 3. 11. 32.
      1.33333340e+01 22. 31. 11. 38. 25. 3. 42. 36. 39. 5. 30. 36.
      1.75000000e+01 55. 12. 1.05000000e+01 37. 39. 40. 60. 38. 11. 48.
      55. 33. 30. 11. 45.</_>
    <_>
      19. 15. 13. 60. 5. 55. 22. 52. 11. 38. 20. 30. 23. 36. 24. 29. 18.
      45. 26. 29. 5.75000000e+01 45. 5.50000000e+00 5. 18. 34. 31. 31.
      3.55000000e+01 55. 11. 35. 30. 37. 2.65000000e+01 4.
      4.55000000e+01 9. 16. 39. 5.95000000e+01 2.15000000e+01
      5.45000000e+01 3.45000000e+01 15. 11. 49. 60. 42. 38. 35.
      4.55000000e+01 13. 42. 51. 55. 11. 9. 28. 57. 15. 3. 42. 45.</_>
    <_>
      5. 13. 5.65000000e+01 4.55000000e+01 51. 21. 33. 5.05000000e+01 8.
      10. 32. 41. 49. 28. 21. 11. 38. 3.15000000e+01 21. 55. 45. 52. 32.
      33. 5. 30. 45. 4. 60. 34. 18. 13. 59. 53. 36. 59. 47.
      5.75000000e+01 5.85000000e+01 14. 35. 33. 56. 55. 53. 20.
      1.55000000e+01 47. 58. 3. 19. 56. 3.15000000e+01 4. 33. 8. 59.
      2.95000000e+01 14. 21. 55. 31. 19. 24.</_>
    <_>
      47. 23. 36. 14. 23. 20. 20. 26. 19. 5.15000000e+01 22. 60. 25. 35.
      24. 49. 25. 24. 3. 5. 15. 47. 22. 40. 32. 25. 8. 3.55000000e+01
      27. 52. 15. 56. 58. 48. 3. 25. 18. 19. 27. 29. 38. 45. 19. 57. 32.
      28. 13. 27. 7.50000000e+00 45. 12. 21. 49. 60. 30. 32. 42. 52. 23.
      4.50000000e+00 5.05000000e+01 48. 5.55000000e+01 1.05000000e+01</_>
    <_>
      60. 48. 3.65000000e+01 4.95000000e+01 51. 49. 51. 51. 4. 39. 46.
      50. 10. 56. 44. 56. 2.05000000e+01 54. 59. 32. 13. 42.
      5.50000000e+00 5.85000000e+01 35. 44. 39. 59. 19. 43. 35. 40. 12.
      18. 52. 40. 33. 55. 3. 12. 2.35000000e+01 3.35000000e+01 18. 47.
      20. 6. 13. 38. 36. 37. 38. 54. 21. 23. 4.03333359e+01
      1.63333340e+01 25. 50. 3.13333340e+01 5. 22. 15. 15. 34.</_>
    <_>
      29. 16. 33. 24. 54. 12. 38. 22. 41. 19. 44. 17. 27. 35. 20. 13.
      50. 24. 55. 27. 3. 31. 17. 42. 24. 16. 49. 21. 45. 41. 43. 3. 13.
      46. 7. 38. 12. 40. 52. 42. 60. 6.50000000e+00 57. 17. 22. 15.
      6.50000000e+00 27. 52. 25. 4. 33. 15. 43. 46. 46. 30. 4. 8. 55. 9.
      8. 16. 48.</_>
    <_>
      7. 40. 35. 55. 29. 57. 13. 41. 23. 60. 37. 17. 23. 39. 28. 53. 28.
      16. 4.35000000e+01 9. 5. 43. 46. 41. 26. 58. 12. 3.50000000e+00
      3.50000000e+00 18. 60. 3. 10. 44. 22. 26. 38. 5.35000000e+01
      8.50000000e+00 49. 54. 60. 31. 59. 55. 7. 1.45000000e+01 16.
      4.25000000e+01 3.55000000e+01 26. 8. 6. 46. 5.35000000e+01 53. 16.
      21. 38. 7. 59. 57. 51. 18.</_>
    <_>
      41. 3. 60. 27. 46. 25. 50. 6. 4.50000000e+00 7.50000000e+00 55.
      56. 54. 8. 58. 44. 43. 15. 59. 42. 34. 15. 4.45000000e+01 57. 56.
      14. 3.65000000e+01 4.15000000e+01 4. 5.25000000e+01 49. 38. 54. 3.
      1.96666679e+01 5.96666679e+01 50. 21. 7. 2.15000000e+01 39. 24.
      5.53333359e+01 37. 13. 32. 14. 58. 23. 42. 52. 35. 5.25000000e+01
      17. 3. 46. 4.85000000e+01 16. 10. 9. 24. 11. 39. 49.</_>
    <_>
      4.25000000e+01 57. 28. 59. 57. 37. 26. 35. 34. 49. 48. 42. 58. 35.
      33. 54. 8. 8. 41. 23. 59. 33. 35. 34. 35. 53. 38. 37. 16. 7. 56.
      23. 40. 55. 38. 31. 48. 58. 6. 5.55000000e+01 5.75000000e+01 47.
      22. 24. 33. 14. 15. 28. 56. 7. 33. 6. 58. 10. 56. 1.85000000e+01
      55. 15. 9. 44. 8.33333397e+00 3.46666679e+01 25. 38.</_>
    <_>
      55. 39. 26. 43. 34. 17. 9. 6. 5. 24. 27. 37. 60. 9. 3. 27. 6. 12.
      6. 19. 13. 42. 30. 23. 9. 20. 31. 36. 29. 31. 55. 12. 17. 17. 58.
      15. 12. 17. 3. 43. 32. 60. 37. 19. 6. 22. 31. 31. 5. 42. 58. 18.
      23. 18. 13. 19. 7. 42. 26. 25. 35. 56. 32. 54.</_>
    <_>
      33. 60. 24. 10. 17. 4.35000000e+01 14. 5.26666679e+01 20. 33. 10.
      30. 7. 14. 8. 4. 28. 4. 16. 35. 30. 2.43333340e+01 5.63333359e+01
      5.23333359e+01 58. 56. 27. 48. 25. 4. 33. 5.33333359e+01 54. 16.
      5.13333359e+01 28. 5.50000000e+00 25. 3. 21. 30. 3. 4.16666679e+01
      5.33333349e+00 26. 42. 40. 23. 53. 51. 26. 53. 59. 10. 60. 35. 60.
      43. 9. 23. 41. 13. 23. 47.</_>
    <_>
      45. 33. 55. 55. 27. 56. 37. 53. 19. 6. 56. 39. 36. 36. 57. 18. 36.
      38. 36. 43. 42. 53. 1.15000000e+01 5. 29. 47. 9. 31. 30. 43. 58.
      51. 36. 49. 47. 3.50000000e+00 14. 52. 51. 54. 28. 3. 36. 47. 31.
      60. 54. 16. 4. 55. 55. 59. 8.50000000e+00 57. 3. 60. 16. 8. 57.
      20. 35. 45. 44. 56.</_>
    <_>
      46. 17. 45. 10. 3. 45. 5. 17. 29. 17. 34. 19. 14. 24. 10. 3. 4.
      53. 4. 60. 34. 25. 14. 26. 28. 4.05000000e+01 41. 25. 11. 12. 3.
      7. 6. 57. 59. 1.75000000e+01 3.50000000e+00 2.95000000e+01 26. 29.
      33. 4. 54. 24. 37. 26. 57. 22. 10. 32. 20. 8. 46. 14. 4. 19. 33.
      49. 18. 1.15000000e+01 54. 10. 8. 53.</_>
    <_>
      55. 12. 60. 3. 50. 4. 53. 37. 39. 10. 27. 57. 5. 4.05000000e+01
      58. 24. 40. 7. 41. 29. 48. 11. 5.50000000e+00 28. 19. 25. 47. 27.
      53. 9. 43. 17. 49. 9. 54. 52. 33. 46. 51. 13. 15. 1.15000000e+01
      51. 6. 58. 41. 25. 53. 60. 31. 13. 8. 22. 12. 57. 13. 52. 4. 26.
      32. 49. 41. 28. 60.</_>
    <_>
      5.15000000e+01 33. 29. 1.43333340e+01 14. 11. 50. 60. 14. 46. 55.
      47. 49. 41. 14. 59. 15. 37. 4. 11. 29. 4.45000000e+01 5. 48. 60.
      51. 42. 44. 8. 4.25000000e+01 16. 52. 4.35000000e+01 6. 60. 58.
      29. 18. 8. 38. 48. 58. 5.85000000e+01 5.50000000e+00 35.
      5.15000000e+01 28. 37. 3. 39. 1.93333340e+01 5.63333359e+01 56.
      55. 47. 23. 40. 47. 41. 2.35000000e+01 2.25000000e+01 14. 21. 3.</_>
    <_>
      5.55000000e+01 2.45000000e+01 4. 46. 3. 3. 56. 38. 50. 40. 12. 32.
      2.75000000e+01 47. 48. 37. 58. 56. 13. 15. 60. 56. 42.
      2.85000000e+01 49. 4.85000000e+01 10. 4.50000000e+00 60. 40. 48.
      7. 16. 29. 33. 3.66666675e+00 10. 59. 32. 38. 59. 45.
      3.15000000e+01 5.95000000e+01 16. 10. 43. 15. 27. 3.45000000e+01
      14. 60. 31. 33. 7. 34. 1.95000000e+01 37. 52. 47. 25.
      5.95000000e+01 11. 11.</_>
    <_>
      18. 4. 4.95000000e+01 32. 6. 6. 22. 20. 60. 55. 1.55000000e+01
      1.35000000e+01 58. 45. 35. 5.15000000e+01 51. 23. 6. 54. 33.
      3.50000000e+00 2.65000000e+01 1.15000000e+01 39. 9. 2.15000000e+01
      57. 60. 46. 46. 51. 50. 53. 48. 35. 40. 13. 37. 29. 16. 25. 26.
      57. 60. 32. 2.35000000e+01 3.75000000e+01 38. 3. 1.55000000e+01
      3.45000000e+01 60. 6. 51. 50. 40. 36. 44. 6. 7. 21. 1.25000000e+01
      47.</_>
    <_>
      39. 6. 53. 60. 40. 60. 50. 43. 2.75000000e+01 11. 41. 5. 29. 14.
      55. 18. 19. 60. 58. 5.15000000e+01 30. 16. 13. 30. 30. 33. 53. 21.
      11. 17. 34. 35. 42. 3. 7.50000000e+00 49. 36. 33. 22. 28. 24. 21.
      60. 28. 12. 25. 57. 4.16666679e+01 20. 57. 43. 38. 60. 55. 12.
      2.13333340e+01 6. 43. 26. 26. 60. 39. 4. 3.</_>
    <_>
      40. 27. 3. 10. 60. 26. 1.45000000e+01 8. 4.85000000e+01 54. 38.
      55. 56. 26. 45. 31. 39. 3. 45. 37. 37. 4. 60. 34. 3.15000000e+01
      11. 28. 14. 50. 34. 60. 43. 9. 35. 28. 11. 50. 40. 50.
      1.35000000e+01 25. 60. 55. 41. 11. 50. 42. 55. 29. 9. 51. 21.
      9.50000000e+00 11. 25. 28. 58. 39. 23. 21. 20. 46. 1.66666679e+01
      54.</_>
    <_>
      15. 19. 4. 33. 7. 7. 45. 12. 6. 29. 58. 12. 27. 5. 32. 8. 7. 40.
      16. 31. 8. 47. 33. 26. 48. 37. 38. 15. 48. 10. 23. 3. 16. 29. 12.
      10. 55. 4. 25. 15. 5.05000000e+01 3.25000000e+01 50. 7. 41. 60.
      27. 5.85000000e+01 20. 4. 12. 21. 6. 9. 6. 4. 56. 42. 31. 14. 23.
      51. 17. 4.</_>
    <_>
      5. 57. 7. 54. 14. 54. 60. 12. 24. 10. 54. 12. 7. 22. 27. 59. 25.
      47. 51. 52. 60. 28. 55. 53. 32. 5. 20. 23. 60. 23. 5. 31. 45. 4.
      28. 53. 51. 30. 53. 41. 52. 57. 3. 7. 56. 33. 22. 20. 28. 15. 28.
      49. 49. 53. 60. 30. 30. 6. 19. 25. 36. 45. 2.65000000e+01 9.</_>
    <_>
      29. 25. 11. 27. 27. 21. 4.25000000e+01 49. 59. 27. 38. 24. 12. 17.
      47. 27. 59. 37. 29. 4. 5.25000000e+01 6. 30. 55. 4. 18. 6. 6. 8.
      35. 20. 51. 15. 4. 42. 53. 44. 3. 41. 5. 4. 22. 48. 36. 60. 12.
      31. 60. 8. 4. 4.15000000e+01 14. 1.15000000e+01 47. 49. 15. 33.
      12. 39. 1.25000000e+01 32. 32. 7. 28.</_>
    <_>
      55. 20. 4. 38. 3. 17. 49. 16. 7. 35. 58. 15. 11. 32. 54. 5. 57.
      34. 18. 59. 5. 24. 55. 13. 14. 25. 9.50000000e+00 5. 47. 45. 29.
      43. 53. 12. 6. 19. 36. 4.75000000e+01 19. 7. 45. 44.
      4.25000000e+01 27. 15. 4.35000000e+01 24. 41. 59. 7. 10. 21. 16.
      5. 8. 5.95000000e+01 40. 39. 8. 46. 56. 7. 7. 25.</_>
    <_>
      10. 34. 7. 31. 3. 30. 18. 1.55000000e+01 14. 12. 59. 8. 10. 11.
      60. 18. 54. 5.75000000e+01 26. 49. 53. 47. 50. 1.45000000e+01 60.
      21. 41. 60. 7. 60. 4. 12. 34. 60. 51. 47. 5. 7. 2.75000000e+01 57.
      35. 13. 3. 5. 14. 4.05000000e+01 46. 48. 56. 15. 46. 59. 9. 9. 25.
      60. 16. 37. 17. 13. 44. 50. 5.85000000e+01 4.</_>
    <_>
      20. 8. 17. 6. 41. 35. 57. 55. 19. 12. 28. 60. 51. 5.35000000e+01
      12. 41. 26. 57. 57. 17. 52. 60. 37. 30. 17. 11. 9.50000000e+00 13.
      9. 5.65000000e+01 1.05000000e+01 2.45000000e+01 2.25000000e+01 20.
      13. 37. 38. 5. 56. 15. 49. 28. 28. 47. 48. 56. 33. 56. 11. 16. 50.
      5. 4. 28. 3.25000000e+01 2.05000000e+01 48. 14. 55. 23. 43. 38.
      30. 60.</_>
    <_>
      27. 25. 57. 40. 38. 9. 6. 16. 4. 11. 22. 22. 41. 12. 58. 8. 13.
      16. 60. 5. 20. 6. 43. 12. 11. 15. 50. 36. 27. 31. 56. 13. 35. 41.
      24. 53. 49. 31. 19. 12. 46. 9. 55. 59. 7. 18. 56. 10. 10. 60. 23.
      9. 41. 6. 54. 36. 22. 60. 37. 55. 24. 11. 44. 6.</_>
    <_>
      18. 26. 20. 21. 26. 1.85000000e+01 5.65000000e+01 50. 20. 36. 6.
      34. 22. 16. 27. 46. 11. 9. 48. 24. 14. 17. 22. 55. 50. 17. 10. 17.
      24. 56. 40. 6. 5.25000000e+01 1.05000000e+01 4. 22. 58. 38. 10.
      12. 27. 54. 7. 59. 34. 18. 55. 46. 35. 5.55000000e+01 9. 7. 34.
      50. 25. 5. 29. 8. 9. 4.95000000e+01 4. 56. 59. 5.75000000e+01</_>
    <_>
      55. 15. 10. 31. 8. 9. 9. 17. 28. 5. 3. 59. 58. 6. 40. 51. 25. 42.
      26. 15. 25. 3. 43. 17. 48. 5. 35. 27. 60. 58. 38. 6. 5. 43. 60.
      53. 19. 12. 51. 4. 17. 38. 15. 13. 49. 51. 5.45000000e+01 8. 51.
      11. 16. 31. 9. 11. 28. 17. 36. 58. 38. 40. 57. 59. 42. 6.</_>
    <_>
      6. 40. 52. 46. 38. 46. 39. 44. 57. 50. 13. 31. 35. 34. 12. 44. 27.
      34. 54. 28. 22. 8. 43. 36. 41. 3.05000000e+01 36. 47. 5. 54. 45.
      33. 38. 54. 4. 26. 4. 50. 5. 58. 31. 52. 41. 28. 7. 11. 49. 10.
      4.50000000e+00 1.75000000e+01 3. 43. 58. 54. 18. 38. 10. 45. 44.
      12. 27. 39. 56. 34.</_>
    <_>
      13. 12. 50. 33. 20. 18. 47. 29. 25. 8. 8. 24. 25. 54. 60. 16. 46.
      52. 46. 26. 55. 3. 25. 35. 32. 60. 42. 50. 57. 12. 52. 6. 21. 49.
      36. 48. 3. 17. 11. 38. 57. 19. 4.85000000e+01 1.15000000e+01 53.
      10. 15. 4.15000000e+01 23. 41. 38. 45. 60. 43. 11. 13. 40. 47. 18.
      20. 10. 30. 58. 17.</_>
    <_>
      6. 23. 40. 3.95000000e+01 27. 60. 8. 18. 25. 31. 54.
      5.35000000e+01 17. 51. 44. 33. 3. 7. 5. 35. 43. 51. 59. 41. 6. 5.
      13. 11. 5.25000000e+01 27. 4. 31. 18. 16. 50. 60. 8. 11. 6. 30.
      33. 57. 10. 2.85000000e+01 29. 20. 37. 60. 47. 53. 60. 34. 11. 8.
      3.25000000e+01 10. 49. 16. 8. 26. 59. 47. 48. 4.</_>
    <_>
      40. 31. 42. 32. 55. 26. 50. 26. 47. 19. 42. 58. 30. 58. 36. 17.
      31. 40. 51. 20. 33. 9. 52. 50. 14. 14. 41. 22. 25. 8. 41. 53. 33.
      48. 29. 7. 58. 36. 60. 41. 46. 10. 3. 27. 13. 41. 44. 20. 43. 60.
      59. 8.50000000e+00 29. 60. 5. 5.50000000e+00 27. 44. 25. 10. 58.
      44. 13. 28.</_>
    <_>
      52. 35. 41. 35. 10. 58. 44. 60. 6. 9. 21. 50. 52. 43. 14. 55. 47.
      21. 10. 52. 43. 53. 8. 21. 53. 40. 15. 58. 13. 46. 20. 34. 39. 33.
      10. 28. 5. 28. 40. 3. 3.45000000e+01 4. 49. 37. 11. 60. 60. 52.
      14. 7. 58. 3. 5. 56. 45. 53. 12. 1.05000000e+01 18. 40. 5. 33. 34.
      10.</_>
    <_>
      10. 44. 21. 58. 39. 46. 15. 37. 32. 39. 49. 55. 34. 50. 57. 59.
      53. 43. 52. 34. 19. 29. 28. 51. 29. 24. 39. 22. 44. 53. 4. 51. 56.
      30. 2.45000000e+01 25. 57. 9.50000000e+00 19. 27. 6.
      1.85000000e+01 3.35000000e+01 60. 55. 15. 4.55000000e+01 30. 4.
      30. 39. 60. 39. 25. 58. 2.45000000e+01 56. 18. 34. 52. 49. 36. 17.
      59.</_>
    <_>
      9. 55. 36. 58. 16. 47. 60. 55. 57. 38. 23. 47. 37. 5. 29. 31. 36.
      45. 53. 43. 51. 58. 20. 49. 57. 43. 30. 15. 31. 9. 45. 35. 45. 31.
      58. 34. 48. 51. 59. 58. 14. 60. 23. 49. 55. 43. 27. 20. 10. 3. 45.
      33. 52. 35. 47. 38. 44. 50. 46. 50. 51. 43. 27. 34.</_>
    <_>
      5.35000000e+01 57. 31. 4. 21. 57. 59. 12. 56. 8. 53. 6. 33. 15.
      34. 11. 59. 21. 45. 5. 32. 26. 25. 18. 7.50000000e+00 36. 39. 8.
      35. 24. 28. 9. 39. 17. 45. 28. 40. 24. 23. 9.50000000e+00 17. 12.
      49. 20. 29. 5.45000000e+01 7.50000000e+00 53. 53. 47. 26. 31. 47.
      30. 19. 12. 37. 58. 4.85000000e+01 14. 45. 17. 3. 12.</_>
    <_>
      28. 44. 3. 3. 39. 60. 40. 58. 37. 48. 22. 59. 49. 10. 59. 3. 27.
      60. 28. 56. 4.85000000e+01 7. 30. 55. 33. 51. 5.35000000e+01 47.
      59. 11. 23. 51. 44. 51. 25. 8. 21. 47. 53. 37. 26. 21. 60. 56.
      3.35000000e+01 15. 7.50000000e+00 26. 40. 14. 11. 39. 57.
      5.45000000e+01 45. 18. 30. 45. 4. 50. 40. 6. 47. 20.</_>
    <_>
      4. 57. 12. 19. 12. 38. 14. 38. 19. 33. 16. 53. 5. 53. 35. 47. 56.
      23. 8. 45. 28. 48. 3. 41. 60. 11. 11. 56. 33. 44. 11. 4. 19. 45.
      12. 60. 31. 40. 20. 52. 21. 4. 16. 59. 32. 58. 26. 38. 52. 51.
      4.85000000e+01 4.35000000e+01 2.45000000e+01 42. 5.95000000e+01
      48. 46. 4. 18. 53. 4. 43. 13. 12.</_>
    <_>
      36. 38. 52. 35. 36. 29. 41. 54. 21. 44. 18. 6. 46. 27.
      2.05000000e+01 1.65000000e+01 13. 59. 42. 46. 12. 9. 34. 19. 30.
      19. 3.85000000e+01 50. 8. 35. 22. 10. 13. 22. 60. 8. 43. 12. 40.
      29. 21. 59. 58. 5.45000000e+01 2.97500000e+01 6. 6. 29. 32. 58. 3.
      49. 37. 47. 42. 19. 60. 48. 50. 58. 4.85000000e+01 4. 56. 32.</_>
    <_>
      37. 16. 32. 44. 42. 16. 4.73333359e+01 33. 40. 22. 53. 8. 48. 15.
      44. 27. 59. 3. 58. 23. 3.73333359e+01 59. 56. 23. 15. 49. 32. 17.
      58. 31. 2.46666679e+01 7. 33. 14. 28. 17. 21. 58. 5.45000000e+01
      30. 3. 58. 1.23333340e+01 3.13333340e+01 38. 7.50000000e+00
      5.66666698e+00 1.26666670e+01 18. 29. 51. 26. 58. 4.06666679e+01
      12. 54. 19. 3. 12. 1.63333340e+01 11. 46. 19. 16.</_>
    <_>
      44. 3. 3.95000000e+01 9. 36. 3. 46. 38. 4. 3. 54. 12. 7. 23. 52.
      12. 4.73333359e+01 29. 2.56666679e+01 59. 12. 26. 60. 23. 9. 8.
      48. 49. 5. 31. 42. 19. 13. 3.16666679e+01 60. 58. 15. 15. 52. 19.
      27. 1.02500000e+01 51. 54. 7. 29. 7. 41. 42. 58. 35. 17. 21.
      2.45000000e+01 31. 44. 56. 27. 58. 3. 52. 46. 18. 35.</_>
    <_>
      45. 40. 40. 3.16666679e+01 54. 11. 55. 13. 44. 8. 30. 22. 35. 35.
      5.50000000e+00 32. 49. 15. 22. 5.15000000e+01 38. 15. 50. 22. 34.
      27. 42. 8. 9. 3. 48. 23. 17. 3. 49. 3. 46. 23. 25. 6. 46. 29. 57.
      8.50000000e+00 31. 9. 30. 59. 41. 26. 1.35000000e+01 9. 5. 7.
      1.03333340e+01 17. 6.50000000e+00 39. 7. 5.75000000e+01 26.
      1.57500000e+01 56. 38.</_>
    <_>
      33. 59. 18. 40. 7. 38. 50. 19. 45. 17. 4.95000000e+01 9. 25. 15.
      36. 16. 17. 23. 49. 4.55000000e+01 56. 5.75000000e+01
      2.15000000e+01 3.25000000e+01 33. 22. 13. 22. 17. 29. 19. 8. 28.
      35. 14. 3. 29. 27. 14. 15. 54. 19. 54. 3. 22. 26. 8.50000000e+00
      12. 58. 7. 6. 8.50000000e+00 55. 29. 41. 59. 46. 3. 3.73333359e+01
      8.33333397e+00 5.76666679e+01 3.76666679e+01 26. 30.</_>
    <_>
      40. 22. 28. 15. 37. 23. 3. 51. 45. 1.06666670e+01 55. 17. 3. 41.
      39. 15. 48. 18. 11. 4.50000000e+00 50. 28. 12. 44. 35. 40. 53. 14.
      5.63333359e+01 3.46666679e+01 54. 28. 3.50000000e+00 9.
      2.73333340e+01 33. 46. 38. 20. 59. 20. 22. 31. 26. 51. 10. 56. 43.
      14. 1.56666670e+01 24. 27. 35. 6.33333349e+00 8. 17.
      3.45000000e+01 30. 59. 60. 12. 59. 2.15000000e+01 1.25000000e+01</_>
    <_>
      27. 22. 7. 43. 47. 24. 13. 48. 2.75000000e+01 8. 15. 31.
      1.15000000e+01 5.75000000e+01 53. 3. 9. 2.95000000e+01
      4.35000000e+01 7.50000000e+00 59. 45. 26. 16. 36. 41. 17. 4. 14.
      29. 4. 48. 8. 5.15000000e+01 57. 15. 52. 52. 48. 5.55000000e+01
      39. 60. 22. 7. 10. 25. 51. 17. 6. 21. 44. 3.45000000e+01 5. 54.
      46. 58. 27. 5.65000000e+01 46. 18. 46. 45. 24. 49.</_>
    <_>
      16. 60. 8.50000000e+00 53. 25. 38. 5.85000000e+01 20. 4. 46. 55.
      25. 48. 4.50000000e+00 32. 59. 2.35000000e+01 4.25000000e+01 50.
      49. 3. 50. 4.50000000e+00 4.05000000e+01 42. 34. 52. 6. 30. 57.
      15. 51. 27. 28. 5.25000000e+01 5.85000000e+01 50. 12.
      2.25000000e+01 8.50000000e+00 31. 48. 11. 57. 60. 39. 21. 36. 38.
      7. 54. 17. 4. 7. 21. 50. 1.16666670e+01 2.13333340e+01 43. 47. 29.
      6. 2.55000000e+01 19.</_>
    <_>
      46. 17. 56. 22. 31. 59. 4.50000000e+00 20. 53. 5.45000000e+01 26.
      5.50000000e+00 1.53333340e+01 4.83333359e+01 42. 9. 33. 57. 58.
      55. 3.85000000e+01 19. 8. 25. 3.93333359e+01 4.13333359e+01 13. 4.
      34. 53. 35. 19. 3. 39. 58. 60. 32. 48. 34. 9. 21. 34. 42. 50. 13.
      12. 52. 25. 3.95000000e+01 3.65000000e+01 1.05000000e+01
      5.85000000e+01 60. 38. 36. 28. 5.86666679e+01 4.63333359e+01 9.
      17. 47. 60. 30. 9.</_>
    <_>
      32. 34. 1.55000000e+01 19. 6. 60. 3.93333359e+01 5. 33. 47.
      5.56666679e+01 5.56666679e+01 56. 8. 58. 3.06666679e+01 21. 58.
      40. 49. 47. 20. 5. 51. 17. 28. 53. 49. 5.45000000e+01
      1.92500000e+01 58. 13. 38. 60. 7. 17. 11. 50. 28. 7.
      1.25000000e+01 8.50000000e+00 11. 36. 44. 17. 3. 13. 45. 25. 56.
      13. 47. 57. 1.42500000e+01 4.02500000e+01 21. 48. 19. 6. 40. 12.
      50. 24.</_>
    <_>
      5.75000000e+01 5.55000000e+01 13. 2.16666679e+01 23. 12. 6. 32.
      4.26666679e+01 5.63333359e+01 8. 30. 18. 25. 52. 50. 19. 17. 51.
      44. 22. 49. 36. 5.50000000e+00 16. 57. 49. 3.82500000e+01 7. 13.
      25. 60. 31. 34. 40. 9. 9. 5.15000000e+01 5. 21. 24. 49. 44. 9. 7.
      19. 30. 47. 19. 3. 46. 28. 7. 8. 4.73333359e+01 19. 56. 13. 12.
      16. 42. 48. 25. 4.50000000e+00</_>
    <_>
      45. 30. 18. 7. 3. 47. 10. 57. 40. 24. 28. 60. 47. 13. 43. 21. 41.
      16. 46. 19. 34. 17. 36. 2.25000000e+01 6.50000000e+00 7. 30. 49.
      46. 8. 3. 25. 56. 28. 44. 5.15000000e+01 30. 12. 50. 12. 22. 34.
      8. 19. 23. 47. 46. 5.65000000e+01 6.50000000e+00 29. 37. 57. 53.
      60. 32. 6. 28. 4.50000000e+00 5.75000000e+01 4. 11. 48. 12. 59.</_>
    <_>
      20. 12. 56. 5.45000000e+01 35. 55. 2.75000000e+01 2.45000000e+01
      37. 13. 3.45000000e+01 20. 24. 17. 56. 33. 3. 34. 54.
      5.50000000e+00 27. 20. 46. 28. 31. 16. 8. 7. 50. 18. 33. 49. 3.
      51. 27. 57. 36. 8. 54. 18. 18. 60. 37. 57. 35. 30. 5.63333359e+01
      2.46666679e+01 43. 60. 40. 12. 3. 45. 48. 8. 12. 34. 45. 3.
      1.76666679e+01 4.83333359e+01 1.93333340e+01 5.</_>
    <_>
      5. 52. 28. 30. 30. 21. 27. 13. 27. 19. 51. 34. 23. 12. 55. 7. 17.
      28. 46. 6. 6.50000000e+00 30. 1.65000000e+01 5.50000000e+00 43.
      12. 4. 24. 4.15000000e+01 3. 60. 31. 32. 16. 44. 49. 45. 60. 60.
      41. 10. 23. 39. 17. 7.66666698e+00 1.53333340e+01 42. 49. 27. 8.
      3.45000000e+01 22. 1.45000000e+01 5.85000000e+01 9. 5.50000000e+00
      13. 18. 3.13333340e+01 5.33333359e+01 38. 25. 55. 49.</_>
    <_>
      45. 7. 25. 30. 43. 4. 26. 19. 35. 3. 15. 25. 38. 8. 3. 51. 53. 37.
      10. 49. 27. 13. 14. 17. 48. 2.55000000e+01 42. 18. 1.25000000e+01
      5.85000000e+01 3.85000000e+01 5.85000000e+01 26. 8. 53. 32. 36.
      28. 25. 55. 23. 49. 21. 16. 3. 42. 30. 12. 7. 1.25000000e+01 46.
      33. 43. 23. 27. 57. 17. 20. 2.15000000e+01 2.25000000e+01 53. 51.
      9.33333397e+00 5.</_>
    <_>
      52. 15. 48. 6. 38. 28. 60. 28. 46. 7. 1.35000000e+01 56. 57. 33.
      44. 3. 42. 40. 52. 47. 21. 24. 33. 60. 20. 37. 40. 9. 56.
      4.35000000e+01 42. 26. 59. 36. 32. 4.75000000e+01 32. 38. 37. 9.
      13. 39. 56. 12. 41. 34. 5.66666698e+00 1.16666670e+01 60. 40. 34.
      43. 34. 3.50000000e+00 36. 18. 9. 7. 35. 9. 38. 31. 3. 29.</_>
    <_>
      53. 39. 60. 22. 57. 20. 44. 7. 8. 5. 27. 3.75000000e+01 56. 4. 47.
      10. 4. 4.50000000e+00 50. 14. 17. 18. 58. 11. 11. 40. 53. 11. 55.
      45. 12. 34. 18. 9. 51. 6. 57. 50. 11. 26. 5. 41. 1.45000000e+01
      30. 1.96666679e+01 50. 38. 4.33333359e+01 32. 24. 20. 60. 13. 9.
      56. 9. 5.05000000e+01 58. 45. 15. 57. 47. 16. 27.</_>
    <_>
      23. 14. 29. 7. 60. 37. 26. 10. 20. 11. 20. 39. 41. 24. 32. 39. 39.
      52. 52. 38. 28. 60. 22. 6. 60. 15. 18. 20. 17. 56. 40. 37. 54. 43.
      17. 9. 55. 9. 57. 27. 28. 15. 18. 44. 53. 60. 53. 47. 17. 3. 34.
      39. 51. 48. 7. 18. 17. 5. 55. 3. 53. 4. 5.65000000e+01 19.</_>
    <_>
      56. 5. 54. 8. 20. 39. 53. 13. 50. 8. 2.55000000e+01 8.50000000e+00
      36. 56. 3. 41. 4. 51. 30. 14. 37. 51. 55. 53. 13. 37. 53. 53. 33.
      11. 14. 52. 37. 49. 3. 35. 51. 2.05000000e+01 31. 6. 33. 39. 25.
      15. 35. 20. 37. 47. 58. 42. 25. 60. 35. 45. 12. 24. 3. 24. 36. 9.
      36. 4. 58. 1.55000000e+01</_>
    <_>
      38. 60. 30. 39. 7. 23. 8. 53. 27. 3. 17. 18. 30. 11. 38. 15. 13.
      8. 27. 56. 32. 6. 9. 8. 49. 52. 60. 21. 27. 9. 39. 7. 51. 24.
      5.95000000e+01 46. 33. 14. 10. 13. 5. 1.55000000e+01 28. 44. 7. 5.
      5. 42. 50. 37. 43. 39. 10. 53. 27. 5. 28. 20. 60. 27. 36. 10. 60.
      35.</_>
    <_>
      15. 15. 59. 53. 25. 44. 26. 56. 4. 52. 14. 7. 55. 4. 20. 14. 17.
      10. 48. 42. 46. 23. 27. 50. 23. 11. 36. 18. 23. 39. 48.
      1.55000000e+01 45. 53. 4.33333359e+01 7. 3. 32. 21. 6. 27. 47. 43.
      53. 25. 20. 43. 13. 58. 40. 53. 2.45000000e+01 10. 39. 26. 4. 3.
      41. 15. 60. 26. 9. 25. 46.</_>
    <_>
      48. 15. 49. 7. 43. 14. 40. 39. 8. 4. 46. 10. 18. 53. 4.
      4.05000000e+01 38. 44. 18. 6.50000000e+00 37. 4. 48. 60. 14. 14.
      40. 11. 59. 52. 37. 56. 53. 39. 4. 53. 27. 18. 38. 20. 20. 13. 42.
      6. 16. 17. 15. 42. 10. 2.45000000e+01 3. 59. 8. 38. 23. 8. 37. 9.
      60. 41. 17. 23. 20. 53.</_>
    <_>
      5. 49. 15. 31. 10. 57. 30. 50. 37. 3. 9. 32. 27. 45. 3. 30. 22.
      24. 49. 53. 12. 57. 24. 19. 42. 14. 13. 50. 21. 30. 21. 16. 44.
      42. 5. 2.45000000e+01 11. 37. 26. 17. 50. 29. 16. 55. 43. 27. 31.
      28. 31. 3.75000000e+01 27. 8. 8. 34. 25. 21. 15. 51. 3. 18. 60.
      19. 8.50000000e+00 4.50000000e+00</_>
    <_>
      38. 21. 37. 17. 54. 32. 34. 33. 52. 5. 57. 4. 32. 28. 21. 14. 33.
      37. 36. 8. 3. 19. 48. 51. 50. 50. 26. 3. 14. 53. 51. 57. 60. 18.
      34. 5.35000000e+01 42. 30. 13. 29. 42. 16. 52. 37. 47. 55. 19. 42.
      58. 2.45000000e+01 60. 30. 41. 24. 58. 35. 39. 19. 20. 27. 31. 38.
      53. 57.</_>
    <_>
      53. 54. 53. 29. 17. 8. 39. 53. 56. 46. 27. 3. 34. 42. 57. 41. 20.
      50. 32. 14. 57. 39. 50. 6. 11. 16. 17. 45. 12. 24. 33. 27. 57. 37.
      55. 10. 16. 17. 21. 28. 6. 55. 20. 37. 39. 29. 22. 38. 11. 30. 55.
      34. 41. 29. 5. 31. 5.95000000e+01 11. 55. 60. 1.45000000e+01 20.
      55. 36.</_>
    <_>
      29. 29. 11. 28. 46. 46. 40. 6. 47. 37. 10. 50. 23. 27. 47. 41. 7.
      45. 53. 53. 43. 29. 3. 27. 3. 5. 31. 29. 45. 10. 10. 37. 47. 39.
      24. 42. 55. 4. 45. 34. 57. 53. 12. 38. 56. 8. 45. 36. 45. 60. 58.
      55. 6. 10. 43. 54. 7. 8. 29. 53. 22. 14. 17. 3.</_>
    <_>
      25. 59. 5.23333359e+01 5.96666679e+01 12. 2.15000000e+01 16.
      5.65000000e+01 15. 3. 27. 56. 45. 41. 36. 53. 2.13333340e+01
      3.06666679e+01 60. 29. 41. 58. 39. 27. 49. 48. 43. 25.
      1.96666679e+01 4.46666679e+01 34. 30. 52. 1.05000000e+01 49. 50.
      49. 3. 45. 13. 52. 3.56666679e+01 44. 31. 3.83333359e+01 7. 58.
      55. 14. 32. 4. 47. 2.33333340e+01 1.43333340e+01 60.
      1.45000000e+01 4. 16. 49. 28. 1.13333340e+01 4.13333359e+01 30. 3.</_>
    <_>
      29. 27. 33. 25. 4.66666698e+00 40. 24. 30. 18. 14. 4.23333359e+01
      5.96666679e+01 15. 30. 7. 55. 20. 3. 9. 29. 39. 49. 55.
      1.63333340e+01 42. 1.05000000e+01 10. 33. 35. 41. 35. 13.
      5.35000000e+01 40. 11. 1.45000000e+01 12. 47. 26. 53. 50. 29. 39.
      3. 42. 3.56666679e+01 10. 47. 31. 58. 1.63333340e+01
      5.66666679e+01 58. 53. 3.65000000e+01 2.95000000e+01
      2.83333340e+01 7. 15. 60. 4. 59. 5. 3.</_>
    <_>
      53. 58. 49. 6. 51. 60. 32. 52. 4. 13. 3. 44. 45. 6. 3. 37. 52. 31.
      23. 29. 38. 51. 54. 9. 26. 45. 43. 19. 32. 55. 5. 2.55000000e+01
      33. 48. 52. 3. 57. 33. 24. 18. 3. 35. 3.33333359e+01
      2.63333340e+01 37. 18. 26. 53. 2.05000000e+01 60. 34. 39. 49. 36.
      51. 7. 7. 14. 42. 4.03333359e+01 21. 47. 3. 58.</_>
    <_>
      36. 22. 60. 44. 11. 17. 37. 48. 4. 7. 33. 34. 7. 3. 59. 54. 55.
      33. 29. 17. 7. 53. 25. 60. 3. 10. 37. 34. 53. 52. 27. 32. 55. 48.
      8. 15. 37. 54. 57. 22. 52. 24. 46. 33. 55. 55. 25. 42. 53. 9. 10.
      19. 39. 51. 53. 36. 24. 24. 51. 53. 57. 6.50000000e+00 26. 36.</_>
    <_>
      47. 32. 12. 8. 47. 37. 52. 49. 24. 59. 14. 15. 4. 47. 59. 16. 54.
      44. 3. 38. 27. 16. 47. 3. 48. 14. 55. 56. 58. 42. 60. 3. 60. 41.
      35. 3. 4. 10. 44. 50. 19. 45. 2.75000000e+01 3.50000000e+00 14.
      11. 10. 50. 47. 20. 11. 59. 9.50000000e+00 18. 1.45000000e+01
      4.75000000e+01 21. 11. 57. 59. 16. 3.55000000e+01 60. 10.</_>
    <_>
      22. 17. 3.15000000e+01 1.05000000e+01 30. 51. 5.26666679e+01 49.
      22. 51. 25. 48. 16. 26. 20. 24. 60. 60. 14. 30. 57. 2.95000000e+01
      19. 44. 4.25000000e+01 4.02500000e+01 23. 28. 21. 42. 3. 42.
      4.66666679e+01 2.03333340e+01 35. 59. 5.42500000e+01
      6.25000000e+00 2.55000000e+01 35. 6.66666698e+00 5.66666698e+00
      31. 18. 58. 19. 3.27999992e+01 3.57999992e+01 2.15000000e+01 39.
      4.05000000e+01 5.65000000e+01 3. 51. 3. 18. 14. 1.45000000e+01 46.
      9. 6. 25. 3.56666679e+01 2.23333340e+01</_>
    <_>
      3. 11. 19. 4.06666679e+01 9. 5.76666679e+01 28. 59. 3.85000000e+01
      4.37500000e+01 29. 57. 20. 54. 46. 1.43333340e+01 31. 56. 18. 53.
      36. 51. 4.33333349e+00 2.16666679e+01 38. 7.33333349e+00 11.
      2.25000000e+01 2.96666679e+01 2.86666679e+01 3. 40. 60. 47. 10.
      26. 17. 58. 43. 28. 4.46666679e+01 5.06666679e+01 8. 16. 60. 51.
      1.45000000e+01 30. 3. 50. 44. 31. 5.33333349e+00 34.
      5.16666679e+01 5.56666679e+01 27. 36. 3. 52. 1.85000000e+01 10.
      51. 40.</_>
    <_>
      1.55000000e+01 30. 28. 41. 28. 35. 20. 36. 21. 20. 4.75000000e+01
      35. 6. 47. 1.35000000e+01 9.50000000e+00 1.05000000e+01 55. 44.
      53. 12. 24. 3.35000000e+01 3.05000000e+01 3. 55. 44. 59.
      2.56666679e+01 58. 3. 17. 21. 33. 45. 47. 29. 1.05000000e+01
      1.35000000e+01 59. 35. 58. 5.55000000e+01 6.50000000e+00
      7.33333349e+00 2.36666679e+01 5.75000000e+01 4.65000000e+01 6. 31.
      56. 25. 13. 32. 54. 36. 38. 16. 17. 3. 5.96666679e+01 34. 60. 5.</_>
    <_>
      3. 34. 29. 5.55000000e+01 4.50000000e+00 57. 5. 39. 9. 32. 13. 38.
      48. 8.50000000e+00 15. 34. 5.95000000e+01 2.85000000e+01 43.
      5.25000000e+01 34. 13. 32. 6. 15. 37. 34. 17. 27. 36. 30. 6. 16.
      1.55000000e+01 1.35000000e+01 12. 52. 11. 36. 44. 5.
      4.95000000e+01 20. 34. 25. 13. 26. 6. 11. 58. 54. 7. 52. 27. 46.
      43. 27. 40. 3. 3. 21. 21. 13. 7.</_>
    <_>
      5.35000000e+01 19. 29. 40. 28. 43. 29. 54. 51. 27. 15. 39.
      4.15000000e+01 30. 22. 47. 13. 2.55000000e+01 38. 41. 30. 11.
      4.15000000e+01 59. 9. 34. 5.05000000e+01 1.15000000e+01
      4.96666679e+01 5.16666679e+01 3. 51. 57. 3. 58. 41. 32. 3.
      1.53333340e+01 5.63333359e+01 13. 46. 29. 17. 23. 34. 57. 9. 43.
      47. 7. 60. 52. 22. 7. 20. 25. 3. 56. 11. 53. 48. 3. 58.</_>
    <_>
      41. 30. 43. 39. 54. 39. 55. 26. 34. 28. 56. 44. 39. 27. 60. 9. 54.
      5. 43. 54. 38. 32. 41. 5. 33. 3. 60. 59. 1.15000000e+01
      4.85000000e+01 32. 17. 49. 56. 13. 51. 49. 9. 39. 19. 53. 54. 36.
      51. 54. 58. 1.15000000e+01 13. 39. 52. 8. 23. 3. 48. 59. 15. 11.
      3.85000000e+01 56. 5. 43. 8. 55. 54.</_>
    <_>
      3.25000000e+01 3.25000000e+01 56. 31. 60. 16. 45. 52. 37. 53. 10.
      5.36666679e+01 56. 33. 43. 28. 36. 55. 54. 36. 51. 19. 4. 7. 4.
      42. 28. 21. 39. 3.05000000e+01 34. 50. 50. 54. 1.63333340e+01
      2.33333340e+01 19. 37. 44. 42. 4. 2.05000000e+01 41. 34.
      2.26000004e+01 5.77999992e+01 20. 50. 5.25000000e+01 46.
      5.85000000e+01 4.82500000e+01 48. 5.66666698e+00 48. 58.
      3.15000000e+01 10. 13. 14. 6. 35. 36. 44.</_>
    <_>
      1.32500000e+01 50. 3. 15. 44. 7. 5. 10. 33. 4. 3. 43. 54. 41. 8.
      1.15000000e+01 27. 3.50000000e+00 3.75000000e+01 1.95000000e+01 7.
      60. 3.55000000e+01 4.75000000e+01 40. 9. 3.52500000e+01
      5.82500000e+01 52. 42. 3. 3. 55. 30. 13. 14. 4.55000000e+01 31.
      13. 60. 46. 15. 1.73333340e+01 41. 52. 51. 1.95000000e+01
      2.75000000e+01 32. 28. 13. 21. 7. 55. 5.73333359e+01 7. 41. 13.
      45. 60. 35. 4.03333359e+01 22. 1.75000000e+01</_>
    <_>
      9. 19. 13. 16. 34. 4. 12. 23. 9. 5.53333359e+01 20. 18. 52. 41.
      59. 26. 22. 17. 50. 2.35000000e+01 24. 26. 56. 9. 3. 7.
      1.03333340e+01 1.03333340e+01 57. 31. 38. 28. 3.36666679e+01
      5.83333359e+01 14. 49. 3.15000000e+01 37. 58. 33. 33.
      4.75000000e+01 4.02500000e+01 1.72500000e+01 2.05000000e+01
      4.65000000e+01 50. 59. 36. 27. 12. 42. 16. 59. 60. 41.
      5.33333349e+00 2.96666679e+01 59. 57. 15. 3. 35. 51.</_>
    <_>
      29. 25. 21. 32. 37. 47. 34. 49. 15. 51. 55. 43. 18. 53. 45. 3. 50.
      51. 51. 42. 12. 47. 40. 22. 10. 52. 41. 60. 28. 60. 46. 14. 55. 9.
      18. 21. 22. 56. 39. 17. 57. 50. 60. 5. 4. 20. 6. 4.95000000e+01
      10. 29. 3. 46. 18. 26. 52. 59. 5. 54. 25. 56. 35. 20. 58. 60.</_>
    <_>
      40. 9. 34. 3. 6.50000000e+00 9. 37. 14. 22. 1.85000000e+01 35. 22.
      1.15000000e+01 45. 35. 20. 24. 5. 24. 25. 43. 4.55000000e+01 19.
      23. 3.85000000e+01 59. 13. 16. 38. 41. 2.95000000e+01
      5.45000000e+01 8. 60. 60. 4. 9.50000000e+00 31. 59. 57.
      1.26666670e+01 55. 1.85000000e+01 12. 50. 24. 5.83333359e+01 41.
      5.56666679e+01 14. 51. 36. 6.50000000e+00 49. 42. 4.95000000e+01
      13. 60. 56. 54. 44. 5.50000000e+00 3. 20.</_>
    <_>
      12. 15. 48. 51. 14. 14. 50. 37. 11. 10. 50. 23. 4.35000000e+01 30.
      4. 52. 27. 26. 5.75000000e+01 54. 11. 35. 17. 12. 55. 42. 51. 34.
      46. 59. 1.15000000e+01 1.95000000e+01 11. 59. 4.50000000e+00
      2.55000000e+01 2.76666679e+01 11. 19. 3. 44. 37. 54. 40.
      1.83333340e+01 4.56666679e+01 43. 33. 39. 46. 2.96666679e+01
      1.46666670e+01 26. 56. 5.76666679e+01 31. 16. 31. 58. 49. 4. 18.
      24. 4.</_>
    <_>
      56. 47. 48. 55. 15. 23. 43. 58. 30. 59. 24. 3. 3. 30. 7. 32.
      2.75000000e+01 2.05000000e+01 51. 37. 34. 6. 37. 53. 40. 52. 48.
      59. 28. 58. 55. 55. 23. 55. 23. 15. 4. 28. 8. 9. 59. 31. 12. 44.
      41. 12. 42. 53. 53. 57. 3. 25. 49. 23. 25. 56. 3. 4.65000000e+01
      4.55000000e+01 1.35000000e+01 12. 19. 59. 42.</_>
    <_>
      40. 46. 38. 51. 31. 60. 44. 3. 7. 59. 33. 2.15000000e+01 9. 42.
      42. 17. 9. 57. 59. 24. 24. 48. 2.37500000e+01 4.75000000e+00 25.
      58. 59. 26. 28. 19. 42. 3.65000000e+01 1.75000000e+01 29. 12. 55.
      13. 7.40000010e+00 37. 27. 4. 4.93333359e+01 14. 51.
      5.55000000e+01 34. 16. 51. 56. 3. 32. 16. 52. 3.25000000e+01
      3.50000000e+00 1.75000000e+01 5.52500000e+01 57. 50. 38.
      1.95000000e+01 4.45000000e+01 30. 8.</_>
    <_>
      60. 38. 59. 60. 48. 47. 47. 60. 36. 13. 24. 3. 2.56666679e+01 45.
      47. 58. 1.23333340e+01 1.43333340e+01 51. 30. 26. 60. 30. 3.
      1.85000000e+01 45. 25. 8. 46. 54. 9. 41. 56. 27. 28. 56. 21. 7.
      49. 49. 20. 33. 5.46666679e+01 4.56666679e+01 3. 17.
      1.36666670e+01 32. 55. 1.93333340e+01 48. 12. 14. 53. 30. 52. 17.
      7. 59. 43. 9.50000000e+00 27. 5.73333359e+01 5.33333349e+00</_></uncompressed_support_vectors>
  <decision_functions>
    <_>
      <sv_count>1</sv_count>
      <rho>-2.5786545052380194e-01</rho>
      <alpha>
        1.</alpha>
      <index>
        0</index></_></decision_functions></opencv_ml_svm>
</opencv_storage>
