<?xml version="1.0"?>
<opencv_storage>
<opencv_ml_svm>
  <format>3</format>
  <svmType>C_SVC</svmType>
  <kernel>
    <type>LINEAR</type></kernel>
  <C>1.</C>
  <term_criteria><iterations>1500</iterations></term_criteria>
  <var_count>128</var_count>
  <class_count>2</class_count>
  <class_labels type_id="opencv-matrix">
    <rows>2</rows>
    <cols>1</cols>
    <dt>i</dt>
    <data>
      -1 1</data></class_labels>
  <sv_total>1</sv_total>
  <support_vectors>
    <_>
      1.42384472e-03 1.15503464e-03 3.53363255e-04 -1.84470764e-03
      -3.52976174e-04 1.22056855e-03 7.60822499e-04 8.97350372e-04
      1.83846918e-04 4.64552897e-04 1.60776649e-03 -2.15430075e-04
      1.02162722e-03 -1.06429856e-03 8.08395911e-04 1.26244195e-04
      1.66325524e-04 -1.09425758e-03 7.62092648e-04 -1.18815096e-03
      -1.27320876e-03 1.36264612e-03 -1.92378426e-03 -8.73118523e-04
      1.27718505e-03 -1.12449387e-04 -7.58601818e-04 -9.49261012e-04
      -2.00806605e-03 2.15650816e-03 -1.43251475e-03 -3.89331050e-04
      -7.08470994e-04 2.73862679e-04 -1.09983981e-03 -9.49820504e-04
      -2.32191780e-03 -5.74899132e-05 -1.38632196e-03 -4.35301539e-04
      1.07205147e-03 2.41047633e-03 -2.56897393e-03 -2.28273589e-03
      1.34502922e-03 -1.69136387e-03 -3.28789873e-04 6.32944924e-04
      4.74750232e-06 -9.28026100e-04 -1.33326591e-03 6.17224374e-04
      -3.36806104e-03 3.61561542e-03 6.22102380e-05 -3.56062723e-04
      5.85764064e-05 1.43258134e-03 1.31445040e-03 1.35444629e-03
      7.27389939e-04 -7.76850735e-04 -1.33721670e-03 1.41699260e-04
      -3.51558230e-03 1.14591524e-03 1.23217888e-03 -5.82006702e-04
      2.76026170e-04 1.95007189e-03 -2.47275428e-04 -1.55109388e-03
      3.09509924e-03 1.70229340e-03 7.75581691e-04 2.45958683e-03
      -1.78302790e-03 3.27990390e-03 -2.51070072e-04 -2.17255880e-03
      1.67944992e-03 -1.20045945e-04 1.12650939e-03 -1.74138660e-03
      -8.22903123e-04 1.03947517e-04 -1.05124211e-03 2.40837876e-03
      -1.47863320e-04 2.03007294e-04 5.42229449e-04 1.54630956e-03
      -2.86788534e-04 -1.52524526e-03 8.17578635e-04 2.24489762e-04
      5.65655471e-04 3.16022849e-03 -6.18077698e-04 2.05901713e-04
      -8.35907820e-04 -4.58426832e-04 2.41255198e-04 -6.89588371e-04
      5.66352683e-04 -6.91309571e-04 1.37294771e-03 1.85101561e-03
      -7.62916752e-05 2.20956164e-03 1.49726972e-03 7.89332553e-04
      4.38396959e-03 -1.86618767e-03 -8.85906746e-04 5.31349739e-04
      -5.46212657e-04 4.25169989e-03 1.06720242e-03 1.71439617e-03
      -6.88761764e-04 -4.91884479e-04 -1.03466923e-03 2.14109896e-03
      -6.62616003e-05 -7.94021529e-04 1.10273220e-04 -1.55435340e-03</_></support_vectors>
  <uncompressed_sv_total>1775</uncompressed_sv_total>
  <uncompressed_support_vectors>
    <_>
      3.32000008e+01 1.18000002e+01 42. 52. 19. 39. 5.38333359e+01
      4.41666679e+01 19. 5.16666679e+01 18. 58. 22. 53. 23. 43. 50.
      3.36666679e+01 54. 4.66666698e+00 27. 43. 5.86666679e+01
      7.33333349e+00 30. 42. 3.46666679e+01 1.93333340e+01 38. 24. 3.
      32. 2.36666679e+01 14. 25. 47. 2.85000000e+01 1.85000000e+01
      2.46666679e+01 5.86666679e+01 43. 32. 6. 2.75000000e+01 4.
      5.85000000e+01 36. 4.75000000e+01 11. 2.37500000e+01 26. 39. 5.
      16. 36. 4.50000000e+00 24. 4.50000000e+00 4.33333349e+00 49. 38.
      3.25000000e+01 6.33333349e+00 3.56666679e+01 41. 3.77999992e+01
      4.75000000e+01 3.85000000e+01 3.66666675e+00 2.06666679e+01
      1.32500000e+01 37. 37. 55. 50. 5.65000000e+01 30. 36. 50.
      2.05000000e+01 3.15000000e+01 4.50000000e+00 4.66666679e+01
      4.46666679e+01 31. 4.95000000e+01 21. 1.95000000e+01 21. 6. 33.
      39. 11. 29. 45. 57. 42. 48. 29. 55. 26. 34. 57. 2.42500000e+01 30.
      6. 19. 2.73333340e+01 36. 4.15000000e+01 15. 30. 5.65000000e+01
      58. 46. 49. 33. 5.55000000e+01 1.35000000e+01 43. 14.
      5.75000000e+01 29. 2.66666679e+01 21. 3.25000000e+01
      5.64000015e+01 3.18000011e+01</_>
    <_>
      31. 40. 35. 42. 36. 59. 27. 43. 21. 50. 1.95000000e+01
      5.25000000e+01 2.45000000e+01 45. 44. 43. 12. 50. 20. 9. 31. 45.
      24. 58. 33. 5.55000000e+01 24. 51. 3. 58. 26. 49. 32. 47. 35. 52.
      21. 28. 26. 41. 36. 55. 5.93333359e+01 1.16666670e+01 21. 32. 19.
      60. 58. 42. 54. 4. 6.66666698e+00 5.56666679e+01 5.56666679e+01
      3.23333359e+01 14. 21. 30. 52. 5.33333359e+01 1.66666679e+01 17.
      38. 16. 59. 59. 37. 50. 10. 50. 29. 3. 21. 7. 3. 28. 55. 21. 38.
      16. 57. 4.45000000e+01 5.75000000e+01 5.23333359e+01 7. 59. 48.
      51. 34. 58. 16. 59. 3.05000000e+01 14. 25. 57. 52. 27. 3. 13. 15.
      32. 58. 30. 58. 59. 60. 28. 37. 60. 5. 8. 59. 55. 36. 54. 21. 47.
      5. 14. 28. 8. 41. 20. 15. 4.33333349e+00 2.86666679e+01</_>
    <_>
      3.03333340e+01 1.63333340e+01 2.45000000e+01 57. 11. 59. 32. 12.
      1.13333340e+01 5.36666679e+01 16. 58. 37. 18. 16. 55. 53. 23. 31.
      51. 60. 35. 3.35000000e+01 2.75000000e+01 4.66666679e+01
      3.83333359e+01 56. 12. 52. 14. 27. 49. 39. 23. 5.32500000e+01
      5.47500000e+01 52. 16. 22. 50. 3.36666679e+01 4.73333359e+01 41.
      23. 4.65000000e+01 2.45000000e+01 32. 7. 2.86666679e+01
      5.56666679e+01 3.73333359e+01 55. 1.56666670e+01 4.73333359e+01
      52. 26. 15. 9.50000000e+00 42. 17. 39. 9. 26. 4.12500000e+01 40.
      6.33333349e+00 21. 5.35000000e+01 4.52500000e+01 31. 24.
      3.47500000e+01 14. 26. 52. 4.76666679e+01 19. 5. 18. 43. 51.
      3.45000000e+01 11. 1.33333340e+01 4.75000000e+00 1.22500000e+01
      48. 1.63333340e+01 43. 21. 1.65000000e+01 39. 42. 1.33333340e+01
      10. 49. 1.43333340e+01 19. 22. 59. 1.56666670e+01 3.23333359e+01
      24. 22. 58. 40. 49. 54. 2.25000000e+01 47. 60. 40. 50. 26.
      6.50000000e+00 5.45000000e+01 9. 9. 49. 20. 10. 43. 5.86666679e+01
      6.33333349e+00 5.66666698e+00 47. 5.03333359e+01 5.</_>
    <_>
      45. 13. 50. 17. 54. 16. 5.05000000e+01 8. 24. 4. 53. 13. 11.
      6.33333349e+00 38. 2.03333340e+01 59. 47. 23. 6. 27. 54.
      5.85000000e+01 4. 54. 31. 5.55000000e+01 19. 22. 11. 60. 57.
      5.85000000e+01 59. 1.56666670e+01 9.66666698e+00 3. 20. 17. 4. 58.
      2.35000000e+01 27. 51. 9. 14. 40. 13. 60. 9. 4.55000000e+01 32.
      39. 4. 19. 28. 5.85000000e+01 2.95000000e+01 27. 4. 46. 18. 47.
      50. 3. 3.15000000e+01 34. 26. 19. 6. 29. 47. 14. 59. 14. 22.
      1.32500000e+01 34. 25. 34. 57. 11. 43. 45. 30. 5. 40. 58. 30. 59.
      3.75000000e+01 27. 3.72500000e+01 4.75000000e+01 14. 6.
      3.25000000e+01 53. 16. 14. 19. 19. 56. 9. 45. 8. 35. 33.
      4.85000000e+01 4.45000000e+01 54. 4.50000000e+00 3.03333340e+01
      1.03333340e+01 43. 55. 6. 12. 56. 4.43333359e+01 2.56666679e+01
      9.66666698e+00 35. 24. 19. 10. 47. 5.77500000e+01</_>
    <_>
      59. 32. 5.46666679e+01 16. 46. 36. 49. 37. 2.15000000e+01 28. 54.
      36. 49. 33. 54. 11. 56. 32. 46. 26. 33. 60. 46. 22. 53. 29. 60.
      27. 49. 26. 57. 26. 54. 26. 59. 23. 1.45000000e+01 4.25000000e+01
      34. 57. 49. 20. 18. 45. 17. 39. 46. 17. 58. 9.50000000e+00 52. 22.
      14. 35. 5.65000000e+01 59. 52. 12. 4. 28. 58. 4.96666679e+01 58.
      21. 13. 28. 60. 60. 5.76666679e+01 4.16666679e+01 48. 4. 5. 41.
      51. 17. 57. 4. 21. 34. 9.33333397e+00 24. 46. 43. 4.65000000e+01
      10. 8. 41. 56. 20. 16. 26. 3. 50. 49. 44. 4.95000000e+01 6. 51.
      41. 48. 11. 5.75000000e+00 3.35000000e+01 53. 54. 11. 34. 58. 16.
      1.85000000e+01 30. 2.15000000e+01 5.95000000e+01 13. 56.
      4.17500000e+01 5.45000000e+01 57. 54. 58. 3.75000000e+01 17. 22.
      47. 58. 52. 9.</_>
    <_>
      46. 50. 47. 46. 47. 43. 34. 44. 44. 39. 7.75000000e+00 40.
      3.45000000e+01 34. 2.45000000e+01 4. 7. 4.95000000e+01 47. 3. 42.
      41. 2.35000000e+01 1.17500000e+01 43. 7. 34. 41. 41. 8. 48. 6. 42.
      29. 24. 5.37500000e+01 2.26666679e+01 5.83333359e+01 41. 53. 42.
      12. 45. 8. 57. 17. 42. 31. 37. 51. 40. 13. 4.66666679e+01 12. 51.
      5.55000000e+01 6.50000000e+00 5.50000000e+00 60. 18. 40. 39. 24.
      44. 4.33333359e+01 1.66666679e+01 3.03333340e+01 4. 1.42500000e+01
      15. 13. 6. 33. 15. 55. 11. 7. 1.55000000e+01 1.28000002e+01
      4.57999992e+01 59. 22. 2.72500000e+01 1.75000000e+01
      5.02500000e+01 1.67500000e+01 36. 39. 6. 26. 30. 47.
      3.05000000e+01 9.50000000e+00 5.75000000e+01 9. 56. 1.35000000e+01
      5. 8. 5.23333359e+01 36. 36. 30. 8.80000019e+00 3.12000008e+01 39.
      2.03333340e+01 2.03333340e+01 4.76666679e+01 60. 5.55000000e+01
      9.80000019e+00 1.04000006e+01 1.45000000e+01 5.55000000e+01 4. 24.
      37. 4. 5.54000015e+01 2.92000008e+01 60. 45. 1.56666670e+01
      2.73333340e+01 19. 7.33333349e+00</_>
    <_>
      2.85000000e+01 2.65000000e+01 60. 58. 43. 21. 4.33333349e+00
      2.06666679e+01 9. 51. 17. 3.45000000e+01 60. 54. 39. 59.
      3.53333359e+01 15. 26. 5.95000000e+01 4. 59. 27. 48.
      5.76666679e+01 1.33333340e+01 16. 18. 50. 42. 16. 29. 5. 11. 5.
      1.55000000e+01 18. 3. 35. 24. 10. 5.76666679e+01 1.15000000e+01
      28. 55. 5.15000000e+01 37. 56. 45. 20. 2.05000000e+01 11.
      3.45000000e+01 1.05000000e+01 38. 19. 19. 26. 4. 57. 12. 19. 14.
      21. 3.45000000e+01 5.50000000e+00 4. 29. 29. 14. 56.
      5.75000000e+01 35. 52. 47. 16. 59. 60. 5. 50. 34. 19. 5. 55. 14.
      16. 44. 18. 2.35000000e+01 2.95000000e+01 51. 4.75000000e+01 32.
      4. 5. 3.83333359e+01 6. 28. 22. 47. 5.63333359e+01 45. 53. 58.
      2.45000000e+01 54. 5.05000000e+01 11. 32. 21. 2.72500000e+01 7. 9.
      35. 10. 54. 13. 3.65000000e+01 1.65000000e+01 1.45000000e+01 60.
      47. 26. 28. 5.35000000e+01 54. 59. 6.66666698e+00</_>
    <_>
      19. 52. 44. 60. 36. 59. 4.15000000e+01 53. 22. 55. 25. 56. 27. 17.
      24. 53. 17. 51. 38. 13. 1.75000000e+01 5.55000000e+01
      5.46666679e+01 4.36666679e+01 21. 31. 3.12500000e+01
      5.17500000e+01 21. 48. 26. 53. 3. 41. 3.75000000e+01 19.
      2.75000000e+01 30. 5.95000000e+01 29. 5.25000000e+01 6. 30. 44.
      52. 58. 23. 5.50000000e+00 33. 45. 30. 4.50000000e+00 6. 43. 5.
      5.12500000e+01 32. 22. 28. 26. 9. 14. 28. 45. 50. 5.36666679e+01
      3.55000000e+01 47. 58. 35. 60. 20. 3.75000000e+01 7.50000000e+00
      26. 6. 8. 44. 34. 42. 8.50000000e+00 5. 22. 18. 26. 44. 11.
      5.36666679e+01 3.26666679e+01 31. 1.35000000e+01 9.50000000e+00
      2.06000004e+01 2.28000011e+01 35. 50. 60. 8. 19. 7.50000000e+00
      10. 47. 49. 45. 33. 38. 2.26000004e+01 3.64000015e+01 7. 11. 18.
      27. 22. 42. 5. 5.76666679e+01 10. 5.95000000e+01 28. 52. 56.
      9.50000000e+00 57. 60. 4.65000000e+01 5. 19. 3.</_>
    <_>
      48. 32. 39. 31. 56. 15. 47. 30. 11. 19. 4.25000000e+01 38. 25. 47.
      53. 40. 42. 49. 15. 10. 52. 16. 45. 29. 19. 34. 11. 21.
      6.50000000e+00 3.67500000e+01 23. 37. 11. 8.33333397e+00
      1.85000000e+01 24. 60. 15. 2.95000000e+01 42. 39. 52. 18. 3.
      3.86666679e+01 5.83333359e+01 54. 18. 7.50000000e+00 5. 41. 29.
      14. 42. 3.87500000e+01 5. 13. 29. 36. 34. 1.16666670e+01
      5.93333359e+01 3.73333359e+01 1.73333340e+01 36. 45.
      2.95000000e+01 49. 29. 4. 49. 59. 56. 21. 49. 22. 9. 29. 6. 7. 19.
      31. 2.95000000e+01 3.55000000e+01 2.63333340e+01 6.33333349e+00
      49. 14. 3.26666679e+01 4.53333359e+01 17. 20. 2.06666679e+01
      5.66666698e+00 5.50000000e+00 4.45000000e+01 5.15000000e+01 25.
      47. 16. 48. 41. 11. 31. 13. 4. 17. 29. 34. 38. 29. 5.32500000e+01
      55. 31. 43. 21. 46. 5.50000000e+00 42. 43. 3.43333359e+01
      5.26666679e+01 24. 11. 3. 5. 57. 2.45000000e+01</_>
    <_>
      37. 55. 5.76666679e+01 4. 2.55000000e+01 26. 34. 3. 3.06666679e+01
      1.96666679e+01 4.59999990e+00 6. 1.95000000e+01 4.05000000e+01
      5.33333359e+01 2.51666679e+01 40. 55. 35. 9. 5. 26. 4. 35. 43. 56.
      17. 1.05000000e+01 32. 3. 5.82500000e+01 1.67500000e+01 10. 59.
      10. 32. 4.96000023e+01 49. 4.35000000e+01 59. 32. 7.
      4.63333359e+01 2.86666679e+01 16. 56. 45. 7.50000000e+00
      2.26666679e+01 10. 15. 32. 44. 52. 31. 9. 31. 3.43333359e+01
      4.83333359e+01 5.53333359e+01 52. 20. 1.55000000e+01 45.
      2.13333340e+01 35. 45. 40. 16. 5.75000000e+00 2.82500000e+01
      1.15000000e+01 53. 10. 51. 16. 4.37500000e+01 1.65000000e+01 15.
      52. 7.40000010e+00 5.26000023e+01 2.87500000e+01 29. 25.
      3.95000000e+01 4.45000000e+01 46. 4.33333349e+00 4.33333359e+01
      40. 33. 26. 5. 4.66666698e+00 1.46666670e+01 4.12500000e+01 26.
      38. 10. 55. 7. 9. 45. 36. 2.16666679e+01 34. 57. 7. 11.
      1.25000000e+01 40. 44. 49. 4.95000000e+01 4.25000000e+01 38. 4.
      24. 5. 52. 58. 39. 43. 38. 1.35000000e+01 1.25000000e+01 48.</_>
    <_>
      3. 59. 3. 52. 23. 32. 5. 4.15000000e+01 9. 55. 17. 33. 58.
      2.55000000e+01 5. 1.55000000e+01 5. 47. 44. 18. 44. 4. 15. 34. 14.
      57. 6. 44. 57. 19. 42. 59. 21. 3. 39. 4. 5.66666679e+01
      5.66666698e+00 9.50000000e+00 5.95000000e+01 13. 37. 4. 12. 12.
      42. 38. 42. 4.76666679e+01 3.76666679e+01 59. 11. 55. 14. 14. 4.
      26. 6. 45. 15. 22. 36. 17. 4.75000000e+01 59. 6. 3. 38. 48. 49.
      35. 4.75000000e+01 54. 18. 4. 26. 36. 5. 38. 6. 4.86666679e+01
      1.96666679e+01 55. 24. 22. 39. 13. 44. 20. 48. 4.45000000e+01 51.
      29. 9.66666698e+00 48. 45. 53. 16. 4.85000000e+01 5.55000000e+01
      35. 8. 40. 10. 18. 38. 11. 45. 20. 58. 36. 53. 53. 3. 49. 43. 34.
      60. 38. 14. 1.87500000e+01 4.27500000e+01 47. 16. 1.35000000e+01
      5.12500000e+01 35. 10.</_>
    <_>
      6. 22. 60. 41. 5.25000000e+01 4. 50. 8. 12. 21. 41. 56. 56. 43.
      11. 7. 35. 2.05000000e+01 54. 44. 45. 36. 4. 17. 16.
      3.50000000e+00 57. 4.95000000e+01 51. 54. 29. 4. 3. 12. 58. 56. 5.
      10. 45. 14. 54. 54. 44. 4.75000000e+01 3.50000000e+00 56. 48. 52.
      7.50000000e+00 47. 7. 9. 4.25000000e+01 6. 17. 8. 53. 50.
      2.95000000e+01 21. 4.45000000e+01 45. 5.50000000e+00
      2.55000000e+01 45. 50. 45. 56. 32. 16. 7. 17. 56. 60. 47. 29. 11.
      25. 49. 16. 49. 5.50000000e+00 1.15000000e+01 14. 1.15000000e+01
      30. 48. 10. 37. 16. 47. 59. 15. 60. 15. 6. 36. 7.50000000e+00 58.
      53. 12. 51. 42. 49. 1.05000000e+01 3. 3. 49. 26. 25. 47. 56. 47.
      40. 13. 12. 53. 57. 42. 18. 32. 4. 18. 15. 2.25000000e+01
      2.35000000e+01 5.63333359e+01 1.13333340e+01</_>
    <_>
      14. 5.95000000e+01 57. 9. 3.57500000e+01 2.25000000e+01 57. 12.
      52. 7. 3. 34. 53. 9. 42. 4. 58. 7. 1.92500000e+01 4.17500000e+01
      2.66000004e+01 2.92000008e+01 5.85000000e+01 46. 60. 57. 44. 8.
      36. 5. 57. 43. 40. 12. 33. 3. 4.63333359e+01 4.63333359e+01 6.
      1.97500000e+01 18. 1.07500000e+01 6. 34. 51. 55. 50. 12. 26. 6.
      14. 16. 45. 5.07500000e+01 3.95000000e+01 3.05000000e+01 49. 20.
      52. 53. 4.13333359e+01 5.76666679e+01 27. 5.93333359e+01 49.
      3.16666679e+01 5.35000000e+01 47. 25. 3. 2.62500000e+01
      5.52500000e+01 45. 12. 5.85000000e+01 3.65000000e+01
      2.95000000e+01 7. 5.25000000e+01 59. 19. 57. 1.55000000e+01 22.
      5.77999992e+01 22. 43. 3.03333340e+01 27. 48. 2.45000000e+01
      3.72500000e+01 35. 31. 53. 3. 11. 4.13333359e+01 3.06666679e+01
      1.76666679e+01 3.75000000e+01 47. 5.72500000e+01 3.05000000e+01
      5.05000000e+01 42. 1.13333340e+01 5. 3.12000008e+01 1.31999998e+01
      1.63999996e+01 3.08000011e+01 41. 19. 5.05000000e+01
      2.67500000e+01 2.45000000e+01 1.15000000e+01 4. 2.62500000e+01 41.
      40. 11. 2.33333340e+01 3.03333340e+01 2.46666679e+01 11.
      9.33333397e+00</_>
    <_>
      4. 3. 9. 42. 42. 19. 30. 3.46666679e+01 3.46666679e+01
      4.66666698e+00 17. 48. 4. 45. 34. 35. 59. 57. 8.66666698e+00
      4.86666679e+01 60. 52. 1.92500000e+01 7.75000000e+00 23. 50. 37.
      38. 49. 42. 4.05000000e+01 5.82500000e+01 17. 44. 32. 40.
      1.93999996e+01 14. 3.25000000e+01 9.50000000e+00 58. 55. 17. 42.
      31. 50. 53. 43. 2.65000000e+01 1.45000000e+01 5.42500000e+01
      2.22500000e+01 2.57500000e+01 4.07500000e+01 60. 30. 19. 46. 32.
      43. 5.05000000e+01 4.65000000e+01 20. 40. 20. 24. 39. 41. 18. 3.
      48. 49. 3. 58. 3.05000000e+01 28. 3.83333359e+01 4.93333359e+01
      55. 59. 26. 4. 3.06666679e+01 1.83333340e+01 20. 43. 21. 37. 40.
      43. 5.73333359e+01 4.83333359e+01 53. 53. 4.15000000e+01 5. 4. 56.
      5.36000023e+01 7.59999990e+00 52. 59. 3.15000000e+01 13. 28.
      4.36666679e+01 2.35000000e+01 31. 58. 3.96666679e+01 33. 57.
      4.72000008e+01 1.38000002e+01 54. 47. 22. 5.86666679e+01 49.
      2.06666679e+01 3.50000000e+00 53. 4.93333359e+01 5.53333359e+01
      5.73333359e+01 34. 3.86666679e+01 9.66666698e+00</_>
    <_>
      5.62500000e+01 4.87500000e+01 52. 40. 50. 3.50000000e+00 41. 42.
      18. 60. 46. 40. 4.53333359e+01 1.36666670e+01 7. 24.
      2.85000000e+01 27. 39. 50. 14. 58. 11. 24. 4.33333349e+00
      9.33333397e+00 3.35000000e+01 29. 1.75000000e+01 4.35000000e+01
      41. 56. 4.26666679e+01 30. 11. 52. 18. 15. 2.85000000e+01
      3.75000000e+01 36. 5.55000000e+01 1.01999998e+01 1.31999998e+01
      3.95000000e+01 3.35000000e+01 39. 16. 3.42500000e+01 5.
      4.43333359e+01 5.16666679e+01 26. 5.85000000e+01 52. 22.
      3.16666679e+01 5.16666679e+01 4.27999992e+01 2.26000004e+01 58.
      1.55000000e+01 5. 5.36666679e+01 3.03333340e+01 21. 4. 57. 13. 50.
      45. 6.50000000e+00 14. 18. 34. 4.13333359e+01 39. 18.
      3.77500000e+01 9.50000000e+00 58. 37. 45. 45. 5.05000000e+01
      4.92500000e+01 5.53333359e+01 56. 58. 23. 20. 26. 15. 51. 8.
      1.75000000e+01 25. 32. 43. 38. 53. 3.32500000e+01 3.55000000e+01
      23. 59. 8. 29. 1.05000000e+01 50. 44. 15. 22. 5. 32.
      1.56666670e+01 9.66666698e+00 2.46666679e+01 4.66666679e+01 48.
      25. 13. 3. 19. 49. 44. 59. 60. 56.</_>
    <_>
      3. 58. 4. 53. 52. 14. 9. 56. 53. 55. 6. 53. 18. 52. 19. 50. 7. 18.
      38. 40. 18. 46. 6. 9. 38. 43. 5. 32. 57. 58. 17. 50. 39. 47. 5.
      43. 23. 4.55000000e+01 32. 5.25000000e+01 12. 36. 55. 51. 15. 46.
      47. 51. 5. 41. 4.55000000e+01 56. 10. 24. 56. 54. 31. 49. 9. 52.
      43. 43. 7. 41. 42. 52. 44. 27. 17. 56. 7. 26. 8. 46. 32. 6. 35.
      60. 4.93333359e+01 43. 27. 5. 50. 55. 7.33333349e+00 36. 30. 47.
      4.85000000e+01 28. 9. 43. 22. 51. 3.63333359e+01 56. 9. 49. 52.
      45. 5. 38. 50. 3.56666679e+01 9.66666698e+00 28. 40. 58. 41. 31.
      4.23333359e+01 7. 51. 4. 8. 30. 43. 11. 59. 14. 53. 57.
      5.45000000e+01 35. 27. 45. 26. 56.</_>
    <_>
      42. 2.13333340e+01 51. 6. 51. 3.50000000e+00 49. 9. 47. 6. 4.
      4.26666679e+01 43. 3. 41. 3. 3.53333359e+01 3.76666679e+01
      1.07500000e+01 43. 13. 3.43333359e+01 39. 5.85000000e+01 42. 5.
      2.83999996e+01 5.37999992e+01 3.95000000e+01 54. 38. 3. 42.
      4.65000000e+01 26. 25. 41. 12. 48. 59. 24. 38. 33. 2.03333340e+01
      3. 21. 57. 4. 52. 59. 2.85000000e+01 1.72500000e+01 56.
      5.05000000e+01 7.50000000e+00 2.72500000e+01 5. 9.50000000e+00 34.
      5.65000000e+01 37. 9. 5.56666679e+01 40. 1.93999996e+01
      5.36000023e+01 49. 57. 32. 11. 47. 53. 12. 7.50000000e+00 54. 8.
      1.35000000e+01 22. 58. 18. 2.56666679e+01 3.06666679e+01 4. 5.
      2.62500000e+01 1.02500000e+01 5.15000000e+01 44. 13. 59.
      2.86666679e+01 4.26666679e+01 36. 26. 4.37500000e+01 43.
      8.33333397e+00 1.26666670e+01 16. 1.15000000e+01 5.55000000e+01
      14. 29. 36. 36. 13. 51. 5.15000000e+01 5.63333359e+01
      3.33333359e+01 13. 55. 17. 6. 5. 5.62500000e+01 49. 14. 6.
      5.16666679e+01 3.52500000e+01 4.85000000e+01 6.25000000e+00
      3.17500000e+01 17. 41. 2.37500000e+01 4.75000000e+00</_>
    <_>
      5. 41. 2.93999996e+01 1.62000008e+01 12. 59. 4.65000000e+01 44.
      21. 4.52500000e+01 15. 58. 53. 4.15000000e+01 3.85000000e+01
      3.55000000e+01 10. 37. 17. 17. 15. 47. 37. 5.95000000e+01
      4.73333359e+01 3.93333359e+01 57. 47. 4.63333359e+01
      7.33333349e+00 5.73333359e+01 3.56666679e+01 7.16666698e+00
      9.66666698e+00 3. 38. 13. 34. 60. 47. 21. 21. 5. 4.63333359e+01
      4.87500000e+01 2.26250000e+01 5.15000000e+01 34. 31.
      5.73333359e+01 60. 59. 18. 4. 8. 25. 1.86666679e+01 39. 50. 4.
      2.31428585e+01 2.90000019e+01 56. 30. 3. 32. 9.25000000e+00
      3.50000000e+00 13. 2.13333340e+01 4.45000000e+01 5.72500000e+01
      13. 5.25000000e+01 5.75000000e+01 1.52500000e+01 21. 59.
      5.80000019e+00 5.42000008e+01 5.43333359e+01 5.73333359e+01 56. 6.
      53. 30. 3.37500000e+01 5. 57. 3. 3.97500000e+01 1.07500000e+01 11.
      32. 3.05000000e+01 35. 32. 2.65000000e+01 2.48333340e+01
      5.36666679e+01 16. 29. 3.54000015e+01 4.34000015e+01 50.
      5.73333359e+01 9. 46. 38. 2.98000011e+01 18. 55. 4.77999992e+01
      1.46000004e+01 52. 5.05000000e+01 2.93999996e+01 4.82000008e+01
      55. 10. 9.33333397e+00 1.66666679e+01 54. 3.75000000e+01
      5.45000000e+01 25. 3.50000000e+00 27.</_>
    <_>
      38. 54. 50. 37. 29. 4.05000000e+01 17. 13. 8. 45. 39. 47. 57. 51.
      3.02500000e+01 5.75000000e+01 1.73333340e+01 5.03333359e+01 32.
      26. 19. 14. 47. 35. 16. 31. 4.85000000e+01 58. 2.56666679e+01
      3.16666679e+01 16. 58. 2.92500000e+01 1.85000000e+01
      4.15000000e+01 5.45000000e+01 4.66666698e+00 2.26666679e+01 27.
      2.55000000e+01 5.72500000e+01 4.62500000e+01 22. 4.85000000e+01
      26. 10. 35. 45. 44. 35. 39. 4.07500000e+01 16. 35. 22. 24. 58. 30.
      51. 39. 25. 43. 28. 6. 2.65000000e+01 2.75000000e+01 20. 20. 35.
      36. 6.33333349e+00 38. 14. 35. 1.95000000e+01 2.55000000e+01 51.
      42. 5.50000000e+00 4.55000000e+01 29. 46. 7. 52. 1.28000002e+01
      2.43999996e+01 28. 37. 25. 22. 42. 36. 9. 32. 5.85000000e+01 35.
      21. 32. 15. 20. 21. 36. 17. 19. 11. 1.18000002e+01 6.40000010e+00
      6.40000010e+00 53. 43. 60. 58. 32. 52. 1.15000000e+01 52.
      2.85000000e+01 34. 2.85000000e+01 15. 9. 27. 38. 36. 13. 40.
      4.77500000e+01 5.12500000e+01</_>
    <_>
      3. 17. 48. 46. 15. 27. 44. 46. 34. 56. 6.50000000e+00 45. 10. 10.
      2.66666679e+01 6. 2.95000000e+01 13. 39. 29. 4.05000000e+01
      5.05000000e+01 1.26666670e+01 5.56666679e+01 57. 38. 18.
      5.37500000e+01 18. 5. 17. 38. 13. 13. 42. 36. 8.60000038e+00 58.
      49. 5.15000000e+01 5.66666698e+00 7.66666698e+00 16. 3. 16. 30.
      4.22500000e+01 56. 22. 42. 25. 18. 7. 14. 42. 40. 57. 19.
      4.50000000e+00 2.97500000e+01 12. 4.67500000e+01 58. 45. 16. 5.
      9.50000000e+00 2.65000000e+01 21. 46. 24. 35. 10. 14. 33.
      4.47500000e+01 52. 48. 2.72000008e+01 2.93999996e+01
      5.56666679e+01 2.83333340e+01 3.27500000e+01 6.50000000e+00 58. 5.
      2.85000000e+01 17. 8.75000000e+00 2.05000000e+01 8. 3.
      8.25000000e+00 3.55000000e+01 17. 47. 29. 38. 3. 5.45000000e+01
      24. 25. 11. 17. 5.50000000e+00 24. 2.53333340e+01 56.
      3.16666679e+01 34. 57. 3.32500000e+01 58. 5.54000015e+01
      4.65000000e+01 36. 5.85000000e+01 48. 4.73333359e+01
      2.76666679e+01 51. 2.03333340e+01 27. 10. 7. 50. 10. 4.</_>
    <_>
      52. 33. 41. 23. 47. 10. 6. 5. 54. 10. 42. 1.85000000e+01 35. 4.
      5.43333359e+01 2.06666679e+01 47. 12. 50. 13. 50. 26. 3. 49. 3.
      56. 56. 40. 47. 21. 48. 45. 12. 56. 58. 26. 50. 24. 59. 43. 42.
      60. 24. 6. 12. 51. 17. 4. 54. 27. 50. 16. 46. 43. 52. 39. 44. 58.
      57. 15. 9. 56. 57. 34. 54. 16. 5.55000000e+01 53. 60. 46. 39. 17.
      38. 9. 4.83333359e+01 35. 3.93333359e+01 4.76666679e+01 50. 30.
      38. 40. 50. 43. 45. 56. 5.15000000e+01 5. 59. 14. 7. 56. 57. 30.
      47. 4. 58. 18. 60. 50. 43. 11. 30. 7. 45. 39. 45. 47.
      5.53333359e+01 4.36666679e+01 53. 41. 49. 5.12500000e+01 46. 53.
      58. 9.50000000e+00 10. 51. 53. 30. 58. 5.33333349e+00
      5.66666698e+00 5.13333359e+01 2.95000000e+01 3.50000000e+00</_>
    <_>
      11. 60. 3. 43. 9. 58. 58. 50. 19. 3. 13. 50. 56. 51. 17. 5. 10.
      19. 8. 56. 16. 48. 8. 39. 51. 56. 12. 18. 12. 23. 6. 4. 3. 24. 5.
      45. 36. 4. 15. 40. 57. 53. 47. 52. 54. 49. 14. 17. 6. 21. 3. 7. 8.
      47. 12. 45. 60. 56. 10. 10. 3. 34. 53. 52. 16. 10. 46. 5. 3. 30.
      60. 4. 3. 16. 7. 53. 30. 5. 25. 4. 3. 40. 60. 53. 50. 49. 14. 8.
      8. 34. 56. 4. 23. 7. 6. 11. 3. 13. 46. 50. 41. 56. 42. 51. 6. 51.
      22. 3. 7. 43. 45. 56. 3. 26. 57. 55. 49. 52. 10. 12. 3. 37. 48. 5.
      28. 7. 4. 51.</_>
    <_>
      26. 43. 30. 46. 28. 56. 12. 60. 26. 46. 33. 59. 31. 43. 31. 55.
      17. 54. 12. 56. 51. 45. 42. 59. 18. 60. 37. 49. 32. 49. 15. 57.
      12. 54. 54. 50. 45. 60. 42. 50. 40. 58. 10. 53. 40. 47. 50. 59.
      23. 44. 55. 45. 30. 49. 20. 57. 24. 47. 4. 60. 54. 57. 9. 42. 17.
      48. 51. 50. 38. 56. 3. 58. 3. 41. 49. 47. 36. 57. 13. 46. 3. 53.
      35. 46. 9. 47. 36. 43. 43. 44. 58. 58. 46. 45. 22. 42. 26. 48. 20.
      54. 52. 60. 28. 60. 59. 46. 3. 47. 47. 57. 22. 48. 48. 51. 38. 58.
      4. 44. 1.85000000e+01 43. 59. 49. 6. 58. 11. 48. 39. 43.</_>
    <_>
      3.03333340e+01 1.86666679e+01 4.25000000e+01 1.95000000e+01
      2.95000000e+01 6. 23. 16. 34. 46. 19. 14. 34. 50. 18. 12. 40. 56.
      12. 1.35000000e+01 39. 51. 37. 59. 2.32500000e+01 5.62500000e+01
      3. 22. 4.12857170e+01 1.28571434e+01 51. 40. 1.66666679e+01 28.
      9.50000000e+00 16. 7. 3.85000000e+01 44. 55. 52. 5. 14. 17. 11.
      40. 12. 3. 5.72000008e+01 19. 45. 53. 45. 3. 7. 21. 16. 42.
      3.50000000e+00 1.55000000e+01 36. 2.83999996e+01 56.
      4.45000000e+01 17. 57. 4.96666679e+01 1.36666670e+01
      1.08000002e+01 5.84000015e+01 10. 30. 33. 2.33333340e+01 3. 44.
      12. 44. 6. 3. 49. 5.65000000e+01 6.25000000e+00 1.05000000e+01
      2.97500000e+01 3.35000000e+01 22. 7. 42. 8. 8. 25. 5.55000000e+01
      2.91666679e+01 46. 3.13333340e+01 7. 46. 4. 4. 59. 4.05000000e+01
      5.74000015e+01 5.04000015e+01 48. 4.95000000e+01 5.76666679e+01
      5.76666679e+01 1.66666679e+01 3.53333359e+01 47. 2.36666679e+01
      40. 4.50000000e+00 2.22500000e+01 37. 14. 22. 57. 9. 6. 57. 43.
      35. 8.50000000e+00 51. 12. 6.</_>
    <_>
      41. 2.35000000e+01 6. 3.15000000e+01 3.55000000e+01 4.75000000e+01
      56. 4.25000000e+00 54. 4.65000000e+01 27. 3.03333340e+01 39. 46.
      5.64000015e+01 2.26000004e+01 5.63333359e+01 5.86666679e+01 45.
      31. 1.42500000e+01 4.05000000e+01 35. 56. 41. 31. 39. 54. 47.
      3.45000000e+01 32. 20. 42. 5.75000000e+01 38. 2.05000000e+01
      4.85000000e+01 59. 38. 36. 55. 3.95000000e+01 35. 22. 12. 15.
      5.12500000e+01 54. 44. 48. 45. 6.50000000e+00 2.35000000e+01 51.
      4.76000023e+01 16. 4.05000000e+01 1.35000000e+01 2.75000000e+01
      9.50000000e+00 3. 50. 38. 39. 23. 2.75000000e+01 29. 24. 15. 47.
      42. 52. 4.25000000e+01 10. 5.85000000e+01 44. 37. 5.96666679e+01
      3. 42. 4.52000008e+01 3.96000023e+01 41. 3.55000000e+01
      3.43333359e+01 3.23333359e+01 22. 5.76666679e+01 2.55000000e+01
      3.55000000e+01 48. 47. 2.15000000e+01 6. 34. 17. 53.
      1.33333340e+01 1.35000000e+01 3.45000000e+01 8.50000000e+00 52.
      2.13333340e+01 13. 32. 5.15000000e+01 42. 4.25000000e+01 18. 23.
      35. 29. 2.25000000e+01 37. 52. 30. 1.35000000e+01 9.50000000e+00
      4.45000000e+01 53. 36. 14. 5.93333359e+01 1.03333340e+01
      1.65000000e+01 31. 7.50000000e+00 4.45000000e+01</_>
    <_>
      6.50000000e+00 9.25000000e+00 4.04000015e+01 4.96000023e+01 11.
      3.16666679e+01 59. 41. 4.95000000e+01 39. 51. 60. 49. 42. 46. 18.
      9. 4.43333359e+01 53. 43. 56. 24. 50. 44. 3.46000023e+01 10. 60.
      37. 59. 5.15000000e+01 5.05000000e+01 2.45000000e+01 22. 39. 17.
      4. 57. 54. 4.67500000e+01 5.17500000e+01 5.32000008e+01
      3.57999992e+01 57. 26. 41. 22. 1.65000000e+01 4.65000000e+01 55.
      56. 60. 32. 43. 4.16666679e+01 24. 4.55000000e+01 4.75000000e+01
      8.50000000e+00 49. 4.65000000e+01 2.28000011e+01 53. 51. 28. 29.
      32. 27. 42. 5. 1.56666670e+01 37. 1.65000000e+01 2.12000008e+01
      3.32000008e+01 5.25000000e+01 53. 5.43333359e+01 6. 5.47500000e+01
      1.55000000e+01 1.48000002e+01 1.26000004e+01 56. 30. 21. 18.
      5.85000000e+01 9.75000000e+00 31. 1.56666670e+01 3.65000000e+01
      34. 29. 40. 2.83333340e+01 5.93333359e+01 4.66666698e+00 27.
      3.52500000e+01 5.52500000e+01 12. 59. 3.95000000e+01
      7.50000000e+00 51. 56. 7. 5.57500000e+01 52. 30. 2.86666679e+01
      53. 16. 27. 45. 3.37500000e+01 4.25000000e+00 36. 59. 3. 30.
      2.47500000e+01 24. 9. 60. 5.55000000e+01 44. 2.65000000e+01</_>
    <_>
      8.33333397e+00 14. 5.83333359e+01 28. 5.15000000e+01
      1.32500000e+01 2.15000000e+01 28. 33. 39. 5. 29. 4.13333359e+01
      4.43333359e+01 43. 4. 29. 6. 3. 4. 12. 5. 60. 47. 9.50000000e+00
      2.15000000e+01 49. 3.62500000e+01 9. 8.50000000e+00 5.86666679e+01
      12. 12. 44. 1.75000000e+01 1.02500000e+01 5. 45. 54. 54.
      5.56666679e+01 1.76666679e+01 1.56000004e+01 37. 14. 49. 44. 10.
      1.85000000e+01 17. 11. 28. 5.33333359e+01 23. 16. 49. 48. 5.
      4.95000000e+01 4.35000000e+01 2.15000000e+01 12. 60.
      4.50000000e+00 13. 14. 19. 31. 6. 3. 44. 21. 18. 44. 53. 4. 46.
      46. 42. 6. 4.27500000e+01 1.42500000e+01 6.33333349e+00
      4.93333359e+01 15. 14. 24. 18. 8.50000000e+00 33. 44. 23.
      5.33333349e+00 11. 4.35000000e+01 3.35000000e+01 16.
      2.75000000e+01 2.15000000e+01 4.85000000e+01 5.85000000e+01
      8.50000000e+00 37. 41. 3.43333359e+01 4.66666679e+01 38.
      4.50000000e+00 18. 5. 5.96666679e+01 55. 50. 26. 5.65000000e+01
      38. 1.35000000e+01 9. 12. 18. 11. 39. 46. 29. 24. 43. 27.
      4.76666679e+01</_>
    <_>
      5.75000000e+00 51. 38. 36. 2.15000000e+01 2.05000000e+01 56. 37.
      32. 4.65000000e+01 4.41666679e+01 18. 1.33333340e+01 17. 37. 27.
      54. 41. 55. 35. 3.55000000e+01 5. 1.65000000e+01 3.50000000e+00
      1.92500000e+01 30. 55. 43. 44. 33. 31. 3. 41. 42. 42. 25. 35. 9.
      44. 42. 42. 60. 44. 30. 5.62500000e+01 53. 20. 47. 41. 9.
      4.50000000e+00 2.65000000e+01 52. 54. 1.44000006e+01 36. 49. 30.
      2.46666679e+01 5.66666698e+00 33. 19. 4. 29. 35. 60.
      5.50000000e+00 6.16666698e+00 4.15000000e+01 5.45000000e+01 53.
      29. 5.26666679e+01 5.33333349e+00 16. 12. 37. 13. 22.
      5.73333359e+01 5.46666679e+01 1.16666670e+01 5.50000000e+00
      1.85000000e+01 3. 13. 57. 18. 60. 49. 9.50000000e+00
      4.85000000e+01 59. 32. 44. 7. 49. 53. 54. 25. 39. 12. 11. 29.
      1.53333340e+01 7. 8.50000000e+00 5.85000000e+01 5.73333359e+01
      5.76666679e+01 30. 36. 1.45000000e+01 4.57500000e+01
      4.26666679e+01 49. 2.95000000e+01 9. 4.86666679e+01 2.36666679e+01
      3. 10. 1.73333340e+01 5.46666679e+01 4.55000000e+01 11.
      4.83333359e+01 49.</_>
    <_>
      51. 26. 59. 38. 22. 15. 1.85000000e+01 27. 54. 26. 17. 13. 53. 58.
      58. 22. 52. 21. 52. 39. 60. 26. 5. 38. 9. 23. 15. 15.
      2.75000000e+01 3.25000000e+01 55. 57. 3. 33. 6. 4. 4.50000000e+00
      58. 3.50000000e+00 42. 12. 4. 53. 33. 2.45000000e+01 19. 56. 26.
      3. 50. 6. 23. 18. 17. 20. 36. 3.50000000e+00 1.45000000e+01 58.
      51. 10. 53. 14. 21. 13. 13. 60. 58. 59. 33. 17. 23. 60. 19. 7. 48.
      3. 20. 12. 22. 27. 42. 25. 10. 60. 44. 53. 51. 9. 14. 56. 34. 21.
      30. 56. 20. 3. 52. 5. 45. 18. 4. 7. 15. 16. 21. 24. 47.
      1.95000000e+01 4.15000000e+01 12. 8. 54. 4.55000000e+01 22. 54.
      57. 39. 18. 9. 55. 49. 7. 11. 21. 50. 10. 11.</_>
    <_>
      38. 1.95000000e+01 28. 4.45000000e+01 48. 59. 6. 1.56000004e+01
      52. 56. 1.25000000e+01 4.75000000e+01 47. 54. 8.25000000e+00 43.
      5.75000000e+01 19. 6.50000000e+00 7.50000000e+00 9.50000000e+00
      2.82500000e+01 5.83333359e+01 58. 15. 57. 6.33333349e+00
      3.56666679e+01 45. 46. 49. 13. 17. 50. 1.25000000e+01 41.
      3.96666679e+01 2.46666679e+01 37. 44. 32. 9. 38. 14. 50. 7. 28.
      41. 19. 53. 2.05000000e+01 3.25000000e+01 44. 51. 3.50000000e+00
      4.15000000e+01 51. 4. 42. 40. 58. 26. 35. 5.42000008e+01
      3.55000000e+01 2.85000000e+01 57. 28. 5.62000008e+01
      4.59999990e+00 47. 3.05000000e+01 20. 50. 2.72500000e+01
      2.77500000e+01 3. 53. 13. 34. 5.45000000e+01 4.15000000e+01 41.
      60. 52. 8. 3.18333340e+01 1.85000000e+01 44. 39. 32. 38.
      4.86666679e+01 3.53333359e+01 52. 1.93333340e+01 2.45000000e+01
      43. 13. 52. 1.13333340e+01 21. 5.73333359e+01 4.86666679e+01
      2.53333340e+01 48. 29. 5.45000000e+01 59. 8.50000000e+00
      5.05000000e+01 27. 26. 38. 51. 4.75000000e+01 2.45000000e+01 58.
      4. 60. 3. 55. 27. 15. 13. 10. 2.43333340e+01 52.</_>
    <_>
      5. 34. 38. 25. 11. 48. 11. 34. 39. 56. 50. 54. 9.66666698e+00
      2.56666679e+01 3.87500000e+01 1.35000000e+01 6. 37. 33. 55. 4. 6.
      22. 5.93333359e+01 57. 5.45000000e+01 6. 41. 58. 7. 32.
      5.15000000e+01 3.86666679e+01 3.13333340e+01 5.62500000e+01
      4.57500000e+01 26. 5.45000000e+01 9. 12. 52. 47. 1.93999996e+01
      3.24000015e+01 8. 37. 2.05000000e+01 45. 56. 10. 2.25000000e+01
      3.50000000e+00 5.15000000e+01 38. 27. 5.05000000e+01 51.
      2.13333340e+01 1.34000006e+01 4.04000015e+01 16. 17. 6. 15. 47.
      4.43333359e+01 21. 16. 50. 59. 55. 49. 1.06666670e+01
      3.13333340e+01 4.73333359e+01 33. 37. 3.65000000e+01
      5.95000000e+01 15. 8. 44. 54. 7. 37. 43. 10. 7. 3. 19.
      4.66666679e+01 8. 42. 28. 57. 4.15000000e+01 14. 35. 58. 29.
      3.72500000e+01 4.82500000e+01 60. 4. 10. 45. 10. 54. 51. 11.
      3.95000000e+01 4.15000000e+01 2.05000000e+01 8.50000000e+00 12. 5.
      11. 20. 4.45000000e+01 5.50000000e+00 45. 3.93333359e+01
      3.56666679e+01 2.96666679e+01 60. 45. 14. 58.</_>
    <_>
      3. 60. 58. 60. 13. 4.75000000e+00 7.50000000e+00 1.52500000e+01
      2.05000000e+01 17. 8. 60. 38. 5. 5.55000000e+01 2.22500000e+01 15.
      21. 12. 5.95000000e+01 5.13333359e+01 11. 42. 4. 33. 26.
      5.87500000e+01 8. 1.77500000e+01 3.95000000e+01 3.82000008e+01
      1.51999998e+01 24. 59. 37. 9. 20. 26. 39. 5.65000000e+01
      2.22500000e+01 1.27500000e+01 16. 56. 1.25000000e+01
      3.57500000e+01 7. 56. 47. 24. 4.23333359e+01 7.66666698e+00 28.
      27. 6.25000000e+00 3.15000000e+01 32. 23. 32. 8. 18. 25. 23.
      5.33333359e+01 51. 5.75000000e+01 12. 54. 52. 17. 3.26666679e+01
      5.61666679e+01 44. 4. 25. 26. 59. 28. 34. 3.76000023e+01 37. 24.
      26. 6. 21. 3.26666679e+01 31. 47. 3.95000000e+01 45. 7.
      4.23333359e+01 44. 5.77500000e+01 4.13333359e+01 3.26666679e+01
      1.55000000e+01 45. 5.86000023e+01 4.62000008e+01 60.
      1.75000000e+01 4.95000000e+01 4. 21. 46. 45. 21. 29.
      1.15000000e+01 17. 30. 5.17500000e+01 4.52500000e+01 27. 55.
      2.65000000e+01 43. 4.86666679e+01 34. 4.06666679e+01
      5.23333359e+01 5.80000019e+00 4.87999992e+01 3. 7. 11.
      4.55000000e+01</_>
    <_>
      13. 7. 44. 17. 43. 12. 40. 60. 40. 7. 38. 56. 1.95000000e+01 11.
      49. 42. 6.20000029e+00 4.82000008e+01 22. 4.50000000e+00
      3.18000011e+01 1.08000002e+01 49. 51. 57. 49. 1.75000000e+01
      3.50000000e+00 5.15000000e+01 2.62500000e+01 25. 4.50000000e+00
      49. 48. 48. 5.96666679e+01 56. 46. 11. 54. 59. 4.65000000e+01 25.
      15. 5.63333359e+01 1.56666670e+01 60. 5. 2.35000000e+01 57.
      2.12000008e+01 2.08000011e+01 35. 8. 3.96666679e+01 4.53333359e+01
      4.33333359e+01 4.23333359e+01 5.55000000e+01 5.15000000e+01
      4.93333359e+01 5.53333359e+01 11. 4. 16. 5.86666679e+01 50.
      1.53333340e+01 59. 43. 10. 51. 28. 1.75000000e+01 55. 5.
      6.66666698e+00 56. 4.65000000e+01 31. 14. 11. 4.35000000e+01
      5.05000000e+01 58. 54. 1.83333340e+01 4.03333359e+01
      5.18333359e+01 35. 4.65000000e+01 2.05000000e+01 2.02000008e+01
      4.72000008e+01 54. 44. 13. 51. 13. 41. 26. 13. 13. 2.36000004e+01
      5.15000000e+01 8.50000000e+00 9.66666698e+00 35. 14. 15. 39. 51.
      56. 5.85000000e+01 43. 3.45000000e+01 59. 34. 1.33333340e+01 48.
      1.05000000e+01 31. 1.85000000e+01 3.35000000e+01 12. 44. 37. 12.</_>
    <_>
      2.36666679e+01 5.23333359e+01 34. 3. 52. 36. 43. 42.
      3.13999996e+01 3.03999996e+01 47. 3.85000000e+01 5. 12.
      5.73333359e+01 3.16666679e+01 56. 6.50000000e+00 4.36666679e+01
      4.33333349e+00 45. 36. 1.47500000e+01 5.75000000e+00 19. 35. 45.
      34. 16. 31. 3.06000004e+01 1.96000004e+01 9.50000000e+00
      2.12500000e+01 5.58333359e+01 1.26666670e+01 1.36666670e+01 52.
      40. 9. 33. 4.04000015e+01 41. 39. 23. 14. 14. 3.85000000e+01
      5.05000000e+01 27. 5. 6.33333349e+00 6.50000000e+00 3.52500000e+01
      5.95000000e+01 2.15000000e+01 54. 5.37999992e+01 17.
      5.75000000e+01 47. 6. 28. 40. 22. 36. 32. 4.95000000e+01 44. 12.
      2.92000008e+01 5.77999992e+01 42. 28. 26. 9. 10. 31.
      3.83333359e+01 1.86666679e+01 21. 21. 5.15000000e+01 6.
      4.50000000e+00 26. 25. 46. 3.84000015e+01 4.94000015e+01
      9.66666698e+00 60. 9. 42. 41. 1.35000000e+01 8. 13. 39. 35. 26. 4.
      1.55000000e+01 2.52500000e+01 55. 18. 38. 4.45000000e+01
      3.66666675e+00 4.36666679e+01 1.72500000e+01 4.47500000e+01
      4.26000023e+01 2.22000008e+01 4.43333359e+01 52. 5.63333359e+01
      4.35000000e+01 44. 15. 1.25000000e+01 1.25000000e+01
      3.85000000e+01 28. 33. 1.08000002e+01 2.15000000e+01 5.</_>
    <_>
      56. 28. 2.33333340e+01 1.56666670e+01 60. 26. 60. 5.
      4.95000000e+01 24. 54. 23. 2.93333340e+01 3.93333359e+01
      1.05000000e+01 47. 7. 39. 57. 6.50000000e+00 5.66666679e+01
      4.35000000e+01 1.55000000e+01 4.15000000e+01 3.96666679e+01 12.
      37. 4.66666698e+00 1.82500000e+01 5.67500000e+01 37. 21.
      4.34000015e+01 1.62000008e+01 4.66666679e+01 57. 3.87500000e+01
      4.17500000e+01 4.42000008e+01 4.77999992e+01 16. 19. 22.
      3.72500000e+01 51. 9. 12. 41. 6.50000000e+00 9.50000000e+00 37.
      19. 2.75000000e+01 25. 1.35000000e+01 37. 4.59999990e+00
      2.93999996e+01 33. 2.85000000e+01 5.15000000e+01 1.75000000e+01
      18. 48. 2.03333340e+01 10. 2.28000011e+01 3.06000004e+01
      4.45000000e+01 26. 9. 5.93333359e+01 14. 33. 5.72857170e+01
      1.34285717e+01 53. 20. 41. 4. 14. 5.35000000e+01 60. 30. 59.
      5.26666679e+01 27. 9. 45. 2.15000000e+01 17. 26. 50. 12. 48.
      3.96666679e+01 3.45000000e+01 5.35000000e+01 3.05000000e+01
      5.87500000e+01 54. 60. 15. 51. 5.55000000e+01 3.35000000e+01 32.
      7.33333349e+00 8.50000000e+00 6.50000000e+00 1.52500000e+01
      5.75000000e+00 4.73333359e+01 5.33333349e+00 4.45000000e+01 33.
      3.03333340e+01 4.83333359e+01 44. 11. 6.20000029e+00
      4.94000015e+01 14. 30. 2.42500000e+01 5.47500000e+01 10.
      3.05000000e+01</_>
    <_>
      13. 6. 3.47500000e+01 3.85000000e+01 4.95000000e+01 5.85000000e+01
      3. 30. 17. 11. 1.95000000e+01 4.50000000e+00 21. 15. 22. 6. 48. 8.
      23. 3.93333359e+01 21. 9. 2.95000000e+01 31. 25. 5. 24. 28. 27.
      40. 8.50000000e+00 31. 54. 35. 46. 4. 1.55000000e+01 57. 23. 13.
      23. 26. 4.06666679e+01 5.73333359e+01 4.82500000e+01
      3.92500000e+01 42. 45. 33. 9.33333397e+00 50. 32. 5.65000000e+01
      4. 9.50000000e+00 56. 3.53333359e+01 3.23333359e+01 28. 16. 48.
      4.66666679e+01 23. 4.55000000e+01 21. 24. 36. 47. 5.55000000e+01
      11. 59. 56. 11. 38. 41. 36. 3.15000000e+01 14. 4.83333359e+01
      5.23333359e+01 12. 1.45000000e+01 3.96666679e+01 4.93333359e+01
      31. 43. 55. 58. 32. 2.32500000e+01 1.35000000e+01 44.
      5.02500000e+01 2.27500000e+01 5.65000000e+01 45. 60. 52. 4. 24.
      9.50000000e+00 2.25000000e+01 2.42500000e+01 5.27500000e+01
      4.45000000e+01 3.55000000e+01 27. 8. 1.15000000e+01 4.95000000e+01
      40. 6. 43. 54. 4. 14. 23. 60. 31. 4.50000000e+00 38. 41.
      5.85000000e+01 34. 5.35000000e+01 5.05000000e+01 17.
      4.15000000e+01</_>
    <_>
      6. 32. 5.72500000e+01 1.45000000e+01 5.18333359e+01 3.08333340e+01
      1.65000000e+01 54. 59. 44. 1.75000000e+01 4.45000000e+01 33. 33.
      1.56666670e+01 3.03333340e+01 3. 37. 60. 40. 31. 35. 33.
      2.16666679e+01 4.25000000e+00 4.45000000e+01 5.85000000e+01
      7.50000000e+00 48. 45. 53. 3. 30. 3.05000000e+01 43. 52. 37. 8. 6.
      38. 5.23333359e+01 2.03333340e+01 4.35000000e+01 3.07500000e+01
      51. 45. 25. 6.40000010e+00 5.66666698e+00 7. 4.43333359e+01 56.
      2.55000000e+01 34. 33. 3. 7.75000000e+00 2.22500000e+01
      3.67500000e+01 4.07500000e+01 4.27500000e+01 1.87500000e+01
      4.66666679e+01 5. 3. 10. 10. 57. 9.75000000e+00 4.87500000e+01 37.
      53. 33. 16. 40. 9.50000000e+00 40. 58. 1.23333340e+01 44.
      5.18333359e+01 55. 1.45000000e+01 3.65000000e+01 48. 15. 47. 41.
      28. 18. 24. 30. 31. 10. 1.15000000e+01 3.05000000e+01 42.
      4.53333359e+01 3.66666679e+01 1.93333340e+01 41. 4.50000000e+00
      3.05000000e+01 43. 16. 5.96666679e+01 26. 5.74000015e+01 9. 37.
      1.93333340e+01 2.03333340e+01 5.06666679e+01 7.33333349e+00
      5.05000000e+01 40. 3. 33. 21. 34. 31. 5. 1.35000000e+01
      5.50000000e+00 5.87500000e+01 2.55000000e+01 9.50000000e+00
      1.05000000e+01</_>
    <_>
      44. 15. 8. 5.05000000e+01 10. 52. 59. 9. 42. 14. 1.45000000e+01
      4.55000000e+01 31. 60. 48. 17. 2.95000000e+01 1.75000000e+01 24.
      47. 13. 59. 2.75000000e+01 59. 25. 9.50000000e+00 9. 46. 17. 13.
      46. 5. 10. 59. 41. 49. 30. 6. 51. 51. 36. 6.50000000e+00 35. 60.
      33. 48. 5. 3.50000000e+00 2.65000000e+01 53. 5.55000000e+01
      5.45000000e+01 4. 46. 8. 15. 51. 8. 46. 48. 39. 12. 41. 52. 22.
      48. 38. 60. 31. 53. 21. 59. 3. 49. 54. 12. 24. 2.05000000e+01
      5.63333359e+01 1.93333340e+01 30. 14. 49. 55. 38. 3. 60. 56. 44.
      55. 1.75000000e+01 2.05000000e+01 9. 1.95000000e+01 29. 53. 60.
      42. 23. 53. 2.75000000e+01 48. 4. 51. 13. 49. 51. 12. 23. 16.
      1.76666679e+01 5.16666679e+01 5.50000000e+00 59. 3. 19. 30. 10.
      11. 15. 49. 49. 37. 9. 58. 51. 37. 52.</_>
    <_>
      37. 46. 20. 48. 35. 50. 5.43333359e+01 7.66666698e+00 18. 60. 33.
      53. 5.33333359e+01 19. 15. 60. 5.13333359e+01 5.06666679e+01 22.
      53. 23. 15. 16. 52. 31. 48. 4. 55. 46. 19. 38. 20. 4.75000000e+01
      59. 4.15000000e+01 59. 1.66666679e+01 7.33333349e+00 29. 47. 3.
      52. 38. 52. 51. 9. 60. 19. 58. 51. 24. 19. 60. 57. 5. 17. 24. 48.
      48. 3.50000000e+00 2.43333340e+01 5.93333359e+01 4. 49. 40. 45.
      57. 4. 58. 14. 53. 45. 7. 5. 33. 21. 59. 60. 27. 48. 58. 44. 30.
      16. 28. 9.50000000e+00 7. 48. 54. 58. 44. 46. 58. 8.
      2.56666679e+01 53. 52. 14. 49. 46. 32. 59. 43. 1.66666679e+01 12.
      51. 14. 12. 23. 8. 4.32500000e+01 5.05000000e+01 15. 3. 3. 11. 29.
      2.05000000e+01 57. 60. 10. 1.45000000e+01 30. 53. 36. 13. 9. 55.</_>
    <_>
      33. 45. 2.95000000e+01 3.35000000e+01 1.96000004e+01
      5.02000008e+01 5.12000008e+01 6.80000019e+00 27. 32. 21. 41. 36.
      32. 6.50000000e+00 55. 36. 30. 22. 43. 5.93333359e+01
      2.16666679e+01 25. 2.33333340e+01 13. 54. 32. 21. 7.33333349e+00
      4.76666679e+01 24. 44. 18. 3. 50. 35. 5.77500000e+01 8. 37.
      1.55000000e+01 4.15000000e+01 5.45000000e+01 44. 1.86666679e+01
      19. 43. 40. 2.55000000e+01 38. 5.67500000e+01 34. 48. 28. 45. 51.
      32. 4. 3. 36. 9. 34. 35. 45. 49. 1.75000000e+01 45. 1.25000000e+01
      4.05000000e+01 3.03999996e+01 3.96000023e+01 49. 24.
      4.63333359e+01 5.76666679e+01 2.96666679e+01 5.03333359e+01 25.
      34. 7. 4. 45. 34. 4.65000000e+01 2.85000000e+01 24. 7. 36. 48.
      2.93999996e+01 10. 5.37500000e+01 52. 1.25000000e+01 49. 44. 4. 6.
      4.15000000e+01 4.05000000e+01 13. 32. 5.55000000e+01
      1.82500000e+01 3.67500000e+01 4.46666679e+01 4.03333359e+01
      4.92500000e+01 4.57500000e+01 2.46666679e+01 5.43333359e+01 24.
      37. 41. 31. 2.85000000e+01 16. 1.83333340e+01 5.76666679e+01 38.
      44. 18. 2.86666679e+01 5.26666679e+01 40. 5.96666679e+01 34.
      8.33333397e+00 5.96666679e+01</_>
    <_>
      33. 32. 27. 32. 3.66666675e+00 2.16666679e+01 35. 2.23333340e+01
      36. 32. 38. 57. 9.25000000e+00 52. 7.40000010e+00 5.
      4.37500000e+01 2.75000000e+01 29. 35. 57. 4.15000000e+01 34. 35.
      30. 38. 38. 34. 2.57500000e+01 13. 34. 37. 5.83333359e+01
      3.66666675e+00 20. 40. 4. 31. 5.05000000e+01 4.05000000e+01 31.
      5.55000000e+01 13. 9.33333397e+00 27. 30. 32. 41. 5.66666679e+01
      5.86666679e+01 3. 34. 4.05000000e+01 3.65000000e+01 3.25000000e+01
      5.05000000e+01 5.47500000e+01 48. 18. 5. 13. 2.35000000e+01 16.
      27. 26. 55. 26. 43. 1.47500000e+01 4.67500000e+01 1.66666679e+01
      5.76666679e+01 3. 37. 4.55000000e+01 45. 53. 5.35000000e+01
      3.55000000e+01 5.15000000e+01 42. 5. 20. 3. 1.13333340e+01
      3.46666679e+01 1.95000000e+01 1.75000000e+01 24. 5.85000000e+01
      55. 3. 4.23333359e+01 4.23333359e+01 22. 31. 2.86666679e+01 47.
      2.03333340e+01 5.33333359e+01 18. 32. 4.56666679e+01 37. 49. 59.
      42. 49. 4.27500000e+01 5.52500000e+01 3.42500000e+01
      1.42500000e+01 4. 13. 3.33333359e+01 8.33333397e+00 4.63333359e+01
      4.96666679e+01 23. 2.55000000e+01 3.63333359e+01 4.33333359e+01
      24. 45. 1.27500000e+01 4.17500000e+01 18. 35.</_>
    <_>
      3.55000000e+01 1.05000000e+01 57. 58. 36. 14. 5.37500000e+01
      2.75000000e+01 59. 41. 31. 14. 4.25000000e+01 5.05000000e+01 36.
      17. 53. 56. 1.05000000e+01 7.25000000e+00 3.95000000e+01
      4.65000000e+01 30. 16. 4.55000000e+01 5.15000000e+01
      2.65000000e+01 2.85000000e+01 37. 48. 37. 30. 45. 45.
      5.95000000e+01 5.15000000e+01 1.95000000e+01 39. 5.55000000e+01
      45. 30. 20. 1.85000000e+01 10. 51. 53. 5.47500000e+01
      3.67500000e+01 30. 40. 27. 20. 55. 3. 53. 53. 2.25000000e+01
      3.35000000e+01 28. 34. 38. 3.35000000e+01 33. 23. 5.35000000e+01
      4.95000000e+01 34. 5.65000000e+01 1.15000000e+01 3.85000000e+01
      5.33333349e+00 54. 35. 44. 1.33333340e+01 2.46666679e+01
      4.36666679e+01 1.08333340e+01 4.26000023e+01 3.96000023e+01 54.
      59. 2.38000011e+01 4.36000023e+01 45. 21. 21. 3. 24. 24.
      3.96666679e+01 5.53333359e+01 6. 4.37999992e+01 2.03333340e+01 49.
      5.40000010e+00 4.59999990e+00 5.23333359e+01 4.23333359e+01
      1.26666670e+01 3.16666679e+01 1.95000000e+01 5.45000000e+01
      4.76666679e+01 3.43333359e+01 2.75000000e+01 57. 28. 49. 48. 57.
      28. 5.66666698e+00 4.35000000e+01 3.35000000e+01 18.
      4.50000000e+00 3.25000000e+01 2.95000000e+01 8.66666698e+00 15.
      49. 44. 7.33333349e+00 2.53333340e+01 49. 7.</_>
    <_>
      1.75000000e+01 1.05000000e+01 17. 14. 22. 14. 2.93333340e+01 42.
      17. 17. 23. 40. 4.52500000e+01 9.50000000e+00 7.33333349e+00
      3.45000000e+01 23. 16. 26. 60. 3.35000000e+01 39. 26.
      5.46666679e+01 30. 35. 17. 43. 31. 32. 7.50000000e+00 43. 25. 34.
      19. 45. 2.65000000e+01 2.85000000e+01 4.15000000e+01
      3.85000000e+01 2.82500000e+01 4.67500000e+01 12. 21. 32. 24. 19.
      5.85000000e+01 3.95000000e+01 3.25000000e+01 48. 4.36666679e+01 3.
      24. 7. 1.27500000e+01 23. 20. 9. 51. 5.06666679e+01 4.
      5.77999992e+01 36. 2.15000000e+01 5.45000000e+01 51. 19. 5. 23.
      4.37500000e+01 4.25000000e+00 26. 20. 3.35000000e+01
      6.50000000e+00 10. 9.50000000e+00 17. 55. 46. 16. 7. 23. 20. 23.
      5. 57. 34. 56. 42. 2.68000011e+01 13. 45. 4.95000000e+01 24. 16.
      31. 2.75000000e+01 24. 33. 53. 15. 48. 23. 3. 40. 1.73333340e+01
      13. 3.76666679e+01 56. 18. 2.05000000e+01 2.95000000e+01 34.
      4.95000000e+01 5.86666679e+01 5.66666679e+01 4.76666679e+01 54.
      5.23333359e+01 2.76666679e+01 12. 5.55000000e+01 5.47500000e+01
      1.05000000e+01 26. 7.</_>
    <_>
      10. 27. 5.85000000e+01 3.55000000e+01 6. 8. 24. 13. 15. 25.
      1.85000000e+01 2.55000000e+01 58. 57. 14. 60. 22. 18. 58. 23. 59.
      44. 12. 23. 9. 1.13333340e+01 40. 40. 39. 13. 56. 23. 4. 59. 7.
      18. 5.20000029e+00 36. 1.63333340e+01 3.66666675e+00
      2.92500000e+01 8.25000000e+00 3.36666679e+01 4.43333359e+01 29.
      45. 5.36000023e+01 5.17999992e+01 59. 7. 2.26666679e+01
      3.16666679e+01 5.36000023e+01 10. 5. 57. 2.13333340e+01 7. 51. 21.
      4.15000000e+01 2.15000000e+01 4. 54. 60. 24. 5.42500000e+01 34.
      1.66666679e+01 9.33333397e+00 46. 17. 3.47999992e+01
      2.38000011e+01 47. 30. 23. 21. 16. 51. 12. 19. 29. 3. 45. 44. 12.
      29. 4.56666679e+01 1.16666670e+01 47. 32. 14. 4.36000023e+01
      2.35000000e+01 2.65000000e+01 5.43333359e+01 4.26666679e+01 21.
      4.03333359e+01 4.86666679e+01 47. 4.13333359e+01 2.86666679e+01
      17. 16. 39. 4. 31. 3. 3.75000000e+01 57. 11. 3.50000000e+00
      4.55000000e+01 5.61666679e+01 38. 49. 2.96666679e+01 53. 31. 36.
      5.45000000e+01 16. 50. 3.76666679e+01 36. 32.</_>
    <_>
      60. 25. 3.76666679e+01 4.26666679e+01 7.25000000e+00 13. 42.
      2.45000000e+01 3.65000000e+01 2.45000000e+01 42. 2.85000000e+01
      60. 4.45000000e+01 4.86666679e+01 5.66666679e+01 55. 45. 44.
      4.05000000e+01 55. 30. 23. 3. 4.47500000e+01 1.05000000e+01
      5.80000019e+00 4.57999992e+01 47. 33. 19. 29. 26. 8.
      5.83333359e+01 5.66666698e+00 59. 3.45000000e+01 15. 32. 26. 6.
      4.96666679e+01 3.43333359e+01 1.36666670e+01 1.66666679e+01 15.
      35. 3.76666679e+01 4.96666679e+01 5. 3.35000000e+01 1.63333340e+01
      2.63333340e+01 3.15000000e+01 5.50000000e+00 14. 4. 55. 42.
      9.80000019e+00 5.62000008e+01 3.66666679e+01 3.66666675e+00 50.
      4.05000000e+01 31. 2.66666679e+01 9. 2.96666679e+01 2.16666679e+01
      3.46666679e+01 2.33333340e+01 53. 3.25000000e+01 42. 12. 40.
      1.15000000e+01 2.15000000e+01 17. 9. 3.05000000e+01 1.15000000e+01
      57. 39. 14. 40. 42. 3.50000000e+00 4.43333359e+01 1.83333340e+01
      5.53333359e+01 5.73333359e+01 1.93333340e+01 4.43333359e+01 3. 39.
      2.15000000e+01 9.50000000e+00 52. 4.95000000e+01 4.50000000e+00
      5.55000000e+01 5.85000000e+01 51. 24. 45. 39. 60. 1.63333340e+01
      5.76666679e+01 3.63333359e+01 9.33333397e+00 3.05000000e+01 33.
      5.43333359e+01 36. 3.05000000e+01 1.95000000e+01 36. 16. 20.
      2.35000000e+01 15. 49. 55. 1.03333340e+01</_>
    <_>
      2.03333340e+01 2.06666679e+01 2.73333340e+01 2.53333340e+01 44.
      43. 18. 1.36666670e+01 5.46000023e+01 5.62000008e+01 32. 37. 41.
      4.15000000e+01 46. 4.82500000e+01 24. 60. 57. 9. 2.53333340e+01
      4.96666679e+01 5.25000000e+00 36. 1.37500000e+01 5.55000000e+01
      3.06666679e+01 1.83333340e+01 31. 30. 32. 27. 33. 34.
      3.03333340e+01 4.66666698e+00 57. 32. 55. 13. 3.50000000e+00 7.
      5.72000008e+01 4.57999992e+01 35. 26. 49. 40. 8. 1.03333340e+01
      56. 17. 39. 4. 34. 31. 47. 60. 49. 4. 16. 3.56666679e+01 59. 35.
      57. 30. 41. 24. 3.95000000e+01 5.45000000e+01 18. 8.50000000e+00
      4.33333349e+00 50. 51. 40. 2.77500000e+01 9.50000000e+00 37.
      1.03333340e+01 4.75000000e+01 12. 24. 4.27500000e+01 52. 31. 39.
      37. 60. 56. 1.07500000e+01 40. 3. 25. 48. 57. 39. 4.95000000e+01
      7. 5.65000000e+01 7. 3. 3.05000000e+01 42. 3. 4.45000000e+01 60.
      39. 2.06666679e+01 2.76666679e+01 2.32500000e+01 3.75000000e+00 9.
      46. 11. 33. 53. 28. 46. 27. 4.87500000e+01 2.15000000e+01
      4.57999992e+01 3.32000008e+01 50. 55. 45. 56.</_>
    <_>
      38. 57. 39. 59. 39. 54. 42. 4.95000000e+01 47. 60. 27. 52. 44. 57.
      33. 43. 5.50000000e+00 5.85000000e+01 3.01666679e+01
      2.58333340e+01 27. 50. 4.97999992e+01 5.06000023e+01 46.
      3.45000000e+01 4. 1.86666679e+01 52. 59. 35. 38. 20.
      1.55000000e+01 3.46666679e+01 7. 10. 9.33333397e+00 5.95000000e+01
      3.15000000e+01 6. 4.83333359e+01 2.85000000e+01 46. 2.15000000e+01
      2.87500000e+01 4. 4. 12. 48. 4.36666679e+01 4.26666679e+01 55. 57.
      3. 55. 33. 12. 2.43333340e+01 5.66666698e+00 3.96666679e+01
      3.66666679e+01 13. 3. 55. 35. 5.85000000e+01 4.50000000e+00 5. 33.
      26. 4.23333359e+01 52. 12. 36. 20. 4.65000000e+01 5.45000000e+01
      50. 25. 1.35000000e+01 5.45000000e+01 36. 1.45000000e+01
      5.13333359e+01 4.56666679e+01 8. 2.58333340e+01 1.73333340e+01
      6.33333349e+00 29. 60. 57. 4.42500000e+01 5.95000000e+01
      3.65000000e+01 1.05000000e+01 3.35000000e+01 2.83333340e+01
      3.66666675e+00 5.86666679e+01 5.66666679e+01 1.35000000e+01 39.
      31. 19. 8. 4.15000000e+01 5.65000000e+01 48. 38. 33. 45.
      1.03333340e+01 5.75000000e+01 21. 4.88333359e+01 5.16666698e+00
      21. 37. 19. 2.35000000e+01 8. 56. 4.85000000e+01 4.05000000e+01
      2.55000000e+01 1.15000000e+01</_>
    <_>
      36. 51. 59. 1.86666679e+01 3.45000000e+01 46. 34. 60.
      4.15000000e+01 17. 1.28000002e+01 7. 57. 60. 3.75000000e+01
      6.87500000e+00 36. 43. 9.83333397e+00 4.58333359e+01 58. 57. 5.
      57. 4. 54. 53. 2.35000000e+01 40. 44. 4.85000000e+01 5. 20. 47.
      60. 55. 9.50000000e+00 58. 4. 59. 2.96000004e+01 7.20000029e+00
      35. 40. 8. 35. 49. 56. 24. 59. 31. 2.65000000e+01 10.
      1.75000000e+01 3.66666675e+00 3.53333359e+01 20. 4.15000000e+01
      55. 56. 53. 9.33333397e+00 25. 57. 2.82500000e+01 17. 30. 43.
      3.73333359e+01 2.53333340e+01 9.50000000e+00 1.15000000e+01 3. 26.
      1.45000000e+01 4.05000000e+01 50. 53. 24. 54. 5.27999992e+01
      4.24000015e+01 1.35000000e+01 5.11666679e+01 26. 39.
      5.64000015e+01 2.78000011e+01 18. 1.03333340e+01 18. 45. 56.
      4.82500000e+01 22. 52. 15. 35. 5.13333359e+01 3.46666679e+01 59.
      4. 18. 3. 4.33333349e+00 45. 2.12500000e+01 3.55000000e+01 25. 33.
      49. 4.95000000e+01 43. 2.96000004e+01 4.50000000e+00
      4.50000000e+00 5.83333359e+01 36. 1.76666679e+01 5.73333359e+01
      1.55000000e+01 2.75000000e+01 4.15000000e+01 3.85000000e+01 16. 3.
      43. 5.</_>
    <_>
      6. 40. 8. 15. 45. 37. 10. 16. 5. 34. 3. 33. 42. 46. 10. 33. 38.
      40. 9. 45. 43. 34. 3. 28. 3. 14. 11. 9. 41. 44. 4. 46. 36. 47. 60.
      22. 56. 18. 57. 42. 3. 56. 10. 28. 60. 3. 44. 44. 9. 53. 60. 20.
      10. 3. 8. 27. 42. 20. 32. 57. 41. 38. 53. 40. 4. 53. 58. 8. 57.
      37. 4. 3. 36. 4. 10. 21. 60. 11. 36. 12. 59. 27. 46. 41. 41. 24.
      41. 58. 54. 45. 7. 57. 58. 15. 55. 34. 7. 4. 8. 19. 39. 17. 44.
      39. 5. 8.50000000e+00 34. 52. 53. 23. 5. 21. 59. 45. 3. 58. 59.
      13. 60. 32. 58. 29. 43. 60. 4.35000000e+01 1.15000000e+01 43. 6.</_>
    <_>
      47. 5.75000000e+01 4.05000000e+01 1.95000000e+01 2.68000011e+01
      25. 2.13333340e+01 59. 45. 41. 5.27500000e+01 40. 4.46666679e+01
      5.16666679e+01 31. 42. 4.65000000e+01 37. 4.65000000e+01
      4.65000000e+01 6.50000000e+00 4.72500000e+01 33. 46. 44. 17. 6.
      3.15000000e+01 59. 5.32500000e+01 32. 3.85000000e+01 36. 45. 31.
      45. 5.93333359e+01 5.93333359e+01 45. 22. 20. 18. 3.85000000e+01
      54. 11. 39. 58. 16. 26. 45. 50. 22. 28. 40. 16. 25. 2.06666679e+01
      44. 38. 45. 5.43333359e+01 57. 17. 19. 1.56666670e+01 49.
      3.97500000e+01 5.25000000e+00 40. 13. 3.23333359e+01
      5.76666679e+01 4.87500000e+01 1.47500000e+01 2.67500000e+01
      1.27500000e+01 45. 25. 1.95000000e+01 3.95000000e+01 33.
      2.76666679e+01 34. 2.13333340e+01 19. 2.73333340e+01
      5.96666679e+01 7.33333349e+00 4.15000000e+01 4.45000000e+01 13.
      44. 4.45000000e+01 10. 28. 59. 44. 30. 1.86666679e+01
      5.46666679e+01 5.08333359e+01 3.15000000e+01 1.25000000e+01
      3.05000000e+01 1.93999996e+01 3.34000015e+01 42. 30.
      2.75000000e+01 33. 5.35000000e+01 4.85000000e+01 2.93333340e+01 5.
      39. 4.85000000e+01 6. 5.77500000e+01 7.33333349e+00 3.76666679e+01
      5.96666679e+01 24. 3.62500000e+01 3.52500000e+01 14. 39.
      4.03333359e+01 59.</_>
    <_>
      4.55000000e+01 5.15000000e+01 30. 2.76666679e+01 2.32500000e+01
      5.25000000e+00 33. 32. 18. 39. 8. 4.93333359e+01 3.96666679e+01
      2.56666679e+01 46. 19. 59. 55. 4.75000000e+00 5.63750000e+01
      4.23333359e+01 44. 24. 57. 2.25000000e+01 32. 35. 31. 56. 60. 42.
      39. 34. 41. 16. 55. 43. 18. 37. 3.45000000e+01 53. 4.95000000e+01
      20. 11. 5.75000000e+01 4.85000000e+01 38. 47. 24. 55.
      1.25000000e+01 2.35000000e+01 38. 1.33333340e+01 4.56666679e+01
      27. 53. 59. 35. 7. 30. 35. 25. 53. 1.83333340e+01 5.16666679e+01
      1.42500000e+01 1.47500000e+01 31. 11. 27. 58. 48. 4.13333359e+01
      60. 57. 4. 3. 7.33333349e+00 2.83333340e+01 17. 19. 45. 60.
      3.42500000e+01 24. 34. 5. 28. 38. 2.43333340e+01 4.73333359e+01
      18. 24. 3.32500000e+01 5.87500000e+01 2.47500000e+01
      2.02500000e+01 4.23333359e+01 3.23333359e+01 9.33333397e+00
      4.06666679e+01 5.66666679e+01 3.26666679e+01 3. 9.50000000e+00
      4.06666679e+01 5.73333359e+01 4.53333359e+01 3.63333359e+01 32. 3.
      1.65000000e+01 4.65000000e+01 5.05000000e+01 3.05000000e+01
      1.36666670e+01 3.43333359e+01 15. 60. 2.96666679e+01
      4.53333359e+01 4. 2.03333340e+01 2.15000000e+01 4.45000000e+01
      5.47500000e+01 40.</_>
    <_>
      37. 5.75000000e+01 5.63333359e+01 1.16666670e+01 59. 51. 59. 56.
      19. 41. 44. 46. 3.65000000e+01 1.85000000e+01 22. 4.55000000e+01
      56. 59. 3.95000000e+01 3.27500000e+01 29. 56. 2.67500000e+01 22.
      3.65000000e+01 4.65000000e+01 43. 51. 57. 3.37999992e+01
      1.23333340e+01 3.26666679e+01 27. 45. 35. 41. 5.03333359e+01
      2.16666679e+01 50. 5.50000000e+00 1.13333340e+01 4.73333359e+01
      43. 60. 22. 11. 28. 34. 1.86000004e+01 59. 26. 5.45000000e+01
      9.71428585e+00 40. 31. 1.36666670e+01 4.97500000e+01
      5.85000000e+01 43. 43. 2.25000000e+01 29. 31. 60. 1.73333340e+01
      2.45000000e+01 51. 27. 5.07500000e+01 1.52500000e+01
      4.50000000e+00 46. 1.93333340e+01 5. 7. 3.17500000e+01
      4.86666679e+01 5.26666679e+01 2.97500000e+01 5.25000000e+00
      3.82500000e+01 13. 16. 13. 18. 31. 29. 4.85000000e+01
      2.43333340e+01 37. 40. 25. 45. 39. 33. 30. 57. 41. 4. 39. 45.
      5.55000000e+01 8. 1.86666679e+01 13. 14. 3.46666679e+01
      5.16666679e+01 4.35000000e+01 29. 8.33333397e+00 26.
      3.65000000e+01 37. 19. 3.35000000e+01 3.15000000e+01
      4.45000000e+01 41. 22. 9.19999981e+00 5.62000008e+01
      4.15000000e+01 39. 35. 24. 52. 30.</_>
    <_>
      19. 3.95000000e+01 23. 38. 5.35000000e+01 4.75000000e+01 24. 36.
      5.63333359e+01 3.96666679e+01 1.95000000e+01 4.85000000e+01 4. 51.
      53. 43. 20. 43. 2.75000000e+01 60. 3.86666679e+01 37. 28. 37. 35.
      60. 5.50000000e+00 5.75000000e+01 42. 4.35000000e+01 28.
      5.33333359e+01 40. 46. 4.62500000e+01 1.27500000e+01 51. 43. 28.
      41. 1.15000000e+01 7. 4.18571434e+01 2.44285717e+01 57. 48.
      2.36666679e+01 32. 28. 24. 29. 30. 4.35000000e+01 32.
      3.15000000e+01 47. 53. 39. 2.66666679e+01 4.76666679e+01
      1.44000006e+01 5.37999992e+01 5.57999992e+01 3.26000023e+01
      4.36666679e+01 5. 39. 56. 16. 5.87999992e+01 55. 1.86666679e+01
      5.33333349e+00 3.96666679e+01 23. 25. 21. 14. 53. 5.68333359e+01
      34. 35. 5.06666679e+01 3.26666679e+01 34. 56. 41. 60.
      1.95000000e+01 29. 30. 8. 31. 30. 1.05714293e+01 1.71428585e+01
      51. 39. 6.50000000e+00 33. 3.43333359e+01 5. 35. 4.55000000e+01
      48. 47. 2.36666679e+01 1.93333340e+01 26. 1.26666670e+01
      2.96666679e+01 1.96666679e+01 36. 33. 4.46666679e+01
      4.06666679e+01 35. 53. 60. 44. 5.22000008e+01 2.58000011e+01 44.
      5.83333359e+01 12. 27. 3.43333359e+01 17.</_>
    <_>
      7. 24. 3.36666679e+01 4.06666679e+01 5.12500000e+01 17. 41. 27.
      28. 46. 30. 38. 8.60000038e+00 59. 25. 47. 29. 36. 24. 30. 23. 45.
      1.43333340e+01 37. 25. 41. 5.46666679e+01 4. 3.46666679e+01
      2.33333340e+01 25. 37. 22. 30. 19. 4.45000000e+01 1.85000000e+01
      5.85000000e+01 42. 5.66666698e+00 19. 4.85000000e+01
      4.92500000e+01 5.57500000e+01 24. 5.25000000e+01 1.45000000e+01
      4.55000000e+01 29. 14. 26. 50. 4.87999992e+01 3.74000015e+01 7.
      43. 14. 25. 46. 3.23333359e+01 3.02500000e+01 3.17500000e+01
      2.55000000e+01 60. 1.13333340e+01 2.83333340e+01 2.45000000e+01
      10. 27. 55. 18. 34. 5.65000000e+01 51. 16. 21. 10. 6.50000000e+00
      5. 1.33333340e+01 34. 46. 11. 4.35000000e+01 2.05000000e+01
      1.95000000e+01 60. 60. 4. 34. 33. 51. 5.85000000e+01 55. 9.
      3.95000000e+01 5.26666679e+01 1.06666670e+01 20. 13.
      3.35000000e+01 58. 17. 5.46666679e+01 58. 23. 8.66666698e+00
      3.26666679e+01 2.25000000e+01 5. 17. 5.50000000e+00 5.86666679e+01
      4.66666679e+01 4.16666679e+01 1.58333340e+01 2.65000000e+01
      1.85000000e+01 5. 47. 2.66666679e+01 2.43333340e+01 38.
      5.32500000e+01 3.97500000e+01 5.85000000e+01 5.76666679e+01 28.</_>
    <_>
      3.27999992e+01 3.24000015e+01 5.33333349e+00 5.13333359e+01
      4.45000000e+01 54. 40. 45. 43. 49. 45. 48. 2.92500000e+01 42.
      3.75000000e+01 60. 43. 44. 3.47500000e+01 13. 5.56666679e+01
      2.45000000e+01 46. 45. 2.43333340e+01 5.26666679e+01 15.
      5.53333359e+01 2.45000000e+01 1.85000000e+01 46. 5.50000000e+00
      22. 27. 11. 1.65000000e+01 4. 44. 45. 34. 58. 1.33333340e+01
      2.32500000e+01 5.85000000e+01 5.32500000e+01 5.87500000e+01
      3.93333359e+01 2.16666679e+01 3.45000000e+01 18. 54. 41. 10. 57.
      30. 51. 51. 11. 4.03333359e+01 6.66666698e+00 4.16666679e+01 16.
      51. 4.55000000e+01 3.53333359e+01 3.73333359e+01 4.66666698e+00
      24. 38. 25. 4. 30. 2.05000000e+01 4.50000000e+00 4.50000000e+00
      48. 3.66666679e+01 4.76666679e+01 22. 8. 47. 20. 2.06666679e+01
      18. 3. 58. 8.80000019e+00 6.20000029e+00 4.86666679e+01 37. 28.
      5.55000000e+01 11. 3.03333340e+01 38. 5.33333359e+01 59. 60. 41.
      30. 1.61666679e+01 3.68333359e+01 39. 30. 6. 56. 5.63333359e+01
      3.33333359e+01 38. 41. 46. 5.76666679e+01 23. 11. 48.
      2.35000000e+01 3.13333340e+01 2.46666679e+01 1.65000000e+01
      1.45000000e+01 5.13333359e+01 30. 5.36666679e+01 5. 58. 47. 30.
      60.</_>
    <_>
      36. 34. 23. 43. 7. 4. 15. 23. 7. 7. 2.05000000e+01 2.35000000e+01
      1.05000000e+01 1.95000000e+01 4.42000008e+01 6.20000029e+00 13. 6.
      4.23333359e+01 1.76666679e+01 5.95000000e+01 4.02500000e+01 12. 4.
      24. 27. 43. 57. 16. 10. 3.33333349e+00 2.76666679e+01
      1.55000000e+01 60. 13. 30. 1.46666670e+01 5.16666679e+01 19. 33.
      39. 5.35000000e+01 3.76666679e+01 3.96666679e+01 13. 10. 17. 55.
      25. 39. 50. 60. 36. 59. 58. 56. 44. 3.05000000e+01 3.12500000e+01
      1.75000000e+01 1.67500000e+01 1.55000000e+01 7. 5.46666679e+01
      2.15000000e+01 39. 5.80000019e+00 3.57999992e+01 24. 46.
      6.75000000e+00 45. 2.77500000e+01 5.95000000e+01 50.
      3.05000000e+01 8.50000000e+00 5.85000000e+01 5.46666679e+01
      3.73333359e+01 10. 13. 3.15000000e+01 7. 9. 4.85000000e+01
      5.33333359e+01 4.46666679e+01 1.65000000e+01 37. 23. 51.
      4.85000000e+01 4.55000000e+01 60. 32. 6. 21. 2.92500000e+01
      5.35000000e+01 35. 30. 1.65000000e+01 4.65000000e+01 38. 14. 22.
      3.15000000e+01 14. 43. 4.87500000e+01 5.52500000e+01 25.
      5.55000000e+01 2.05000000e+01 1.65000000e+01 4.73333359e+01
      5.03333359e+01 56. 2.45000000e+01 30. 24. 49. 24. 56.
      3.05000000e+01 60. 15.</_>
    <_>
      18. 28. 3. 3.45000000e+01 9. 36. 46. 55. 4.75000000e+01 60.
      6.75000000e+00 47. 3. 25. 4.45000000e+01 18. 40. 51. 5. 24. 60.
      46. 41. 14. 5.54000015e+01 5.62000008e+01 48. 21. 40. 60. 5. 58.
      56. 5.50000000e+00 42. 3.08000011e+01 4.33333349e+00 40.
      1.33333340e+01 2.43333340e+01 5.05000000e+01 5. 56. 45. 48. 23.
      3.95000000e+01 4.45000000e+01 4.17999992e+01 3.77999992e+01
      3.15000000e+01 7. 3. 15. 35. 51. 2.18000011e+01 1.62000008e+01
      2.37500000e+01 5.57500000e+01 13. 60. 24. 3.36000023e+01
      3.32500000e+01 5.85000000e+01 8. 32. 4.85000000e+01 10. 30. 34.
      54. 4.85000000e+01 4.25000000e+01 2.35000000e+01 4.65000000e+01
      4.65000000e+01 8. 20. 5.96666679e+01 2.76666679e+01 38.
      5.55000000e+01 1.36666670e+01 4.43333359e+01 1.88000011e+01
      6.20000029e+00 6. 29. 5.17500000e+01 1.72500000e+01 1.42500000e+01
      5.52500000e+01 32. 27. 5.15000000e+01 4.45000000e+01 13.
      3.05000000e+01 48. 25. 48. 39. 4.55000000e+01 14. 57. 21.
      3.15000000e+01 1.75000000e+01 5.86666679e+01 37. 16. 23. 55. 34.
      26. 41. 34. 5.35000000e+01 50. 30. 1.56666670e+01 5.03333359e+01
      4.83333359e+01 5.16666679e+01 8.66666698e+00 26.</_>
    <_>
      39. 30. 39. 44. 2.76666679e+01 3.96666679e+01 5.16000023e+01
      3.44000015e+01 41. 31. 4.86666679e+01 5.23333359e+01 41. 42. 3.
      53. 4.45000000e+01 46. 46. 3.05000000e+01 4. 60. 29. 56. 43. 37.
      7. 60. 2.95000000e+01 14. 22. 1.68000011e+01 3.97500000e+01
      5.62500000e+01 38. 51. 48. 44. 7. 55. 6.50000000e+00
      2.11666679e+01 58. 4.76000023e+01 1.95000000e+01 2.25000000e+01
      3.23333359e+01 1.76666679e+01 39. 49. 45. 35. 3.45000000e+01
      5.65000000e+01 26. 59. 2.65000000e+01 33. 5.87999992e+01 24. 34.
      3.05000000e+01 5.50000000e+00 51. 35. 51. 5.33333349e+00 46. 46.
      40. 58. 5.75000000e+01 4.50000000e+00 10. 58. 3.52500000e+01
      1.35000000e+01 4.85000000e+01 5.75000000e+01 11. 7.59999990e+00
      3.76000023e+01 2.15000000e+01 2.85000000e+01 39. 24. 29. 51.
      1.88750000e+01 5.58750000e+01 9.85714340e+00 2.98571434e+01 51.
      43. 50. 15. 19. 3. 5.25000000e+01 4. 55. 54. 3.42000008e+01
      6.20000029e+00 8.75000000e+00 1.47500000e+01 55. 39.
      1.35000000e+01 58. 1.36666670e+01 4.06666679e+01 26. 6.
      5.06666679e+01 25. 38. 47. 5.06666679e+01 40. 2.05000000e+01
      9.50000000e+00 5.15000000e+01 60. 3. 6. 4.45000000e+01
      2.45000000e+01</_>
    <_>
      2.65000000e+01 51. 5.47500000e+01 3.67500000e+01 24. 49. 49.
      3.95000000e+01 1.05000000e+01 4. 43. 1.96000004e+01 4.33333349e+00
      35. 25. 47. 4.95000000e+01 4.45000000e+01 9.50000000e+00
      3.95000000e+01 56. 60. 3. 57. 34. 3.27500000e+01 24. 44. 50. 60.
      1.55000000e+01 1.75000000e+01 19. 47. 59. 60. 22. 53.
      4.86666679e+01 54. 41. 3.03333340e+01 59. 5.25000000e+01 43. 11.
      28. 28. 22. 42. 3.95000000e+01 5.75000000e+01 16. 54.
      5.65000000e+01 4.65000000e+01 23. 60. 41. 5.66666698e+00
      9.40000057e+00 5.76000023e+01 2.88000011e+01 6.20000029e+00 25.
      23. 1.65000000e+01 4.45000000e+01 34. 51. 59. 43. 12. 43. 58. 22.
      9.50000000e+00 3.47500000e+01 2.12500000e+01 2.55000000e+01 57.
      50. 14. 3.92500000e+01 32. 5.65000000e+01 3.73333359e+01
      1.53333340e+01 3.53333359e+01 3.96666679e+01 52. 22.
      2.13333340e+01 31. 19. 36. 4.43333359e+01 5.26666679e+01
      4.50000000e+00 4.55000000e+01 6.80000019e+00 4.96000023e+01 5.
      2.43333340e+01 5.85000000e+01 2.75000000e+01 5.50000000e+00 11.
      15. 25. 5.27500000e+01 3.17500000e+01 51. 26. 56. 55.
      4.36666679e+01 5.93333359e+01 31. 1.65000000e+01 1.45000000e+01
      3.05000000e+01 59. 8.66666698e+00 25. 56. 55. 1.58333340e+01</_>
    <_>
      18. 30. 40. 3. 52. 3.63333359e+01 45. 4. 9.66666698e+00
      3.36666679e+01 15. 29. 3.73333359e+01 5.63333359e+01 54. 28.
      3.96666679e+01 12. 2.16666679e+01 43. 36. 4. 48. 38. 46. 11.
      2.66666679e+01 8. 5.68333359e+01 5.43333359e+01 3. 22. 37. 51. 58.
      18. 3. 43. 40. 6. 3.95000000e+01 19. 46. 60. 50. 46. 46. 7.
      9.66666698e+00 26. 5. 3. 3. 57. 3. 27. 24. 10. 25. 53. 58. 3. 31.
      8.50000000e+00 51. 60. 5.34000015e+01 1.04000006e+01 49. 51. 48.
      7. 7. 24. 3. 47. 24. 13. 16. 51. 3. 39. 20. 7. 27. 55. 30. 11. 12.
      1.87500000e+01 24. 51. 5.45000000e+01 4.65000000e+01
      8.33333397e+00 52. 50. 56. 39. 46. 5.25000000e+01 4.50000000e+00
      6. 18. 4. 5.15000000e+01 5.85000000e+01 4.15000000e+01
      2.05000000e+01 2.17500000e+01 2.13333340e+01 1.56666670e+01
      9.50000000e+00 4.65000000e+01 6. 38. 4.96666679e+01 1.56666670e+01
      2.95000000e+01 58. 50. 24. 37. 15. 17. 3.76666679e+01
      1.57500000e+01 44.</_>
    <_>
      60. 53. 6. 2.05000000e+01 1.15000000e+01 3.12500000e+01
      2.67500000e+01 4.75000000e+00 57. 53. 3.95000000e+01
      4.50000000e+00 16. 3. 40. 50. 60. 48. 2.36666679e+01
      5.76666679e+01 13. 15. 5.50000000e+00 5.85000000e+01 19. 15. 56.
      48. 2.96000004e+01 2.82000008e+01 6. 16. 15. 5.65000000e+01
      5.64000015e+01 39. 10. 22. 3.35000000e+01 7. 19. 2.37500000e+01
      4.66666679e+01 43. 3.66666675e+00 21. 21. 46. 25. 34. 11. 15. 9.
      56. 1.85000000e+01 3.25000000e+01 46. 5.17999992e+01 26. 51.
      5.95000000e+01 27. 38. 13. 52. 43. 19. 45. 5.33333359e+01
      2.76666679e+01 16. 8. 15. 52. 4.33333359e+01 29. 4.25000000e+00 6.
      4.87500000e+01 1.77500000e+01 54. 55. 6. 2.85000000e+01
      2.86666679e+01 1.63333340e+01 38. 56. 2.05000000e+01
      5.25000000e+01 14. 59. 39. 1.75000000e+01 4.95000000e+01
      3.75000000e+01 5. 34. 5.65714302e+01 1.58571434e+01 3.16666679e+01
      4.23333359e+01 53. 51. 9. 6. 8.66666698e+00 42. 3.87500000e+01 41.
      4.45000000e+01 14. 11. 46. 5.65000000e+01 4. 42. 12.
      4.82500000e+01 5.25000000e+00 60. 60. 16. 30. 24. 1.55000000e+01
      4. 41.</_>
    <_>
      24. 8. 37. 3. 48. 16. 14. 7. 22. 9. 57. 9.50000000e+00 58. 60.
      2.36000004e+01 2.22000008e+01 54. 4. 6. 12. 2.95000000e+01
      3.35000000e+01 44. 40. 1.26666670e+01 4.86666679e+01
      5.75000000e+01 51. 29. 8. 60. 11. 48. 11. 4.77500000e+01
      5.72500000e+01 6. 7. 20. 3.45000000e+01 60. 4. 3.67999992e+01 48.
      33. 27. 32. 9. 12. 44. 58. 12. 43. 1.05000000e+01 9. 5. 36. 33.
      4.25000000e+00 2.22500000e+01 5.66666698e+00 4.93333359e+01 23.
      13. 43. 27. 2.35000000e+01 4.75000000e+01 52. 14. 31. 23.
      4.46666679e+01 4.66666679e+01 40. 13. 13. 2.23333340e+01
      5.76666679e+01 3.43333359e+01 4.36666679e+01 52. 10. 11. 26.
      5.05000000e+01 33. 38. 26. 13. 4.85000000e+01 3.95000000e+01 57.
      16. 42. 15. 47. 34. 5.71428604e+01 2.50000019e+01 19. 10.
      2.35000000e+01 36. 51. 47. 31. 13. 8. 2.45000000e+01 57. 40.
      5.75000000e+00 4.55000000e+01 38. 2.15000000e+01 60. 17.
      4.35000000e+01 21. 16. 12. 28. 38. 52. 49. 9.50000000e+00 19.</_>
    <_>
      8. 31. 3. 30. 12. 34. 6. 36. 49. 48. 10. 42. 3. 54. 12. 36. 12.
      31. 1.15000000e+01 2.05000000e+01 50. 45. 4. 60. 10. 36. 10. 24.
      52. 43. 55. 22. 17. 55. 4. 45. 22. 25. 17. 37. 18. 49. 54. 42. 9.
      60. 51. 18. 13. 48. 20. 18. 19. 46. 53. 48. 15. 31. 13. 60. 22.
      47. 10. 49. 15. 18. 51. 23. 15. 43. 17. 59. 23. 32. 59. 20. 57.
      43. 13. 55. 7. 48. 19. 21. 56. 18. 19. 43. 15. 37. 60. 45. 12. 57.
      12. 44. 17. 24. 60. 24. 22. 36. 19. 31. 21. 56. 59. 4.85000000e+01
      56. 47. 9.50000000e+00 56. 24. 19. 11. 54. 8. 43. 5. 33. 15. 22.
      57. 24. 19. 37. 17. 33.</_>
    <_>
      43. 60. 4.87142868e+01 2.47142868e+01 56. 45. 40. 3. 7. 24. 40. 8.
      5.35000000e+01 3.85000000e+01 7. 28. 60. 1.55000000e+01 50.
      3.50000000e+00 5.36666679e+01 3.06666679e+01 47. 5. 54. 46.
      4.65000000e+01 3.35000000e+01 1.36666670e+01 1.86666679e+01
      5.85000000e+01 8.50000000e+00 5.23333359e+01 1.76666679e+01 7.
      5.68333359e+01 1.11999998e+01 5.17999992e+01 3.66000023e+01
      5.67999992e+01 3.45000000e+01 3.55000000e+01 18. 8.66666698e+00 5.
      20. 44. 7. 18. 2.07500000e+01 52. 5.05000000e+01 7.50000000e+00
      3.15000000e+01 39. 3.85000000e+01 48. 7. 2.23333340e+01
      2.26666679e+01 2.33333340e+01 5.06666679e+01 4.85000000e+01 57.
      1.87500000e+01 4.32500000e+01 38. 35. 41. 11. 3.65000000e+01 26.
      32. 4.93333359e+01 3.16666679e+01 2.23333340e+01 3.86666679e+01
      5.13333359e+01 14. 39. 57. 5.85000000e+01 3.86666679e+01 45. 50.
      1.05000000e+01 31. 1.54000006e+01 44. 4.25000000e+01
      1.25000000e+01 29. 1.92000008e+01 2.88000011e+01 4.15000000e+01
      3.45000000e+01 59. 4.32500000e+01 25. 3.33333349e+00
      5.20000029e+00 4.16000023e+01 45. 13. 2.76666679e+01 35. 28. 23.
      47. 45. 2.42500000e+01 1.47500000e+01 13. 34. 36. 11.
      4.55000000e+01 3.85000000e+01 43. 20. 2.96666679e+01
      3.03333340e+01 45. 5.05000000e+01 5.82000008e+01 5.04000015e+01
      2.06666679e+01 34.</_>
    <_>
      25. 5.36666679e+01 30. 36. 29. 46. 39. 5.23333359e+01
      1.28000002e+01 2.23999996e+01 27. 35. 4.59999990e+00
      4.36000023e+01 58. 40. 3.24285736e+01 1.55714293e+01
      1.75000000e+01 41. 33. 4.96000023e+01 25. 38. 57. 37. 55. 39. 16.
      45. 25. 35. 32. 35. 5.55000000e+01 22. 5.95000000e+01 46. 20. 43.
      2.95000000e+01 2.65000000e+01 23. 39. 4.26666679e+01
      1.63333340e+01 32. 32. 5.56666679e+01 3.03333340e+01 51. 40. 16.
      2.82500000e+01 43. 3.06666679e+01 4.50000000e+00 8.50000000e+00
      3.55000000e+01 23. 2.45000000e+01 44. 27. 28. 38. 3.33333349e+00
      18. 13. 5.05000000e+01 29. 2.15000000e+01 3.45000000e+01 34.
      2.95000000e+01 1.41999998e+01 5.59999990e+00 50. 34. 54. 50. 10.
      41. 2.45000000e+01 4.85000000e+01 20. 20. 1.25000000e+01
      1.35000000e+01 1.65000000e+01 3.65000000e+01 37. 35. 5. 16.
      4.36000023e+01 4.64000015e+01 2.17500000e+01 7.25000000e+00
      4.45000000e+01 23. 5.03333359e+01 53. 1.03333340e+01 49. 8.
      5.86666679e+01 18. 5.05000000e+01 5.83333359e+01 5.46666679e+01
      25. 24. 9.25000000e+00 32. 1.72000008e+01 5.77999992e+01 27. 11.
      4.46666679e+01 3.76666679e+01 29. 5.85000000e+01 45.
      8.66666698e+00 5.36666679e+01 59. 4.80000019e+00 5.04000015e+01</_>
    <_>
      25. 1.35000000e+01 5.63333359e+01 4.86666679e+01 4.35000000e+01
      3.85000000e+01 7.50000000e+00 4.45000000e+01 5.56666679e+01
      5.33333349e+00 8. 8.66666698e+00 2.06000004e+01 3.24000015e+01
      5.67999992e+01 5.54000015e+01 3.55000000e+01 37. 23. 18. 9. 51.
      1.01666670e+01 2.35000000e+01 1.85000000e+01 12. 11. 45. 9. 39.
      22. 20. 3.62000008e+01 9.40000057e+00 5.77500000e+01
      2.85000000e+01 4.94000015e+01 4.44000015e+01 15. 3.33333349e+00
      59. 41. 12. 47. 10. 36. 6. 38. 19. 16. 4.02000008e+01
      2.23999996e+01 50. 9.60000038e+00 12. 53. 11. 33. 33. 60. 20. 22.
      4.85000000e+01 5.31666679e+01 14. 50. 12. 29. 37. 5.26000023e+01
      36. 2.83333340e+01 2.56666679e+01 5.83333359e+01 18. 21. 42. 4.
      16. 54. 16. 35. 4. 53. 26. 10. 4.27500000e+01 30. 35.
      4.33333359e+01 18. 25. 2.78333340e+01 5.23333359e+01
      3.75000000e+01 4. 4.16666679e+01 5.86666679e+01 17. 49.
      4.43333359e+01 47. 2.83999996e+01 3.62000008e+01 29. 46.
      1.33333340e+01 1.56666670e+01 3.50000000e+00 3.15000000e+01
      3.03333340e+01 7.33333349e+00 3.05000000e+01 22. 5.42000008e+01
      2.08000011e+01 2.07500000e+01 4.97500000e+01 2.43333340e+01 27.
      26. 4.45000000e+01 6.50000000e+00 18. 8.66666698e+00
      2.96666679e+01 40. 1.47500000e+01</_>
    <_>
      54. 51. 5.15000000e+01 46. 51. 53. 5.25000000e+00 2.85000000e+01
      49. 50. 4. 4.35000000e+01 33. 5.50000000e+00 4.25000000e+01 34.
      47. 54. 1.92500000e+01 32. 39. 5.85000000e+01 7.33333349e+00
      5.33333349e+00 2.23333340e+01 5.23333359e+01 46. 49.
      4.45000000e+01 12. 34. 58. 3.76666679e+01 1.23333340e+01 44. 49.
      44. 16. 33. 4.36666679e+01 2.76666679e+01 52. 48. 14.
      3.51666679e+01 5.23333359e+01 2.28000011e+01 2.23999996e+01
      4.24000015e+01 2.73999996e+01 42. 47. 44. 2.15000000e+01 39. 46.
      49. 17. 48. 3.33333349e+00 2.16666679e+01 44. 6.71428585e+00
      5.38571434e+01 59. 53. 34. 47. 26. 2.82500000e+01 8.80000019e+00
      2.08000011e+01 52. 31. 2.25000000e+01 1.35000000e+01 25.
      5.83333349e+00 5.55000000e+01 4.45000000e+01 5.47500000e+01
      1.67500000e+01 1.52500000e+01 51. 5.63333359e+01 2.96666679e+01
      56. 2.35000000e+01 42. 53. 3.56666679e+01 2.53333340e+01 30. 60.
      19. 17. 5.35000000e+01 3.75000000e+01 48. 37. 5.06666679e+01
      2.26666679e+01 13. 5.75000000e+01 3.46000023e+01 3.62000008e+01
      2.76000004e+01 38. 1.41666670e+01 4.45000000e+01 2.13333340e+01
      5.86666679e+01 30. 20. 41. 50. 4.05000000e+01 19. 1.26666670e+01
      1.16666670e+01 29. 1.25000000e+01 1.35000000e+01 6.50000000e+00
      55. 8.66666698e+00 5.85000000e+01 36.</_>
    <_>
      6.66666698e+00 4.93333359e+01 60. 59. 1.45000000e+01
      3.55000000e+01 3.65000000e+01 52. 3.27500000e+01 30.
      4.76000023e+01 2.73999996e+01 11. 35. 24. 60. 32. 5.05000000e+01
      20. 3. 3.97500000e+01 4.85000000e+01 6. 35. 27. 5.55000000e+01 5.
      3.33333349e+00 37. 4.45000000e+01 3.04285736e+01 2.22857151e+01
      14. 15. 2.05000000e+01 59. 34. 46. 7.75000000e+00 1.32500000e+01
      14. 5.85000000e+01 25. 5.05000000e+01 48. 4. 7. 1.83333340e+01 21.
      44. 34. 36. 4.12500000e+01 1.05000000e+01 1.16666670e+01 20.
      1.25000000e+01 4.65000000e+01 5.87999992e+01 46. 33. 41.
      4.22500000e+01 5.72500000e+01 3.16666679e+01 5.86666679e+01 59.
      13. 5.85000000e+01 3.77500000e+01 48. 55. 2.75000000e+01
      1.25000000e+01 6. 2.45000000e+01 8.50000000e+00 5.35000000e+01 26.
      4.23333359e+01 57. 13. 51. 5.25000000e+01 15. 26. 2.25000000e+01
      23. 11. 32. 57. 60. 1.35000000e+01 5.05000000e+01 2.67500000e+01
      5.50000000e+00 2.52500000e+01 3.47500000e+01 59. 18. 45. 50.
      5.23333359e+01 7.66666698e+00 3.95000000e+01 6.50000000e+00 9.
      2.95000000e+01 1.85000000e+01 4.85000000e+01 1.85000000e+01
      5.32500000e+01 18. 43. 54. 2.05000000e+01 5.15000000e+01
      4.37500000e+01 1.82500000e+01 1.02500000e+01 39. 42. 19.
      3.65000000e+01 4.35000000e+01 2.02500000e+01 32. 4.</_>
    <_>
      3.42500000e+01 4.75000000e+00 45. 24. 35. 52. 59. 24.
      2.46666679e+01 58. 1.18000002e+01 6.20000029e+00 55. 25. 7.
      2.15000000e+01 3.27999992e+01 2.23999996e+01 3.77500000e+01
      4.25000000e+01 30. 41. 3.76666679e+01 36. 4. 34. 3.55000000e+01
      1.12500000e+01 4.86666679e+01 27. 5. 46. 1.86666679e+01
      5.16666679e+01 53. 22. 26. 53. 29. 36. 14. 41. 5.85000000e+01
      1.55000000e+01 25. 41. 30. 33. 12. 4.65000000e+01 55. 21.
      4.13333359e+01 5.93333359e+01 1.41999998e+01 5.47999992e+01
      2.73333340e+01 5.03333359e+01 5.16666679e+01 4.73333359e+01 28.
      29. 31. 16. 5. 37. 6. 17. 3.93333359e+01 1.83333340e+01 3. 50. 53.
      3.25000000e+01 4.46000023e+01 3.62000008e+01 2.25000000e+01
      1.55000000e+01 5.73333359e+01 51. 5. 13. 5.42500000e+01 14.
      5.05000000e+01 19. 2.26666679e+01 48. 28. 4.55000000e+01 16.
      2.38000011e+01 16. 31. 5.03333359e+01 5.13333359e+01
      3.15000000e+01 29. 4.43333359e+01 45. 4.17500000e+01
      7.25000000e+00 2.25000000e+01 1.05000000e+01 5. 4.07500000e+01
      4.50000000e+00 5.95000000e+01 21. 6. 58. 3.33333349e+00 58. 37.
      37. 2.83333340e+01 4.76666679e+01 1.23333340e+01 4.32500000e+01
      5.12500000e+01 24. 4.35000000e+01 47. 5.65000000e+01
      3.36666679e+01 5.76666679e+01 21. 20.</_>
    <_>
      2.43333340e+01 44. 15. 42. 13. 43. 1.65000000e+01 3.65000000e+01
      60. 15. 2.87500000e+01 5.02500000e+01 42. 6.50000000e+00
      5.80000019e+00 2.58000011e+01 5.05000000e+01 40. 17. 45. 24.
      2.95000000e+01 4.85000000e+01 5.95000000e+01 13. 35.
      3.56666679e+01 5.33333349e+00 12. 8. 48. 37. 2.45000000e+01
      5.05000000e+01 1.88000011e+01 5.59999990e+00 39. 56. 10. 34. 21.
      2.08000011e+01 3.76666679e+01 2.96666679e+01 43. 23.
      5.26666679e+01 1.53333340e+01 21. 51. 3.63333359e+01
      4.86666679e+01 36. 59. 4.40000010e+00 15. 1.93333340e+01
      2.66666679e+01 49. 34. 15. 5.05000000e+01 39. 53. 37. 54. 15. 29.
      3.76666679e+01 2.26666679e+01 1.86666679e+01 1.33333340e+01
      4.83333359e+01 14. 7. 5.53333359e+01 51. 32. 20. 5.85000000e+01 3.
      60. 25. 59. 43. 52. 31. 5.66666679e+01 7.75000000e+00
      5.12500000e+01 57. 44. 4.83333359e+01 1.96666679e+01
      5.73333359e+01 21. 1.36666670e+01 1.83333340e+01 2.35000000e+01
      3.45000000e+01 32. 2.03333340e+01 2.92500000e+01 4.35000000e+01
      1.16666670e+01 5.93333359e+01 5.63333359e+01 1.33333340e+01
      5.82500000e+01 3.22500000e+01 30. 9.60000038e+00 7.50000000e+00
      4.52500000e+01 5.52000008e+01 52. 56. 2.72500000e+01 60. 5. 7.
      3.66000023e+01 16. 40. 17. 5.55000000e+01 4.51666679e+01
      4.45000000e+01</_>
    <_>
      7.33333349e+00 3.53333359e+01 2.67500000e+01 56. 2.95000000e+01
      2.02500000e+01 34. 49. 3. 31. 4.72500000e+01 21. 60. 36. 35.
      5.67500000e+01 3. 29. 4.75000000e+00 11. 4.65000000e+01
      3.65000000e+01 20. 23. 7. 30. 4.62500000e+01 5.17500000e+01
      1.45000000e+01 5.95000000e+01 4.77500000e+01 4.25000000e+01 54.
      45. 25. 25. 24. 46. 3. 27. 59. 46. 56. 35. 26. 30. 6.75000000e+00
      5.22500000e+01 53. 3. 10. 27. 4.36666679e+01 5.76666679e+01
      1.36666670e+01 3.43333359e+01 27. 49. 4.03333359e+01 20. 55. 43.
      26. 32. 2.18000011e+01 6.20000029e+00 13. 4.65000000e+01 22.
      5.25000000e+01 57. 11. 45. 5.83333349e+00 1.04000006e+01
      1.78000011e+01 4.50000000e+00 2.05000000e+01 5.25000000e+01
      9.50000000e+00 5.13333359e+01 5.93333359e+01 29. 51. 48. 31.
      3.92500000e+01 32. 59. 5.85000000e+01 40. 41. 54. 3.85000000e+01
      24. 41. 5.72000008e+01 2.58000011e+01 1.85000000e+01
      4.65000000e+01 4.25000000e+01 1.35000000e+01 8. 2.35000000e+01 48.
      13. 5.45000000e+01 4.85000000e+01 6. 44. 1.48000002e+01
      1.48000002e+01 3.43333359e+01 4.26666679e+01 4.47500000e+01
      2.67500000e+01 3.86666679e+01 47. 5.15000000e+01 3.45000000e+01
      5.96666679e+01 1.76666679e+01 5.52000008e+01 5.27999992e+01
      3.17142868e+01 8.42857170e+00 1.56666670e+01 4.03333359e+01</_>
    <_>
      5.25000000e+00 3.47500000e+01 5.66666698e+00 1.86666679e+01
      4.52000008e+01 1.44000006e+01 14. 36. 18. 41. 5.93333359e+01
      1.53333340e+01 3.85000000e+01 5.95000000e+01 4.43333359e+01
      2.06666679e+01 18. 44. 3.87500000e+01 4.52500000e+01
      3.05000000e+01 2.15000000e+01 21. 17. 45. 25. 20. 43. 46. 46. 53.
      56. 42. 2.95000000e+01 1.77500000e+01 51. 26. 24. 8. 12.
      5.05000000e+01 32. 2.05000000e+01 47. 3.85000000e+01
      3.77500000e+01 5.25000000e+00 5.55000000e+01 8.40000057e+00 26.
      5.45000000e+01 47. 48. 42. 1.26666670e+01 20. 5.05000000e+01 23.
      50. 5. 24. 51. 52. 2.82000008e+01 27. 32. 4.25000000e+01
      5.15000000e+01 5.62000008e+01 3.96000023e+01 4.66666698e+00
      4.16666679e+01 13. 41. 7. 45. 3.23333359e+01 43. 46. 30. 13. 33.
      58. 2.52500000e+01 60. 6.50000000e+00 2.08000011e+01
      8.19999981e+00 60. 47. 2.95000000e+01 5.37500000e+01 28.
      2.85000000e+01 36. 1.55000000e+01 4.75000000e+01 5.15000000e+01
      5.85000000e+01 58. 1.03333340e+01 5.03333359e+01 4.56666679e+01
      3.53333359e+01 14. 2.95000000e+01 54. 23. 1.16666670e+01
      5.86666679e+01 3.01666679e+01 5.83333349e+00 5.85000000e+01
      3.55000000e+01 7.80000019e+00 5.20000029e+00 2.75000000e+01
      4.75000000e+01 3.95000000e+01 1.57500000e+01 46. 54.
      2.22500000e+01 5.72500000e+01 5.33333359e+01 15. 15.
      4.55000000e+01</_>
    <_>
      2.46666679e+01 1.56666670e+01 3.65000000e+01 23. 2.45000000e+01
      5.95000000e+01 56. 7. 4.20000029e+00 14. 2.51666679e+01
      4.26666679e+01 15. 42. 34. 41. 32. 4.65000000e+01 3.35000000e+01
      5.37500000e+01 4.46666679e+01 58. 3.85000000e+01 57.
      1.95000000e+01 16. 4.26666679e+01 48. 20. 2.43333340e+01 37. 49.
      17. 2.05000000e+01 1.55000000e+01 7.50000000e+00 39. 51.
      5.65000000e+01 3.65000000e+01 40. 7. 45. 6. 4.95000000e+01
      3.85000000e+01 17. 16. 46. 53. 3.53333359e+01 2.96666679e+01
      5.12000008e+01 1.73999996e+01 11. 39. 57. 4.23333359e+01 7.
      4.32500000e+01 59. 33. 4. 24. 32. 9. 58. 13. 15. 14. 3. 57.
      4.73333359e+01 5.03333359e+01 9.33333397e+00 5.26666679e+01
      2.36666679e+01 3.43333359e+01 1.72500000e+01 34. 6. 59. 5.
      4.75000000e+01 5.25000000e+00 3.67500000e+01 1.67500000e+01
      5.22500000e+01 60. 43. 57. 2.05000000e+01 4.93333359e+01
      3.06666679e+01 6.66666698e+00 2.73333340e+01 1.22500000e+01
      3.07500000e+01 4.25000000e+01 1.55000000e+01 2.06666679e+01
      4.76666679e+01 30. 7. 5.62500000e+01 5.17500000e+01 55.
      5.82500000e+01 53. 3.50000000e+00 5.46000023e+01 26. 11.
      1.55000000e+01 1.06666670e+01 5.73333359e+01 4.43333359e+01
      4.26666679e+01 3. 3. 3.35000000e+01 4. 30. 23. 1.14000006e+01
      2.43999996e+01 48. 4.55000000e+01</_>
    <_>
      52. 19. 49. 2.96666679e+01 40. 31. 33. 33. 4.65000000e+01 18.
      1.05000000e+01 1.22500000e+01 37. 32. 48. 21. 44. 43. 13. 24. 12.
      48. 46. 21. 3.50000000e+00 8. 5.86666679e+01 29. 4.66666698e+00
      5.33333359e+01 28. 19. 6.50000000e+00 36. 5.36666679e+01 10. 54.
      2.35000000e+01 7. 19. 37. 45. 3.25000000e+01 26. 3.56666679e+01
      4.66666698e+00 15. 4.83333359e+01 3. 46. 19. 23. 3.02500000e+01
      5.57500000e+01 8. 42. 44. 19. 3.95000000e+01 2.62500000e+01
      4.15000000e+01 49. 33. 20. 10. 29. 56. 29. 36. 37. 47. 50. 20. 20.
      8. 30. 32. 1.05000000e+01 23. 29. 3.63333359e+01 54. 37. 22. 33.
      15. 48. 12. 25. 23. 47. 38. 5.55000000e+01 56. 4.35000000e+01
      5.50000000e+00 41. 38. 6.50000000e+00 2.55000000e+01
      3.50000000e+00 30. 18. 10. 10. 56. 5.73333359e+01 21.
      1.65000000e+01 30. 5.53333359e+01 4.66666698e+00 5.05000000e+01
      34. 12. 36. 1.15000000e+01 4.50000000e+00 57. 12. 58.
      5.06666679e+01 26. 30. 39. 4.13333359e+01 30. 4.</_>
    <_>
      55. 6. 8. 13. 59. 3.25000000e+01 3. 60. 36. 4.85000000e+01 41. 46.
      5.75000000e+01 38. 4.16666679e+01 5.03333359e+01 48. 3. 41. 42.
      56. 17. 9. 3.25000000e+01 4.95000000e+01 59. 19. 48. 31. 3. 45.
      51. 9. 39. 31. 8. 49. 55. 3. 37. 4.42500000e+01 2.27500000e+01 14.
      44. 2.35000000e+01 3.75000000e+01 28. 5. 15. 17. 55. 57. 6. 55.
      43. 58. 1.56666670e+01 7. 3.17500000e+01 22. 28. 33. 9.
      7.50000000e+00 5.74000015e+01 4.56000023e+01 18. 18.
      3.33333359e+01 5.86666679e+01 49. 53. 4. 52. 51. 13.
      5.85000000e+01 27. 27. 38. 21. 4.50000000e+00 1.16000004e+01
      5.07999992e+01 20. 18. 4.07500000e+01 1.07500000e+01 55. 41. 14.
      3.46666679e+01 5.50000000e+00 4.85000000e+01 45. 17. 59. 19. 34.
      31. 12. 10. 29. 28. 55. 5.15000000e+01 9. 45. 4.55000000e+01
      9.50000000e+00 15. 25. 25. 47. 57. 1.05000000e+01 39.
      2.76666679e+01 4.05000000e+01 35. 20. 54. 1.13333340e+01
      1.86666679e+01 1.95000000e+01 12. 3.46666679e+01 1.36666670e+01</_>
    <_>
      4. 28. 1.15000000e+01 26. 32. 49. 58. 3.87500000e+01 5. 24. 29.
      51. 4.41666679e+01 50. 2.73333340e+01 3.23333359e+01 5. 22. 19.
      41. 3.43333359e+01 4.33333349e+00 35. 59. 4.76666679e+01
      3.46666679e+01 14. 37. 13. 20. 24. 43. 3.57500000e+01 33.
      1.16666670e+01 35. 3. 16. 2.01666679e+01 5.25000000e+01 22. 5.
      2.17500000e+01 28. 17. 42. 1.46666670e+01 2.73333340e+01 18. 3.
      5.03333359e+01 4.23333359e+01 2.55000000e+01 5. 31. 11. 13.
      7.66666698e+00 4.75000000e+01 5.62500000e+01 1.05000000e+01
      4.95000000e+01 5.15000000e+01 1.95000000e+01 17. 3.13333340e+01
      17. 6. 20. 6. 3.47500000e+01 1.57500000e+01 5.02500000e+01
      8.25000000e+00 20. 20. 34. 51. 2.82500000e+01 2.42500000e+01 16.
      46. 2.35000000e+01 3.55000000e+01 8.50000000e+00 15. 26.
      5.83333359e+01 4.33333349e+00 36. 57. 1.65000000e+01
      1.75000000e+01 10. 5.95000000e+01 6. 3.33333349e+00 49. 47.
      1.47500000e+01 3.55000000e+01 54. 14. 54. 4.77500000e+01
      2.55000000e+01 59. 21. 2.05000000e+01 36. 42. 57. 5.
      8.50000000e+00 4.07999992e+01 1.76000004e+01 24. 15. 12. 59. 41.
      7. 56. 5.75000000e+01 3.94000015e+01 4.44000015e+01 18. 47.</_>
    <_>
      8. 4.15000000e+01 11. 26. 3.95000000e+01 57. 6. 25. 5.64000015e+01
      4.86000023e+01 3. 26. 9. 21. 13. 37. 1.45000000e+01 21. 4. 37. 16.
      16. 25. 59. 5.17500000e+01 5.25000000e+00 58. 38. 3. 35. 11. 19.
      1.45000000e+01 58. 2.05000000e+01 50. 26. 1.45000000e+01 4.
      3.05000000e+01 37. 50. 8.33333397e+00 3.06666679e+01 58.
      2.05000000e+01 39. 43. 7. 16. 2.85000000e+01 5.25000000e+00
      5.80000019e+00 8.80000019e+00 3.34000015e+01 5.44000015e+01
      8.60000038e+00 5.24000015e+01 2.76666679e+01 4.36666679e+01 40. 4.
      22. 13. 5. 27. 12. 14. 24. 51. 3. 20. 4.22000008e+01
      1.93999996e+01 41. 1.31999998e+01 5.86000023e+01 6.20000029e+00
      3.05000000e+01 17. 26. 20. 1.05000000e+01 36. 14. 6. 11.
      5.50000000e+00 34. 20. 1.86000004e+01 2.68000011e+01
      3.27500000e+01 4.67500000e+01 46. 5.75000000e+01 3.35000000e+01
      13. 2.57500000e+01 33. 5.06000023e+01 1.82000008e+01 15.
      3.36666679e+01 3.76666679e+01 3.46666679e+01 19. 5. 8. 4.
      2.55000000e+01 54. 7. 4.65000000e+01 4. 58. 39. 6. 5.58333359e+01
      2.63333340e+01 1.35000000e+01 46. 47. 3.92000008e+01 39.
      2.63333340e+01 5.83333359e+01 5.63333359e+01</_>
    <_>
      3. 28. 60. 11. 53. 3. 55. 4.85000000e+01 5.95000000e+01
      3.45000000e+01 7. 30. 13. 30. 44. 5. 2.05000000e+01 3.75000000e+01
      11. 32. 3.50000000e+00 41. 56. 43. 8.50000000e+00 5.72500000e+01
      3.25000000e+01 47. 15. 4.53333359e+01 33. 5.50000000e+00
      5.16666679e+01 21. 50. 39. 27. 59. 15. 41. 48. 40. 28. 44.
      4.65000000e+01 5.67500000e+01 57. 1.86666679e+01 28.
      3.32500000e+01 11. 4. 14. 39. 38. 45. 25. 42. 6.50000000e+00
      4.05000000e+01 21. 33. 8. 7. 8.50000000e+00 3.55000000e+01 38. 47.
      32. 5.25000000e+01 14. 1.95000000e+01 4.82000008e+01
      4.77999992e+01 8. 28. 30. 14. 5.63333359e+01 58. 32. 40.
      5.45000000e+01 2.68333340e+01 10. 43. 41. 43. 16. 50. 19. 59. 4.
      8.50000000e+00 4.85000000e+01 18. 24. 4. 18. 4.50000000e+00 8.
      1.25000000e+01 3.92000008e+01 20. 3.96666679e+01 8.33333397e+00
      5.45000000e+01 1.25000000e+01 27. 41. 11. 40. 43. 47.
      5.75000000e+00 51. 2.53333340e+01 1.15000000e+01 5.40000010e+00
      21. 54. 35. 2.25000000e+01 5.55000000e+01 43. 19. 29. 16.</_>
    <_>
      14. 48. 2.86666679e+01 7.66666698e+00 4.85000000e+01
      4.55000000e+01 5.72500000e+01 4.45000000e+01 3.95000000e+01
      5.75000000e+01 4.35000000e+01 48. 21. 4. 7.25000000e+00
      1.87500000e+01 3.75000000e+01 57. 5.63750000e+01 1.23750000e+01
      6.42857170e+00 5.57142878e+00 21. 6. 33. 55. 4.50000000e+00
      5.55000000e+01 19. 4. 28. 53. 21. 1.34000006e+01 17. 6. 30. 53.
      22. 5.55000000e+01 47. 5.65000000e+01 1.55000000e+01
      1.25000000e+01 36. 52. 14. 8. 4.50000000e+00 37. 4.23333359e+01
      20. 1.75000000e+01 42. 38. 49. 41. 4. 7. 13. 10. 5.33333359e+01
      30. 60. 42. 4.04000015e+01 3.07500000e+01 3.52500000e+01
      1.65000000e+01 3.05000000e+01 12. 40. 32. 51. 10. 11. 54.
      5.66666679e+01 50. 4.33333349e+00 23. 46. 2.45000000e+01
      3.05000000e+01 4.25000000e+01 4.45000000e+01 13. 32.
      3.32857170e+01 2.30000019e+01 36. 48. 1.46666670e+01
      2.46666679e+01 12. 9. 1.35000000e+01 1.65000000e+01 1.65000000e+01
      58. 3.97500000e+01 30. 38. 3.66666679e+01 10. 35. 28.
      4.55000000e+01 57. 31. 2.22000008e+01 2.33999996e+01 52.
      3.56000023e+01 3.74000015e+01 9.40000057e+00 5.50000000e+00
      2.55000000e+01 12. 7. 28. 1.72000008e+01 1.63333340e+01
      5.03333359e+01 2.63333340e+01 3.83333359e+01 3.27999992e+01
      4.16000023e+01</_>
    <_>
      21. 4.03333359e+01 55. 3.55000000e+01 1.71666679e+01
      3.18333340e+01 8. 10. 45. 4.05000000e+01 47. 35. 7. 1.53333340e+01
      5.35000000e+01 2.85000000e+01 5.80000019e+00 5.22000008e+01 51.
      41. 3.57999992e+01 1.58000002e+01 58. 31. 3.11666679e+01
      6.33333349e+00 44. 7. 47. 4.55000000e+01 5.93333359e+01 34.
      3.05000000e+01 2.05000000e+01 25. 27. 5.16666679e+01
      4.86666679e+01 22. 59. 5.05714302e+01 1.84285717e+01
      3.15000000e+01 57. 58. 4.55000000e+01 60. 5.50000000e+00 18. 7.
      5.08333359e+01 9.83333397e+00 37. 3. 3.26000023e+01 3.94000015e+01
      3.84000015e+01 2.62000008e+01 32. 2.55000000e+01 2.86666679e+01
      1.26666670e+01 21. 6. 6.50000000e+00 2.72500000e+01 2.75000000e+01
      2.15000000e+01 49. 54. 26. 55. 1.05000000e+01 4.85000000e+01
      1.95000000e+01 1.95000000e+01 53. 40. 5. 40. 18. 9. 24. 7. 39.
      5.87500000e+01 2.65000000e+01 4.05000000e+01 3.86666679e+01 35.
      19. 13. 16. 5. 4.52500000e+01 2.47500000e+01 2.06666679e+01 24.
      4.03333359e+01 52. 3.16666679e+01 5.23333359e+01 12. 42.
      5.85000000e+01 3.97500000e+01 1.63333340e+01 1.36666670e+01 52.
      5.86666679e+01 26. 3.50000000e+00 5.86000023e+01 55.
      3.82500000e+01 42. 3.76666679e+01 4.66666679e+01 1.11999998e+01
      5.47999992e+01 4.46666679e+01 3.16666679e+01 2.23333340e+01
      1.26666670e+01 1.15000000e+01 2.05000000e+01 46. 58.</_>
    <_>
      1.25000000e+01 5.85000000e+01 2.53999996e+01 4.17999992e+01
      3.23333359e+01 5.43333359e+01 1.77500000e+01 3.25000000e+01 29.
      59. 9.33333397e+00 2.06666679e+01 7. 55. 29. 4.85000000e+01 33.
      2.25000000e+01 9. 26. 4.93333359e+01 2.73333340e+01 38. 56. 58.
      10. 3.27500000e+01 5.75000000e+00 6. 4.85000000e+01 56.
      1.65000000e+01 3. 5.50000000e+00 4. 53. 40. 1.35000000e+01
      2.43333340e+01 35. 10. 31. 5.36000023e+01 5.14000015e+01 44.
      3.15000000e+01 6.33333349e+00 3.63333359e+01 25. 2.55000000e+01
      33. 11. 1.28000002e+01 1.24000006e+01 5.07500000e+01 44. 23.
      5.62000008e+01 14. 1.75000000e+01 56. 13. 14. 54. 5.65000000e+01
      2.72500000e+01 4.42500000e+01 1.17500000e+01 23. 4.76666679e+01
      15. 26. 4.12500000e+01 2.47500000e+01 4.05000000e+01
      6.50000000e+00 5.16666679e+01 5.63333359e+01 4. 3.32500000e+01
      2.72000008e+01 1.58000002e+01 1.93333340e+01 8.33333397e+00
      2.75000000e+01 4. 5.05000000e+01 1.05000000e+01 18. 4.05000000e+01
      5.35000000e+01 1.95000000e+01 3.05000000e+01 3.65000000e+01
      3.32500000e+01 4.02500000e+01 2.03333340e+01 27. 3.50000000e+00
      57. 1.45000000e+01 47. 39. 4.35000000e+01 4.46666679e+01
      1.88333340e+01 35. 15. 37. 3.50000000e+00 50. 37. 5.81666679e+01
      4.11666679e+01 58. 56. 11. 4.05000000e+01 18. 19. 1.33333340e+01
      5. 46. 6. 4.15000000e+01 3.82500000e+01 5.25000000e+00 41.</_>
    <_>
      3.65000000e+01 2.65000000e+01 3.46666679e+01 3.16666679e+01
      4.35000000e+01 2.85000000e+01 2.55000000e+01 4. 2.01666679e+01
      7.33333349e+00 39. 48. 41. 49. 28. 2.67500000e+01 5.76000023e+01
      1.73999996e+01 16. 55. 2.12500000e+01 5.52500000e+01 45. 49. 37.
      35. 24. 4.85000000e+01 4.36666679e+01 2.06666679e+01 50.
      4.75000000e+01 1.23333340e+01 1.26666670e+01 5.27999992e+01 9.
      2.75000000e+01 3.52500000e+01 36. 58. 3.50000000e+00
      2.15000000e+01 32. 58. 5.66000023e+01 5.06000023e+01
      4.82000008e+01 4.04000015e+01 1.42500000e+01 5. 4. 56.
      3.92500000e+01 1.42500000e+01 38. 46. 39. 54. 7.50000000e+00
      3.45000000e+01 5.83333359e+01 4.43333359e+01 10. 2.75000000e+01
      2.75000000e+01 60. 53. 45. 2.05000000e+01 1.65000000e+01
      3.05000000e+01 49. 41. 59. 14. 4.35000000e+01 31. 53.
      2.78333340e+01 4.23333359e+01 55. 40. 34. 7. 35. 4.05000000e+01
      12. 59. 59. 3.35000000e+01 43. 60. 1.15000000e+01 36.
      6.50000000e+00 8. 29. 57. 2.05000000e+01 24. 4.98571434e+01
      5.57142868e+01 42. 4.05000000e+01 42. 6. 36. 45. 42. 57.
      5.66666698e+00 4.23333359e+01 1.55000000e+01 3.95000000e+01
      2.07500000e+01 3.97500000e+01 8. 1.43333340e+01 2.73333340e+01
      1.53333340e+01 28. 53. 3.26666679e+01 2.33333340e+01
      4.78333359e+01 3.41666679e+01 10. 2.06666679e+01</_>
    <_>
      24. 16. 2.33333340e+01 5.03333359e+01 23. 18. 18. 19. 6.
      4.45000000e+01 3.72000008e+01 1.58000002e+01 20. 20. 20. 23. 29.
      26. 3.43333359e+01 35. 25. 26. 3.26666679e+01 52. 1.95000000e+01
      2.85000000e+01 28. 17. 27. 30. 36. 3. 1.52500000e+01 41. 51.
      1.73333340e+01 6.00000048e+00 1.58571434e+01 1.15000000e+01
      8.50000000e+00 29. 3.25000000e+01 4.76666679e+01 4.66666698e+00
      5.46666679e+01 2.55000000e+01 30. 10. 59. 11. 5.57500000e+01
      4.25000000e+01 5.47500000e+01 6.75000000e+00 16. 54. 59. 56. 39.
      3.87999992e+01 3.46000023e+01 2.62000008e+01 13. 4. 4.31666679e+01
      5.38333359e+01 2.76666679e+01 42. 3.95000000e+01 6.50000000e+00
      5.32500000e+01 1.27500000e+01 28. 21. 1.15000000e+01 52. 4. 31.
      28. 4. 26. 35. 4.36666679e+01 5. 5.35000000e+01 3.52500000e+01
      1.17500000e+01 5.72500000e+01 56. 1.87500000e+01 4.63333359e+01
      3.93333359e+01 5.50000000e+00 5.05000000e+01 50. 57.
      4.36000023e+01 2.46000004e+01 39. 59. 4.45000000e+01
      4.35000000e+01 35. 4.46666679e+01 1.46666670e+01 48.
      3.26666679e+01 5.83333359e+01 4. 36. 21. 6. 2.23333340e+01
      4.23333359e+01 21. 5.86666679e+01 1.02500000e+01 3.85000000e+01
      2.27500000e+01 1.17500000e+01 1.58000002e+01 3.37999992e+01 27.
      58. 43. 11. 4.43333359e+01 18.</_>
    <_>
      1.55000000e+01 4. 3.03999996e+01 4.92000008e+01 24. 10. 25. 4. 32.
      6. 13. 8. 1.67500000e+01 25. 5.06666679e+01 5.13333359e+01 22. 10.
      5.46666679e+01 3.46666679e+01 4. 40. 27. 35. 7.50000000e+00 13.
      12. 10. 7. 39. 5. 5.45000000e+01 7.66666698e+00 25. 2.53333340e+01
      26. 2.53333340e+01 42. 27. 1.82500000e+01 9. 39. 3.37500000e+01
      22. 49. 3.35000000e+01 2.46666679e+01 3.16666679e+01 19.
      2.85000000e+01 9.33333397e+00 5. 6. 44. 43. 4.85000000e+01 11. 37.
      32. 4.05000000e+01 5.93333359e+01 3.73333359e+01 17. 13.
      1.06000004e+01 5.54000015e+01 5.33333349e+00 4.66666698e+00 59.
      55. 4.05000000e+01 5.50000000e+00 11. 43. 51. 4.25000000e+01
      1.86666679e+01 35. 1.75000000e+01 60. 1.75000000e+01
      1.65000000e+01 57. 57. 20. 4.76666679e+01 57. 7.16666698e+00 48.
      45. 1.35000000e+01 4.05000000e+01 3.82000008e+01 4.04000015e+01
      4.05000000e+01 5.58333359e+01 59. 3.06666679e+01 3.71428604e+01
      3.37142868e+01 1.93333340e+01 5.43333359e+01 3.02000008e+01
      1.24000006e+01 4.77500000e+01 1.85000000e+01 1.82500000e+01 42.
      45. 1.17500000e+01 1.35000000e+01 1.65000000e+01 5.85000000e+01
      2.55000000e+01 5.85000000e+01 4.95000000e+01 14. 4.85000000e+01
      45. 40. 33. 5.77500000e+01 14. 36. 24. 58. 9.66666698e+00
      2.03333340e+01</_>
    <_>
      4. 36. 7. 36. 11. 31. 1.13333340e+01 3.83333359e+01 5.56666679e+01
      4.83333349e+00 4.43333359e+01 35. 3.27999992e+01 1.24000006e+01
      4.85000000e+01 2.55000000e+01 1.63999996e+01 5.06000023e+01
      5.37500000e+01 2.25000000e+01 36. 35. 18. 1.17500000e+01 35. 17.
      4.26666679e+01 5.83333359e+01 38. 21. 2.36666679e+01
      3.93333359e+01 33. 18. 2.65000000e+01 42. 39. 7. 43. 51. 28. 19.
      59. 14. 3.03333340e+01 39. 5.66666698e+00 5.33333359e+01 3. 40.
      53. 56. 30. 20. 4.20000029e+00 2.86000004e+01 4.83333359e+01
      5.33333349e+00 37. 58. 58. 5.45000000e+01 4.03333359e+01
      2.53333340e+01 38. 17. 7.33333349e+00 1.03333340e+01
      3.06666679e+01 5.53333359e+01 5.04000015e+01 3.94000015e+01 51.
      54. 39. 3.25000000e+01 53. 11. 2.43999996e+01 50. 53. 53.
      3.25000000e+01 2.85000000e+01 54. 17. 49. 59. 31. 5.95000000e+01
      55. 56. 3.45000000e+01 47. 49. 4.85000000e+01 37. 30.
      4.72000008e+01 1.58000002e+01 2.17500000e+01 5.72500000e+01 58.
      27. 36. 40. 5.65000000e+01 4.05000000e+01 2.43999996e+01
      3.37999992e+01 2.67500000e+01 5.75000000e+00 2.95000000e+01
      2.45000000e+01 16. 21. 6. 3. 4.43333359e+01 2.73333340e+01
      1.66666679e+01 43. 4.38333359e+01 4.23333359e+01 1.45000000e+01
      16. 4. 4.50000000e+00</_>
    <_>
      4.25000000e+00 6.50000000e+00 3.77500000e+01 1.85000000e+01 53.
      17. 16. 5.75000000e+00 22. 4.05000000e+01 7.83333349e+00
      4.23333359e+01 60. 12. 27. 4.05000000e+01 56. 43. 55. 15. 27. 43.
      5.36666679e+01 5.83333359e+01 4.55000000e+01 35. 47. 57. 60. 5.
      3.03333340e+01 38. 5.14000015e+01 25. 44. 1.05000000e+01
      3.75000000e+01 3.75000000e+01 2.72000008e+01 3.37999992e+01 31.
      5.64000015e+01 48. 3. 1.17500000e+01 5.82500000e+01 3.66000023e+01
      5.06000023e+01 44. 52. 34. 41. 57. 5. 4.85000000e+01
      4.95000000e+01 5.75000000e+01 3.85000000e+01 3.83333359e+01
      4.43333359e+01 51. 5. 1.95000000e+01 1.27500000e+01 8.66666698e+00
      35. 5.13333359e+01 9.33333397e+00 2.12500000e+01 5.75000000e+01
      5.03333359e+01 5.46666679e+01 5.25000000e+01 4.15000000e+01 58.
      32. 30. 4.75000000e+01 55. 12. 5. 60. 1.53333340e+01 42. 8.
      5.01666679e+01 2.35000000e+01 9. 22. 2.65000000e+01 2.63333340e+01
      5.23333359e+01 9.33333397e+00 1.26666670e+01 35. 1.17500000e+01 4.
      36. 4. 1.92500000e+01 1.52500000e+01 3.25000000e+01 57. 52. 43.
      42. 10. 2.61428585e+01 4.95000000e+01 3.22500000e+01
      5.87999992e+01 2.02000008e+01 39. 31. 33. 45. 24. 1.95000000e+01
      57. 9. 17. 1.82500000e+01 3. 58. 1.93333340e+01 4.76666679e+01
      3.05000000e+01 5.50000000e+00</_>
    <_>
      1.25000000e+01 3.45000000e+01 15. 36. 17. 36. 5.64000015e+01
      4.67999992e+01 1.07500000e+01 2.45000000e+01 3.15000000e+01 52.
      35. 3.32500000e+01 20. 37. 2.55000000e+01 5.05000000e+01
      3.53333359e+01 5.46666679e+01 3. 5. 1.15714293e+01 5.67142868e+01
      1.45000000e+01 4.95000000e+01 47. 45. 30. 55. 44. 48. 12. 5.
      4.13333359e+01 2.76666679e+01 27. 1.23333340e+01 18. 54. 45. 46.
      20. 13. 7.50000000e+00 19. 20. 42. 42. 49. 2.45000000e+01 16. 27.
      39. 24. 3.35000000e+01 5.87500000e+01 6.50000000e+00 48. 4. 38.
