<?xml version="1.0"?>
<opencv_storage>
<opencv_ml_svm>
  <format>3</format>
  <svmType>C_SVC</svmType>
  <kernel>
    <type>LINEAR</type></kernel>
  <C>1.</C>
  <term_criteria><iterations>100</iterations></term_criteria>
  <var_count>64</var_count>
  <class_count>2</class_count>
  <class_labels type_id="opencv-matrix">
    <rows>2</rows>
    <cols>1</cols>
    <dt>i</dt>
    <data>
      -1 1</data></class_labels>
  <sv_total>1</sv_total>
  <support_vectors>
    <_>
      3.33795161e-03 -1.82258687e-03 -4.83900920e-04 -6.44702930e-03
      3.04630637e-04 -6.93397538e-04 2.32346356e-03 2.56085274e-04
      2.74906936e-03 -3.73781985e-03 -1.30236917e-03 -7.34038884e-04
      7.80953851e-04 2.21673655e-03 1.00155384e-03 2.24002171e-03
      5.39248926e-04 -2.68359506e-03 -3.29742022e-03 2.42710765e-03
      -2.75608106e-03 -1.90463837e-03 4.06532967e-03 -2.42926693e-03
      1.42636010e-03 -1.43351790e-03 1.06073089e-03 6.99591707e-04
      -3.85497668e-04 -3.57624376e-03 2.89954524e-03 3.27097974e-03
      7.46311678e-04 2.57805432e-03 2.92229094e-03 -7.94679276e-04
      -4.42649797e-03 -2.56662327e-03 -5.93341887e-03 5.97775565e-04
      3.12269805e-03 -1.33597315e-03 4.15731594e-03 2.58349348e-03
      -2.54333345e-03 2.69720750e-03 2.55266903e-03 -3.86667508e-03
      1.18024938e-03 -3.54476226e-03 -2.72072596e-03 7.60697512e-05
      3.08829150e-03 8.65165843e-04 2.82208249e-03 -7.58405717e-04
      2.27672397e-03 3.09899071e-04 -2.51920399e-04 -1.65511470e-03
      -1.70212565e-03 -9.91828041e-04 3.38076527e-04 2.57745874e-03</_></support_vectors>
  <uncompressed_sv_total>130</uncompressed_sv_total>
  <uncompressed_support_vectors>
    <_>
      21. 12. 40. 48. 20. 15. 6. 3. 26. 28. 45. 46. 28. 37. 34. 53. 18.
      20. 58. 11. 48. 19. 27. 13. 56. 37. 37. 33. 17. 31. 60. 47. 44.
      22. 21. 35. 42. 17. 50. 44. 14. 25. 28. 18. 31. 15. 10. 7. 29. 44.
      57. 13. 48. 21. 59. 42. 19. 32. 60. 52. 21. 37. 28. 20.</_>
    <_>
      38. 18. 40. 23. 44. 14. 31. 33. 44. 48. 46. 45. 52. 5. 11. 4. 28.
      47. 49. 36. 51. 11. 22. 24. 3. 53. 46. 51. 14. 37. 43. 32. 37. 16.
      32. 52. 8. 55. 9. 40. 44. 19. 47. 53. 14. 9. 56. 59. 38. 58. 7.
      57. 9. 44. 47. 55. 3. 9. 36. 38. 36. 36. 3.50000000e+00
      4.75000000e+01</_>
    <_>
      27. 57. 17. 45. 40. 55. 13. 22. 60. 52. 5. 3. 56. 24. 19. 26. 40.
      3. 36. 47. 55. 3. 7. 6. 14. 9. 25. 60. 38. 39. 16. 35. 32. 39. 36.
      52. 56. 37. 36. 21. 60. 13. 10. 13. 48. 42. 44. 4.65000000e+01 14.
      38. 26. 49. 39. 57. 50. 30. 50. 14. 52. 6. 1.65000000e+01 42. 8.
      8.</_>
    <_>
      11. 33. 51. 6. 49. 9. 26. 14. 25. 4. 8. 47. 50. 11. 43. 20. 13.
      10. 17. 55. 7. 20. 14. 29. 53. 17. 44. 41. 44. 51. 52. 19. 39. 38.
      34. 10. 9. 6. 11. 37. 23. 58. 56. 5. 9. 26. 3. 43. 42. 9. 55. 17.
      46. 44. 29. 40. 4.50000000e+00 4.50000000e+00 3. 56. 51. 4. 39.
      14.</_>
    <_>
      5.05000000e+01 33. 4.85000000e+01 44. 46. 3. 17. 44. 23. 41. 60.
      4.50000000e+00 55. 46. 3. 7.50000000e+00 31. 4. 9. 6. 5. 55. 9.
      59. 44. 40. 41. 42. 5.50000000e+00 29. 2.85000000e+01 22. 41. 31.
      53. 16. 25. 26. 28. 36. 53. 19. 6. 14. 27. 58. 3.35000000e+01 59.
      37. 31. 60. 28. 52. 52. 55. 12. 54. 43. 9. 42. 39. 58. 30.
      2.85000000e+01</_>
    <_>
      37. 53. 38. 46. 3. 35. 12. 23. 31. 54. 8. 53. 3. 7. 44. 42. 33.
      60. 13. 59. 6. 25. 16. 10. 33. 29. 52. 47. 28. 59. 3. 49. 39. 11.
      8. 30. 9. 28. 18. 15. 26. 12. 43. 37. 48. 20. 50. 48. 30. 56. 5.
      54. 38. 29. 6. 31. 47. 49. 29. 24. 60. 46. 26. 17.</_>
    <_>
      40. 30. 51. 55. 7. 41. 20. 39. 49. 57. 28. 53. 54. 53. 59. 56. 30.
      31. 60. 49. 28. 13. 3. 28. 56. 58. 19. 30. 22. 56. 32. 4. 58. 40.
      33. 56. 28. 27. 60. 43. 21. 3. 47. 14. 58. 1.15000000e+01 3. 26.
      9. 42. 41. 7.50000000e+00 52. 60. 30. 54. 26. 14. 18. 32.
      7.50000000e+00 6. 58. 42.</_>
    <_>
      54. 57. 52. 30. 44. 53. 37. 14. 41. 55. 56. 18. 11. 3. 12. 56. 48.
      40. 51. 3. 18. 13. 52. 12. 60. 54. 42. 60. 46. 14. 57. 15. 3. 34.
      23. 56. 39. 57. 48. 42. 53. 3. 19. 29. 9. 30. 10. 39. 30. 30. 16.
      14. 19. 5.35000000e+01 50. 15. 8. 32. 22. 4. 31. 7.50000000e+00
      59. 8.</_>
    <_>
      10. 27. 25. 60. 18. 24. 20. 60. 27. 60. 45. 17. 31. 11. 14.
      1.15000000e+01 50. 38. 34. 4. 6.50000000e+00 49. 45. 44. 7. 35.
      40. 42. 26. 8. 17. 37. 12. 56. 60. 59. 53. 57. 51. 54. 49. 29. 24.
      7. 47. 7. 51. 44. 13. 36. 38. 20. 15. 15. 5. 3. 52. 39. 38. 8. 45.
      48. 55. 42.</_>
    <_>
      39. 29. 5. 13. 59. 38. 35. 17. 56. 12. 59. 41. 15. 60. 28. 20. 60.
      58. 50. 50. 4. 53. 60. 53. 37. 7. 54. 42. 43. 57. 14. 7. 5.
      3.65000000e+01 3. 10. 10. 60. 16. 8. 21. 11. 26. 6. 35. 46. 41.
      44. 30. 42. 41. 3.85000000e+01 41. 54. 4.45000000e+01 52. 5. 15.
      55. 14. 17. 60. 8. 24.</_>
    <_>
      50. 58. 44. 42. 40. 50. 34. 53. 31. 54. 18. 20. 35. 51. 25. 48.
      23. 41. 6. 8. 25. 44. 30. 38. 56. 8. 17. 43. 55. 37. 27. 7. 33.
      57. 31. 44. 51. 3. 50. 4.25000000e+01 27. 23. 55. 3. 52. 48. 11.
      11. 49. 38. 60. 58. 16. 6. 3. 29. 32. 39. 6. 60. 53. 6.
      4.55000000e+01 13.</_>
    <_>
      55. 50. 40. 58. 41. 3. 52. 52. 39. 3.95000000e+01 59. 29. 50.
      7.50000000e+00 30. 50. 3.55000000e+01 13. 4. 4. 15. 46. 7. 43. 34.
      42. 58. 11. 23. 57. 19. 29. 8. 20. 42. 48. 46. 8. 43. 6. 21. 44.
      56. 60. 21. 54. 13. 41. 15. 17. 53. 32. 2.45000000e+01 52. 45. 3.
      41. 44. 21. 3.85000000e+01 1.25000000e+01 7.50000000e+00 45. 37.</_>
    <_>
      1.25000000e+01 3.35000000e+01 24. 43. 49. 57. 20. 36. 28. 22. 27.
      45. 30. 7. 41. 37. 35. 13. 33. 5.55000000e+01 36. 35. 24. 49. 50.
      24. 43. 7. 1.15000000e+01 4.85000000e+01 32. 34. 47. 45. 21. 60.
      3. 37. 54. 24. 43. 13. 26. 26. 25. 60. 16. 51. 10. 3. 50. 41. 57.
      20. 57. 23. 50. 17. 60. 60. 4.95000000e+01 11. 31. 22.</_>
    <_>
      12. 51. 3. 26. 24. 41. 28. 10. 27. 33. 40. 28. 38. 5. 54. 32. 43.
      51. 59. 51. 27. 59. 43. 49. 43. 47. 50. 40. 44. 43. 39. 19. 41.
      44. 45. 41. 35. 38. 33. 31. 19. 60. 35. 34. 4. 43. 41. 34. 8. 14.
      60. 43. 4. 58. 59. 2.95000000e+01 7. 27. 42. 29. 35. 7. 53. 53.</_>
    <_>
      14. 41. 25. 34. 44. 32. 30. 28. 25. 38. 40. 40. 49. 28. 52. 38. 9.
      60. 33. 51. 60. 48. 35. 41. 55. 27. 56. 50. 33. 49. 31. 34. 51.
      34. 33. 47. 23. 31. 29. 19. 32. 29. 34. 43. 28. 5. 17. 59. 49. 31.
      50. 60. 17. 33. 4.55000000e+01 52. 3. 19. 18. 10. 31. 44. 25. 7.</_>
    <_>
      49. 1.15000000e+01 19. 22. 50. 3. 21. 10. 24. 30. 4. 6. 23. 34.
      12. 4.35000000e+01 7. 4. 18. 35. 36. 26. 10. 57. 13. 6. 32. 17.
      4.50000000e+00 4.35000000e+01 56. 5.26666679e+01 34. 58. 53. 11.
      3.50000000e+00 3.15000000e+01 13. 8. 10. 47. 42. 9. 1.43333340e+01
      1.53333340e+01 36. 58. 7. 11. 14. 39. 1.95000000e+01
      5.25000000e+01 51. 45. 30. 58. 8. 16. 1.75000000e+01 43. 26. 30.</_>
    <_>
      20. 53. 6. 47. 17. 55. 5. 36. 22. 41. 53. 41. 10. 7. 6. 38. 14.
      39. 37. 23. 17. 17. 51. 24. 49. 9. 7. 51. 34. 31. 12. 36. 53. 37.
      5. 28. 51. 34. 45. 26. 13. 16. 7. 15. 52. 55. 55. 22. 51.
      1.85000000e+01 6. 49. 40. 57. 43. 21. 53. 39. 8. 30. 29.
      5.15000000e+01 27. 5.75000000e+01</_>
    <_>
      59. 41. 3. 16. 60. 33. 59. 18. 33. 21. 59. 21. 54. 22. 19. 53. 20.
      57. 27. 23. 40. 18. 19. 50. 43. 38. 42. 19. 24. 31. 41. 34. 60.
      50. 41. 24. 3. 4. 8.50000000e+00 54. 39. 9. 35. 28. 43. 41. 8. 37.
      14. 58. 50. 30. 4.45000000e+01 32. 53. 43. 7. 17. 4.55000000e+01
      55. 35. 24. 30. 57.</_>
    <_>
      60. 38. 59. 47. 56. 40. 9. 5.15000000e+01 50. 50. 39. 55. 48. 41.
      29. 9. 14. 31. 3.25000000e+01 3.35000000e+01 43. 43. 17. 23. 35.
      31. 3. 9. 49. 1.95000000e+01 40. 30. 59. 57. 25. 28. 32. 55. 20.
      57. 33. 41. 52. 28. 23. 21. 4. 58. 33. 39. 55. 17. 44. 22. 25. 24.
      10. 57. 31. 2.03333340e+01 33. 37. 51. 24.</_>
    <_>
      39. 40. 24. 29. 32. 31. 22. 26. 27. 45. 29. 6. 11. 29. 36. 3. 60.
      8. 30. 43. 16. 38. 10. 54. 16. 28. 16. 5. 60. 12. 40. 47. 24.
      4.50000000e+00 34. 6. 36. 5.85000000e+01 17. 41. 18. 20. 54.
      1.25000000e+01 4.55000000e+01 17. 3. 50. 19. 5. 4.95000000e+01
      4.85000000e+01 22. 53. 7. 60. 55. 18. 43. 59. 39. 43. 27. 7.</_>
    <_>
      7. 41. 53. 29. 26. 3. 18. 30. 6. 39. 53. 27. 2.95000000e+01 45. 6.
      5. 6. 37. 51. 8.50000000e+00 51. 24. 9. 5. 24. 6. 14.
      4.50000000e+00 29. 40. 5. 18. 51. 14. 18. 6.50000000e+00
      4.43333359e+01 1.43333340e+01 53. 31. 54. 5.36666679e+01
      7.66666698e+00 2.66666679e+01 37. 13. 12. 53. 3.95000000e+01
      4.85000000e+01 2.83333340e+01 5.86666679e+01 8. 20. 52. 45. 17.
      45. 20. 43. 55. 12. 34. 21.</_>
    <_>
      12. 31. 60. 23. 59. 11. 54. 12. 33. 11. 50. 20. 24. 21. 8.
      6.50000000e+00 4.25000000e+01 2.35000000e+01 45. 21. 58.
      5.95000000e+01 41. 8.50000000e+00 4. 23. 59. 8. 27. 13. 23. 59.
      35. 18. 4.15000000e+01 49. 7. 45. 2.95000000e+01 4.85000000e+01
      16. 5.85000000e+01 1.93333340e+01 4.33333359e+01 4. 4.50000000e+00
      16. 3. 35. 14. 43. 31. 4.66666679e+01 51. 10. 43. 5.73333359e+01
      3.46666679e+01 14. 6. 43. 28. 41. 14.</_>
    <_>
      14. 21. 31. 24. 33. 27. 33. 29. 58. 29. 20. 12. 49. 9.50000000e+00
      4.55000000e+01 32. 44. 12. 33. 31. 40. 20. 13. 59. 39. 45. 31.
      1.03333340e+01 34. 23. 34. 5.36666679e+01 35. 21. 32. 45. 50. 3.
      25. 18. 19. 50. 50. 40. 55. 7. 25. 14. 6. 5.25000000e+01 20. 47.
      47. 59. 9.33333397e+00 4.33333359e+01 59. 37. 6. 3. 51. 14. 52.
      18.</_>
    <_>
      4. 21. 55. 20. 7. 13. 52. 22. 13. 11. 49. 41. 37. 59. 42. 18. 15.
      14. 29. 45. 2.25000000e+01 54. 9.50000000e+00 4.85000000e+01 23.
      28. 40. 3. 15. 18. 22. 45. 30. 20. 40. 40. 21. 8.50000000e+00
      3.55000000e+01 32. 45. 7. 39. 9.50000000e+00 2.45000000e+01 22.
      21. 14. 48. 46. 27. 53. 23. 31. 34. 12. 46. 30. 41. 14. 21. 24.
      51. 41.</_>
    <_>
      30. 33. 39. 33. 40. 37. 3. 40. 49. 40. 17. 45. 27. 35. 50. 56. 24.
      19. 8. 46. 55. 8. 48. 51. 11. 19. 12. 42. 40. 54. 16. 18. 41. 49.
      32. 21. 22. 43. 18. 10. 38. 47. 39. 30. 17. 31. 46. 60. 19. 45.
      44. 11. 43. 49. 16. 27. 22. 16. 50. 37. 53. 60. 16. 29.</_>
    <_>
      13. 1.75000000e+01 54. 45. 51. 43. 51. 48. 34. 11. 29.
      3.15000000e+01 39. 40. 22. 21. 55. 5.85000000e+01 40. 56. 6. 27.
      17. 35. 57. 43. 53. 20. 3.95000000e+01 60. 38. 51. 6. 29. 20. 33.
      40. 37. 30. 54. 7. 31. 45. 8. 5. 8. 30. 37. 32. 49. 8. 45. 52. 35.
      5.50000000e+00 17. 28. 47. 12. 43. 8. 10. 52. 1.55000000e+01</_>
    <_>
      56. 22. 60. 57. 56. 49. 20. 54. 4. 13. 43. 18. 26. 60. 48. 60.
      3.15000000e+01 58. 47. 43. 44. 45. 42. 35. 19. 3.15000000e+01
      2.06666679e+01 4.83333359e+01 41. 43. 24. 11. 30. 37. 41. 48. 12.
      21. 29. 40. 52. 6.50000000e+00 49. 35. 41. 14. 42. 57. 7. 35. 20.
      37. 60. 30. 35. 8. 43. 21. 28. 51. 60. 13. 10. 33.</_>
    <_>
      10. 54. 52. 8. 12. 49. 9. 30. 33. 18. 20. 37. 18. 51. 9. 33. 53.
      5.23333359e+01 32. 1.06666670e+01 58. 19. 38. 60. 19. 40. 50. 30.
      1.96666679e+01 5.86666679e+01 59. 27. 46. 49. 4. 38. 48. 21. 58.
      55. 60. 58. 3.55000000e+01 35. 32. 57. 10. 37. 32. 4.53333359e+01
      14. 11. 43. 23. 52. 57. 44. 3. 37. 43. 8. 47. 33. 21.</_>
    <_>
      40. 30. 10. 37. 46. 20. 44. 5.25000000e+01 51. 31. 57.
      5.45000000e+01 22. 4.53333359e+01 9. 40. 5.35000000e+01 11. 34. 3.
      49. 31. 4. 11. 8. 51. 3.85000000e+01 5.05000000e+01 38. 21. 48.
      36. 29. 35. 28. 60. 13. 60. 33. 23. 42. 57. 22. 57. 15. 8. 51. 52.
      23. 19. 54. 51. 27. 43. 42. 8. 22. 35. 5. 5.85000000e+01 10. 56.
      2.55000000e+01 12.</_>
    <_>
      15. 48. 3. 47. 5. 44. 60. 21. 14. 6. 9. 23. 8. 52. 4. 60. 12. 45.
      19. 33. 5.25000000e+01 4.75000000e+01 49. 3. 42. 38. 35. 52. 11.
      50. 20. 49. 49. 45. 13. 47. 8. 16. 35. 48. 38. 23. 52. 30.
      4.35000000e+01 34. 14. 60. 41. 44. 16. 50. 36. 7. 55. 26. 13. 8.
      16. 3. 46. 55. 34. 55.</_>
    <_>
      13. 37. 47. 12. 48. 25. 43. 44. 56. 22. 54. 6. 6. 58. 42. 36. 60.
      35. 52. 10. 14. 55. 34. 58. 40. 25. 60. 28. 10. 58. 50. 58. 15.
      60. 31. 59. 42. 29. 27. 53. 31. 51. 34. 31. 58. 32. 55. 31. 44.
      46. 10. 60. 28. 3. 3.05000000e+01 7.50000000e+00 8. 1.35000000e+01
      29. 52. 13. 44. 34. 33.</_>
    <_>
      58. 41. 32. 19. 52. 50. 33. 41. 54. 49. 54. 60. 30. 60. 3. 56. 8.
      52. 38. 44. 56. 56. 60. 22. 38. 18. 37. 23. 3. 13. 53. 19. 44.
      5.15000000e+01 10. 11. 51. 56. 55. 54. 12. 53. 49. 52. 33. 6. 5.
      3. 57. 54. 43. 7. 54. 28. 8. 30. 12. 46. 40. 60. 3. 4. 49. 29.</_>
    <_>
      17. 51. 39. 3. 50. 57. 11. 32. 6.50000000e+00 6.50000000e+00 49.
      55. 26. 60. 29. 59. 42. 26. 55. 59. 56. 4.55000000e+01 38. 10. 5.
      15. 29. 49. 7. 57. 8. 38. 60. 40. 39. 46. 9. 56. 12. 30.
      4.85000000e+01 44. 13. 42. 42. 33. 36. 2.95000000e+01 37. 53. 35.
      49. 13. 50. 36. 8. 23. 17. 9. 33. 7.50000000e+00 46. 60. 3.</_>
    <_>
      24. 27. 39. 55. 32. 26. 47. 45. 19. 59. 53. 21. 58. 24. 60. 35.
      29. 52. 56. 39. 57. 51. 3.85000000e+01 44. 7. 51. 55. 60. 3. 42.
      32. 33. 27. 9. 50. 40. 19. 49. 25. 49. 60. 55. 13. 17. 29. 46. 57.
      3. 29. 3. 40. 57. 45. 46. 16. 60. 45. 59. 28. 32. 25. 54. 57. 53.</_>
    <_>
      24. 20. 12. 3. 36. 25. 34. 22. 24. 3. 39. 4. 31. 8. 8. 37. 24. 52.
      26. 15. 15. 8. 34. 7. 15. 41. 20. 46. 59. 5. 42. 41. 37. 53. 60.
      59. 22. 23. 7. 4. 60. 23. 41. 4. 15. 12. 20. 51. 14. 15. 50. 5.
      17. 57. 40. 34. 52. 8. 45. 34. 59. 46. 3.45000000e+01 59.</_>
    <_>
      37. 42. 55. 31. 9. 44. 40. 44. 60. 34. 20. 41. 28. 51. 59. 60. 41.
      16. 41. 40. 30. 3. 21. 38. 32. 48. 44. 38. 3. 34. 35. 11. 46. 42.
      48. 27. 12. 34. 57. 3. 26. 54. 60. 41. 24. 16. 8. 31. 36. 3. 10.
      59. 23. 35. 46. 38. 4. 39. 54. 5. 25. 19. 10. 31.</_>
    <_>
      54. 22. 1.25000000e+01 19. 17. 60. 19. 57. 21. 56. 5. 35. 41.
      5.15000000e+01 27. 6. 16. 48. 29. 14. 18. 45. 21. 28. 19. 41. 36.
      38. 9. 27. 9.50000000e+00 37. 52. 49. 15. 43. 36. 5.15000000e+01
      26. 43. 17. 8. 46. 47. 15. 33. 27. 49. 46. 5. 27. 5.85000000e+01
      14. 11. 45. 52. 13. 40. 35. 43. 32. 60. 38. 32.</_>
    <_>
      2.13333340e+01 5.73333359e+01 35. 37. 29. 28. 32. 30. 5.
      5.65000000e+01 4.83333359e+01 1.26666670e+01 2.25000000e+01 30.
      39. 33. 23. 2.55000000e+01 56. 4.63333359e+01 37. 19.
      3.75000000e+01 50. 22. 20. 5.53333359e+01 5.66666698e+00 41. 10.
      15. 6. 47. 51. 16. 18. 3.23333359e+01 1.26666670e+01 30. 21. 17.
      51. 57. 25. 58. 43. 5. 21. 55. 1.75000000e+01 1.45000000e+01
      3.75000000e+01 55. 55. 4.65000000e+01 8. 60. 7. 18. 17. 39. 10.
      60. 42.</_>
    <_>
      58. 44. 33. 52. 27. 60. 17. 42. 3. 27. 46. 27. 26. 27. 18. 44. 8.
      37. 16. 3.15000000e+01 54. 5.50000000e+00 25. 32. 16. 18. 8. 44.
      15. 23. 3. 48. 54. 51. 22. 31. 8. 58. 56. 41. 21. 8. 58. 25. 20.
      32. 6.50000000e+00 5.35000000e+01 3. 53. 35. 4.50000000e+00 37.
      60. 60. 46. 44. 34. 59. 7.50000000e+00 50. 5.55000000e+01 32. 29.</_>
    <_>
      1.45000000e+01 5.05000000e+01 3. 39. 50. 42. 12. 44. 51. 22. 3.
      18. 60. 39. 5. 29. 60. 22. 38. 24. 22. 41. 50. 56. 59. 3. 50. 31.
      60. 52. 17. 29. 19. 55. 18. 18. 59. 46. 55. 31. 27. 52. 45. 3. 19.
      20. 38. 26. 48. 56. 58. 49. 11. 21. 51. 33. 3. 57. 40.
      3.95000000e+01 52. 35. 5.15000000e+01 7.</_>
    <_>
      38. 26. 17. 11. 30. 31. 28. 37. 27. 46. 30. 15. 28. 56. 15. 15.
      59. 31. 24. 44. 3. 41. 30. 3. 35. 52. 50. 35. 36. 3. 20. 13. 40.
      56. 57. 53. 60. 56. 30. 38. 32. 25. 34. 6. 38. 59. 59. 54. 3. 17.
      60. 58. 3. 20. 6. 35. 3. 37. 15. 36. 49. 25. 48. 29.</_>
    <_>
      46. 60. 25. 48. 43. 55. 6. 45. 54. 56. 60. 5. 38. 56. 30. 51. 5.
      37. 25. 19. 54. 49. 4. 24. 30. 35. 52. 5. 25. 52. 3. 33. 60. 36.
      29. 22. 43. 42. 59. 7. 3. 52. 34. 52. 9. 28. 4. 9. 25. 38. 8. 52.
      24. 26. 8. 30. 49. 40. 27. 12. 24. 28. 49. 44.</_>
    <_>
      57. 38. 60. 28. 7. 3. 21. 29. 29. 33. 51. 7. 51. 22. 23. 15. 56.
      26. 12. 55. 22. 40. 50. 39. 32. 3.95000000e+01 14. 20. 50. 29. 33.
      20. 39. 12. 11. 32. 23. 46. 57. 55. 41. 35. 29. 53. 52. 58. 16. 7.
      54. 27. 39. 21. 8. 34. 45. 52. 45. 2.95000000e+01 26. 57. 28. 58.
      50. 60.</_>
    <_>
      7. 38. 30. 36. 21. 24. 5. 8. 16. 3. 59. 32. 51. 50. 36. 39. 34.
      34. 4. 51. 36. 3. 42. 47. 7. 9. 60. 56. 42. 30. 30. 49. 28. 28.
      17. 45. 58. 3. 3. 41. 56. 27. 3. 9. 49. 57. 35. 11. 38. 26. 36.
      54. 15. 48. 29. 18. 39. 28. 21. 55. 19. 56. 6. 29.</_>
    <_>
      38. 53. 59. 47. 24. 34. 34. 49. 56. 36. 40. 16. 4. 50. 57. 44. 32.
      50. 45. 37. 58. 51. 56. 42. 26. 48. 24. 49. 22. 43. 11. 3. 44. 26.
      60. 58. 20. 10. 4. 41. 6. 19. 53. 38. 21. 51. 20. 44. 12. 5. 37.
      24. 34. 21. 39. 5. 37. 6. 49. 59. 5.25000000e+01 4.50000000e+00
      53. 60.</_>
    <_>
      22. 53. 21. 57. 52. 31. 31. 27. 25. 15. 16. 53. 39. 38. 38. 8.
      1.65000000e+01 31. 24. 43. 14. 57. 28. 23. 5. 44. 52. 60. 8. 54.
      3. 17. 36. 8. 49. 4. 60. 42. 24. 40. 17. 17. 30. 6. 9. 56. 59. 17.
      33. 8. 60. 39. 36. 41. 14. 27. 10. 58. 31. 3. 53. 33. 38. 40.</_>
    <_>
      49. 51. 43. 28. 11. 3. 46. 43. 18. 42. 14. 12. 52. 11. 59. 20. 60.
      45. 48. 2.45000000e+01 7. 23. 39. 3. 54. 39. 6. 51. 13. 20.
      5.95000000e+01 27. 7. 42. 58. 37. 10. 21. 33. 16. 28. 40. 20. 36.
      60. 34. 29. 19. 8. 17. 24. 60. 32. 60. 10. 1.45000000e+01 6. 10.
      21. 47. 17. 12. 3.65000000e+01 57.</_>
    <_>
      44. 49. 42. 47. 37. 37. 44. 38. 44. 36. 17. 58. 60. 58. 51. 54.
      45. 20. 60. 33. 60. 40. 14. 25. 3. 3. 51. 28. 23. 55. 5. 11. 12.
      4. 46. 52. 36. 18. 60. 37. 3. 15. 12. 5.25000000e+01 59. 20. 35.
      5.65000000e+01 32. 5. 3. 55. 52. 18. 26. 58. 36. 3. 53. 55. 41.
      24. 60. 35.</_>
    <_>
      18. 9. 5. 15. 49. 49. 48. 47. 4. 39. 52. 47. 11. 26. 52. 3. 32.
      53. 23. 60. 38. 36. 45. 4. 19. 7. 58. 39. 57. 58. 8. 15. 29. 51.
      3. 48. 29. 18. 42. 13. 3. 60. 56. 37. 18. 12. 3. 18. 40. 55. 54.
      3. 53. 3.25000000e+01 33. 55. 1.95000000e+01 42. 37. 44. 51. 8. 4.
      50.</_>
    <_>
      22. 14. 27. 5. 47. 56. 19. 46. 28. 30. 59. 19. 31. 48. 32. 15. 13.
      24. 27. 23. 47. 60. 23. 58. 4. 3. 30. 46. 3. 59. 18. 58. 56. 34.
      12. 57. 12. 26. 34. 46. 41. 43. 42. 5. 31. 9. 30. 21. 17. 51. 24.
      60. 33. 18. 15. 59. 10. 29. 43. 43. 40. 8. 31. 19.</_>
    <_>
      3. 46. 23. 30. 9. 42. 5. 28. 17. 3. 50. 60. 50. 3. 5. 45. 47. 16.
      33. 31. 48. 57. 3. 38. 5. 20. 25. 21. 35. 47. 5.85000000e+01
      5.05000000e+01 35. 53. 5. 51. 6. 32. 10. 16. 33. 46. 30. 55. 32.
      43. 9. 49. 3. 29. 32. 53. 20. 8. 52. 23. 50. 27. 1.75000000e+01
      5.95000000e+01 47. 41. 60. 59.</_>
    <_>
      26. 48. 30. 54. 40. 53. 39. 51. 17. 59. 40. 39. 37. 44. 21. 28.
      53. 59. 36. 4. 22. 60. 13. 30. 38. 36. 6. 7. 36. 57. 38. 34. 26.
      7. 44. 57. 3. 29. 11. 44. 52. 22. 39. 41. 8. 23. 20. 42. 52. 14.
      51. 60. 38. 11. 40. 13. 36. 59. 9. 60. 7. 27. 59. 16.</_>
    <_>
      18. 42. 11. 55. 58. 41. 39. 33. 3. 55. 4. 28. 13. 17. 33. 16. 42.
      43. 6. 59. 57. 8. 19. 27. 3. 7. 57. 38. 32. 53. 15. 37. 9. 57. 23.
      47. 52. 19. 36. 5. 2.15000000e+01 31. 2.05000000e+01 11. 52. 50.
      7. 9. 3. 16. 41. 57. 4. 60. 56. 34. 34. 54. 28. 50. 50. 22.
      7.50000000e+00 3.45000000e+01</_>
    <_>
      59. 14. 13. 3. 30. 52. 53. 10. 37. 14. 38. 10. 4. 18. 47. 3. 51.
      24. 9. 53. 42. 6. 24. 3. 35. 22. 49. 40. 4. 28. 39. 55. 14. 51.
      34. 46. 3. 12. 47. 7. 50. 60. 19. 4.05000000e+01 14.
      5.65000000e+01 23. 36. 26. 58. 58. 44. 19. 7. 4. 60. 42. 8. 30. 6.
      42. 58. 37. 55.</_>
    <_>
      32. 46. 21. 56. 46. 27. 57. 4. 60. 17. 4.45000000e+01
      3.35000000e+01 21. 28. 6.50000000e+00 18. 39. 36. 32. 20. 10. 31.
      25. 18. 21. 16. 59. 3. 29. 29. 19. 17. 44. 56. 1.45000000e+01 44.
      37. 4.45000000e+01 42. 9. 57. 20. 24. 27. 60. 53. 3. 16. 33. 43.
      35. 13. 27. 49. 23. 59. 3. 31. 58. 18. 42. 1.75000000e+01 21. 31.</_>
    <_>
      17. 3. 36. 24. 27. 5. 1.85000000e+01 4.45000000e+01 3. 54. 12. 34.
      56. 49. 6. 18. 5.76666679e+01 6.66666698e+00 4.55000000e+01 18.
      22. 2.83333340e+01 43. 60. 40. 21. 59. 15. 25. 14. 3.86666679e+01
      46. 27. 43. 51. 48. 11. 20. 47. 38. 1.46666670e+01 9. 56. 14. 27.
      13. 32. 28. 42. 53. 3. 31. 5. 4.23333359e+01 12. 14. 3. 22. 35.
      3.95000000e+01 54. 3.83333359e+01 59. 37.</_>
    <_>
      57. 21. 19. 44. 45. 20. 58. 28. 56. 59. 13. 28. 30. 45. 48. 33.
      44. 55. 10. 60. 46. 40. 6. 56. 43. 19. 7. 59. 55. 24. 49. 57. 4.
      55. 41. 20. 54. 26. 4. 9. 16. 28. 36. 23. 53. 48. 51. 60. 25. 33.
      59. 48. 60. 38. 58. 35. 4. 34. 26. 38. 49. 16. 3. 36.</_>
    <_>
      44. 54. 35. 37. 43. 41. 22. 42. 57. 34. 29. 46. 59. 18. 3. 6. 52.
      42. 19. 40. 60. 8. 32. 59. 12. 53. 60. 38. 49. 27. 53. 18. 30. 36.
      58. 5. 27. 10. 45. 48. 59. 45. 44. 25. 19. 14. 7. 29. 47. 56. 55.
      44. 8. 59. 50. 29. 4. 25. 46. 10. 30. 15. 6. 26.</_>
    <_>
      42. 5. 13. 29. 52. 60. 25. 24. 34. 41. 14. 22. 26. 15. 13. 20. 9.
      10. 16. 43. 3. 42. 14. 13. 57. 3. 3. 49. 50. 11. 11. 7. 53. 3. 9.
      56. 50. 21. 14. 8. 48. 28. 44. 4. 12. 51. 44. 23. 28. 60. 18. 5.
      42. 7. 56. 45. 18. 46. 19. 7. 48. 31. 21. 7.</_>
    <_>
      4. 31. 12. 8. 3. 9. 10. 12. 56. 55. 8. 13. 57. 23. 10. 17. 34. 48.
      51. 2.35000000e+01 20. 11. 5. 2.25000000e+01 5. 18. 30. 34. 34.
      46. 28. 57. 24. 31. 49. 16. 4. 3. 46. 58. 42. 27. 60. 17.
      4.65000000e+01 6.50000000e+00 60. 42. 16. 40. 8. 23. 28. 40. 26.
      19. 55. 10. 7. 5. 10. 6. 60. 59.</_>
    <_>
      32. 44. 25. 56. 25. 54. 26. 52. 57. 49. 34. 42. 8. 12. 8. 50. 20.
      45. 31. 27. 35. 37. 57. 24. 27. 46. 3. 58. 57. 55. 24. 24. 56. 12.
      50. 39. 44. 48. 28. 42. 25. 4. 57. 8. 7. 56. 50. 21. 4.
      4.45000000e+01 48. 42. 3. 51. 31. 46. 6. 15. 8. 52. 56. 26. 7. 34.</_>
    <_>
      8. 53. 26. 39. 24. 42. 9. 28. 4. 48. 9. 49. 3. 27. 46. 40. 23. 13.
      14. 45. 11. 26. 50. 44. 10. 6. 48. 28. 8. 41. 25. 56. 57. 21. 17.
      11. 39. 58. 33. 34. 54. 14. 52. 56. 47. 35. 57. 40. 7. 39. 3. 55.
      12. 9. 57. 31. 22. 7. 38. 60. 33. 36. 7. 36.</_>
    <_>
      35. 23. 44. 50. 28. 35. 22. 48. 16. 47. 53. 5. 60. 53. 42. 9. 20.
      49. 26. 17. 51. 34. 36. 49. 14. 40. 54. 7. 58. 39. 45. 54. 27. 14.
      7. 60. 28. 29. 45. 52. 4. 32. 12. 26. 60. 6. 53. 60. 5. 17. 44.
      60. 52. 4.55000000e+01 26. 11. 9. 32. 1.25000000e+01 59. 26. 58.
      59. 8.</_>
    <_>
      35. 46. 4. 32. 46. 60. 31. 46. 9. 26. 28. 55. 9. 38. 3. 47. 41.
      54. 12. 50. 16. 13. 56. 15. 22. 53. 3. 19. 12. 21. 46. 51. 14. 51.
      52. 29. 56. 54. 10. 3. 17. 59. 49. 60. 29. 57. 10. 60.
      2.85000000e+01 5.95000000e+01 12. 43. 18. 16. 49. 31.
      5.65000000e+01 60. 3. 12. 34. 11. 19. 59.</_>
    <_>
      57. 60. 28. 31. 38. 46. 46. 55. 39. 40. 41. 51. 9. 49. 28. 47. 31.
      50. 45. 33. 24. 41. 3. 34. 50. 35. 31. 29. 45. 41. 17. 19. 25. 34.
      10. 42. 51. 20. 48. 43. 8. 12. 42. 12. 27. 33. 15. 51. 50. 14. 42.
      60. 56. 44. 17. 25. 10. 9. 4.15000000e+01 6.50000000e+00 3. 15.
      53. 14.</_>
    <_>
      41. 54. 23. 45. 18. 41. 26. 58. 8. 21. 21. 33. 25. 55. 22. 29. 32.
      49. 7. 40. 27. 18. 36. 9. 30. 46. 40. 11. 3. 56. 14. 20. 49. 29.
      10. 43. 3. 34. 19. 15. 60. 30. 25. 46. 4. 32. 6. 44. 50. 22. 10.
      59. 7. 6. 25. 6. 59. 48. 58. 5. 21. 18. 55. 31.</_>
    <_>
      3. 56. 6. 53. 13. 48. 34. 58. 52. 3. 3. 22. 15. 48. 15. 6. 22. 51.
      29. 49. 42. 6. 16. 12. 50. 58. 31. 25. 32. 52. 37. 25. 43. 4. 9.
      32. 18. 36. 48. 24. 58. 37. 33. 60. 52. 7. 3. 24. 32. 50. 45. 59.
      34. 41. 3. 39. 10. 41. 60. 10. 56. 17. 58. 34.</_>
    <_>
      60. 10. 60. 17. 18. 60. 54. 10. 7. 43. 42. 3. 59. 38. 60. 50. 25.
      24. 11. 3. 33. 18. 56. 43. 14. 5. 53. 23. 41. 15. 58. 8. 59. 48.
      15. 15. 20. 22. 50. 39. 44. 34. 44. 26. 3.85000000e+01
      3.25000000e+01 11. 48. 50. 4. 28. 31. 57. 45. 43. 59.
      4.50000000e+00 29. 16. 5. 17. 17. 56. 39.</_>
    <_>
      44. 54. 44. 31. 23. 60. 25. 52. 19. 51. 49. 3. 13. 46. 9. 27. 3.
      7. 16. 43. 57. 53. 42. 40. 19. 22. 49. 58. 32. 41. 5. 37. 41. 15.
      34. 4. 28. 26. 44. 48. 60. 58. 39. 39. 20. 31. 48. 56. 57. 55. 23.
      38. 42. 42. 13. 53. 47. 15. 13. 11. 27. 6. 25. 38.</_>
    <_>
      10. 55. 15. 56. 47. 59. 24. 24. 37. 9. 27. 10. 25. 39. 56. 29. 60.
      13. 24. 60. 60. 48. 31. 50. 45. 39. 59. 37. 39. 60. 53. 57. 35.
      47. 3. 59. 1.35000000e+01 18. 59. 5.55000000e+01 1.55000000e+01 4.
      53. 37. 32. 53. 57. 52. 38. 50. 31. 17. 48. 1.05000000e+01
      3.95000000e+01 53. 8. 43. 30. 13. 55. 31. 33. 50.</_>
    <_>
      15. 36. 38. 47. 34. 41. 16. 39. 7. 40. 60. 56. 36. 60. 51. 52. 41.
      4. 3. 23. 19. 29. 60. 21. 17. 48. 5. 5. 18. 10. 37. 39. 55. 59.
      25. 57. 11. 51. 5. 18. 17. 5.15000000e+01 14. 19. 9. 45. 31. 59.
      53. 3. 3.50000000e+00 20. 57. 42. 34. 43. 48. 54. 36. 10. 8. 34.
      17. 20.</_>
    <_>
      31. 42. 55. 54. 44. 28. 55. 28. 56. 52. 33. 19. 58. 49. 34. 28.
      38. 24. 27. 51. 48. 14. 58. 34. 34. 26. 9.50000000e+00 46.
      1.25000000e+01 7. 49. 33. 36. 21. 7. 39. 38. 17. 28. 10.
      3.15000000e+01 57. 57. 60. 51. 32. 42. 24. 54. 15. 13. 20. 51. 58.
      55. 30. 40. 25. 28. 53. 46. 17. 42. 60.</_>
    <_>
      48. 13. 22. 25. 33. 28. 38. 58. 36. 20. 40. 3. 54. 52. 5. 26. 44.
      20. 60. 46. 4. 59. 9. 25. 45. 18. 36. 7. 59. 50. 4. 45. 23. 3. 8.
      53. 50. 57. 15. 29. 11. 3.15000000e+01 27. 51. 28. 49.
      2.25000000e+01 34. 48. 35. 47. 15. 45. 4. 52. 53. 55. 24. 12. 45.
      19. 12. 52. 60.</_>
    <_>
      33. 22. 30. 27. 13. 40. 11. 8. 17. 4. 51. 25. 7. 31. 4. 60. 45.
      25. 36. 46. 58. 54. 25. 23. 15. 9. 34. 7. 38. 38. 31. 55. 45. 36.
      13. 7. 60. 48. 53. 23. 19. 57. 41. 34. 60. 6. 13. 35. 46. 57. 20.
      31. 11. 10. 9. 31. 59. 60. 37. 9. 40. 59. 60. 34.</_>
    <_>
      10. 28. 7. 36. 5.65000000e+01 41. 9. 30. 51. 47. 59. 53. 7. 33.
      11. 26. 24. 58. 27. 3. 56. 49. 4. 39. 57. 17. 55. 56. 11. 37. 56.
      51. 60. 38. 3.50000000e+00 7.50000000e+00 60. 25. 2.75000000e+01
      45. 30. 60. 52. 5. 8. 10. 46. 50. 12. 46. 7. 60. 8. 40. 57. 55.
      17. 27. 26. 60. 3.65000000e+01 15. 59. 18.</_>
    <_>
      52. 22. 42. 57. 42. 36. 25. 5. 14. 60. 43. 4. 34. 24. 31. 34. 43.
      22. 23. 53. 27. 22. 21. 60. 38. 15. 3. 25. 31. 49. 36. 18. 29. 60.
      11. 60. 54. 56. 38. 12. 33. 48. 38. 27. 23. 60. 51. 48. 3. 27. 24.
      3. 41. 7. 55. 51. 40. 47. 40. 9. 9.50000000e+00 50. 39. 50.</_>
    <_>
      60. 19. 40. 37. 43. 36. 54. 28. 60. 34. 58. 4.55000000e+01
      2.05000000e+01 2.25000000e+01 54. 48. 56. 39. 28. 7. 54. 53. 54.
      38. 37. 5.35000000e+01 50. 59. 48. 36. 22. 16. 59. 60. 46. 46. 46.
      33. 27. 21. 36. 44. 46. 30. 24. 30. 41. 51. 10. 26. 54. 26. 60.
      49. 8. 3.75000000e+01 19. 27. 22. 47. 36. 58. 17. 39.</_>
    <_>
      49. 56. 38. 29. 40. 26. 46. 14. 54. 35. 59. 9. 30. 17. 26. 3. 38.
      39. 59. 13. 35. 6. 17. 54. 50. 46. 55. 22. 11. 43. 24. 8. 50. 11.
      21. 48. 44. 55. 49. 51. 12. 11. 59. 26. 26. 5. 50. 60. 10. 46. 10.
      4. 41. 57. 12. 35. 56. 2.85000000e+01 3. 7. 3.85000000e+01 5. 10.
      37.</_>
    <_>
      34. 20. 50. 27. 29. 17. 56. 36. 35. 33. 27. 29. 33. 4. 46. 34. 56.
      23. 60. 49. 30. 11. 17. 29. 5. 3. 8. 54. 56. 20. 37. 11. 51. 41.
      19. 26. 53. 26. 32. 6. 46. 48. 6. 51. 20. 16. 29. 41. 58. 26. 31.
      14. 5. 29. 48. 43. 15. 3.75000000e+01 9. 13. 46. 44. 6. 13.</_>
    <_>
      8. 46. 53. 60. 41. 21. 51. 57. 20. 31. 35. 48. 43. 50. 15. 48. 30.
      34. 26. 42. 52. 4. 48. 53. 32. 36. 13. 13. 17. 36. 24. 48. 58. 40.
      55. 36. 43. 39. 37. 34. 21. 6. 12. 3. 43. 14. 11. 50. 22. 35. 17.
      52. 5.45000000e+01 5. 5. 2.05000000e+01 52. 37. 41. 42. 60. 16.
      21. 8.</_>
    <_>
      4. 14. 32. 60. 36. 46. 30. 45. 18. 54. 18. 39. 22. 12. 22. 51. 3.
      43. 38. 36. 6. 24. 27. 21. 59. 37. 60. 15. 50. 13. 59. 45. 25. 56.
      9. 37. 53. 46. 29. 38. 6. 17. 5. 60. 50. 50. 18. 14. 24. 37. 23.
      53. 45. 55. 9. 27. 60. 17. 53. 50. 4.85000000e+01 36. 23. 39.</_>
    <_>
      60. 29. 29. 21. 35. 13. 5. 9. 46. 14. 3. 42. 15. 20. 19. 6. 51.
      21. 48. 23. 58. 59. 46. 51. 40. 59. 40. 3. 22. 49. 15. 15. 46. 28.
      56. 53. 56. 16. 27. 9. 39. 49. 14. 52. 17. 9. 46. 24. 60. 60.
      4.25000000e+01 53. 49. 4. 40. 55. 12. 44. 10. 47. 38. 51. 7.
      3.25000000e+01</_>
    <_>
      33. 60. 33. 12. 35. 56. 57. 52. 8. 28. 27. 15. 21. 23. 41. 55. 51.
      11. 6. 58. 28. 3. 60. 44. 3. 6. 45. 47. 2.45000000e+01 36. 25. 16.
      49. 44. 48. 42. 26. 11. 52. 47. 16. 10. 44. 43. 49. 39. 26. 9. 52.
      56. 4.75000000e+01 36. 21. 6. 5. 43. 4.85000000e+01 5. 8. 40. 51.
      16. 20. 59.</_>
    <_>
      30. 58. 13. 54. 52. 12. 23. 54. 22. 58. 18. 60. 55. 6.50000000e+00
      60. 9. 4.50000000e+00 45. 29. 31. 17. 58. 3. 2.65000000e+01 10.
      4.15000000e+01 48. 3.85000000e+01 60. 18. 36. 59. 4. 7. 26. 8. 9.
      8. 59. 45. 21. 29. 26. 24. 33. 21. 18. 54. 4.45000000e+01
      2.05000000e+01 56. 19. 47. 4. 14. 22. 10. 52. 22. 16. 39. 12. 14.
      56.</_>
    <_>
      42. 46. 39. 44. 60. 32. 49. 49. 40. 46. 31. 9. 26. 44. 45. 22. 12.
      44. 58. 57. 14. 56. 31. 57. 3. 14. 48. 17. 20. 4. 12. 7. 8. 20. 3.
      20. 50. 56. 29. 35. 10. 27. 32. 55. 4.15000000e+01 5.85000000e+01
      60. 25. 37. 9. 9. 30. 2.75000000e+01 48. 17. 39. 18. 6. 10. 20.
      23. 41. 60. 22.</_>
    <_>
      39. 3. 39. 55. 26. 23. 41. 16. 17. 36. 39. 13. 54. 33. 18. 17. 21.
      20. 32. 9. 24. 17. 48. 54. 14. 49. 25. 11. 56. 55. 13. 14. 4. 56.
      45. 12. 18. 43. 53. 4.75000000e+01 27. 11. 6. 1.75000000e+01
      4.95000000e+01 9.50000000e+00 58. 33. 57. 45. 37. 34. 8. 13. 35.
      60. 35. 31. 18. 38. 52. 34. 31. 11.</_>
    <_>
      10. 42. 58. 7. 19. 52. 21. 10. 18. 54. 53. 4. 60. 55. 60. 10. 23.
      29. 33. 53. 47. 51. 34. 47. 35. 18. 47. 8. 11. 54. 57. 55. 12. 56.
      28. 60. 59. 15. 11. 33. 57. 57. 57. 16. 4. 39. 41. 51. 39. 3. 35.
      34. 38. 52. 56. 36. 42. 5. 14. 39. 7. 5. 3.65000000e+01 39.</_>
    <_>
      60. 44. 42. 49. 8. 53. 29. 60. 37. 30. 41. 37. 53. 46. 28. 54.
      3.50000000e+00 45. 4.05000000e+01 58. 13. 12. 18. 56. 43. 14. 56.
      3.35000000e+01 8. 23. 4.50000000e+00 35. 43. 54. 19. 54. 15. 15.
      11. 56. 30. 30. 18. 4.35000000e+01 48. 31. 60. 14. 3. 51.
      5.50000000e+00 12. 38. 54. 12. 38. 15. 28. 12. 50. 4. 15. 12. 21.</_>
    <_>
      23. 54. 25. 57. 48. 46. 51. 55. 57. 12. 46. 49. 49. 54. 38. 23.
      11. 24. 20. 3. 46. 51. 14. 36. 21. 26. 34. 28. 38. 54. 42. 40. 3.
      32. 17. 34. 51. 45. 40. 55. 14. 40. 12. 33. 23. 31. 49. 37. 40.
      57. 58. 14. 40. 5.95000000e+01 8. 27. 23. 26. 42. 44. 16. 41. 14.
      57.</_>
    <_>
      3. 17. 28. 48. 43. 9. 52. 4. 20. 60. 5. 18. 56. 49. 35. 3. 50. 50.
      10. 30. 24. 60. 7. 35. 14. 20. 54. 16. 35. 46. 12. 3. 26. 10. 12.
      55. 20. 24. 29. 50. 44. 52. 49. 19. 9. 32. 31. 22. 17. 3. 21. 26.
      49. 21. 30. 26. 34. 12. 33. 14. 47. 25. 46. 46.</_>
    <_>
      20. 22. 3. 21. 45. 14. 8. 22. 3. 33. 21. 34. 48. 18. 48. 3. 14.
      19. 7. 28. 45. 20. 4.55000000e+01 3.25000000e+01 3. 14. 9. 36. 51.
      31. 57. 31. 12. 16. 37. 58. 15. 45. 9. 8.50000000e+00 44. 27. 12.
      12. 5. 58. 56. 57. 20. 57. 2.85000000e+01 33. 2.25000000e+01 16.
      40. 60. 22. 51. 41. 36. 22. 36. 33. 9.</_>
    <_>
      28. 18. 50. 59. 32. 8. 41. 4. 49. 22. 50. 20. 5. 3. 19. 10. 3. 58.
      42. 14. 26. 26. 45. 8. 9. 3. 28. 40. 39. 12. 27. 45. 59. 3. 39.
      54. 3. 25. 55. 59. 7. 3. 5. 60. 21. 50. 44. 14. 30. 41. 47. 25.
      60. 50. 35. 5. 7. 14. 54. 10. 4.75000000e+01 46. 6. 26.</_>
    <_>
      9. 34. 17. 24. 2.73333340e+01 1.93333340e+01 20. 31. 15. 24. 39.
      27. 3. 18. 4.83333359e+01 9. 12. 38. 37. 28. 6. 25. 59. 53. 8. 47.
      4.66666679e+01 2.76666679e+01 5. 18. 34. 13. 18. 44. 7. 19. 45.
      42. 57. 4.25000000e+01 54. 23. 3. 7. 22. 25. 1.73333340e+01
      8.33333397e+00 18. 34. 41. 5.55000000e+01 9. 20. 38. 33.
      5.45000000e+01 3.25000000e+01 5. 11. 24. 58. 2.73333340e+01 5.</_>
    <_>
      23. 30. 6.33333349e+00 4.53333359e+01 25. 60. 30. 49. 27. 52.
      3.35000000e+01 3.95000000e+01 26. 47. 50. 5.15000000e+01 46.
      2.76666679e+01 21. 37. 3. 50. 19. 50. 54. 5. 20. 46. 18. 44. 60.
      56. 4. 60. 1.55000000e+01 15. 7. 14. 13. 3. 12. 52. 43. 60. 8. 16.
      3.46666679e+01 1.03333340e+01 12. 39. 46. 60. 46. 48. 18. 11. 8.
      38. 52. 5.65000000e+01 50. 40. 1.85000000e+01 20.</_>
    <_>
      8. 11. 53. 30. 25. 37. 40. 5.15000000e+01 15. 60. 33. 5. 22. 42.
      33. 60. 11. 37. 7.50000000e+00 4.95000000e+01 5.50000000e+00 15.
      33. 48. 20. 49. 59. 13. 36. 60. 17. 52. 39. 48. 16. 47. 40. 40.
      13. 30. 4.83333359e+01 5.33333349e+00 36. 2.76666679e+01 49. 21.
      3.50000000e+00 50. 18. 15. 42. 5.65000000e+01 9. 45.
      8.50000000e+00 20. 4. 59. 54. 46. 53. 14. 23. 11.</_>
    <_>
      26. 26. 12. 42. 51. 15. 26. 24. 15. 37. 5. 60. 39. 21.
      5.65000000e+01 6.50000000e+00 26. 33. 3. 56. 32. 5.65000000e+01
      49. 13. 30. 40. 23. 60. 23. 5. 43. 30. 4.55000000e+01
      4.65000000e+01 3. 50. 8.50000000e+00 5.05000000e+01 43. 14. 23.
      48. 57. 11. 26. 60. 52. 44. 1.05000000e+01 13. 5.95000000e+01
      3.45000000e+01 4.05000000e+01 5.50000000e+00 58. 60. 6. 47. 30.
      5.15000000e+01 34. 5. 29. 48.</_>
    <_>
      59. 58. 60. 51. 22. 5.65000000e+01 47. 5. 49. 37. 46. 8. 3. 52.
      46. 5.55000000e+01 34. 46. 4.03333359e+01 1.43333340e+01 51. 24.
      33. 14. 60. 2.55000000e+01 16. 33. 37. 47. 53. 20. 20. 40. 16. 25.
      13. 60. 42. 44. 49. 23. 1.96666679e+01 5.03333359e+01 54. 27. 33.
      30. 1.85000000e+01 5. 13. 48. 16. 60. 46. 52. 47. 11.
      3.05000000e+01 5.50000000e+00 57. 23. 29. 21.</_>
    <_>
      59. 5.55000000e+01 3. 57. 20. 36. 46. 15. 48. 57. 3.35000000e+01
      2.95000000e+01 18. 34. 1.76666679e+01 8.66666698e+00 50. 30. 12.
      29. 43. 38. 8. 28. 21. 27. 2.76666679e+01 3.93333359e+01 51. 44.
      56. 49. 6. 47. 19. 40. 46. 23. 1.15000000e+01 5. 60. 46. 8.
      5.85000000e+01 18. 60. 5.50000000e+00 3.65000000e+01 23. 20. 50.
      57. 49. 38. 12. 42. 23. 5.55000000e+01 1.65000000e+01 50. 12. 7.
      35. 48.</_>
    <_>
      54. 36. 36. 23. 40. 30. 39. 57. 9. 5.05000000e+01 41. 41. 60. 58.
      39. 42. 36. 15. 10. 36. 4.33333359e+01 4.73333359e+01 39. 38.
      5.50000000e+00 5. 8. 34. 25. 27. 9. 40. 53. 20. 4.33333349e+00
      3.96666679e+01 11. 27. 33. 38. 8. 60. 59. 3. 13. 20.
      1.76666679e+01 3.93333359e+01 25. 48. 14. 58. 53. 4. 50. 50.
      8.50000000e+00 10. 22. 32. 12. 53. 49. 11.</_>
    <_>
      36. 49. 12. 32. 59. 27. 29. 38. 15. 27. 60. 22. 7. 42. 31. 47. 30.
      30. 43. 20. 28. 57. 15. 48. 4. 58. 23. 38. 40. 50. 3. 46. 33. 46.
      44. 36. 49. 53. 26. 23. 41. 7.50000000e+00 4.50000000e+00
      3.85000000e+01 30. 4.15000000e+01 49. 3. 30. 57. 7. 60. 26. 15.
      10. 39. 51. 5. 52. 34. 47. 37. 55. 56.</_>
    <_>
      49. 27. 33. 20. 45. 56. 29. 11. 50. 1.35000000e+01 26. 49. 16. 14.
      16. 16. 33. 4. 30. 50. 16. 23. 46. 4.55000000e+01 59.
      1.46666670e+01 54. 17. 39. 53. 20. 30. 39. 3. 20. 4.15000000e+01
      34. 36. 13. 38. 41. 4. 5.95000000e+01 4.45000000e+01 37. 37. 58.
      58. 19. 57. 19. 38. 41. 6. 42. 34. 22. 4.65000000e+01 3. 42. 53.
      10. 46. 42.</_>
    <_>
      46. 28. 27. 32. 48. 47. 5.25000000e+01 5.55000000e+01 19. 30. 46.
      7.66666698e+00 50. 47. 10. 1.85000000e+01 24. 48. 58. 45. 21. 17.
      6. 37. 19. 48. 60. 36. 3. 47. 35. 17. 12. 32. 22. 43. 56. 39. 50.
      20. 8. 3. 7.66666698e+00 58. 35. 38. 23. 10. 60. 46.
      2.93333340e+01 26. 9. 48. 22. 59. 5.50000000e+00 2.65000000e+01
      19. 25. 1.65000000e+01 40. 51. 34.</_>
    <_>
      59. 38. 18. 47. 45. 46. 13. 28. 20. 47. 46. 56. 60. 50. 30. 40.
      46. 54. 60. 31. 3. 32. 26. 39. 34. 26. 57. 7. 48. 53. 20. 20. 37.
      27. 1.96666679e+01 3.03333340e+01 58. 48. 21. 37. 16. 5. 39. 43.
      58. 51. 16. 13. 2.25000000e+01 5.55000000e+01 46. 3.55000000e+01
      23. 36. 33. 10. 50. 60. 4.55000000e+01 2.05000000e+01 46. 32. 60.
      52.</_>
    <_>
      33. 21. 29. 22. 57. 32. 46. 25. 12. 54. 3. 29. 24. 19. 60. 41. 45.
      9. 60. 4. 13. 38. 36. 8. 23. 14. 5.05000000e+01 56. 57.
      8.50000000e+00 2.03333340e+01 4.03333359e+01 15. 6.66666698e+00
      51. 41. 10. 11. 44. 6. 60. 10. 27. 42. 30. 5. 10. 1.83333340e+01
      17. 15. 24. 5.76666679e+01 46. 51. 3. 60. 43. 46. 34. 3. 58. 52.
      54. 10.</_>
    <_>
      35. 28. 24. 38. 5.25000000e+01 4.55000000e+01 50. 10. 19. 38. 30.
      19. 43. 18. 18. 14. 50. 2.15000000e+01 26. 17. 20. 16. 49. 37. 27.
      22. 60. 26. 5.66666698e+00 5.13333359e+01 19. 20. 3.43333359e+01
      7.33333349e+00 56. 29. 12. 22. 1.65000000e+01 30. 59.
      3.55000000e+01 49. 18. 22. 33. 6. 3.75000000e+01 19. 5.
      3.95000000e+01 56. 4.50000000e+00 2.35000000e+01 52.
      2.65000000e+01 7.80000019e+00 1.26000004e+01 20. 58. 46. 3. 21. 7.</_>
    <_>
      10. 58. 33. 18. 9. 3.05000000e+01 38. 37. 60. 38. 13.
      3.55000000e+01 54. 16. 40. 37. 26. 3. 2.95000000e+01 56. 50. 30.
      8. 14. 25. 7. 38. 6.50000000e+00 9. 38. 4.25000000e+01
      4.55000000e+01 46. 29. 55. 55. 10. 6. 22. 12. 39. 18. 20. 19. 41.
      27. 17. 22. 25. 28. 40. 2.15000000e+01 9.50000000e+00 18. 49. 49.
      5. 19. 43. 26. 16. 17. 3. 21.</_>
    <_>
      49. 33. 47. 17. 5.85000000e+01 6. 1.95000000e+01 56.
      8.50000000e+00 2.05000000e+01 15. 28. 44. 16. 12. 12.
      1.55000000e+01 5. 40. 30. 3. 26. 23. 18. 5.50000000e+00 39.
      5.66666679e+01 4.43333359e+01 29. 37. 39. 49. 55. 36. 31. 27. 30.
      2.15000000e+01 36. 29. 3. 20. 30. 10. 55. 60. 32. 47. 60. 49. 33.
      26. 6. 17. 26. 3. 45. 55. 52. 14. 33. 44. 29. 18.</_>
    <_>
      18. 37. 30. 30. 2.25000000e+01 4.55000000e+01 6. 3. 60. 55. 13.
      18. 46. 45. 34. 16. 26. 29. 58. 58. 59. 28. 19. 18. 16. 3. 60. 41.
      4.83333359e+01 5.93333359e+01 3. 22. 60. 21. 3.95000000e+01
      1.55000000e+01 20. 37. 45. 36. 58. 38. 35. 55. 22. 2.65000000e+01
      39. 33. 29. 49. 20. 2.15000000e+01 48. 43. 4.85000000e+01 6. 46.
      2.43333340e+01 58. 41. 20. 10. 9.50000000e+00 56.</_>
    <_>
      9. 6. 29. 39. 35. 44. 55. 28. 8. 52. 56. 42. 49. 16. 24. 3. 54.
      30. 60. 5. 52. 41. 22. 52. 6. 32. 53. 3. 50. 41. 24. 40. 4. 51.
      39. 9. 17. 44. 9. 42. 24. 60. 50. 11. 52. 7. 50. 32. 27. 9. 58.
      26. 11. 52. 44. 3.45000000e+01 32. 3. 18. 46. 8. 3. 53. 10.</_>
    <_>
      38. 60. 39. 3.85000000e+01 49. 55. 50. 45. 38. 51. 33. 48.
      3.85000000e+01 20. 44. 47. 44. 38. 55. 3. 37. 45. 31. 53. 32. 29.
      59. 4.15000000e+01 5. 25. 35. 44. 60. 51. 44. 2.15000000e+01 18.
      38. 35. 37. 48. 36. 54. 5.95000000e+01 60. 27. 3. 40. 6. 58. 22.
      7. 60. 33. 24. 48. 48. 19. 50. 57. 1.13333340e+01 9.
      1.86666679e+01 22.</_>
    <_>
      34. 20. 22. 11. 9. 49. 56. 41. 22. 13. 48. 14. 52. 8. 5. 41. 54.
      50. 8. 1.95000000e+01 12. 41. 52. 33. 37. 21. 37. 48. 36. 6.
      2.55000000e+01 4.35000000e+01 52. 53. 55. 7. 12. 36. 21. 58. 41.
      4. 56. 32. 31. 21. 53. 10. 5. 25. 59. 28. 15. 13. 15. 45. 57.
      1.95000000e+01 39. 32. 31. 50. 1.05000000e+01 6.50000000e+00</_>
    <_>
      37. 3. 56. 10. 48. 13. 39. 48. 20. 48. 60. 3. 8.19999981e+00 44.
      27. 13. 37. 2.18000011e+01 4.63333359e+01 34. 15. 3. 39. 50.
      1.05000000e+01 26. 29. 13. 7. 1.55000000e+01 60. 5. 5.75000000e+01
      5.15000000e+01 2.92000008e+01 4.04000015e+01 24. 16. 48. 57.
      5.17999992e+01 4.67999992e+01 3. 56. 34. 5.65000000e+01 43. 13.
      23. 14. 47. 54. 8. 5.75000000e+01 33. 13. 46. 60. 18. 22. 14. 28.
      52. 53.</_>
    <_>
      34. 26. 59. 33. 37. 32. 47. 20. 47. 47. 24. 30. 58. 27. 34. 52.
      42. 36. 4. 52. 31. 25. 60. 3. 9. 7. 26. 12. 34. 37. 22. 33. 57.
      36. 22. 13. 12. 44. 44. 14. 60. 54. 8. 50. 28. 20. 3. 13. 36. 38.
      7. 45. 5. 27. 5. 5. 6. 51. 26. 21. 19. 39. 9. 17.</_>
    <_>
      5.65000000e+01 5.05000000e+01 8. 39. 7. 25. 11. 60. 58. 9. 25. 54.
      9. 26. 12. 52. 8. 56. 3. 42. 55. 12. 8. 34. 30. 53. 5. 51. 34. 59.
      4.66666698e+00 7.66666698e+00 59. 13. 4.43333359e+01
      5.16666679e+01 5.66666679e+01 2.56666679e+01 13. 3. 31. 31. 21.
      3.05000000e+01 11. 27. 32. 52. 4.25000000e+01 1.65000000e+01 4.
      55. 37. 4.22500000e+01 3. 18. 50. 58. 50. 25. 13. 7.50000000e+00
      19. 37.</_>
    <_>
      8.50000000e+00 39. 18. 5.50000000e+00 58. 1.65000000e+01 34. 3.
      35. 56. 38. 29. 58. 7. 26. 39. 9. 6. 51. 35. 39. 10. 11. 57. 47.
      14. 3.85000000e+01 7. 17. 48. 38. 27. 43. 6. 45. 4.95000000e+01
      15. 51. 40. 28. 53. 9. 5. 3. 26. 25. 21. 5.75000000e+01 5.
      1.55000000e+01 4.43333359e+01 2.03333340e+01 33. 13. 59.
      4.33333359e+01 52. 13. 40. 50. 49. 5.50000000e+00 17. 55.</_>
    <_>
      35. 55. 34. 57. 4.86666679e+01 18. 55. 60. 3. 51. 53. 58.
      2.96666679e+01 4.66666679e+01 1.33333340e+01 5. 1.65000000e+01 59.
      36. 29. 3. 40. 36. 15. 50. 60. 8. 56. 52. 5.50000000e+00 8. 28.
      5.45000000e+01 9. 26. 3.95000000e+01 43. 5.07500000e+01
      1.85000000e+01 29. 5. 6. 4.05000000e+01 4.50000000e+00 3. 37. 13.
      16. 53. 49. 5.33333359e+01 3.96666679e+01 10. 59. 57. 4. 13.
      5.56666679e+01 54. 13. 21. 47. 21. 3.</_>
    <_>
      2.58000011e+01 3.86000023e+01 53. 60. 60. 46. 9. 60. 56. 45. 29.
      8.33333397e+00 37. 55. 27. 28. 52. 48. 24. 26. 51. 46. 22. 25. 8.
      5. 4.52500000e+01 3.17500000e+01 32. 58. 6. 52. 33. 38. 24. 22.
      3.50000000e+00 29. 39. 4.32500000e+01 19. 1.16000004e+01 34. 57.
      33. 42. 8. 1.85000000e+01 4.76666679e+01 11. 26. 53.
      5.75000000e+01 1.75000000e+01 4.75000000e+01 4.25000000e+01 14.
      23. 27. 51. 3.55000000e+01 2.55000000e+01 47. 39.</_>
    <_>
      2.65000000e+01 2.17500000e+01 3.07500000e+01 2.95000000e+01 36.
      57. 50. 45. 44. 44. 60. 38. 42. 44. 45. 24. 1.76666679e+01
      4.16666679e+01 4.45000000e+01 53. 39. 7. 11. 8.50000000e+00
      6.80000019e+00 5.36000023e+01 18. 57. 47. 33. 60. 54. 28. 4. 3.
      20. 30. 5.95000000e+01 15. 25. 51. 2.25000000e+01 14. 15. 44. 31.
      49. 5.36666679e+01 3. 4. 55. 46. 57. 45. 5.66666679e+01 5.
      5.66666679e+01 1.36666670e+01 27. 8.50000000e+00 2.75000000e+01
      3.75000000e+01 57. 5.05000000e+01</_>
    <_>
      30. 38. 33. 41. 34. 47. 11. 30. 32. 50. 46. 8. 60. 36. 57. 8. 15.
      49. 26. 60. 31. 7. 3. 36. 52. 11. 12. 8. 21. 2.25000000e+01 51.
      42. 18. 57. 41. 3. 58. 48. 5. 30. 13. 53. 36. 27. 41. 9.
      3.55000000e+01 7. 14. 37. 56. 51. 1.45000000e+01 34. 21. 3. 12.
      32. 5.05000000e+01 4.75000000e+01 5.75000000e+01 1.95000000e+01
      15. 51.</_>
    <_>
      49. 59. 47. 40. 11. 28. 3. 7. 58. 4. 58. 54. 3. 10. 42. 50. 3. 21.
      55. 48. 8.50000000e+00 5.75000000e+01 15. 42. 35. 51. 14. 24. 47.
      37. 27. 8. 54. 46. 24. 29. 53. 19. 37. 2.63333340e+01 45. 16. 40.
      34. 53. 28. 2.43333340e+01 1.43333340e+01 53. 44. 31.
      1.75000000e+01 34. 5.85000000e+01 15. 2.75000000e+01
      5.33333359e+01 9.66666698e+00 4.25000000e+01 20. 40. 4. 48. 43.</_>
    <_>
      27. 28. 60. 11. 59. 3.85000000e+01 4.52500000e+01 2.42500000e+01
      3.16666679e+01 1.86666679e+01 19. 3. 24. 4. 36. 4. 12. 54. 24. 17.
      3. 16. 3.46666679e+01 5.53333359e+01 5.63333359e+01 2.36666679e+01
      57. 52. 9. 3.45000000e+01 9.75000000e+00 6.75000000e+00 60. 45.
      33. 9. 15. 60. 5.35000000e+01 30. 9. 23. 5.65000000e+01 12.
      3.53333359e+01 2.96666679e+01 3. 9. 4.75000000e+01 43. 48. 49.
      1.05000000e+01 59. 10. 43. 5.85000000e+01 33. 37. 12. 25. 53.
      4.33333349e+00 3.96666679e+01</_>
    <_>
      32. 47. 55. 59. 56. 13. 3. 10. 32. 39. 4.25000000e+01 48.
      4.05000000e+01 13. 48. 4. 26. 16. 55. 57. 3. 56. 55. 4. 17. 17.
      3.50000000e+00 3.65000000e+01 49. 38. 44. 60. 2.65000000e+01 57.
      4. 60. 2.65000000e+01 4.45000000e+01 60. 53. 18. 3.05000000e+01
      60. 34. 5.95000000e+01 22. 52. 15. 10. 36. 46. 49. 38. 17. 27. 5.
      30. 54. 23. 35. 60. 17. 58. 14.</_>
    <_>
      29. 24. 8. 3. 48. 49. 10. 7. 57. 47. 60. 22. 47. 57. 19. 9. 59.
      16. 54. 60. 56. 54. 50. 9. 44. 58. 34. 58. 44. 43. 4.50000000e+00
      53. 37. 10. 17. 3.65000000e+01 58. 9. 27. 56. 2.85000000e+01
      5.50000000e+00 1.35000000e+01 27. 1.75000000e+01 5.55000000e+01
      17. 12. 60. 27. 23. 4.85000000e+01 56. 56. 37. 2.05000000e+01 57.
      12. 37. 60. 44. 45. 2.05000000e+01 1.85000000e+01</_>
    <_>
      31. 51. 26. 26. 36. 39. 7. 57. 15. 49. 56. 34. 49. 48. 20. 31. 48.
      41. 44. 23. 19. 33. 32. 60. 14. 10. 47. 37. 57. 27. 5. 26. 16. 38.
      6. 52. 54. 40. 48. 29. 19. 21. 29. 4. 13. 4. 14. 41. 3. 47. 3. 58.
      9. 39. 56. 36. 44. 25. 15. 12. 9. 41. 60. 7.</_>
    <_>
      21. 57. 57. 33. 51. 50. 56. 31. 49. 51. 6. 58. 11. 54. 46. 26. 6.
      28. 38. 19. 17. 60. 8. 55. 46. 24. 9. 11. 47. 17. 4. 31. 39. 38.
      19. 56. 10. 60. 54. 19. 16. 16. 2.35000000e+01 35. 58. 36. 44. 30.
      23. 57. 9.50000000e+00 22. 5. 60. 26. 5.35000000e+01 59. 44. 34.
      14. 49. 17. 3.75000000e+01 29.</_>
    <_>
      46. 48. 58. 41. 56. 43. 3.63333359e+01 2.63333340e+01 34. 56. 24.
      18. 58. 29. 17. 23. 49. 43. 3. 22. 35. 41. 16. 21. 9.50000000e+00
      52. 55. 29. 23. 37. 4. 20. 8. 5.66666698e+00 48. 36. 17. 53. 37.
      10. 6. 16. 53. 54. 46. 26. 11. 40. 6. 14. 35. 35. 9. 41. 14. 9.
      35. 33. 5. 48. 5.05000000e+01 5.55000000e+01 5.55000000e+01
      1.35000000e+01</_>
    <_>
      22. 39. 54. 23. 15. 4. 27. 42. 14. 6. 45. 27. 40. 9. 4. 12. 13.
      25. 15. 39. 42. 19. 46. 21. 38. 21. 55. 54. 32. 56. 54. 12. 3. 33.
      7. 19. 7. 48. 20. 8. 50. 26. 11. 28. 59. 42. 51. 15. 3. 25. 44.
      20. 7. 5.85000000e+01 55. 57. 23. 1.45000000e+01 31. 60. 10. 33.
      49. 18.</_>
    <_>
      46. 36. 35. 29. 29. 28. 1.15000000e+01 3.05000000e+01 41. 29. 20.
      27. 40. 27. 11. 7. 30. 34. 57. 46. 42. 52. 57. 16. 20. 40. 44. 58.
      59. 7. 16. 43. 46. 44. 38. 5. 44. 5.50000000e+00 19. 46. 45. 46.
      42. 3. 29. 54. 60. 42. 4. 2.95000000e+01 58. 29. 5. 51.
      3.85000000e+01 59. 14. 51. 8. 58. 57. 3. 1.85000000e+01 55.</_>
    <_>
      3. 36. 10. 4. 55. 21. 46. 38. 19. 54. 43. 43. 27. 57. 19. 52. 46.
      54. 52. 38. 21. 50. 28. 41. 35. 5.50000000e+00 46. 1.05000000e+01
      48. 53. 60. 12. 2.05000000e+01 9.50000000e+00 7. 44. 38. 55. 46.
      17. 50. 42. 16. 42. 4. 60. 22. 48. 19. 20. 54. 50. 41. 10. 15. 16.
      11. 3.45000000e+01 54. 42. 9. 43. 54. 24.</_>
    <_>
      16. 35. 3. 36. 21. 19. 29. 23. 14. 30. 3. 29. 3. 42. 9. 35. 60.
      38. 51. 26. 7. 39. 46. 47. 58. 24. 5. 33. 56. 60. 49. 46. 54. 21.
      28. 53. 25. 37. 3. 38. 56. 13. 21. 29. 60. 40. 34. 55. 18.
      5.85000000e+01 21. 35. 59. 16. 5.85000000e+01 4.50000000e+00 45.
      14. 12. 45. 5. 11. 21. 37.</_></uncompressed_support_vectors>
  <decision_functions>
    <_>
      <sv_count>1</sv_count>
      <rho>-6.0314769178636396e-01</rho>
      <alpha>
        1.</alpha>
      <index>
        0</index></_></decision_functions></opencv_ml_svm>
</opencv_storage>
